<?xml version="1.0" encoding="UTF-8"?>
<!-- This file was created by ACADEMIC version of SMILE -->
<smile version="1.0" id="Unnamed" numsamples="10000" discsamples="10000">
	<nodes>
		<cpt id="U1">
			<state id="State0" />
			<state id="State1" />
			<state id="State2" />
			<state id="State3" />
			<state id="State4" />
			<state id="State5" />
			<state id="State6" />
			<state id="State7" />
			<state id="State8" />
			<state id="State9" />
			<probabilities>0.1916048234960879 0.06724346768437459 0.5593277022616906 0.01759551937374989 0.0003593230096940037 2.456368006089303e-17 0.03388896548952065 2.036120750858347e-21 0.1299789958466063 1.202838275867989e-06</probabilities>
		</cpt>
		<cpt id="X">
			<state id="State0" />
			<state id="State1" />
			<state id="State2" />
			<state id="State3" />
			<parents>U1</parents>
			<probabilities>5.770605225734605e-31 0.9995104637892364 1.056181186045484e-05 0.0004789743989033648 0.9999999999997489 4.538295416691667e-67 1.590216466219299e-80 2.511502889186572e-13 1.0381331718402e-28 0.9999991891611687 1.921159647177472e-106 8.108388313366284e-07 0.9745707592212016 1.638561224016226e-15 1.621228271409728e-15 0.0254292407787952 0.8690379546655362 1.324760090283175e-08 0.1008284822919555 0.03013354979490746 1.417168030112389e-07 6.318718770893432e-09 4.117801448109973e-07 0.9999994401843334 0.001308744282437768 0.2141170769422525 0.7832898817455701 0.001284297029739577 0.02533786002698415 8.186111847004258e-05 0.9745672161835601 1.306267098563654e-05 0.3070225864622264 0.5989474138124543 1.509637258587815e-06 0.09402849008806057 0.0001008829123554217 0.04030425754660842 5.230121447018979e-231 0.9595948595410363</probabilities>
		</cpt>
		<cpt id="V1">
			<state id="State0" />
			<state id="State1" />
			<state id="State2" />
			<state id="State3" />
			<parents>X</parents>
			<probabilities>0.9926369424531096 0.005490019042450655 1.115962865246091e-05 0.001861878875787261 0.007017544353121807 0.9926369424531096 0.0002724862084611094 7.302698530746167e-05 0.006297238013858082 0.0004148423084462745 0.9926369424531096 0.0006509772245860209 0.0004349383443070132 0.001471508301919226 0.005456610900664139 0.9926369424531096</probabilities>
		</cpt>
		<cpt id="U2">
			<state id="State0" />
			<state id="State1" />
			<state id="State2" />
			<state id="State3" />
			<state id="State4" />
			<state id="State5" />
			<state id="State6" />
			<state id="State7" />
			<state id="State8" />
			<state id="State9" />
			<probabilities>0.9846330299388648 7.006928290139217e-141 0.01390794857660042 7.332657246026776e-19 5.171684489249614e-11 0.001323232030651678 0.0001357851535133439 1.046475997826347e-10 3.6920497730661e-10 3.774800162793351e-09</probabilities>
		</cpt>
		<cpt id="V2">
			<state id="State0" />
			<state id="State1" />
			<state id="State2" />
			<state id="State3" />
			<parents>V1 U1 U2</parents>
			<probabilities>0.9963858868962754 0.00240263357517672 0.0006095543737419676 0.0006019251548059619 0.005929540433265454 0.9919330167440711 0.001614562429017509 0.0005228803936459924 0.002763112310562199 0.0009436184264164133 0.9962526083584273 4.066090459403822e-05 0.002125380006872089 0.0002283510695212631 0.0004300641388876467 0.997216204784719 0.9931788097720401 0.001726230089396504 0.004123577357022408 0.0009713827815409463 0.001689486805946045 0.9968005338808779 0.0009469217711418625 0.0005630575420342209 0.001567239441470854 0.0003960462718392623 0.004149919478289666 0.9938867948084003 0.002223385311423247 0.000461542281826006 0.9968267871834248 0.0004882852233260213 0.9994650663330948 0.0004793942207285434 3.164847426112457e-06 5.237459875048268e-05 0.001941271137125491 0.0003118373308053304 0.9974591249970112 0.0002877665350580272 0.0002304105571611592 0.999297936078015 5.339320048662129e-05 0.0004182601643372805 0.0006115384608259678 5.666333176534634e-05 4.253315565220915e-05 0.9992892650517565 0.9967450363319099 0.001384371561569734 0.0008841607124268267 0.0009864313940935261 0.0003796225417775838 0.0006046525151385064 0.9988898262143742 0.0001258987287097885 0.006979223935490338 0.0002040039932306456 0.0002205037774315692 0.9925962682938474 0.002093052542761795 0.9975497211032641 0.0003288058153091972 2.842053866483558e-05 0.9981758589430937 0.001507150504567085 0.0002608947153896029 5.609583694959262e-05 0.001727160040509983 0.00280448542218702 0.0003486527588975495 0.9951197017784055 0.004897665438483736 0.9947740914999043 0.0002022949895662032 0.000125948072045756 0.002060932313620177 0.0001055526693907396 0.9972696545784731 0.0005638604385159915 0.9996593602848648 5.379746448132107e-05 4.509377670751448e-05 0.0002417484739463304 0.008354759301670213 0.0005905047831299506 0.0004753402589349888 0.9905793956562648 0.00339491447600908 0.000649473158021536 0.9957540300427894 0.0002015823231799397 0.0009897986531510463 0.9989251157057729 4.508241422023632e-05 4.000322685576167e-05 0.0006705457352947595 0.00134968801609234 0.002937874347734964 0.9950418919008779 0.005528011513348969 0.001273319068267103 0.9930848251015536 0.0001138443168303314 0.004122683594397089 0.9927456802351057 0.0002992474713820277 0.002832388699115214 0.9992651682483691 0.0002428318793894106 0.0003075321330251795 0.000184467739216332 1.673842599473426e-05 0.00132141212962541 0.002654727401548824 0.996007122042831 0.00193167630487745 0.001761183659646769 0.9909712444720712 0.005335895563404561 0.9919793416508165 0.001696517981681843 0.005419601617404786 0.0009045387500968873 0.0006040000713155289 0.9900388448867902 0.003073429326597323 0.006283725715297001 0.000254916006394734 0.0001234165342785001 8.724796381521241e-05 0.9995344194955116 0.00478318666434079 0.9917736653047875 0.0006674048654315095 0.00277574316544018 0.004355294778662254 0.000310228914856549 0.9953019595988237 3.251670765748113e-05 0.9971323026267719 0.001074170678703396 0.000290246616020181 0.001503280078504489 0.001004083565317579 3.053344956231967e-05 0.002161703852069452 0.9968036791330507 0.003237959443668334 0.9945873860359125 9.899049901846359e-05 0.002075664021400754 0.9987877548033435 0.0009832287872049378 0.0001956527090524692 3.336370039908813e-05 0.003995302796204401 0.001700158146196571 0.9929342700827524 0.001370268974846629 0.001143706371633839 0.0006200110364892129 0.00271613075264796 0.995520151839229 0.9963065099887797 0.001804443987239467 0.0003228765700371767 0.001566169453943733 0.002202745353194144 0.001494404181706899 0.9929468615916802 0.003355988873418687 0.003331973312641439 0.9921278039709498 0.001491252428670776 0.003048970287738035 0.001613171670448235 0.002737422910610249 0.0009991139895598636 0.9946502914293817 0.9905897336145676 0.005563837890044051 0.0004895025974855124 0.003356925897902894 0.003068681735551538 0.9939027628480763 0.002759336439428472 0.000269218976943647 0.0002135309540138879 0.003785381500344832 0.9954755820491146 0.0005255054965266773 0.9992155273178667 0.0006146411720138695 0.0001449326751973531 2.489883492213889e-05 0.009012978720719895 0.9907828407443484 0.000157161888135606 4.701864679606239e-05 0.001629661452467503 0.0001906126201411343 0.997738986334518 0.000440739592873443 0.0003893385594126353 0.0002394791201972095 0.0001287709292535417 0.9992424113911366 0.9994367841554908 0.0002533984709708029 8.011046478172696e-05 0.0002297069087567584 0.003107145600461609 0.9955404346652426 0.0005960191114713706 0.0007564006228244234 0.0003588062224192176 0.0002713760382857322 0.0001837043426776456 0.9991861133966174 0.008400126584344752 0.0001669125066952705 0.9912526412821412 0.0001803196268188262 0.9921271145955395 0.007812520087397898 4.77593869886083e-05 1.260593007403319e-05 0.001538494181329977 7.278304400295673e-05 0.9980263676834066 0.000362355091260536 0.001138527503289995 0.9985212506958108 0.0002837491499610841 5.647265093816379e-05 0.004669872602572627 0.0005676106475989921 0.001168652968303688 0.9935938637815247 0.9900829126408862 0.009741950731400349 3.777209631372781e-05 0.0001373645313997309 0.001048214328596387 0.005463782217896626 0.9926572289698382 0.0008307744836687867 0.006208322659943978 0.002054019069798004 0.0002957389072375991 0.9914419193630204 0.003675925594467821 0.9955441542310097 0.0006416793222371984 0.0001382408522852657 0.9949833272283921 0.002915143514900251 0.0001062787475306785 0.001995250509176915 0.005187568059305791 0.001208030231174339 0.0003725569124049582 0.9932318447971149 0.00135915927002003 0.9977617697342779 0.0006289084920123368 0.0002501625036897305 0.004236642817556712 0.001068854144351675 0.9944822995905371 0.0002122034475544768 0.9941338431506387 0.002074690799794497 0.0002186472914483321 0.003572818758118447 0.005784059907399199 0.0008718296303275804 0.001765747002530731 0.9915783634597425 0.002074634630126938 0.0008042270685242464 0.9964476366778305 0.0006735016235182708 0.002939956634143628 0.9944484384293211 0.000156566979372993 0.00245503795716236 0.003277640402082697 0.002291345889062104 0.001610973561250208 0.9928200401476049 0.002854081363124258 0.0003334239441272479 0.9963321477906997 0.0004803469020488029 0.0008129325795460086 0.9980729863194661 3.703196838794118e-05 0.001077049132600035 0.9900790554064163 0.004854483272055748 0.003255274778849812 0.001811186542678219 0.001107122686177241 6.787685654721098e-05 0.002668382827213408 0.9961566176300621 0.002549103641135275 0.00117638883602358 0.9960100354855728 0.0002644720372684281 0.9997233577463633 0.0002652634825234069 3.235150729390027e-06 8.143620383911641e-06 0.0004960829194267955 0.9965656146393245 0.001148170783248746 0.001790131657999939 0.001060807701549244 0.0008746029752132954 1.814873174054495e-05 0.9980464405914969 0.001416590868330783 0.9973074192677696 0.0006883162278696447 0.0005876736360299978 1.163155316877054e-05 8.527952662148535e-05 0.9998135945052246 8.949441498513982e-05 0.9937886784913296 0.003537816092305666 0.0002163040073385946 0.002457201409026119 0.008679149019278572 0.0001086344594660761 5.978173359685351e-05 0.9911524347876585 0.00820727675090252 0.9912241759144527 0.0005384216742432881 3.012566040158009e-05 0.9981433943286203 0.001262409542543539 0.0003443881416848428 0.0002498079871513404 0.0003758860966212896 2.833298386619629e-05 0.9994827334932004 0.0001130474263121837 0.0005003378193250017 0.0004269360011280232 0.003505698218789619 0.9955670279607574 0.9938429033241025 0.00187248064390516 0.003324534039570114 0.0009600819924222006 0.002880472083156426 0.002259624433878142 0.9946882788170363 0.0001716246659292176 0.002074374229833924 0.9927582859590525 0.002433714957261616 0.002733624853851939 0.002989069551580678 0.0002151665933708751 0.001033724877732024 0.9957620389773164 0.9922769676826184 0.001732689224812814 0.005407447490495091 0.0005828956020737259 0.000598641640715346 0.9915519242283192 0.00342840910321155 0.004421025027753933 4.123673952210104e-05 1.458861156305652e-05 0.9997695866261802 0.0001745880227345858 0.9991224161429193 0.0006759179489004057 0.0001785846698218855 2.30812383584526e-05 0.001238175184273321 0.9980304277594921 0.0004529644470141521 0.000278432609220387 0.0001835075626534911 0.004181843412146006 0.9947744277757181 0.0008602212494824082 0.0006168816137779651 0.001578828285750345 0.001726048376501857 0.9960782417239699 0.9908821351025456 0.0008219032176946309 0.00273751183610889 0.005558449843650878 0.0002650678374877634 0.9996377395083891 8.748553495432696e-05 9.707119168863613e-06 0.008520958861209861 0.000293943394318258 0.0001769944210293468 0.9910081033234426 0.001600208699752693 5.368595774600534e-05 0.9982394998923888 0.0001066054501124629 0.992998186119893 0.004792442075794334 0.001865751544986709 0.00034362025932595 6.178195199404784e-05 0.0001383514742525545 0.9997316715501525 6.819502360092119e-05 0.004009881902927181 0.9930755501923734 0.0002366121752536699 0.002677955729445806 0.0006223143624887058 0.001169794005077778 0.0001004061594693886 0.9981074854729641 0.9939634596538447 0.005386414895644287 0.0005314744327436398 0.0001186510177674292 0.004094221599764383 0.002581540148268249 0.9918071893970528 0.001517048854914584 0.006886120126403878 0.001820368283049412 0.0003486620140572075 0.9909448495764895 0.0005797003789536109 0.9980697210024414 0.0006756781528072146 0.0006749004657977644 0.991125734146199 0.003325581941962574 0.001157762444085652 0.004390921467752778 0.001211471985912398 0.004781678601969661 0.001345985955106623 0.9926608634570113 0.000865853856191347 0.992886704506423 0.004987618318465817 0.001259823318919766 0.0005741519247469192 0.001822104602440012 0.9943495316878807 0.003254211784932418 0.9977742955344132 0.002124790491478043 7.709091789900138e-05 2.382305620968795e-05 0.00539342781317762 0.001495055122730886 0.001229803000486946 0.9918817140636046 0.005012825961741332 0.0003491457520078686 0.9946276507801147 1.037750613607218e-05 0.002285843518103191 0.9940561847554594 0.002789007500821174 0.0008689642256162417 0.00379588903784731 0.0002738840948370688 0.0006604806740917147 0.9952697461932239 0.0007954433197317148 1.44921218665903e-05 0.9990295608028052 0.0001605037555963895 0.0007563213184795061 0.9989832191569521 0.0001627951199491157 9.766440461928238e-05 0.9965970955248137 0.002088942452345801 0.0007541978416571413 0.0005597641811834181 0.001546604339339574 0.000337641947690778 0.001315919057624503 0.9967998346553452 0.00279865304368448 0.0002185989604513278 0.9969509888274904 3.175916837369359e-05 0.9987861054301338 0.0002446928890316363 0.000421792446962739 0.0005474092338718775 0.004802921814810745 0.990330347122598 0.003464392974176663 0.001402338088414579 0.003677117015860571 0.001081888683039372 0.0008587972682812743 0.9943821970328188 0.005921182500853101 0.9917229441214156 0.001553984622706828 0.0008018887550245053 0.0004839774629138139 1.044902134778652e-05 0.9993370195111909 0.0001685540045474403 0.991796852464537 0.0008133205020057545 0.004172410560545486 0.003217416472911757 0.001442032031654245 0.003106457184900623 0.001963567960592259 0.9934879428228529 2.901474028308718e-05 0.9957701408913796 0.002910307965957098 0.001290536402380164 0.993819822725272 0.00522251834935047 0.0006053525866739752 0.000352306338703481 1.250818291905899e-05 0.002189934822993575 0.9925902066293633 0.005207350364724063 0.003029493434192786 0.005648810280206847 0.001103789211012522 0.9902179070745879 0.9929545772891495 0.0006563159064454344 0.005557836285638212 0.0008312705187668345 3.594847211695252e-05 0.0001069273208381795 0.9996155704217965 0.0002415537852483392 0.002885770963191349 0.9923299177020761 0.003005221395018478 0.001779089939714046 0.001041677408120098 0.001396529408863894 0.002244460743336344 0.9953173324396797 0.9909747831024424 0.006346924655335141 0.000520680469837883 0.002157611772384611 0.002402465313677482 0.9921787754949609 0.00114355590236596 0.004275203288995598 0.0001868127208980923 7.00009530536315e-05 0.9994578969454442 0.0002852893806041332 0.9964817319955133 0.0003107822836329865 0.0009515190064207981 0.00225596671443298 0.0005012126183877146 0.9986559268177074 0.0006435499543881368 0.0001993106095167663 0.001637083319833706 0.001070752634970033 0.9967606961504222 0.000531467894774065 0.003305707704393122 0.0005605612143745965 0.002792049869632318 0.9933416812115999 0.9972898356016895 0.0007124162548815207 0.0008135605298793019 0.001184187613549739 0.006912193487584575 0.992553737265679 0.0002377476402020706 0.0002963216065343809 0.0003237385644879168 0.005682075133845008 0.000928534505390659 0.9930656517962764 0.003597828007668592 0.001514498866808431 0.9939026036299966 0.0009850694955264193 0.9980047683026955 0.0003811322017624605 0.001054390150310769 0.0005597093452313238 0.002247285074929788 0.001894817739388043 0.99014007410536 0.005717823080322142 0.0008173056387841893 0.9937331469451235 0.00361306674049838 0.001836480675593952 0.000204772663328184 0.006453125760266428 6.852150543224227e-05 0.9932735800709731 0.9949770533042416 0.0003136071651826567 0.004194883362645471 0.0005144561679302512 0.00817278723639951 0.0006238078383155725 0.9900352948821715 0.00116811004311341 0.0008704502617674215 0.003827368604316319 0.001954901350010473 0.9933472797839058 0.002852652077168841 0.9939173168558466 0.003181656984178576 4.837408280593258e-05 0.9987450182455513 0.0001204373755103577 0.0005802526036318907 0.0005542917753064833 0.001380371697929051 4.907712088864933e-05 6.206799974122062e-06 0.9985643443812082 0.0004774250482466194 0.9978523020142342 0.0008088830690348739 0.0008613898684842817 0.004176248711181109 0.0007520526600900056 0.9939164226073506 0.001155276021378322 0.9961284744378194 0.003462847523558608 0.0002424330297509948 0.000166245008871034 7.871864747666874e-05 1.326883166752543e-05 4.024790669130595e-06 0.9999039877301866 0.004487069819639746 0.001071607904051491 0.9938171000472017 0.0006242222291070127 0.0004523874831189054 0.9955179920812003 0.00375655195696436 0.0002730684787164827 0.003333836506019178 0.003206249910006497 0.001004361107080816 0.9924555524768935 0.0009116943485075345 0.0005757065261802976 0.9980985243190438 0.0004140748062683952 0.0005096907901185796 0.9960593155073447 0.001178131493056957 0.002252862209479773 0.9995572159338393 0.0002441624674616738 3.609876595948978e-05 0.0001625228327395216 0.001950535424241917 0.0008489088906675364 0.004031725461586067 0.9931688302235044 0.00333930691279532 0.001231398350989512 0.9953348070079897 9.448772822542384e-05 0.9904604630291558 0.001742883537218435 0.0009504641401370426 0.006846189293488755 0.001105137676508329 0.9953968639789823 0.000764301334848573 0.002733697009660808 0.0004094474216819591 0.000173209366527761 0.0002839114581557488 0.9991334317536346 0.003973610913377993 0.994217832377424 0.001153450970058166 0.0006551057391398294 0.0008507465551186569 0.002955281951695428 0.9960778751987215 0.0001160962944644598 0.9939659536797073 0.004793473643152611 0.001006688452327804 0.0002338842248123115 0.0001880397543090422 4.903696202855066e-05 2.367056788309664e-06 0.9997605562268741 0.001088417801400352 0.9985302795654331 0.0003092259330978141 7.207670006880118e-05 0.9920626973965593 0.006474313463439569 0.0007229851953346073 0.0007400039446665358 0.0008918649222471719 0.006488138423549316 0.9923105729262853 0.0003094237279182184 0.001084092093561571 0.00157554603678992 0.006393567242334708 0.9909467946273138 0.9943023392245472 0.004746123981442306 0.000162525299421834 0.0007890114945886294 0.003466777695513645 0.0001852566109870752 0.9950147922857202 0.001333173407779084 0.001125096383762781 0.9972670414003334 0.001257830395158805 0.0003500318207450223 0.002641984819586236 0.0002815259083924665 0.001983329013658633 0.9950931602583627 0.9938145379720317 0.002290983899234971 0.002948135886322933 0.0009463422424104257 0.005320023581126679 0.9903905109308436 0.001500724591857376 0.002788740896172353 0.006940081201062536 0.000343260550058804 0.9900480904464376 0.002668567802441082 0.9929223141154658 0.002975887638934277 0.001165435831072717 0.002936362414527154 0.001132846225146008 0.9947617686259513 0.00293476921841167 0.001170615930491017 0.0007980362576176717 0.0001974253374293406 0.9981376704607815 0.0008668679441714802 0.001611043778924413 0.002132143394728993 0.002175874320406268 0.9940809385059404 0.9926991460478123 0.001646377151363141 0.004816392441492017 0.0008380843593325639 0.0003637121901092775 0.9908429887739534 0.0001222906420933119 0.008671008393844075 0.006744013338716036 0.0008119323688591846 0.0001282467396660018 0.9923158075527587 0.002567480018779053 0.001048160517631624 0.995813305735702 0.0005710537278872871 0.9993494824894639 0.0001515554683167221 5.345509276424397e-05 0.0004455069494551167 0.0006425072780958707 0.002890592098388339 0.9934042391593295 0.003062661464186222 0.002372615006853662 0.9938723206187579 0.0002646941056037554 0.003490370268784761 0.0009451248935681321 0.003482257138663141 3.649329332036308e-05 0.9955361246744484 0.9916879496948924 0.002568709914141202 0.0004011636030858297 0.005342176787880619 0.003078595436005509 0.001622203985484943 0.9904514658853509 0.004847734693158622 0.005094788209073022 0.0008798044435443946 0.0008596718483450306 0.9931657354990375 0.006808515958926366 0.9911475146777333 0.0003398413492268471 0.001704128014113411 0.998428079212077 0.000170413887459429 0.0007208116580651453 0.0006806952423984715 0.001386426612003091 0.0004337398857399039 1.462873595932374e-05 0.9981652047662977 0.002352182162506277 0.9915946447190291 0.003488140725303748 0.002565032393160789 0.001448395991854659 1.373848883337314e-05 0.9984923453806229 4.55201386890595e-05 0.99716275608734 0.002595803670469945 0.000114314362091993 0.0001271258800981177 0.0004397369879049975 0.0001883551875669304 0.0007384211805626663 0.9986334866439655 0.001453913389571465 0.004866169495750597 0.9931863721860036 0.0004935449286743348 0.0001080939134990697 0.991968800402043 0.006570301297041427 0.001352804387416504 0.001434891171154797 9.005527509088261e-07 0.0004595088118741342 0.9981046994642202 0.001925538708271445 0.001741714567011067 0.9962676070524102 6.513967230727981e-05 0.001062826137855279 0.9936553666209024 0.001639235553249243 0.003642571687993056 0.994563797512699 0.001278041231847019 0.003678899871738757 0.000479261383715283 0.000953211139792835 0.0009819495326735532 0.0005467770706998421 0.9975180622568338 0.0009018798591774441 0.000483100276079918 0.9979963835661739 0.0006186362985687113 0.9938432859661278 0.003364866236815436 0.001255970874296769 0.001535876922759961 0.00139670886336837 0.9954857838229075 0.001343198927502357 0.001774308386221706 0.0004117854073738093 0.007612568029149025 0.00158467635388356 0.9903909702095937 0.00627761696255 0.9922871432702223 0.001270742760861803 0.0001644970063659455 0.002050465039776937 0.0006619405362214842 0.9951892619799435 0.002098332444058046 0.9930683680252088 0.001667137500801582 0.003667225942464783 0.001597268531524861 0.001509894182433659 0.0008046119166720947 0.006912686000603272 0.990772807900291 0.003811127752961368 0.9913084608954154 0.00118886956401799 0.003691541787605304 0.9979552069439958 0.001158703509569425 0.0001636073498539867 0.0007224821965808497 0.005381684412094066 0.001299715524986771 0.9919244946296638 0.001394105433255367 0.0001820552220849481 0.000693814944106422 5.186906743762901e-05 0.999072260766371 0.9956473590302646 0.0009666160863658983 7.256850861817294e-05 0.003313456374751343 0.00428183184488891 0.0005679698696808525 0.9937284798439081 0.001421718441522165 0.005268914779485212 0.9919763049860748 0.001650646804563185 0.00110413342987684 0.003102310380523483 0.000118808072237918 0.0001724555557510535 0.9966064259914875 0.9918877192325085 0.002265332005670944 0.004519356561220174 0.001327592200600395 1.071610676066397e-05 0.9995029387260097 0.0001888194250136932 0.0002975257422159574 1.679059079282637e-05 7.34216368182583e-05 0.9998623855939798 4.740217840912537e-05 0.9997996616651095 8.148786742383189e-05 5.400331651557671e-05 6.48471509511366e-05 0.004141939216684611 0.9934468300630293 0.001928796701207876 0.0004824340190782237 0.001340969755646992 0.0002532751085636245 0.9981755777182493 0.0002301774175401041 0.0009483628767204615 1.152919306870419e-05 7.253955255343869e-05 0.9989675683776574 0.9979365236460954 0.001023263913280662 0.0009200013066921943 0.0001202111339317285 0.0003040939554547261 0.9931459160350351 0.00403188636707546 0.002518103642434655 0.002438853905472346 0.001621242474659246 0.002391884080741245 0.9935480195391272 0.001397495528380816 0.005062300631141692 0.9911318016574052 0.002408402183072261 0.9993098511167111 0.0006425977743999469 1.329148980005143e-07 4.741819399098613e-05 0.005864490817434944 0.0002762031903845255 0.9933139531753689 0.0005453528168116776 0.003388592377524215 0.9924896187017289 0.0009121207711499366 0.003209668149596913 0.003206624117696119 0.003389733222643375 0.00160217516867137 0.9918014674909892 0.9960216500637671 0.002098688374722633 0.0002997521065233188 0.001579909454986969 0.0007844748125865671 0.0002930324004247373 0.9975760124249282 0.001346480362060514 0.003675495717563532 0.004877020743279069 7.666269999743059e-05 0.9913708208391599 0.0007041053376220161 0.9983533240332642 0.0004218260061940954 0.0005207446229197286 0.9990261865378136 0.0003581875341110124 0.0002956862103477445 0.000319939717727669 0.0004231672044501736 0.001363980114651088 0.0008382370266280864 0.9973746156542707 0.004675563208153361 0.9909034758070796 0.003605013761727066 0.0008159472230400201 0.0007685661834351436 0.0009338738428127318 0.9937866071328972 0.004510952840854856 0.9963297365160378 0.002317141465847186 0.001304786211895746 4.833580621922554e-05 0.003860850899010386 0.0002986911165720395 0.0001163879482905763 0.995724070036127 0.002044410607756493 0.00149623790273703 0.9958261771151936 0.0006331743743128902 0.00164040708191204 0.9973472258281302 0.0007066248735343799 0.000305742216423367 0.0004032577003105392 0.0007325607574637788 9.690789859238987e-05 0.9987672736436333 0.001319177026053044 1.192000880245107e-05 0.9979116040782769 0.0007572988868675501 0.0006026093581827427 0.9921915534506313 0.003718106587166998 0.003487730604019037 0.9901735735580874 0.001214850453189419 0.005026718145316984 0.003584857843406189 0.003409613951165616 0.0006958865276604439 0.001428474925749468 0.9944660245954244 0.005198897547854611 0.002163593320110473 0.9902698757673135 0.002367633364721442 0.9971726266093538 0.0003902727122864283 0.002321954006136616 0.0001151466722231634 9.175698907893324e-05 0.9921540992827667 0.00549220162580212 0.002261942102352313 0.002315822129135162 0.002043628813018256 0.0001727942384894821 0.9954677548193571 0.004342912811581976 0.9931661838693235 0.0008068156265507087 0.001684087692543797 0.000722549970659946 0.00241822069518905 0.9968171042315251 4.212510262585753e-05 0.9928300669814909 0.006734450968736087 0.0003819970371039953 5.348501266897783e-05 0.004597415857245618 0.001277592449773276 0.001218967825716404 0.9929060238672647 0.000314596734855323 0.9969898273681665 0.0003377437901495366 0.002357832106828609 0.9987919577186949 2.617704698459121e-05 0.0004310440017679513 0.0007508212325525347 0.001695179402800225 9.019894752742462e-05 0.9981882299066891 2.639174298328949e-05 0.005405496350469552 0.0002660370165957749 0.00157512089886781 0.9927533457340668 0.9904765060998288 0.002865061567866433 0.0006042640563412698 0.006054168275963413 0.0002007018445547315 2.877839342297678e-06 0.9995844879825856 0.0002119323335173353 0.001826253241406515 0.9929853820561897 0.003960931272313614 0.00122743343009016 0.002561669916126283 0.0003339738217898001 0.0006315361716726839 0.9964728200904113 0.9977409336553884 0.001657111679691053 3.758616712139488e-05 0.0005643684977991207 0.005073332174295769 0.9914650756291531 0.0003782272842883461 0.003083364912262759 0.00859696079351688 0.0002117308618099853 0.9909858690508855 0.0002054392937876395 0.9978129312648468 0.001459718078392704 7.964084598876952e-05 0.0006477098107716745 0.0008391317733338232 0.9983052818203889 0.0001898871060342818 0.0006656993002429538 0.005685084935555956 0.0001793816734254859 0.9940244909831911 0.0001110424078273901 0.0005311663670418025 0.00192668096736586 0.002532781600658459 0.9950093710649339 0.9916515150615978 0.004895667076176483 0.001096740642339136 0.002356077219886596 0.00471544800485259 0.9933298045169192 0.0002018866015864479 0.001752860876641788 0.003422198801393658 0.0008838439096348059 0.0007706105170458195 0.9949233467719257 0.001828753891905115 0.0009609500225528271 0.9961882446334684 0.001022051452073645 0.997542225946692 0.0008124900937799271 0.001136197552471031 0.0005090864070571104 0.001066614015491706 0.0009377444700218177 0.9968437130217195 0.001151928492766977 0.00428827742832585 0.9951839433104028 0.0004016156814006732 0.0001261635798707028 0.0003743734352610012 0.0005994393429529272 0.004385062530373831 0.9946411246914122 0.9950417696849297 0.002764453209155847 0.001074847665888524 0.001118929440025888 0.001460853089092592 2.326123455947811e-05 0.9979727311178992 0.0005431545584487496 0.007240363560915948 0.0006909233821959284 0.001228476831275049 0.9908402362256131 0.004114456107198732 0.992640997401119 0.003053711339943124 0.0001908351517391342 0.9969413404581949 0.001165233345024437 0.00172624891702986 0.0001671772797507735 0.001437065992427284 0.0006895902422327171 0.006018582805310311 0.9918547609600297 0.001634412010581919 0.9975819629116962 0.0001117976147842741 0.0006718274629375954 0.002856200062952804 0.00126462242987381 0.9934920542064883 0.002387123300685047 0.9960798191810158 0.002732288176595349 0.000857532243297833 0.0003303603990910034 0.004698480971971685 0.001014372764432713 0.004115210535517933 0.9901719357280777 0.004627123202640589 0.002358466062228363 0.991085889261013 0.00192852147411798 0.002699527311096275 0.9951982719824766 0.001787165534706831 0.0003150351717203009 0.0004908623344484717 0.0009224137329322185 0.0002393313076542867 0.998347392624965 0.00201159279472446 5.380284138962293e-05 0.9952264725325111 0.002708131831374861 0.005036923612669933 0.9931125234761199 0.0005520891644985949 0.001298463746711541 0.9955252396068286 0.004446175732648617 1.499990416859964e-05 1.358475635424241e-05 0.001974493923659095 0.003960888233212057 0.001717979683955673 0.9923466381591731 0.007837430987206585 0.0004540334617093427 0.9903977706024573 0.001310764948626759 0.9981830022575578 0.0006606072772357882 0.0004442692136459142 0.0007121212515604469 0.0005069400553931008 0.9941096568014363 0.005186851765001874 0.000196551378168785 0.006624906671372987 0.0009117888693274746 0.0003899642602806753 0.9920733401990188 0.0003564790615952617 0.9985892282002703 0.0005523695036607488 0.0005019232344736805 8.236251286063708e-05 0.003039141732483552 0.9927073121748751 0.004171183579780753 0.9905162846542269 0.001252101432520875 0.003265276358246847 0.004966337555005344 0.006198745450191199 0.001279631137763736 0.0005693207506435227 0.9919523026614016 0.007553669655920702 0.9916780273922787 0.0003517647621623744 0.0004165381896381809 0.9979779055945925 0.0004155740868714609 0.001412511283222518 0.0001940090353135348 0.000463244848822696 0.001465851840131727 0.9970319096658699 0.001038993645175759 0.001493677969324659 2.820023558246258e-05 0.003804819688529445 0.9946733021065635 0.9952716827103547 0.002810360539587569 0.0002257784822044194 0.001692178267853259 0.0001615680742891924 0.004745357151421643 0.9947200470583983 0.000373027715890829 0.001150614056557818 0.9976675577177666 0.0006188199077432299 0.0005630083179323332 0.0009391748480882245 0.006232784529336537 0.001406176409136973 0.9914218642134383 0.9915539201742536 0.006683932716315141 0.001306583331638141 0.0004555637777931114 0.007984525225484465 0.9913768572318351 9.587203579615912e-05 0.0005427455068842183 0.007647040726882654 0.0002493786718885102 0.9903727942589763 0.001730786342252509 0.9939568626147948 0.005852829413930458 5.06441313442515e-05 0.0001396638399305719 0.003948077039950228 0.9933141939202368 0.002015231185032532 0.0007224978547804382 0.004461836524585421 0.0003067402254162468 0.9952274497436199 3.973506378455983e-06 0.0007524285648999455 0.002430705440046973 0.002445830556500209 0.9943710354385529 0.9935294676974988 0.001019676413816266 0.0008831069029844407 0.004567748985700411 0.002431992997705464 0.9972942547244037 0.0001410568581763436 0.0001326954197145151 0.00628178803233418 0.0001305802869077744 5.393751401368965e-05 0.9935336941667443 0.002353332773026956 0.002011227472625765 0.9954795076060667 0.0001559321482805182 0.9924648461037661 0.004665744436629827 0.0003820339046825145 0.002487375554921596 0.002369858557910021 0.002658837115330331 0.9941494449163248 0.00082185941043486 0.007600870154713011 0.991292763303349 0.0002151232492194481 0.0008912432927184536 1.040563803351019e-05 0.0007906044152890875 0.000819302042973446 0.9983796879037039 0.997379032960083 2.909309833833106e-05 0.001937863901231664 0.0006540100403470473 0.0001240291121222169 0.008073559380763566 0.9905971998699038 0.001205211637210437 0.001932734924318237 0.0005837505219125547 0.001426311689570743 0.9960572028641985 0.001371666915955643 0.994632025428518 0.002917330078402322 0.001078977577124001 0.9962083210981733 0.0008175100115028622 0.0006264014602950732 0.002347767430028772 0.003894917343768631 0.0002223776672804016 0.0001009133804298563 0.9957817916085211 0.005335776714355965 0.9929985564567139 0.0008527344887527716 0.0008129323401773974 9.897755551742027e-05 8.773086522486284e-05 0.9998053584185226 7.933160735114082e-06 0.9918929490995365 0.003802614535735168 0.002593794735100981 0.001710641629627325 0.003855474075894886 0.002565963596611424 0.001123490482558198 0.9924550718449355 0.002591254384409902 0.0003911907136107623 0.9965740632290897 0.0004434916728895805 0.001559842121940418 0.9972286112814251 0.0003878911945302691 0.0008236554021041492 0.003232357420089743 0.00076509896360966 0.005245350893840912 0.9907571927224597 0.007216553842735576 0.001255730987856007 0.9908537485143918 0.0006739666550166419 0.005252844651131472 0.9929703106723975 0.0005541930414903614 0.001222651634980681 0.9994479410090962 0.0002346906909290852 0.000311576954158798 5.791345815947763e-06 0.00505366084815801 9.01377691796478e-05 0.002686068377169106 0.9921701330054933 0.0008264159313325053 0.0001794392469778832 0.9985275264416537 0.0004666183800359181 0.9924181200384012 0.006477801954637978 0.0001361766839185943 0.0009679013230421594 0.0004843438383558995 0.991324323904624 0.007900911048706121 0.0002904212083139502 0.002984061429622849 0.0001692954376816497 0.001227615085500799 0.9956190280471947 6.6492369490218e-05 0.9990206041715982 2.629917523100613e-05 0.0008866042836805836 0.001550024975672306 0.004551717554687795 0.9916997621885307 0.002198495281109196 0.9930526800399492 0.003692572924334081 0.00235393497964989 0.0009008120560668243 0.002172026721410026 0.002868065032790566 0.001097501982235853 0.9938624062635636 0.001093194464181812 0.9935322651149341 0.005001380676479835 0.0003731597444042462 0.9998291860977258 0.0001080795312467812 2.887233030482313e-06 5.984713799701256e-05 0.003558753017981325 0.001823568194144719 0.9914457587882951 0.003171919999578876 0.005295226413865042 0.001810824941204561 0.002185414305996663 0.9907085343389337 0.9932654945419366 0.0005322293922883372 0.001117230061064967 0.005085046004710119 0.001073412170818273 0.002592499523176783 0.9961534143065232 0.0001806739994818173 0.006122513178768723 0.9910708716197503 0.00209513850185234 0.0007114766996286393 0.00021322485452025 0.001809134370717281 0.002415689233139767 0.9955619515416227 0.997799221652411 9.238599128119096e-06 0.001252667545958117 0.0009388722025027503 0.003227403186161055 0.9903313925605708 0.001842623407225253 0.004598580846042907 0.0005314181576451625 0.0003571496204242973 0.9990718991671997 3.953305473083728e-05 0.9903999231641105 0.009032491244050301 0.000509898487573807 5.768710426535639e-05 0.002169522854528482 0.9903226671539545 0.0003697625195213421 0.007138047471995767 0.004195066277571916 0.002233270722859354 0.9919369538097426 0.001634709189826146 0.001264896632190945 0.002229212252778169 0.000206623066500343 0.9962992680485305 0.9936346466968534 0.001760556779069033 0.0005143513935211023 0.00409044513055647 0.0006978709730422957 0.9982709053967481 0.0006617339820137617 0.0003694896481958497 0.0004479130080604863 5.985072074506331e-05 0.0002379622848059111 0.9992542739863886 0.004205834441832047 0.004638396121064201 0.9906705464266866 0.0004852230104171349 0.990222558533623 0.009339847569193276 7.674323171276259e-05 0.0003608506654709831 0.00135336334005614 0.001533380119823688 0.995207435390408 0.001905821149712198 0.001150521399799188 0.9947356785237436 0.002553757058764481 0.001560043017692731 0.00389809512443511 0.000162687790097756 0.0002384461700767275 0.9957007709153904 0.9956853650391749 0.002251578278681797 0.0004041936983477017 0.001658862983795535 0.007357419434899496 0.0005773317345484734 0.9903829079436887 0.001682340886863315 8.033001398386181e-05 0.0004601182065544914 1.722701639642169e-05 0.9994423247630653 0.001182413470660334 0.9984217174349433 8.949880280446931e-05 0.0003063702915917981</probabilities>
		</cpt>
		<cpt id="V3">
			<state id="State0" />
			<state id="State1" />
			<state id="State2" />
			<state id="State3" />
			<parents>V2</parents>
			<probabilities>0.9967673266203375 0.001604655875551494 0.001450537594723765 0.0001774799093872063 0.001846159210224833 0.9967673266203375 0.00127065846490652 0.0001158557045311123 0.0002180562165358175 0.0008232152793562681 0.9967673266203375 0.00219140188377038 0.003198574325795201 3.660150354467429e-06 3.043890351279706e-05 0.9967673266203375</probabilities>
		</cpt>
		<cpt id="U3">
			<state id="State0" />
			<state id="State1" />
			<state id="State2" />
			<state id="State3" />
			<state id="State4" />
			<state id="State5" />
			<state id="State6" />
			<state id="State7" />
			<state id="State8" />
			<state id="State9" />
			<probabilities>0.4648130877642413 0.0120352460036899 5.565833373593127e-08 0.0009133384676174931 4.686998457523154e-06 9.636083508956456e-13 0.07812711896493621 0.004487206601484044 0.08247370068156888 0.3571455588587075</probabilities>
		</cpt>
		<cpt id="V4">
			<state id="State0" />
			<state id="State1" />
			<state id="State2" />
			<state id="State3" />
			<parents>V3 U2 U3</parents>
			<probabilities>0.9950959637809743 0.001153873375120196 0.003341606078351194 0.0004085567655542572 0.0004858633462633235 0.9972419066218012 0.00130837382633842 0.0009638562055970571 0.004801624451776543 2.087839098884037e-06 0.9951734131865273 2.287452259725592e-05 0.00876715581736115 3.364992737651427e-05 0.0001347916928361847 0.9910644025624261 0.9938034589907394 0.0001876525174612427 0.00288042678534605 0.003128461706453345 0.0001151794016211278 0.9954166985837166 0.004197357206302203 0.0002707648083600097 0.0003854128219880355 0.001853045480096814 0.0006751082878781486 0.997086433410037 0.0007951867413167881 0.001608450162635218 0.996721406659598 0.0008749564364500014 0.9923609429302132 0.003007983035838806 0.001425218266609157 0.003205855767338861 0.006646308399996669 0.001414128452106261 0.9903751989387871 0.001564364209109975 0.003550262697797779 0.9941610342767531 0.001245124518426358 0.00104357850702283 0.001615825287286862 0.0002572798478521995 0.0002111413855834271 0.9979157534792775 0.9960853055591202 0.001232208844354251 0.0006980742252686716 0.001984411371256804 0.0002380341441645876 1.978656368725465e-05 0.9994304442711421 0.0003117350210060468 0.0002937619424479008 1.835474173084456e-05 0.0002321502676223048 0.9994557330481989 0.0007711806514989615 0.9992232035169603 1.749204755444574e-07 5.440911065186285e-06 0.9993153720109867 0.0001706451081423451 6.010201591861279e-05 0.0004538808649522711 6.761784328942017e-05 4.216989899695543e-05 8.545517188275524e-06 0.9998816667405254 0.005352091066794852 0.9927782852453644 0.0009853015262820024 0.0008843221615587151 0.004226302834560739 0.001364319667793462 0.9915453391791245 0.002864038318521298 0.9913399222313529 0.003677521846272964 0.003969689392990822 0.001012866529383255 0.0008111872502713899 0.005996009539531149 0.002772321787622795 0.9904204814225747 0.004365409358813771 0.000659255239665998 0.9945923015859741 0.0003830338155460922 0.0009769157608326981 0.9988729291221881 5.917257034465178e-05 9.098254663454441e-05 0.001754706834099011 0.0006325659571764683 0.001278000337865202 0.9963347268708593 0.006233317940542816 0.0002097683094162048 0.9926776650560201 0.0008792486940208898 0.001644738954241662 0.9922395296763636 9.958871007790583e-05 0.006016142659316785 0.9992432933355644 0.0004511083004140598 5.572887987442171e-05 0.0002498694841470888 0.0009084584255741717 0.005357809210134395 0.0002233193224815905 0.9935104130418099 0.001455067254840798 0.0004018993192958776 0.9972755669852309 0.000867466440632451 0.9938084602206709 0.0002589075594945753 0.001299740437042289 0.004632891782792208 0.001077928708081006 0.9971055594100312 0.0002638021043465827 0.001552709777541216 0.0006803885034365373 0.001384560177460585 0.007590898306124263 0.9903441530129786 0.001308800918976462 0.9984787544312288 1.617635150863361e-05 0.0001962682982861501 0.0003517664229980588 0.000548562455129553 0.9990026658084924 9.700531338004202e-05 0.9901251847396062 0.004281167122842962 0.004002188228990396 0.001591459908560496 0.0004965667218953543 1.567229162980652e-05 3.054828535504841e-06 0.9994847061579394 0.000180170160888486 0.9994540369623045 0.000344158728543164 2.163414826382491e-05 0.9912260637681221 0.007919722111182489 0.0005408707202294667 0.0003133434004659512 0.0004083084262789969 0.006080710217648479 0.9914609365503779 0.002050044805694646 0.001480057583441268 5.483645173534113e-06 0.001126224660872132 0.997388234110513 0.9912302669432945 0.002581626460618017 0.006046605870458129 0.0001415007256293753 0.0009233098141203928 3.062442758910919e-05 0.9956458137749299 0.003400251983360589 0.006603285420290249 0.9932108247421471 0.000117824449638536 6.806538792420866e-05 0.001597634666374742 0.003988017471099244 0.002004769955516796 0.9924095779070092 0.9938978807131933 0.001193727133404088 0.00403163789789266 0.0008767542555099591 0.0008789687276819341 0.9982295859182371 0.0004174954610893128 0.000473949892991672 4.965951850436154e-05 0.00596942044592045 0.9925193404527776 0.001461579582797644 0.9956195843610828 0.002743775359410839 0.001090856925550339 0.0005457833539561003 0.0003682699204177478 0.9964284381473651 0.0009867954712404498 0.002216496460976661 0.003810712386945185 0.002339371548547035 0.9934664545547541 0.0003834615097536688 0.0004935557885844814 9.015078333639994e-06 2.336191284291e-05 0.999474067220239 0.9924892505518377 0.001472433641949424 0.0004306172558187114 0.005607698550394181 0.001427260948857501 0.997966427890034 0.0005665333956871879 3.977776542137847e-05 0.006749978015692335 0.000259146547982688 0.002546452114457933 0.990444423321867 0.0004530066354278443 0.0001586560426837237 0.9989478420989122 0.0004404952229762277 0.993020811158111 0.001466027837138605 0.001493484536484778 0.004019676468265593 0.0004715499378680212 0.0003241866712578484 0.9983699618345611 0.0008343015563131056 1.449585649724334e-05 0.9999788115255682 1.43347949980624e-06 5.259138434682967e-06 0.001217878594291754 0.0006990522908322725 0.002040657734247199 0.9960424113806288 0.9968514455829224 0.001217613887348341 0.001072897107696253 0.0008580434220329838 0.001404749652601893 0.002459738139026989 0.9956675558910477 0.0004679563173234369 0.001939257871729404 0.0001560393662074219 0.001996157028140001 0.9959085457339232 8.51140496791963e-05 0.9947986503737772 0.004927374254248877 0.000188861322294699 0.9954088276642826 0.002591830666517516 0.0007355728735034816 0.001263768795696327 0.0008159126713483751 0.00483395690175933 0.002534925527349651 0.9918152048995427 0.005218758744708251 0.991523701196368 0.0009702162618060761 0.00228732379711765 0.0006105858479898532 0.0001615456384951847 0.9991931464972151 3.472201629982764e-05 0.9910912903408303 0.007580644557400638 0.0008494830609012494 0.0004785820408677959 0.005594940190242744 0.0009017090118637981 0.0003339977065853983 0.993169353091308 0.0006624607149200032 0.001769059038764483 0.9958827189208664 0.001685761325449075 0.00560072099672432 0.9906632705897545 0.0004304793995711208 0.003305529013950062 0.000306681362440105 0.003284330817625815 0.002541718256623162 0.993867269563311 6.991753375414814e-05 0.0003649517903305619 0.9992897753082064 0.0002753553677088417 0.001243515289264031 0.9976775074912635 0.0004263362951774144 0.0006526409242950833 0.9948349829992524 0.005089197566322622 7.024519734213305e-05 5.574237082858999e-06 0.003627113628258033 0.001294799215684767 0.004755777258964696 0.9903223098970925 0.001666274086995603 0.0005711566364813419 0.9977404186613456 2.215061517748097e-05 0.9981493981139464 0.0006424688005396745 0.0006349346718418007 0.0005731984136720415 0.0009791856781677011 0.9954600439124361 0.001007695108819091 0.00255307530057708 0.002135618619114735 7.163755126895627e-05 0.002268223497442433 0.9955245203321739 0.001488495378637762 0.994704264704606 0.001614796266342011 0.002192443650414202 1.918309307064531e-05 1.886712203113053e-05 0.9999592409075125 2.708877385713157e-06 0.9953223244600917 0.003874578243312759 0.0007796680713327705 2.342922526272768e-05 0.003353660532897901 0.003619431498431492 0.0001529768216399297 0.9928739311470307 0.002686617165373533 0.9963069921127942 0.0006631778827082193 0.000343212839124088 0.9943015826288341 0.004108496916450517 0.001110372135940364 0.0004795483187750114 0.001327284660538386 0.002662277958574436 0.9953422460315856 0.0006681913493015645 0.004002859647479356 0.0006898262531121949 0.0005167541495609357 0.9947905599498476 0.9901169753863394 0.004920664602860366 0.002621694914075037 0.002340665096725243 0.002059256217596085 0.004788456652596995 0.9915686090139774 0.001583678115829597 0.003095276026045326 0.9930837691095937 0.00314120161853542 0.0006797532458255717 0.001597580022051854 0.0002464066731840563 0.0009612477016181687 0.9971947656031459 0.997110177838873 0.002150302901562152 0.0002903873293262169 0.0004491319302385895 0.003940593376634503 0.9927197107459138 0.002662331369347857 0.0006773645081038144 0.001292080962790672 0.002182952568292785 0.9942439593543808 0.002281007114535745 0.9945232289503468 0.003508988469817744 0.001613425874984329 0.0003543567048510487 0.0007446631683055919 0.9930280214792508 0.003494831741629244 0.00273248361081437 0.002543651954841852 0.006782748462055319 0.9901342235956277 0.0005393759874750981 0.00250944750337132 0.001898462856759948 0.001929594391328625 0.9936624952485401 0.9963470308187712 0.002919388589824992 0.0003363234280886825 0.0003972571633151576 0.00415845554754668 0.9908158450235922 0.0008358259197120164 0.004189873509149036 0.002438064837870748 4.09247888756079e-06 7.741357726041981e-06 0.9975501013255157 0.001848998755921419 0.0003209421544845741 0.9971335943854058 0.0006964647041882198 0.9925576002746689 0.003559175952785005 0.001146870400322074 0.002736353372224034 0.006538390357630009 0.00265637014458086 0.9904303977818713 0.0003748417159178648 0.0003724971175635128 0.9984097006280672 0.000581633371441906 0.0006361688829273363 0.004610299556823744 0.001042088842067756 0.0003739898715935102 0.993973621729515 0.9936029120973892 0.002050373395209354 0.003904888169302445 0.0004418263380990971 0.001034108862367363 3.710368964851071e-05 0.998462146149705 0.0004666412982791727 0.002270829696421022 0.001383612983359702 4.92018229402856e-05 0.996296355497279 0.0005908103849164716 0.9966998165067784 0.001624812063805128 0.001084561044500042 0.9951086385454575 0.001825727502500252 0.002052492244510022 0.001013141707532271 0.001589648634339226 0.0005026361433046697 0.0001941337713483038 0.9977135814510077 0.00185433479854224 0.9969140299932699 0.00107268743435515 0.000158947773832693 0.001384033846748705 0.00131698321575257 0.9972244640872661 7.451885023265835e-05 0.9960103828896457 0.001580858359101648 0.001115710918177668 0.00129304783307502 0.002783302109295804 0.0003159700333718663 0.00234799943728587 0.9945527284200465 3.909821748261793e-05 8.692952628331915e-05 0.9998314847771996 4.24874790343924e-05 6.279122046254915e-05 0.9995108138590566 0.0001151631238732815 0.0003112317966075555 0.002474259064749542 0.001867579727249092 0.001309358867169192 0.9943488023408322 0.003836385879436477 0.001184542389160449 0.9914611157215892 0.003517956009813799 0.00233914155846474 0.9953461680433144 0.002217099353230122 9.759104499067629e-05 0.9957299764822466 0.0007036470866258554 0.0007137962198712518 0.002852580211256287 0.0007575288035393918 0.000188950095351896 0.0006468258019741244 0.9984066952991346 0.001715081694738835 1.466789404930635e-05 0.9981699905815979 0.0001002598296139691 0.9900373837786957 0.00912206469345694 0.000283340043656983 0.0005572114841904184 0.000333180474738275 0.9988324169545473 0.0008279609901398409 6.441580574570124e-06 0.007383626359719565 0.001134444710368855 0.001242790139519431 0.9902391387903922 0.002319949312020795 0.9960482257939068 0.001422439827879495 0.0002093850661928386 0.001413029168030753 6.051870863524278e-05 0.9984248088377567 0.0001016432855772775 0.9936905635135049 0.002938136495545737 0.001536230751819613 0.001835069239129675 0.002309625334481012 0.0007826549492839343 0.003319889598083365 0.9935878301181517 0.005214726062727625 0.9933098939921214 0.0009715686252394994 0.0005038113199113997 0.995671672216013 0.0006171739514798027 0.002950421700535467 0.0007607321319717227 0.00132199739233403 0.0009887695668650111 0.9975617052606727 0.0001275277801283034 0.0007414786695614977 0.001233278615740451 0.00349563969395587 0.9945296030207422 0.9980640267418496 0.001277431055815269 2.55098605599836e-05 0.0006330323417751519 0.004490732883442221 0.0001866754333377585 0.9938998184893267 0.001422773193893287 0.0002251735985206906 0.9953730107868946 0.002756833121812317 0.001644982492772461 0.002152791566809433 0.000932185087403982 0.00172043364783142 0.9951945896979552 0.9926089428920211 0.0004733789304006695 0.004253779000320207 0.002663899177258042 0.0005988793187111768 0.9970662452279681 0.0007118524516189765 0.001623023001701765 0.0009865646651495595 0.0005939470025067005 0.992735212903825 0.005684275428518693 0.9988702602236542 0.0003266382539447199 0.0001247036954866275 0.0006783978269144177 0.008236520352201303 0.9912634904071331 0.0002786234065612678 0.000221365834104344 0.005596563232244234 0.0002694974268391571 0.9938446534894567 0.0002892858514598815 0.001237319232540575 0.00173880351793874 0.0004001013013516944 0.996623775948169 0.9904795285075321 0.0008876206195167213 0.003892739750222657 0.004740111122728501 0.002838981894953004 0.9925957895456569 0.003019818343437098 0.001545410215953045 0.006087368887010107 0.001134733389715738 0.0008215914550895077 0.9919563062681847 0.002480352238323491 0.0002578272632338903 0.9972603286403524 1.491858090193359e-06 0.9924885666985654 0.006911083183223219 0.0002736966424006887 0.0003266534758106613 2.37987276761591e-05 4.79698002707055e-06 0.9999689798123043 2.424479992531997e-06 0.003782676327298027 0.9940914689199316 0.001214317986974391 0.0009115367657959847 0.0005900919057430393 6.52329051205776e-05 0.0001417752799483494 0.999202899909188 0.9987041172812259 0.0009090065939995015 0.0002847088100844346 0.0001021673146901924 0.0031259916613924 0.001857227376923236 0.9935875560360381 0.001429224925646276 5.140448000781119e-05 0.002089543703191425 9.523130868395804e-05 0.9977638205081168 0.001280253795203359 0.9968412081535548 0.0008609291711788014 0.001017608880062999 0.9963607257177201 0.0001320962725182709 0.0008329199245114345 0.002674258085250194 0.006014053768971296 0.000170023867190934 0.001734432565045632 0.9920814897987922 0.0004675469707708011 0.9959348788956068 0.001978191367258722 0.001619382766363643 0.001647739239609316 0.001078328222351374 0.9966485912153049 0.0006253413227344262 0.9930084176771882 0.003142765415266072 0.003800936229897222 4.788067764849822e-05 0.006220713175773437 0.0009670411274799988 0.00125731143280272 0.9915549342639438 0.005484620186839428 0.0003462686808568461 0.9940613047621231 0.0001078063701806328 0.002246655423994681 0.9967500090689161 0.00023642119540362 0.0007669143116855815 0.0001186484390934278 0.005031524989020803 0.0003072244760325008 0.9945426020958533 8.455237060924986e-05 0.004683419918225039 0.9907245729615802 0.004507454749585528 0.005371364160877137 0.9911411624563684 0.002915481604487064 0.0005719917782673772 0.9954118697720029 0.003507686307759584 0.0001827406103072929 0.00089770330993023 0.0009097430537967504 0.005824248798985832 0.0009243012846536103 0.9923417068625638 0.00425941607010086 0.0003724544036134565 0.9930332355203901 0.002334894005895504 0.9963596350127361 0.002215264342869245 0.0006511774424533092 0.0007739232019413911 0.004406185740331037 0.9935349987228921 0.001336356180802962 0.0007224593559739378 0.003056816301478151 5.813494229328847e-06 3.679627874638023e-06 0.9969336905764179 0.001331529864326699 0.9956387064450571 0.0004923245112324972 0.002537439179383673 0.00878885184968521 2.305426418966496e-05 0.9905296274962285 0.0006584663898966043 0.9997207874613419 9.209144140716936e-05 0.0001480020512198949 3.911904603111471e-05 0.001471858692331723 1.517034048799528e-05 2.392138715493285e-06 0.9985105788284648 0.0007920527931666838 0.9968716803470091 0.001000133707112388 0.001336133152711828 0.9957303633424941 0.001877393353801973 0.001917042768186047 0.0004752005355178849 0.005280988919255009 0.0006117826418729494 0.9930501140236843 0.001057114415187829 0.003481224017890235 0.004141099576273002 0.002249713186540355 0.9901279632192964 0.9910846662960957 0.001581630973224546 0.005274119508060507 0.002059583222619278 0.0002582029528942586 0.005459427348993219 0.9921783188826719 0.002104050815440575 0.006428010476573967 0.9919332500096086 6.145018986281664e-06 0.001632594494831106 0.005171146195363486 0.0002620883652796459 0.002301391314816202 0.9922653741245406 0.991316325156774 0.004023030447896596 0.003655011444581094 0.001005632950748275 0.001200605371406276 0.997874678837065 0.000364523922830143 0.0005601918686985393 0.0002260427094377366 0.0007413966618505644 0.9982199773364201 0.0008125832922916232 0.9985324585883573 0.001389619972780124 6.512340132665643e-05 1.279803753592581e-05 0.0005800586603056248 0.9909206985133109 0.006810280475158123 0.001688962351225339 5.981700506111349e-05 2.281575036497728e-05 0.9994950973461488 0.0004222698984250939 9.219721956339855e-05 0.0005653285751813325 0.0004224499436148976 0.9989200242616404 0.994399126867231 0.002420011110625447 0.0006947525961077672 0.002486109426035854 0.008655980767126731 0.9900367370932479 0.0002500079945950569 0.001057274145030305 0.002819127463428435 0.002291664137575096 8.122919965486549e-05 0.9948079791993416 0.001517829259038179 0.00320782592117456 0.9944197288534042 0.0008546159663830374 0.9991735406537505 0.0007027648216813636 1.533789366311289e-05 0.0001083566309050364 0.001341450117463595 6.81325566909067e-05 0.9973711784093557 0.001219238916489709 0.0001147599055025186 0.9993557899195418 0.0004257696139025559 0.0001036805610531262 0.00605954684530942 0.0003041352839169069 0.0008292132384053369 0.9928071046323683 0.9968190082987594 7.863487700907046e-05 0.003072349729791796 3.000709443972327e-05 0.0008139841284699027 0.0002919815043690651 0.9974287889338957 0.0014652454332653 0.0004217299664690453 7.487295737402553e-05 0.0001387229916333404 0.9993646740845236 0.002381743362853973 0.9964228897250176 0.000947790694605623 0.000247576217522865 0.997127648272007 0.001550848328022113 0.0002209281653551703 0.001100575234615804 0.00477920766269886 0.000354711715308457 1.133826638563735e-05 0.994854742355607 0.001209762268037305 0.997942332020648 0.0005742385917162775 0.0002736671195984499 0.002696214284673553 0.000280331215690094 0.9950362964747802 0.001987158024856199 0.9954981222498598 0.0006269395995899612 0.0003339976824604237 0.003540940468089885 0.001476939933002682 2.482760277625675e-05 0.000470271510292196 0.9980279609539289 0.001808287918516593 0.003106319352647637 0.9938984394711373 0.001186953257698493 0.001129416099543665 0.9952373293656585 0.0009068775326497968 0.002726377002148042 0.0003727493575694731 0.000490202535727097 0.003829339505466196 0.9953077086012372 0.0001340568397922113 0.0006639200998793127 0.9991766786124978 2.534444783060653e-05 0.0007851585914433987 0.9950314305174693 0.003701821674491587 0.000481589216595722 0.9951306553795386 0.00240360417349113 0.0003019773198783413 0.002163763127091974 0.001423068911737324 2.87964028352531e-05 9.269565738924455e-05 0.9984554390280381 0.001218615491409598 0.00151725012820437 0.9929504179727612 0.004313716407624804 0.9963555190622444 0.001969386928254493 0.001615172794457454 5.992121504370344e-05 0.003405863755973 0.9947765668859574 0.001366396468824717 0.0004511728892448383 0.0003098891529186621 0.0005218696370396523 0.003943859793281182 0.9952243814167605 0.002108072021680428 0.9978101338099313 7.975062555605666e-05 2.043542832230643e-06 0.006120176169835132 0.002526101577700649 0.9910442531920141 0.0003094690604501515 0.9960057615967901 0.003319916122195605 0.0005686940288741187 0.0001056282521402048 0.002652250941747847 0.0005551990795439865 0.0006030387234181065 0.9961895112552901 0.001101753049606473 0.9950689708855839 0.0007102635264541752 0.003119012538355487 0.995792942526966 0.003445732245648321 0.0004307639391312072 0.0003305612882543916 0.001744007718177573 0.003050437163187683 0.9921451946085977 0.00306036051003703 0.001977184754455058 0.00161563997854123 0.0001127039081712849 0.9962944713588324 0.9920755946460007 0.001899066116151403 0.00516843359065697 0.000856905647190884 0.001905727962888475 0.005939301551240497 0.9912520731351275 0.0009028973507435138 0.001261125181839382 0.9971305074822344 0.001486501057771951 0.0001218662781542412 0.006496128256722608 0.0008071777982597445 0.0009030456366003005 0.9917936483084173 0.9998611330433909 0.0001055749431679186 7.520286598830212e-06 2.57717268423528e-05 0.000508477495033467 0.9947122249371796 0.001790352817656424 0.002988944750130543 0.000733291194918127 0.002063130602245438 0.9953878674273758 0.001815710775460598 0.9987556889573102 0.0007441681391114132 6.452632326348439e-05 0.0004356165803149243 0.005247861326623948 0.9930250419940748 0.0005845156783849338 0.001142581000916322 3.094075559732423e-05 3.88265319115232e-06 0.9992225073758997 0.000742669215311799 0.001177788725781475 0.00164498230498329 0.0003785847107825738 0.9967986442584527 0.9951618719878101 0.002853404450802283 0.0002544188933133581 0.001730304668074206 0.002683614944435882 0.9951665212957698 0.001213539646771894 0.0009363241130224524 6.516571903044638e-05 0.0006013097465982124 0.0005919488554644935 0.9987415756789069 0.001944392825339454 0.001148828133818669 0.9953454394343388 0.001561339606503085 0.9902434091927665 0.008838170981666556 0.0001979396265375536 0.0007204801990293339 0.001655073519712425 0.0001966986950436882 0.9980262924645181 0.0001219353207257375 0.0008963694422118333 0.9949745481884065 0.002308159377771714 0.001820922991609933 0.001299108377268928 0.002061875336936582 0.002368796529270437 0.9942702197565241 0.9961023578812656 0.00167361149268559 0.001888236451669024 0.0003357941743798152 0.002120097096480867 0.001985313636232478 0.994333477829548 0.001561111437738704 0.001040578188169868 0.003941621843467523 0.004099786054072385 0.9909180139142902 0.001641863112487162 0.9983467658592019 3.531274998889163e-06 7.839753312011807e-06 0.9935542569979789 0.00297379553404501 0.002210030113136509 0.001261917354839569 0.001168926672305114 1.712347650036001e-05 4.643548844661628e-05 0.9987675143627479 0.0004798787387834256 0.992152000758336 0.004811461063123247 0.002556659439757353 0.0005748243895836189 4.701399322570615e-05 0.9991850176251262 0.0001931439920644189 0.998172966630531 0.0004685843942979377 0.0001531971159590047 0.001205251859212079 0.001162107469817579 0.000246326917755245 0.0004586929694704148 0.9981328726429568 0.000494358308963406 5.125598025610309e-05 0.9994342273696905 2.015834109005754e-05 0.001382678403534112 0.991344401184156 0.001961391139849392 0.005311529272460498 0.0008711012549788579 0.006060755337750936 0.002955522381249624 0.9901126210260206 0.0006796504525772433 0.0002843870879822406 0.9988264524595188 0.000209509999921705 0.006614538663746727 0.9928257309607981 0.0004159228774190138 0.0001438074980362005 0.9916843668517977 0.0002415865193569737 0.007194310244090219 0.0008797363847551243 0.003973908060923669 0.0001964502007447143 0.002626326092533109 0.9932033156457986 0.002211471462703944 0.001835795295402376 0.9904124619604838 0.005540271281409897 0.9992018803160084 0.0007707752145451619 2.840685055929982e-06 2.450378439050964e-05 0.0001227881847626286 0.9998605703549688 8.996820786495346e-06 7.644639482060987e-06 0.001544201058875915 0.0002419625843382682 0.002698310086492727 0.995515526270293 0.001892428884293922 0.9969431394789905 0.001070401199975986 9.403043673960818e-05 0.003028963426804246 0.002564196753422407 0.9934665444975052 0.0009402953222681773 0.9925890229798947 0.0006515152113672548 0.003349704006933149 0.003409757801804873 0.0004176965437855481 5.194932513338739e-05 6.724097055348254e-05 0.9994631131605276 0.0004846806488889517 0.9972293653093636 0.0003453830419179708 0.001940570999829549 0.996835569814192 0.0008466712309704458 0.0003867593549504236 0.001930999599887123 0.006489870717604993 0.00127078271329035 0.9903711263581043 0.001868220211000308 0.005936526868835739 0.0001470057000165183 0.003264687347647749 0.9906517800835 0.9936638772552018 0.003390035910809104 0.001278663285735636 0.00166742354825347 0.0001888407378755604 7.465971333014142e-05 0.9996486985135362 8.780103525812901e-05 0.003346347281769511 0.9964377207675684 0.0001489116867665473 6.702026389549957e-05 0.004489108581385118 0.0007013959838267071 0.0003595503254447972 0.9944499451093434 0.9973034099637947 0.0005789827382336637 0.001470476071629205 0.0006471312263423954 0.001001113261031712 0.9980511535281607 0.0006172399026296671 0.0003304933081779509 0.001782170746228263 0.006335901544578773 0.9909584604968028 0.0009234672123901834 0.9925781705810403 0.001072321691245845 0.0018966596205679 0.004452848107145985 0.005381601699519159 0.9936186582054642 0.0008679608850427677 0.0001317792099738587 0.00797043726213178 0.001256793444247513 0.9905782852040251 0.0001944840895955428 0.0004552254699623679 0.0001665366167991973 0.000461711011506782 0.9989165269017316 0.9926713085469037 0.002506294934791548 0.002507479527462429 0.002314916990842345 0.003497552317660757 0.9907399910862608 0.0006453048343613852 0.005117151761717078 0.0006048941270258274 0.0005143094284951221 0.0003791430371224775 0.9985016534073565 4.463015080607519e-05 0.0001464316159171016 0.9994441188059383 0.0003648194273384891 0.995175074891202 0.001587477148741282 2.09142370951994e-05 0.003216533722961509 0.0009662231228202998 0.0002867449576771986 0.9983383094250156 0.0004087224944869461 0.0008458139387106247 0.9991034393151852 2.474026170255674e-05 2.600648440163628e-05 0.001149397658025997 0.001675752914352748 0.001085974400980506 0.9960888750266408 0.990023016287462 0.001079872894063278 0.006012368810204876 0.00288474200826978 0.0002258011858819769 0.0007946763565198614 0.9986418216792496 0.0003377007783485644 0.006745675066425336 0.0008224924935096526 0.0006305563349688686 0.9918012761050962 9.30074735041968e-05 0.9998891790215255 4.352482270754158e-06 1.346102269951197e-05 0.9928521331828646 0.002395590665541779 0.001051970474319654 0.003700305677273974 0.004309874626595137 0.002944010538188287 0.0008074243677216393 0.9919386904674949 0.005674552768656187 0.9934673457315147 0.0008193539960057963 3.874750382332974e-05 0.0003945031753471359 0.002710906099652453 0.9944258743195741 0.002468716405426307 0.9962596610245416 0.0002877000663596537 0.001839503882703504 0.00161313502639529 0.0006660432877251874 0.004992558137057678 0.004257493928049309 0.9900839046471678 4.614068326482475e-05 0.002565463075877176 0.9963084842640771 0.001079911976780851 4.940915281847742e-05 0.998502451201424 0.001084446230127888 0.0003636934156295941 0.0005834531353544265 0.0004018533408365241 0.0003525988965329104 0.9986620946272762 0.001243470415323211 0.001872251425568928 0.9946200981439947 0.002264180015113226 0.003864734571582498 0.9952006125525286 0.0007016854069874118 0.0002329674689015327 0.9942945199440626 0.003256141190773671 0.001899253030432882 0.0005500858347308845 0.001910507103650289 0.000576160503090122 0.00123280486651713 0.9962805275267425 0.002065191632967359 9.9791284671537e-05 0.9978265538976473 8.463184713779106e-06 0.9921716657936304 0.007403664285462862 0.000336011543424249 8.865837748253495e-05 0.002859366682019912 0.9931248413649368 0.0007127356378620692 0.003303056315181211 0.008560777412034926 0.0002400016784800678 0.0003644174970230982 0.9908348034124619 0.001405377226018985 0.9968242372107879 0.0004861881757200321 0.001284197387473076 8.954252622579864e-05 0.008242519009981696 0.9905798133205596 0.001088125143232952 0.997468360616793 0.0002159013753828523 0.001733717486300818 0.0005820205215233526 0.001514305259989628 0.001833582555855861 0.0001879911450600614 0.9964641210390944 0.002800833201760816 0.9965527233062637 0.0006454168463590156 1.026645616556635e-06 0.997276801610489 0.001712697029498827 0.000271520053807647 0.0007389813062044755 0.00135777915361861 0.00151867765408125 0.9938977686793633 0.003225774512936879 0.00286581040821582 0.0003475243748800482 0.0004766090189112616 0.9963100561979928 0.99765482528311 0.0001638295628873933 0.0009722252753873755 0.001209119878615179 0.003424833309620457 2.344590115266052e-05 0.9963202573762036 0.0002314634130233079 0.00242790129334448 0.9962748925886487 0.001019297389423334 0.0002779087285835393 0.004144185741964066 0.001002144832940791 0.002823251203846945 0.9920304182212482 0.9924509237853377 0.005387633088351652 0.001741639468922638 0.0004198036573880069 0.0002805286695591781 0.9991592514309222 0.0005237942792642119 3.642562025437843e-05 0.004439134384910331 0.001575511402401326 0.9921213603040039 0.001863993908684424 0.9914101007291342 0.003528650677921674 0.002824374121808317 0.002236874471135849 9.570159231064221e-05 0.9951837226105441 0.004379823797387139 0.0003407519997581238 0.0002073064598643968 0.004700004964462741 0.9940800080566594 0.001012680519013476 0.001314107873235021 0.003502789011391759 0.001533286143707353 0.9936498169716659 0.9974144263244603 0.001512208646304318 0.0009842665423731079 8.909848686222818e-05 0.007225143285202839 0.9920345079495932 0.0006601801402815053 8.016862492246266e-05 0.002255448316784297 0.0004973480140014379 0.001695947418410089 0.9955512562508042 0.002534949602840622 0.001567867753285834 0.9908271737894926 0.005070008854380988 0.9980297746108665 0.001649716674319086 6.501961997156071e-05 0.0002554890948427947 1.177703328578325e-06 0.0001854411297768721 0.9997521315040203 6.12496628742202e-05 0.0006126958663102405 0.9902040693727017 0.001540664335854112 0.007642570425133992 0.002630874291598774 0.0002814558347110159 0.0001870102779923844 0.9969006595956978 0.9921437202679161 0.0006160270317369332 0.003793272132531053 0.003446980567815963 0.0005626107392233597 5.218546253999458e-05 0.9992944805251822 9.072327305446639e-05 0.001246409177951831 2.550383077949094e-05 0.0007183050767978941 0.9980097819144708 0.001205727280374693 0.9931250762458776 0.005564621943789591 0.0001045745299580797 0.9941229619607544 0.003079728232649856 0.00169586979731243 0.001101440009283271 0.006670911114275628 0.002286326242421032 0.000310304685275421 0.9907324579580279 0.0006829847850776961 0.997255055634119 0.0005275366092859148 0.00153442297151745 0.003313056964303439 0.0005488969809152291 0.9939310802342778 0.002206965820503515 0.9990928454006096 0.0002906722907545563 0.0005648020062545444 5.168030238131662e-05 0.0003670462782778098 1.132359925456971e-05 0.0004616004801708907 0.9991600296422968 0.002177298975001562 0.001831142191772449 0.9938685212729822 0.002123037560243756 0.0002874351482278347 0.9990559413182305 0.0004915163955621729 0.0001651071379795209 7.874622044124799e-05 0.0004461885308765462 0.001090486285952289 0.9983845789627299 0.0005209468305044192 0.002968399790776231 0.9955746889049479 0.0009359644737714622 0.003670822100400076 0.9911837029231036 0.003181514584551036 0.001963960391945256 0.9993237418972315 0.0002690575658164398 0.0001832687446175451 0.0002239317923344796 0.0007006890672691978 0.001368496446842961 0.0001065570378740559 0.9978242574480138 0.004745717521174175 0.001241666215142948 0.9933460157749509 0.0006666004887319978 0.9951198859784985 0.001249685490986132 0.001292681234533849 0.002337747295981513 0.006783643074256142 0.9911566380913355 0.0001770142528679299 0.0018827045815405 0.004622851415003701 1.919441648412066e-05 0.0008225043947214032 0.9945354497737908 0.0004850285035768806 0.9965626701640466 0.0003085957552763885 0.002643705577100029 0.001737233452560277 0.001142327075890295 0.9966811487947634 0.0004392906767859794 0.9931964572763998 0.005371268757953236 0.0007559493381713399 0.0006763246274756031 0.001723689985298352 2.55081153713193e-05 0.0007435941322035317 0.9975072077671268 0.002163676284283238 0.9905970800328154 0.006018132683326316 0.001221110999574971 0.9997935340536013 0.0001546703873209514 2.687471518641726e-05 2.492084389137525e-05 0.0003674307930262562 0.002968565459848267 0.9962755575344376 0.0003884462126878766 0.00127278928819511 3.301384807126824e-06 0.002456823636709089 0.9962670856902887 0.9953802543556155 0.003217388114917119 0.0001613837055368733 0.001240973823930559 0.0004824153207507061 0.0005093483711607226 0.9923376343416571 0.006670601966431471 0.004135366618953695 0.9914993912387406 0.003009201766613543 0.001356040375692145 0.004121558619869401 0.001428971807471295 0.001947300403946101 0.9925021691687133 0.9915065300154491 0.005489759370329856 0.002253146420649771 0.0007505641935713339 5.702761863098458e-05 0.9988165578622167 0.0008277372602524445 0.0002986772588998535 0.008196751727850306 0.0003972453191045948 0.9900633888022604 0.001342614150784706 0.9930104534268531 0.002400619135272549 0.0009401766537061597 0.003648750784168167 1.647113035082143e-05 0.9901329467889697 0.005481071543552813 0.004369510537126734 0.0008915311004668835 9.475494323811081e-05 0.9987588803773997 0.0002548335788953508 0.002149579502771064 0.001202426255574332 0.000154510148330633 0.9964934840933239 0.9972777066078128 0.001232677667029733 0.0004907793410852201 0.0009988363840722995 0.005925770494078823 0.9938556287868716 8.299404065080683e-05 0.0001356066783987407 0.003222789154744999 0.00306842264538948 0.0001971350399591178 0.9935116531599064 0.001477885435815134 0.00262750107138368 0.9950705568880405 0.0008240566047607359 0.9960811227602893 0.00162935821967359 0.001242892825313152 0.001046626194724042 0.003272641416641124 0.002495766561642944 0.9913181023273886 0.002913489694327366 0.0005587181156499391 0.9956170176347343 0.003233367734390249 0.0005908965152255285 0.0006957107591734538 0.0003329556411525044 1.542724362767927e-05 0.9989559063560464 0.9998824360601926 2.716346182656538e-05 6.886662563716737e-05 2.153385234370187e-05 0.005817252297217785 0.001553162496161765 0.9924432273703508 0.0001863578362696181 0.005285056553302261 0.001515330400695747 0.001696404296048794 0.9915032087499532 0.0006538033048548925 0.9939656152707277 0.004002086149343775 0.001378495275073674</probabilities>
		</cpt>
		<cpt id="V5">
			<state id="State0" />
			<state id="State1" />
			<state id="State2" />
			<state id="State3" />
			<parents>V4</parents>
			<probabilities>0.9982903482112788 0.0004768047503091163 0.0005810840002924261 0.000651763038119658 0.0002336447400547069 0.9982903482112788 0.001395189290145516 8.081775852097732e-05 0.0001211684300744514 0.0004319885839163703 0.9982903482112788 0.001156494774730378 0.00134405370833376 0.0001780471499404836 0.0001875509304469563 0.9982903482112788</probabilities>
		</cpt>
		<cpt id="U4">
			<state id="State0" />
			<state id="State1" />
			<state id="State2" />
			<state id="State3" />
			<state id="State4" />
			<state id="State5" />
			<state id="State6" />
			<state id="State7" />
			<state id="State8" />
			<state id="State9" />
			<probabilities>8.794810115547789e-11 0.1991347524611667 2.02196641853507e-20 9.608999003017252e-67 3.119259620243625e-05 0.004737700017986433 0.1201161141502759 0.03313415144691673 7.13763799732848e-10 0.6428460885257401</probabilities>
		</cpt>
		<cpt id="V6">
			<state id="State0" />
			<state id="State1" />
			<state id="State2" />
			<state id="State3" />
			<parents>V5 U3 U4</parents>
			<probabilities>0.9918147422327561 0.001795618283530213 0.002702523320927561 0.003687116162786123 0.002414691430396571 0.9961069238793249 0.0007039328513574798 0.0007744518389210989 0.001491070713839153 0.0005100821294586368 0.992615768764111 0.005383078392591243 0.007260293899160764 0.0004817561239317634 0.0008712218969054465 0.9913867280800021 0.9919398673263694 0.006562953911696768 0.000218471380419943 0.001278707381513851 0.003243147025910643 0.9965147518609885 0.0001691799506789119 7.29211624219473e-05 0.005413101730598389 0.0003608773838048023 0.002190748447722141 0.9920352724378747 7.266194272918023e-05 3.787117522988518e-06 0.999920105381606 3.445558141776546e-06 0.9956657782338714 0.0006207901201406744 0.001277729466414506 0.002435702179573462 0.003201607663201289 0.001081152612629489 0.9956372748843626 7.996483980666179e-05 0.00263356026391027 0.9921665604767825 0.001112845584835292 0.004087033674471955 0.00528453782742459 0.000152793283744686 0.002818863410319959 0.9917438054785108 0.9951878514347945 0.001677545529693664 0.003003853183589497 0.0001307498519223021 0.006904493997746474 0.0005434933096224076 0.9921920638651575 0.0003599488274737107 0.007838781144742813 1.720041425648992e-05 0.0002309138575564787 0.9919131045834442 0.002113648463376434 0.995849687206757 0.001212688767073756 0.0008239755627927152 0.9935486240583707 0.003580056981094716 0.002498554658226351 0.0003727643023082134 0.002946850404509259 0.001900404174379627 0.004724598766128239 0.9904281466549829 0.00442787517507871 0.9953498339835197 0.0001404565899708887 8.183425143067343e-05 0.001461213127770789 0.003597444519311871 0.9918124651812241 0.003128877171693164 0.993743149951796 0.0008823763966110962 0.003479087993803494 0.001895385657789354 0.003660379855626524 0.003674879817598208 0.0006113752073791659 0.9920533651193961 0.008242805750005237 0.0004127461833887008 0.9911465326731265 0.0001979153934796424 0.002912167241490525 0.9970765392313233 4.40352415327382e-06 6.890003032832474e-06 0.0003631932007877866 0.004214586097857417 7.870000112700226e-05 0.9953435207002278 0.001063273340750268 0.000189406580100831 0.998431093635623 0.0003162264435259455 0.003338246373201093 0.9926772862243242 0.0009309912267684236 0.003053476175706285 0.9995616284087994 0.0003401758929566943 5.915317546143508e-05 3.904252278255535e-05 0.00411756416666516 0.003413818970344856 0.001972987826845931 0.9904956290361441 0.001045686464721107 0.000532471710210217 0.9983751490221719 4.669280289668401e-05 0.9948084435700233 0.002800412699114462 0.0004427484813749416 0.001948395249487261 0.001642446241652444 0.9973061645239083 0.0002195718772223399 0.0008318173572169666 0.0007225213398393216 0.003156817689853412 0.005500319119313741 0.9906203418509936 0.006021431495329366 0.9916228587201109 6.559749810270135e-05 0.002290112286456968 0.00118087275218811 0.002273541527150516 0.994224315050754 0.002321270669907345 0.9902033838413768 0.007644690159824686 0.001829369684687141 0.0003225563141112965 0.0004320053086668299 3.239189057778764e-05 0.003766879154770234 0.9957687236459851 0.002499656803796877 0.9953466172072528 0.001956986543479367 0.0001967394454709878 0.9974394325915948 0.001386243320615157 0.0002147821643517261 0.0009595419234382511 0.002980499969705618 0.0005612777093661021 0.9955049338396497 0.0009532884812785921 0.00097308220390974 0.0003566909743439695 0.001021996866819423 0.9976482299549269 0.9969496883165349 0.002231174088296823 0.0004652276616603272 0.0003539099335080307 0.001055471217136129 0.001394144363920955 0.9972207474865108 0.0003296369324321678 0.001146206138782138 0.9966662376725882 0.0005287027176948229 0.001658853470934818 0.003871602833848201 0.0001251821197293252 0.004088393763476396 0.9919148212829461 0.9948072821119045 0.0002130487983675654 0.001547271488940187 0.003432397600787732 0.0005261164339381095 0.9989674839677746 0.0004566679951255684 4.973160316175564e-05 0.001729055008637165 0.0009255743340550341 0.9932081475891588 0.004137223068149078 0.9968269466242659 0.002132284126922716 0.0007048445099509009 0.0003359247388605267 0.003912306208286877 0.9906725527740526 0.00399323767237797 0.001421903345282466 0.00610720014738935 0.001329703382691455 0.9922968834447988 0.0002662130251204224 0.003335378541383344 1.091241127932192e-06 0.00039561899492139 0.9962679112225673 0.9927416606170976 0.001699433369544743 0.004940738234336764 0.0006181677790209599 0.00857951963070424 0.9900428476570389 0.0002844222790801275 0.001093210433176763 8.349749403964894e-05 1.924611186312157e-05 2.157508791840214e-05 0.9998756813061789 0.003684417103805941 0.002513076404722819 0.9935884594268638 0.0002140470646074394 0.9966668172317616 0.0005770197795816131 0.00134365862787065 0.001412504360786125 2.644170782619143e-07 0.0001275966770464015 0.9997057553622202 0.0001663835436551146 0.005584182004373837 0.9918131031164193 0.0004338718843290934 0.002168842994877775 0.001382432187753692 0.0001188001878774425 0.00066600250752563 0.9978327651168433 0.9916715290803629 9.447572140394605e-05 0.001883796742862683 0.006350198455370446 0.005575204016135558 0.0008280407200437118 0.9926766852853744 0.0009200699784462761 0.001821418886769964 0.0001333113187708484 0.006055025507056348 0.9919902442874028 2.384258868495995e-06 0.9994454400207808 0.0001964811232266272 0.0003556945971239871 0.9920525978233271 0.003201824807079712 0.004423682783941991 0.00032189458565118 0.003982220336684955 0.003247079235196834 0.001870111793482327 0.9909005886346359 0.0002656460542525882 0.9996971065297683 6.584492871867487e-06 3.066292310727857e-05 0.002104436260489448 0.002093167810475581 0.994364139875766 0.001438256053268978 0.9965252439803177 0.001676073646180492 0.000347190633754196 0.001451491739747579 0.0002486810373879257 0.0002050460504207726 0.0006656600672581672 0.9988806128449331 9.436223984865702e-05 2.934932666146826e-05 0.9998744799702348 1.808463254999601e-06 0.002435614271355633 0.9958577233390822 0.001138843269534042 0.0005678191200281307 0.006508938036043377 7.050276649012564e-05 0.0001926576047276116 0.9932279015927389 5.842378965268164e-05 0.0001431151144446527 0.9996745711907128 0.0001238899051899183 0.001851453247746228 0.9975412566693653 0.0003430505160187262 0.0002642395668697261 0.9970615316054079 0.002252866854128273 0.0001210484265688393 0.0005645531138949769 0.001022185463825967 0.0004051056591461503 5.007855248457632e-05 0.9985226303245434 0.001042639249411467 0.002514123748991791 0.9932422089036397 0.003201028097957056 0.9997528008298369 0.000235914688884503 6.188634084274804e-07 1.066561787017887e-05 0.003763099265024653 0.9908893968923812 0.003822764480843273 0.001524739361750909 0.003888692247583275 0.0001029703501902206 0.00467101465909859 0.9913373227431279 0.002208403347794167 0.9949865787933359 0.00275740878061807 4.760907825192154e-05 0.001344055804756364 9.710422660060819e-05 0.9985132334791339 4.560648950916908e-05 0.9955076909858666 0.001271055598484159 0.003105276821512031 0.000115976594137251 0.002326738547925895 0.0004828032398195878 0.003437139663584707 0.9937533185486698 0.002969611880908135 0.9967002155601717 0.0002377143906062276 9.245816831384679e-05 0.995705969837372 0.003697340365333376 5.5789448776952e-06 0.0005911108524168647 0.00474796184615083 7.583900481665228e-05 0.9942491253276603 0.0009270738213722349 0.0005666284889172504 0.002076082194544984 0.002506198999314105 0.9948510903172236 0.9957365493645066 0.003240691138783068 0.0005624775126973127 0.0004602819840130115 0.008288178728935393 0.0004817442886148892 0.9907970187516004 0.000433058230849297 0.0004777902260169875 0.9995213635904667 7.680851120400344e-07 7.809840422311713e-08 0.004531403533877662 0.0005849517331653264 0.0006789681900457659 0.9942046765429112 0.9943058948678419 0.0003882330985804588 0.00117442716323142 0.004131444870346229 0.00103685015057371 0.9902332877265292 0.006732473623364218 0.001997388499532844 0.009108736005772852 0.0006563059803271797 0.9901359880194613 9.896999443863319e-05 0.9953252016453623 0.0004300475185936576 0.001927589467903627 0.002317161368140412 0.000511206357504219 0.99185897508359 0.0003514406763199332 0.00727837788258589 0.005907402315458757 0.000412025379640782 0.9900599435460977 0.003620628758802754 0.0004013299366246478 0.001486371444075871 0.001456833372839254 0.9966554652464602 0.9974577752757019 0.00169469196671644 0.0005596848914267317 0.0002878478661549381 0.002831098755415623 0.9963541710673018 0.000759541966718655 5.518821056386145e-05 0.0002840791417640488 0.001663623831457068 0.0009322849416987524 0.9971200120850802 0.001945199672335284 0.0007578411792788978 0.9955861957693855 0.001710763379000417 0.9942880453173805 0.00311877602991076 0.00137253019820191 0.001220648454506865 0.002793685119906257 0.001455971989845898 0.9943404316567563 0.001409911233491488 0.00515273146595577 0.9915835059023725 0.001147084046911261 0.002116678584760393 0.003813787039997744 0.002313505434608196 0.0006373709689393809 0.9932353365564547 0.9916689234081144 0.004530627915841941 0.002619970143685551 0.001180478532358065 0.004087048732887439 0.002629445405658455 0.9931260059848575 0.0001574998765966592 0.0004189286161606971 0.003731593377217676 0.001775548220818963 0.9940739297858027 0.0001648745621219337 0.9992700070493789 1.259100664010197e-06 0.0005638592878352249 0.9959303408654642 0.002198035488654243 0.001555350704832323 0.0003162729410493008 0.0006745932754489016 4.449823652228472e-05 8.211673259047119e-05 0.9991987917554384 0.0003786744055963493 0.9993708112076065 0.0002097220890603352 4.079229773680136e-05 0.0003277589105374649 0.0003898654135917244 0.9992430776402021 3.929803566868882e-05 0.9952123854134394 0.003281024995782072 0.0001390401342771974 0.001367549456501315 0.00375718518277774 9.413381481302111e-05 0.001185128833427378 0.9949635521689819 0.0002265930937647784 0.0002361247851110996 0.9993080476575118 0.0002292344636123088 2.351931265448673e-05 0.9922452073003235 0.004234854613367005 0.003496418773654966 0.004617333061965111 0.000427000113719015 0.0004543103847382472 0.9945013564395776 0.0002121290760016501 0.0004286127325508545 0.9991449478950529 0.0002143102963945714 1.598651669200952e-05 0.9995600109887905 0.000180440002237498 0.0002435624922799542 0.9921963614295656 0.001687200445420936 0.002660099454044461 0.00345633867096908 0.001806609195501155 0.001740408353995219 0.005163522137969558 0.9912894603125341 0.004947106012812248 0.0003347025024814951 0.9940399629408259 0.0006782285438804078 0.9939503102463906 0.001144075232591423 0.002765677393053242 0.002139937127964783 0.0009236315854896439 0.998479162652003 0.0002311345611905752 0.0003660712013168126 0.004250068756206417 0.0007619675899440036 8.543976758136249e-06 0.9949794196770915 0.001115081457514497 0.9969741231659898 0.0001903984608275037 0.001720396915668189 0.00329678079406328 0.001316280294325153 0.9933788833260062 0.002008055585605408 0.9981267796850034 0.0008073126161401499 0.0002009054756648125 0.0008650022231915841 0.0008468573893725069 4.348795441631886e-05 0.001170430845651 0.9979392238105602 0.001977935917302606 0.9924933220078627 0.0006060067621534023 0.004922735312681372 0.9923454050584172 8.441235860128348e-06 0.003707331301343559 0.003938822404379138 0.005155400679513082 0.0003497347826832363 0.9941846242605599 0.0003102402772437881 0.003634877728939438 0.002014632294545634 0.001541108591101643 0.9928093813854133 0.9903243921906987 0.006716193103625861 0.0003035898951295404 0.002655824810545872 0.005899543049059307 0.001260855176759666 0.9928382829184844 1.318855696586007e-06 1.456748760618845e-05 0.9999505662182759 1.324236782636088e-05 2.162392629147824e-05 0.0001655273423025408 0.000318384368999422 0.0005361989020085348 0.9989798893866895 0.9958540031359303 0.003095014157046337 2.331670520614409e-05 0.001027666001817229 0.0002381198810101848 0.9994534028339184 0.0001318707894935836 0.0001766064955778421 0.004630390363968162 0.0001128771520397315 0.9948745669469001 0.0003821655370919224 0.9986216419152308 0.0002347252981042578 0.001134851290399599 8.78149626527846e-06 0.005538624713823203 0.9915825429811865 0.001189743463654663 0.001689088841335586 0.001322229014714272 0.002939287979925392 0.9909222811987821 0.004816201806578178 0.002011296304022857 0.00281244078201414 0.00183036910080503 0.993345893813158 0.9947754468880022 0.005022882786916255 0.0001793976089473039 2.227271613426126e-05 0.005906256757548426 0.9901986472175256 0.001447555258748714 0.002447540766177271 0.0005892013170977159 0.002051148987804647 9.023892761762017e-06 0.9973506258023359 0.004624784120248588 0.002253753467439908 0.9928648180284719 0.0002566443838395867 0.9908410361147855 0.0006876612358206216 0.006936170671469672 0.001535131977924185 0.007369171780296798 0.0001474392496211593 0.9920864120949944 0.0003969768750876671 0.0007126150930690449 0.9992230476331136 1.116658356130588e-05 5.317069025605346e-05 0.005943818791912658 0.0001823285628740632 0.001196092295150353 0.9926777603500629 0.9977249033982496 0.000825500058774765 0.001403121594849474 4.647494812619227e-05 0.0002238937932270748 0.0003424118278397815 0.9956129908338782 0.003820703545054902 0.001859010315426883 0.0001529480304071631 0.0004684752347218159 0.9975195664194442 0.0009426332967689474 0.9988374614486618 0.0001919899680482742 2.791528652091528e-05 0.9913677160456947 0.00643642058283631 0.001633447265902468 0.0005624161055665373 0.002237557191769954 0.002980543461235655 0.00037148019872893 0.9944104191482654 0.0006207957109762908 0.996338287275644 0.002470969713050569 0.0005699473003291681 0.002403124951916191 0.0001577070217948821 0.9944639395440197 0.002975228482269217 0.9957817704229583 0.003791661908057552 0.0003831091101256079 4.345855885847996e-05 0.007209787919960404 0.00122188078947163 0.0008832865900653384 0.9906850447005027 0.003222613416833289 0.002740189811910903 0.9927620620816067 0.001275134689649145 0.001995778057163155 0.9904265130352412 0.001405620184567093 0.006172088723028575 0.003734410819664241 7.453809188432206e-05 0.0001743795149045041 0.9960166715735469 0.0001459846903202941 0.001658880541809314 0.9970940114963234 0.001101123271547003 0.0033608184098671 0.9900580186810924 0.002666896887093476 0.003914266021946953 0.9955777547661735 0.003450798088803822 0.0008362879764205997 0.0001351591686020534 0.004601207734884699 0.0018771737851764 0.002994805060565874 0.990526813419373 0.0003357443426694018 0.002088504599422138 0.9951556037121234 0.002420147345785085 0.9925442864993144 0.005463233202022284 6.465727693054587e-05 0.001927823021732793 0.000771662943633144 0.9969254186152303 0.0005870508040106997 0.001715867637125854 0.002764757737400625 4.936689188297309e-05 0.0007998854205149808 0.9963859899502014 0.004518934491664707 0.9928821121605214 0.0004836825963437857 0.00211527075147019 0.0003453270035315411 0.000104236018931349 0.9984677295560713 0.001082707421465768 0.9928700539687875 0.006183416563328662 5.081399720574727e-05 0.0008957154706781187 0.002706330150754648 0.0005763421071092052 0.0005102494369419532 0.9962070783051942 0.0003636259661774366 0.9904252773145722 0.002318015581954663 0.006893081137295656 0.9913894456399189 0.001551509185729998 0.002482763648248145 0.004576281526102875 0.007502585440863477 0.0009667378359544865 0.9912917420954954 0.0002389346276865641 0.002399684212721072 0.001173154281601927 0.00377905622092791 0.9926481052847491 0.9916176352001794 0.006078362400326316 0.0004903996863292755 0.001813602713164946 0.0002263185598982726 0.0003325660064960104 0.9992994864458733 0.0001416289877323775 0.0005398966203493614 0.9991530097460289 0.0001581056567302206 0.0001489879768914564 0.0006632183643821236 7.655901933679849e-06 5.913916123305894e-05 0.9992699865724511 0.9968765070590315 0.0003421661597371345 0.0003026067857225801 0.002478719995508712 0.001641795892158998 0.9929890891647739 0.0009355075578064001 0.004433607385260684 0.006500277773301338 0.0009562202986210685 0.9918852478731151 0.0006582540549625178 0.9903394209210327 0.003202997104454744 0.002265747374135599 0.004191834600376966 0.002583498315713472 0.9971359838564321 0.0001756303968609104 0.0001048874309935583 0.004524241737784756 0.004078781068802711 0.9910232722835093 0.0003737049099032247 0.002386153222761221 0.0004637930921485499 0.0008163216258800395 0.9963337320592102 0.9906178758460015 0.002858585870929278 0.003835404701944988 0.002688133581124313 0.005459749425961851 0.9907676870634762 0.001414016385337403 0.002358547125224549 0.00380013886937513 0.0005617904026202868 0.001774768717637998 0.9938633020103665 8.45481494343619e-05 0.002458650075017498 0.9974385891476601 1.821262788802812e-05 0.9934459883990787 0.0002743572139596208 0.003579911235025973 0.002699743151935741 0.001182929405370646 0.002054432852654355 0.9924077005602697 0.004354937181705318 0.0001036268630201518 0.9995464141150039 0.0002316717241579472 0.0001182872978179904 0.0002258808280008246 0.0002045354326335377 0.0001228799426682711 0.9994467037966974 0.9925498474741185 0.007250097106544373 9.581854186390826e-05 0.0001042368774732984 0.005272068395238275 0.002721118977735827 0.9907765444933507 0.001230268133675154 5.355719057097437e-05 0.004881421500637745 0.005058796460348012 0.9900062248484433 0.006734794882649807 0.9931203219678945 7.075121009488015e-05 7.413193936081697e-05 0.9906851815829126 0.0003910824667032774 0.007244511544753558 0.001679224405630506 0.006710680210392611 0.0001627587171787143 4.065937549065909e-05 0.993085901696938 0.002887101327016022 0.9928872680226153 0.0007287086394935286 0.003496922010875189 0.0003249868455988243 0.0003603916501664888 0.99920586722071 0.0001087542835246845 0.9985308634016585 0.001019609125494193 0.0004003853852101647 4.914208763710332e-05 8.083072762857639e-05 0.000311132215400541 0.0009526736855709904 0.9986553633713999 0.002906678399778737 0.0004808484200478788 0.9957063591061663 0.0009061140740069971 0.001061974508208657 0.994426708201624 0.001825206717289985 0.002686110572877323 0.0006765179243234296 0.003780736181825138 0.003435233755902899 0.9921075121379486 0.0008335086566364572 0.002079238854882608 0.9928790539767617 0.004208198511719295 0.0003452416106908963 0.9987044809285597 0.0001779559471229532 0.000772321513626419 0.9925071414697118 0.001643119414174697 0.004548766416401367 0.001300972699712223 0.004399871728528262 1.66845234600147e-05 0.001922241719084476 0.9936612020289273 0.006484186625591089 0.0001579894279144176 0.9925419543728015 0.0008158695736929855 0.9951432670342844 0.004211389367819865 0.0005853089614895738 6.003463640615438e-05 0.007586637824120212 0.9907104370161193 0.0004220992425616204 0.001280825917198891 0.006209046244826492 0.001065798149070199 1.374102562996435e-05 0.9927114145804733 0.004531374144367272 0.992226317387736 0.0002733376058474695 0.002968970862049189 0.004877244713823147 0.0001199343735632279 0.9940789123702353 0.0009239085423783053 0.9993503733827102 0.0002660673875687976 0.0003140797410083639 6.947948871267314e-05 0.004024555805945623 0.0009685604339369616 0.0003099342856257081 0.9946969494744917 0.006819499771690425 0.9906210365544658 0.002550636152713995 8.82752112982884e-06 0.991832205901341 0.000832897123830494 0.005653100986288353 0.001681795988540153 0.0004735406130921581 0.007473282781234206 0.9915810413574415 0.0004721352482320888 0.001413674595967599 0.0003515341588309852 1.081673682193861e-05 0.9982239745083795 0.9954183618897241 0.00387589962774091 0.0004165580752585959 0.0002891804072764017 0.0004794134046394404 0.0009169077942817859 0.9980466314879757 0.0005570473131031229 0.006077829391584324 0.9936147556749393 6.747632878341563e-05 0.0002399386046930201 0.000607634367454835 0.007704153048168783 0.001171505989489488 0.9905167065948869 0.9949457320251341 0.003534150861817578 0.0007211581219217738 0.0007989589911264854 0.0001479138256948675 0.9977621263866185 0.0001394968018777752 0.00195046298580887 0.0002252395454560049 0.00488944953881683 0.9915550983332809 0.003330212582446208 0.9949581040047734 0.001875730877154152 0.001118781451263816 0.002047383666808642 0.005085219267397995 0.9909646432206688 0.001104566770149355 0.002845570741783891 0.002930891256597453 0.0009607113266391068 0.9947853791170679 0.001323018299695541 0.003457649446838647 0.003916404433427939 0.001345316327706484 0.9912806297920269 0.9984939636713221 0.0007826856757248679 0.0004845039163692077 0.0002388467365837723 0.002565811616018582 0.9969699411228909 2.363614876324397e-05 0.000440611112327224 0.001012318658963639 0.0001832047628599774 0.0002396597715272554 0.9985648168066491 0.006862529128950982 4.991652206211062e-05 0.9914540835955061 0.001633470753480728 0.9905344642520498 0.001396071916346351 0.00333766856831426 0.00473179526328958 0.003690409585434679 0.001934031340161487 0.9909120693979701 0.003463489676433734 0.002681880568368903 0.9917942597867587 0.0002954253203698478 0.005228434324502569 0.002309239729394719 9.782829924329125e-05 0.003724750876208624 0.9938681810951534 0.9981912590919482 0.000858686699655532 0.0004796739074038123 0.0004703803009924849 0.001305422350559008 0.0003030586868788833 0.9983469243613369 4.459460122525151e-05 0.001487512477767656 0.0009341777350642816 0.002922327412582831 0.9946559823745852 0.00104547440862024 0.99425601476484 0.001744720253999677 0.002953790572540071 0.9956934345198097 0.003006866974640796 0.000602953723190671 0.0006967447823587548 8.817058501938232e-05 0.0009389820048337875 0.0006956596686563607 0.9982771877414904 0.003185346961250384 0.9960057839176238 0.0006588153469573867 0.0001500537741684004 0.005021911014433291 0.0001845423638339485 0.9947415908255415 5.195579619127189e-05 0.9934483521248845 0.003946397583079442 0.0009260165313615948 0.001679233760674544 0.002074060278564864 0.001479499618003076 0.006304174810967721 0.9901422652924643 0.0004891483347549176 0.0006004541504802322 0.9984067638058376 0.0005036337089272443 0.0002364093788810487 0.997659054697096 0.000741180575242655 0.001363355348780214 0.004171771414268199 0.001355768837390271 0.001296165882633135 0.9931762938657084 0.004720445057949774 0.0001562868416772664 0.994427719583339 0.0006955485170339388 0.00045513324659026 0.9956743769188957 0.002219623638612337 0.001650866195901674 0.9981107344855682 0.0003779200484271702 0.00130243409161975 0.0002089113743849306 0.00289850204574692 0.001924675316862082 0.00297434319274555 0.9922024794446455 0.002854982182409461 0.000752798413985101 0.9944941230171445 0.001898096386460969 0.991163701851061 0.001876303132581452 0.0008473327269581518 0.006112662289399479 0.008755533552497504 0.9911400214066086 9.689472100072523e-05 7.550319893194854e-06 0.0001747768560704113 0.0002970270944481004 0.0001261450779972756 0.9994020509714843 0.007636089934660317 0.991022418856811 0.0006265377422674567 0.0007149534662612924 0.0003235131744421822 3.466815819289428e-05 0.998985901315029 0.0006559173523359812 0.9925479223936965 0.002910444128265058 0.0009648376608149601 0.003576795817223533 0.00121627374018004 0.0005345263058090474 5.801018813352877e-05 0.9981911897658774 0.0008897307609922937 0.9986019194119462 0.0004541489503041217 5.420087675740172e-05 0.9951258179557547 0.0004936731268678886 0.002776907659281652 0.001603601258095741 0.00116130487471993 0.001433076241060835 0.9970949751435184 0.0003106437407008407 0.004108941381906385 0.0006672578506186169 0.001426073645008643 0.9937977271224664 0.9938621542096289 0.003503865942258061 0.0009832988994633056 0.001650680948649755 0.0005606583402673615 0.00261163613368607 0.9904244369641862 0.006403268561860281 0.000874784419110057 0.9988278775300504 7.711314502709933e-05 0.0002202249058124007 0.0003604143966363046 5.307916760717708e-05 0.0001997175171304505 0.9993867889186261 0.9964454449973053 0.002212799947938095 0.0009587056741149046 0.0003830493806418015 0.001270287595469622 0.9964055276642163 0.0004403118239872813 0.001883872916326835 0.001267151262735376 0.004337091924114042 0.9941995995661933 0.0001961572469573025 0.9968931164796114 0.002231677698545531 0.0004391703189121745 0.0004360355029308493 0.001952881164841678 0.9968201335209316 0.0005684913872770653 0.000658493926949658 0.0002586408686538972 0.0003165704930470743 0.9978066294426499 0.001618159195649187 0.001485195320388879 0.0007189862998530931 0.00190487332445107 0.995890945055307 0.9934320925229552 0.001695022685862165 0.002255297342751664 0.002617587448431022 0.0009353329329990711 0.9968314912965545 0.001084848444547197 0.001148327325899303 0.001207966143085973 5.885242147127767e-05 9.518971820447948e-05 0.9986379917172382 0.003676309677264464 0.0003545030055319056 0.995768696790189 0.0002004905270146873 0.9919760099459355 0.003991633508673447 0.003779161655241028 0.0002531948901500053 0.008449743493793477 0.0007564930269651503 0.9902395247842121 0.0005542386950293407 0.00634054936256648 0.991864162823319 0.0007119143825259275 0.001083373431588573 0.001407660925027878 0.0005864632223663829 0.0002710763252071996 0.9977347995273985 0.9907375717681415 0.006141933244096604 0.002897209393999346 0.0002232855937625618 0.0006975404969675182 0.0001510215534971064 0.9974685668676212 0.001682871081914171 0.009227521596835424 0.0004711941943290328 7.413726345835469e-05 0.9902271469453772 0.003785923848305492 0.9954200591795055 0.000762723327491345 3.129364469767681e-05 0.9908059128873459 0.00390109799795104 0.003284883412817347 0.002008105701885781 0.004736227239966672 0.001413442281904149 0.001316159568527426 0.9925341709096017 0.0003114588056035267 0.999122339376005 0.0001055585693311737 0.0004606432490602266 0.0002121224016176224 0.001949447528209449 0.99722917388723 0.0006092561829429246 0.9980587605591242 0.001527601638160899 9.201453102240231e-05 0.0003216232716924956 0.000765929888694807 0.004329534241986493 0.001296083770703929 0.9936084520986148 7.503228167133812e-05 6.955112889852068e-05 0.9997638621960099 9.155439342026084e-05 0.004279344083732274 0.9955987710332609 9.866267483246532e-05 2.322220817438379e-05 0.004831214129351794 0.0001757699969318258 0.0007938501107515174 0.9941991657629649 0.005523634554987222 0.0001178259714353865 0.9936967279895134 0.0006618114840640327 0.000499421682643318 0.9983584943064066 0.0001233470021404134 0.001018737008809696 0.9948024955334946 0.0024575999865253 0.001033122360849431 0.001706782119130667 0.00382723341975052 0.003503963025931104 0.002232632816757243 0.9904361707375612 0.003682969850223693 0.004357137297786931 0.9904122615755617 0.00154763127642763 0.9955220704386725 0.003382136521508464 0.0005422118329277918 0.0005535812068912598 0.005584960168496501 0.9903601458275691 0.003343874067776179 0.000711019936158176 0.002547079090845949 0.0002287012693780179 0.00115788387934125 0.9960663357604348 0.0007951296964612658 0.9986646042271858 0.0004477145334279074 9.255154292500196e-05 0.0006271217828559722 0.005334552439440254 0.9929464393826369 0.001091886395066835 0.9986528525081223 0.0004698902732253294 3.929582091379057e-06 0.0008733276365609641 0.0006146406206042875 0.0008501778616726087 0.006128052767625266 0.9924071287500978 0.0009101063595239897 0.996579932268732 0.001537596816842698 0.0009723645549013689 0.9946678846314366 0.004424096945750468 0.0005302195155966978 0.0003777989072162466 0.0009075296955622392 0.0004011950229176368 0.9923372694910085 0.006354005790511608 0.00041816121673316 0.00286579645908327 0.003139766416716359 0.9935762759074672 0.9996740180600197 5.3503355473907e-05 0.0001357222670955318 0.0001367563174108688 0.002125383945741984 0.001577950772938556 0.9962312280482402 6.543723307932798e-05 0.005418298009401606 0.9922807056234618 0.0004201368441066288 0.001880859523029965 0.001663548361475748 0.003702609734840676 0.0009530197292220727 0.9936808221744615 0.9949376788955443 0.001253159083220585 0.00210667416542894 0.001702487855806185 0.0044073174267936 0.9945230366533568 0.0008254281827134736 0.0002442177371360937 0.005443276340972805 0.0009939336678304691 0.9928392289988131 0.0007235609923837223 0.9904395832612871 0.004131236794837949 0.002004599599788286 0.003424580344086635 0.003372591771293141 0.993652602557228 0.0029131274345265 6.167823695233483e-05 0.0001701257450110587 0.002439775132988705 0.9954710492184607 0.001919049903539437 0.005601933065734047 