<?xml version="1.0" encoding="UTF-8"?>
<!-- This file was created by ACADEMIC version of SMILE -->
<smile version="1.0" id="Unnamed" numsamples="10000" discsamples="10000">
	<nodes>
		<cpt id="U1">
			<state id="State0" />
			<state id="State1" />
			<state id="State2" />
			<state id="State3" />
			<state id="State4" />
			<state id="State5" />
			<state id="State6" />
			<state id="State7" />
			<state id="State8" />
			<state id="State9" />
			<probabilities>1.0753210632813e-09 0.4820914679050958 5.107012713941672e-08 0.02344177752908073 1.115414854583622e-47 4.145730887801384e-26 0.4365519371684439 3.032479024162251e-51 0.0321049795191111 0.02580978573282032</probabilities>
		</cpt>
		<cpt id="U9">
			<state id="State0" />
			<state id="State1" />
			<state id="State2" />
			<state id="State3" />
			<state id="State4" />
			<state id="State5" />
			<state id="State6" />
			<state id="State7" />
			<state id="State8" />
			<state id="State9" />
			<probabilities>8.129357984880617e-05 0.1337950327904411 0.001460735222132738 1.386536211660867e-25 1.21865475755259e-14 0.1825105000014412 4.138484524046346e-06 0.6821457332632315 5.282820952792798e-65 2.566658368476334e-06</probabilities>
		</cpt>
		<cpt id="U17">
			<state id="State0" />
			<state id="State1" />
			<state id="State2" />
			<state id="State3" />
			<state id="State4" />
			<state id="State5" />
			<state id="State6" />
			<state id="State7" />
			<state id="State8" />
			<state id="State9" />
			<probabilities>0.03117078298856397 0.01788005887185831 6.171777647826728e-06 0.1574917604839406 0.2111586543777192 2.957851562475794e-18 0.2312040265522506 0.3363090895931013 0.0147643921784703 1.506317644777454e-05</probabilities>
		</cpt>
		<cpt id="U25">
			<state id="State0" />
			<state id="State1" />
			<state id="State2" />
			<state id="State3" />
			<state id="State4" />
			<state id="State5" />
			<state id="State6" />
			<state id="State7" />
			<state id="State8" />
			<state id="State9" />
			<probabilities>8.395598926588536e-07 1.479204529394123e-09 0.0004043138902898473 1.781810588544352e-05 8.520713020094382e-25 0.8401033016686578 0.1584653917507783 3.062004955715753e-22 1.538005380348253e-05 0.0009929534914877955</probabilities>
		</cpt>
		<cpt id="X">
			<state id="State0" />
			<state id="State1" />
			<state id="State2" />
			<state id="State3" />
			<parents>U1 U9 U17 U25</parents>
			<probabilities>0.1326258809830411 0.0003852502772308353 0.864930982172704 0.002057886567023957 8.811955898518583e-20 0.987444383106852 0.01147241238467421 0.001083204508473871 0.4943931363650512 0.4928579876549633 0.0126252656598499 0.0001236103201356585 0.0006811078601874183 0.0004300840933430187 0.003092403258994037 0.9957964047874756 1.667425207740802e-24 4.084826901191422e-08 0 0.9999999591517309 1.220697564603901e-16 1.530022880537703e-54 0.2258751940901596 0.7741248059098402 0.0722338858899646 0.8030081596154094 0.1227137071760045 0.002044247318621501 4.182827649719387e-05 6.726699361263929e-06 0.9999514450171954 6.946142254387296e-12 0.9398342248651429 0.0001844857624221504 0.05998128937243497 9.531125358456569e-23 0.85634417275232 3.66014014195869e-06 0.1436296711356758 2.24959718621907e-05 0.7636619529801421 4.809848123591931e-07 7.303957641144623e-30 0.2363375660350457 3.732994345484771e-13 0.9981183936614266 1.09645740284991e-15 0.00188160633819883 9.321824007391513e-06 0.559892615181776 0.4400979897665169 7.322769961485048e-08 0.007685554104560721 0.006198681261546738 0.2908388261033014 0.6952769385305914 0.163513446478483 0.8364152812039718 7.127231754513029e-05 2.150069550403185e-36 8.540241555965361e-57 0.0001194420322247798 0.9998805579677752 3.064927792054693e-28 5.152064513353984e-05 0.06014382303471005 0.9397685172652116 3.613905494492089e-05 3.610214610961528e-144 0.2178321403672782 0.7821626716002951 5.188032426701609e-06 2.008436494718714e-05 0.999549576062173 1.896869948745496e-60 0.0004303395728796406 7.390228478793111e-13 3.302666129923321e-05 1.932950112393158e-09 0.9999669714050117 0.05608882698210578 0.0005978713267377813 5.047297201771487e-06 0.9433082543939547 0.6522826330431183 2.171668950043848e-43 1.228277235825149e-111 0.3477173669568817 0.0005730253029426476 0.09723804123184628 0.03399512546740956 0.8681938079978015 0.7443133954988359 4.442186967096916e-07 1.053995305305578e-18 0.2556861602824673 3.046795541580242e-18 0.005940545646329623 5.40901448730627e-174 0.9940594543536703 0.014893922568194 0.0004986676696800888 0.9374387275588218 0.04716868220330414 1.309756148283769e-05 0.1225472017664447 0.8774397006720724 1.098191756333811e-17 8.568846153890976e-06 5.861306095430449e-19 1.042951967885895e-45 0.999991431153846 0.007598009721211523 0.004524358384112383 2.188755777090528e-20 0.9878776318946761 0.9967227381809994 0.003276901793736593 3.597460749863273e-07 2.791890739923409e-10 0.9626261050552576 0.001997536392298362 1.689511383609927e-29 0.03537635855244409 2.000505550727433e-07 0.01069144485827655 0.963107034281669 0.02620132080949932 9.591339942206922e-34 0.9905227875793459 5.941836507409682e-20 0.009477212420654199 0.03539054797596477 0.9270439788523608 0.03728314635272099 0.0002823268189534051 2.518859792376549e-06 7.242977937287228e-34 1.83585731007885e-09 0.9999974793043503 0.9996546492647315 2.539152849388199e-21 0.0002776940002938466 6.7656734974722e-05 0.5690218685619717 0.006542831057105236 0.3521049319938623 0.07233036838706076 6.727241520093506e-05 0.109687673676481 0.003884995261629606 0.8863600586466884 3.197619633035311e-22 6.005693584825244e-06 0.9999478207811051 4.617352530992199e-05 0.007871892611725091 0.4619092633760147 0.5302188398888106 4.123449684527647e-09 3.773916283638031e-57 1.152428677790203e-17 0.5489078188390052 0.4510921811609949 0.0008366216483817737 5.822487605037782e-15 0.002196520280501943 0.9969668580711104 0.885627955915035 3.680135575224053e-21 0.0939161191978054 0.02045592488715976 4.31331746964971e-22 6.542293240053909e-05 0.5437787372809831 0.4561558397866164 1.324132187047116e-14 1.186862617205078e-14 0.9999965023173611 3.497682613708706e-06 7.135742456374004e-11 0.00100945772399475 0.9989905422046478 9.504945842708471e-97 0.0007743805544076819 1.171237573208935e-26 0.9987506910680841 0.0004749283775079661 0.9983625168639121 1.073252011571373e-22 1.448923861441738e-07 0.001637338243701761 0.3587196464645324 0.001294247580891401 0.1723989940932358 0.4675871118613404 0.8287471429185467 5.036355118974872e-05 0.1712024935302635 3.864233734649971e-26 0.6621861311126886 4.475526971386159e-05 2.820652021030907e-22 0.3377691136175976 0.8647817846512297 0.1351451889347735 7.257084061590152e-05 4.555733809248204e-07 0.01578470484128019 4.423521971039471e-54 0.9841568668274201 5.842833129976506e-05 0.02310261113481929 0.976865169956075 3.333619800760905e-08 3.218557290776035e-05 0.009039559449875927 3.474802615029706e-22 0.9909490436366917 1.139691343238135e-05 0.001197157285676915 2.98733216034631e-87 1.558997354797285e-07 0.9988026868145876 0.4878457843731301 0.0001341174840890387 0.5039610173783647 0.008059080764416091 8.640653383713186e-08 0.006859128088269353 0.9929976978162992 0.0001430876888974855 6.980367561797497e-11 0.7083602545467774 0.0001067419186201213 0.2915330034647987 4.693571450801826e-06 0.9997956641764157 1.135939994837723e-17 0.0001996422521332696 0.9708134371584582 1.563883436445816e-13 9.042548826756299e-47 0.02918656284138541 0.001158599874717393 0.6746553655615486 0.324186034563734 2.906101734765429e-17 0.003991703290221006 0.9958525131672995 0.000155783542479509 0 8.023376456450036e-19 8.643417137091139e-13 5.611653111958335e-07 0.9999994388338245 0.000745864468110415 0.6718463244408955 1.849240453223745e-05 0.3273893186864618 0.9081988771126762 0.001129371986078153 3.31629297107905e-15 0.09067175090124228 0.009622039439720662 3.898017748006611e-08 0.9899564755010323 0.0004214460790694354 0.03845802988336626 1.219403247321765e-47 0.1187173758944257 0.8428245942222081 0.1879730422039646 0.8104082597643807 0.001618696686700919 1.344953859930848e-09 0.7399350875410838 0.0001919178714568726 4.545615372542949e-06 0.2598684489720868 0.2229495303791208 0.7607150927463707 0.001257972612365045 0.01507740426214338 0.6941059091856495 0.297364252098769 1.798442366937975e-24 0.008529838715581403 0.0001610168999149848 0.7972241081337391 0.202614874963592 2.754024633263728e-12 0.2219577814996131 0.0002603529868268899 0.02064365347539322 0.7571382120381668 0.1157199172697139 0.7278061696374398 2.185522649041948e-18 0.1564739130928463 0.0002874055900370035 7.357730958579088e-09 0.9985595386521865 0.001153048400045432 0.893938254526732 0.1060617189518794 2.652133571637251e-08 5.292722616763885e-14 0.8864122344866896 0.1135877655088736 4.302016019039789e-13 4.006376518284153e-12 1.591068577439147e-59 0.6639467109951822 0.266021178267253 0.07003211073756475 7.125173125057802e-27 0.9999999959961737 5.900274645867023e-10 3.413798937092596e-09 0.9997771305369189 8.426977658275707e-07 1.469244448791999e-19 0.0002220267653152563 0.7023164107275703 0.2975236324331168 1.14580596484956e-10 0.0001599567247321747 0.09081650134721242 0.909183471093243 2.705073311114752e-08 5.088113043136802e-10 4.980652415345212e-11 0.9972459094461411 0.002754090504052306 1.298940018531758e-183 0.005630306697386603 0.9883006186796512 1.19871710126963e-65 0.006069074622962201 0.02333734690823587 0.1930341810847302 0.7684816975140147 0.01514677449301896 0.8926648943465342 0.08342223435816744 0.02391287128301326 1.228505220361076e-11 0.001935789613956195 1.428039781063227e-66 3.416886594236605e-10 0.9980642100443552 0.8925108801718044 0.08274068250378896 0.0003940305499727408 0.02435440677443391 8.45575335422386e-06 0.0001401479423110615 0.007881167187688439 0.9919702291166463 1.312500287872968e-10 0.986222353890463 1.618851480146724e-06 0.01377602712680676 0.9999999999999982 4.096795458273836e-16 3.072701874446923e-53 1.483685894607786e-15 0.9624186049335545 8.08567036054292e-11 0.00766958213991751 0.02991181284567122 0.5983044604867698 2.008324150877684e-32 1.190321183164252e-17 0.4016955395132303 6.832573864537555e-33 6.304766986372302e-09 0.8751633160864651 0.124836677608768 0.9998900389298181 1.209880691105654e-35 2.444407831149384e-22 0.0001099610701820028 0.001562476041216719 0.8908697885839209 0.1033927484037538 0.004174986971108646 0.01375703629110436 0.943504589368321 3.343136268932845e-11 0.04273837430714337 1.125243260938874e-11 0.001685355803693422 0.5330446596449894 0.4652699845400648 0.846036025158532 0.1539639733615507 1.295502235547239e-14 1.479904317361224e-09 0.1089668949370985 7.815533870547215e-10 0.88174152791615 0.009291576365198178 0.0002404320254768261 4.173736344886193e-09 0.9996504304479749 0.0001091333528119015 0.970081224261379 0.01233419439027634 7.190861395946398e-252 0.01758458134834474 0.9721633640680352 0.0009876552200994355 0.02684898071186535 6.21484567357588e-18 4.967402070198017e-09 1.221287155389659e-11 0.007067977904290135 0.9929320171160948 7.971007282639831e-07 0.9680816933404204 0.03172620948284319 0.0001913000760081671 4.840191381317793e-12 0.0895794778483904 0.0007140755931257447 0.9097064465536436 1.006894445721236e-57 0.0008802835368204956 0.9988513315298815 0.0002683849332979169 0.9451344223488871 6.791547570857066e-05 0.05478580073293704 1.186144246722242e-05 0.008948846783054468 0.0003138075579637064 1.00850925132684e-14 0.9907373456589716 0.09661507536224227 0.001034888688406104 0.4284285924853092 0.4739214434640424 2.475264407675989e-44 0.2153530915886154 0.7845579169616534 8.899144973111598e-05 0.4786374637356475 0.458192001612476 0.06317053465187654 3.021011354767409e-21 0.9999352977491159 2.510380788785242e-14 6.470225085897047e-05 6.825815093405251e-203 0.7582374862264978 0.004437677519059375 7.76298573012243e-21 0.2373248362544426 0.5799321673575809 0.0003914933586836436 0.419676325211097 1.407263833623156e-08 0.04239918678192093 0.1474060546794823 0.8075003439832614 0.00269441455533532 2.752847103080353e-19 0.1778781376825031 0.005042179279218284 0.8170796830382787 0.9832234485827761 9.816850508893101e-06 0.01676673086034116 3.706373888747474e-09 0.8973324757958797 4.459419537958356e-16 0.002674138788674139 0.09999338541544578 1.190049050221968e-31 0.08630112280337554 0.9136988771966243 2.635347138488726e-19 0.1290412422609319 0.2239072965921236 0.6090180956629825 0.03803336548396204 6.842308680464396e-05 0.8212911296651088 0.178640438005153 9.242933619705853e-09 0.1439018312562192 0.001222871113222792 0.8169875109411732 0.03788778668938484 4.326439565594675e-24 0.9999517057579312 4.827532050389875e-05 1.892156482788004e-08 2.609647381425216e-05 0.007230436678666564 6.757871067358093e-07 0.9927427910604124 2.412387391700956e-34 0.9748633251293242 0.002034188470353613 0.02310248640032219 1.184413571587994e-06 1.821390340359951e-13 0.0001059472944348027 0.9998928682918115 0.8979548103995273 0.001028498604069492 0.1010166909907638 5.639444830224398e-12 1.946029587707766e-10 1.266147244157668e-10 0.004077248060377454 0.9959227516184048 0.000234340651713036 6.974262791564478e-05 0.9996959167203714 1.282539696877441e-20 6.060135962154338e-14 0.2233335944424389 0.05803049442729754 0.718635911130203 0.02551474590106483 7.317976724382469e-05 1.943976897292251e-238 0.9744120743316913 0.4911336638090271 1.000839386920679e-07 0.5088662361016831 5.350986275337338e-12 4.22126596804872e-24 0.0005858781411362929 1.16341349429348e-06 0.9994129584453694 0.9995161789744743 2.250322611192637e-06 0.0002647703007084147 0.0002168004022061495 0.9997408497791905 0 0.0002591502208094127 7.354693008176509e-28 2.860158149730851e-09 0.9994825841759878 0.000511865973957493 5.546989896529463e-06 0.9842574225556586 2.106592444907527e-05 6.149424451465756e-66 0.01572151151989222 2.904337100980321e-14 0.8713200486113877 1.563597315995276e-05 0.1286643154154234 0.04426358168817664 0.001659378302377006 0.4811017411615974 0.4729752988478488 0.2045724709188333 0.0002770307959053815 3.22438956406727e-87 0.7951504982852613 0.01588173407503858 3.17393646833872e-12 3.628330970352935e-33 0.9841182659217873 0.02358910521373007 4.100800002600126e-15 0.004247482265959964 0.9721634125203059 0.2843699334694155 5.772947914374508e-21 0.1576318969827512 0.5579981695478334 0.001517744027463789 0.001347651631643486 1.13699682376678e-11 0.9971346043295227 2.890887267708159e-19 0.07801504249073246 0.1254092464648803 0.7965757110443872 3.245091979651802e-10 0.04510694362461 0.2770595265202511 0.6778335295306297 0.0002257476388207726 0.6518924004424256 0.3129446077356117 0.03493724418314195 5.147152035534416e-07 0.0002711401223150827 0.1308431214029375 0.8688852237595438 1.458856973521249e-19 0.23643168146254 0.0007665503032455058 0.7628017682342144 0.7632004457964294 0.165638764601937 2.194376941662429e-190 0.07116078960163363 0.002389238515144363 0.6269226147952156 0.3630791739626517 0.007608972726988405 0.0036036803208617 1.138523948173208e-05 0.1091640895086805 0.8872208449309761 0.9995882653793716 6.713428492366256e-05 0.0003446003356489517 5.579434222331263e-14 0.02585649143470614 3.629169041685453e-06 0.9741398793182019 7.805026469435508e-11 2.688231977094819e-07 3.771596149545558e-12 0.9923911570778945 0.007608574095136113 0.0009668014173164106 0.9282382097973939 0.003034718480456207 0.06776027030483368 0.001473637750566878 0.9985263619548067 2.94626381926275e-10 1.412354517956341e-24 0.2344329462073427 0.4880887949280199 1.573855440776506e-17 0.2774782588646373 1.904473074308894e-09 0.9990903722424651 4.309779918480451e-06 0.0009053160731432606 0.2763315491359246 6.158679030669721e-66 0.5769487976315765 0.1467196532324989 0.02629930144359789 0.9711008359895309 0.001841446639407832 0.0007584159274633426 5.205346329817488e-06 0.001610320030227552 0.00176315024640695 0.9966213243770357 0.1265423447201687 0.001257355814184025 0.001478068981766553 0.8707222304838808 0.000104467634801325 0.9630048722007644 0.03689066016443435 5.624887000128411e-113 8.486594037156758e-05 0.005539783468996814 3.171937641406912e-07 0.9943750333968675 0.0003560360470627418 0.6357751135651947 0.03766055377825744 0.3262082966094851 0.9925789598972846 0.007196304812564032 6.637868083438315e-45 0.0002247352901515885 0.2304797230743289 1.381120178693111e-06 9.909925512562439e-23 0.7695188958054923 0.1014278596575879 1.635162111186292e-11 0.8985720398021236 1.005239368892714e-07 0.9379133847075046 1.827539061034606e-16 3.598487955873129e-06 0.06208301680453931 0.01917684894848863 0.07580123511777401 0.9050219159337375 8.223603107005006e-17 0.08400883551182325 0.7373330607771948 0.02325489691823345 0.1554032067927485 1.217971453799213e-08 0.4553735072948417 0.00074117486639871 0.543885305659045 0.9582159016188794 6.790866456021493e-14 9.780866320108335e-26 0.04178409838105276 6.554949921739558e-07 6.175570110460351e-10 0.9153998180802478 0.08459952580720301 2.396005861471564e-24 1.278882083640313e-10 2.48193919037249e-122 0.9999999998721117 0.8915366852606299 4.300941375764254e-09 0.1083788761593856 8.443427904309179e-05 0.06020095840738449 0.1345995658014367 0.008321011959177661 0.7968784638320011 0.9999890408554565 3.532205733011679e-07 9.88099146455497e-28 1.060592397012606e-05 0.0004240466674491872 0.02567808680681528 0.9657769071761543 0.008120959349581146 9.481876378466044e-07 0.9610098524834416 0.03870592678692924 0.000283272541991408 0.001472748134188819 3.102093407829243e-10 0.9984586712788482 6.858027675349357e-05 0.001082759770922031 0.998916817625599 8.300697491437787e-13 4.226026487918316e-07 0.01739089863360005 0.2490911289391506 0.0002081608547281536 0.7333098115725212 0.3067915957362919 0.5651095048747412 2.037305938439382e-24 0.128098899388967 6.858208740695543e-66 1.050941215272991e-43 0.005736799357847727 0.9942632006421522 5.965827409248427e-07 0.002851977345322389 1.77114945089476e-12 0.9971474260701654 0.1999149350988331 2.963491087347262e-07 0.0005400976344222923 0.7995446709176358 9.278483252287036e-19 3.244458860769744e-12 0.9999999999967556 1.709326685058832e-17 5.855190133040004e-14 0.0467940258587092 0.7600284457945327 0.1931775283466996 1.10057281190985e-05 0.1426207382709419 0.139978939419589 0.71738931658135 0.9932429116158954 2.85399076466426e-05 2.639028059487678e-07 0.006728284573651968 0.03436211072797948 0.06752006949944254 0.898117819772578 4.624762004826362e-23 0.2268776669182352 0.03326148981851089 0.7398608432632539 6.331464848416761e-22 0.9942969114543618 0.004666232867344196 1.325770632007343e-22 0.001036855678294019 0.3713121608846391 0.04182217766165107 0.5868655935988969 6.785481304167682e-08 5.31290187897509e-05 0.9999468677465737 1.181164209156013e-30 3.234636498829386e-09 0.9999903616947486 1.251339612103278e-07 3.291049896983199e-152 9.513171290295003e-06 3.099004036994208e-12 0.01138240214132142 0.9886175978552159 3.638868986769858e-13 0.5683400122140064 0.1737619542472495 0.2578980335362884 2.455607500323798e-12 0.9999999986990561 3.733845649405466e-16 2.572342018417453e-17 1.300943618346513e-09 0.0379071969660801 7.747331607924615e-12 0.06774718962510781 0.8943456134010647 7.454701650042761e-26 0.9969651346740031 2.603520776336553e-11 0.003034865299961791 1.682360131572663e-14 4.919127039645217e-09 3.058420938996223e-05 0.9999694108714661 0.03901236687449901 5.227773019145719e-17 0.8857059016500326 0.07528173147546831 0.9999999999999979 3.881304371778265e-220 0 1.979757076251488e-15 1.645991949910398e-21 0.003968400704250871 0.1148325651977055 0.8811990340980438 0.05204469983505102 0.000321117769561772 0.9476341823868237 8.563632644190306e-12 0.06093287363463019 3.6267309910502e-13 0.7211424695708044 0.2179246567942026 0.4498147413393132 0.001006253362761009 0.00135310955209203 0.547825895745834 0.006038661850619513 1.252040271629473e-43 0.9934858816081535 0.0004754565412269452 0.8223898911595787 7.765949599749522e-30 2.285335325349481e-07 0.1776098803068888 0.9990422227067913 0.0009577772932085906 1.056058366541393e-84 1.258419847766764e-19 0.0003280024525871753 0.3521080931547829 0.000237549665253319 0.6473263547273767 0.02853200192820223 3.065057619745131e-55 0.9647978854698354 0.00667011260196253 0.00079934214833057 0.9991409268708209 1.692783730773056e-05 4.280314354074378e-05 0.6336271717001871 0.2496525997666205 0.1121372227046152 0.004583005828577111 0.003120490831209877 0.0003689939122687681 1.329522178130827e-10 0.9965105151235691 0.01900882557616479 2.979854161464835e-18 0.5872614218729856 0.3937297525508496 0.9145245147685288 0.08544839640069185 2.708881099564823e-05 1.978370089488907e-11 0.1177003558123202 0.81482064197113 1.921288468494649e-11 0.06747900219733688 0.0001447801245474444 0.6152960538694564 4.494332370382337e-06 0.3845546716736256 5.896458826677742e-15 0.9999999480300733 2.311295022952656e-08 2.885697073463598e-08 4.66640733492541e-20 3.906318262575442e-06 1.368954803849827e-18 0.9999960936817374 0.01517239984312436 1.930933670377075e-07 0.01149084616717296 0.9733365608963357 0.3652393225563167 8.196152830729865e-06 0.6347513105137534 1.170777099286833e-06 2.713735744819756e-19 0.8883073252249771 0.04670873889559631 0.0649839358794267 3.536285775029235e-09 0.9999999962661649 1.007521504331598e-23 1.975492935549369e-10 0.03463528717267682 1.797631457137261e-15 0.9305336090794428 0.03483110374787866 0.07412083649399094 1.201200940294719e-22 0.07523557988910994 0.8506435836168991 0.0001406429822990427 0.999859356748984 7.888360161688844e-12 2.608286991128535e-10 8.857430281121933e-08 2.478752747889072e-49 0.007006471770631667 0.9929934396550654 0.290652042323356 0.5931098550992215 9.325145489483971e-81 0.1162381025774225 0.9996417208010066 0.0002726128880464859 7.579344853611021e-06 7.808696609339781e-05 0.0117099700914143 0.02755032840119096 0.9607397015073947 9.231667188945432e-34 2.368724690386687e-26 1.91025933104513e-08 0.05307677544470939 0.9469232054526974 5.568505083190093e-29 5.586511258630799e-16 0.8812610565344342 0.1187389434655652 2.70319439281016e-19 0.0188437379795359 0.6167903583587235 0.3643659036617405 1.001233638383401e-08 0.6355605565773952 0.03946920539665083 0.3249702280136176 0.9754508295073243 0.008573969724992674 1.932328283365535e-08 0.01597518144440021 0.0007011214317427626 0.9930492540222455 0.006163564389044022 8.606015696772837e-05 0.01750923809309118 4.680529704666078e-06 2.496999785241197e-07 0.9824858316772256 8.255830071187605e-08 0.4906100779006892 0.5088790934488387 0.0005107460921713431 1.058577374718552e-14 0.7431192197024097 0.2129291449972536 0.04395163530032614 2.30870015669888e-10 0.0002809087847247228 4.816043624019352e-37 0.9997190909844053 0.0006416323930198241 0.6822801061161938 0.03974115567013065 0.2773371058206555 7.146635526496267e-05 0.0002509159831256939 0.6186514413314198 0.3810261763301896 1.007268108010848e-11 0.007418896785854242 0.0001399930572063743 0.9924411101468668 0.5443165942595849 0.009402810186262578 0.4462704149768807 1.018057727195068e-05 5.264658242491177e-41 0.9999305681404534 6.973641428221927e-18 6.943185954659129e-05 3.648675276279687e-17 1.657191743508739e-55 0.9335391745106352 0.06646082548936486 7.438235107634237e-07 0.9999992560416905 1.347951963831255e-10 3.596310112921984e-15 0.4491228364957527 0.3571512776936525 0.1809626653795081 0.01276322043108687 0.8194881682004712 0.1804993549628125 1.247648727961956e-05 3.494366324322186e-10 0.0013062111091478 3.165772916487013e-20 0.9969393978979333 0.001754390992918863 1.233959425480096e-08 1.45172664419e-24 7.023115751085365e-08 0.9999999174292483 0 0.0378023551086584 0.008780843238178897 0.9534168016531627 0.002032153335900397 0.5489762145920976 1.424783343538582e-37 0.448991632072002 0.0402391854052038 0.001041070779715345 0.9279338674488907 0.03078587636619008 0.5252280896826633 0.0002401330370475804 0.4745281159547195 3.661325569645622e-06 8.658115977659775e-92 0.7035716402862662 0.2330711192344207 0.06335724047931313 2.08805090187574e-12 0.9964111305209331 0.002109884490625208 0.00147898498635365 1.865387653371704e-06 0.9690231651645936 0.03060920098439008 0.0003657684633629402 0.9984727831536093 6.850486890242191e-10 1.344486201881645e-06 0.001525871675140004 1.778393203868278e-19 0.9999999999869326 3.69691517343515e-18 1.306735750094038e-11 9.848088327373228e-39 0.9990831708700778 0.0006699314855608903 0.0002468976443612537 1.469619813957424e-09 0.999876610724985 3.789579881819169e-17 0.000123387805395302 7.194144760280439e-07 0.08142843281834888 3.385268303260822e-10 0.9185708474286483 7.30262368158045e-12 7.204395961027001e-12 1.585023651045107e-44 0.9999999999854929 0.9772695449802357 0.001878849445358653 0.02085160557357523 8.305141279339615e-13 1.043367492777897e-10 0.9999999998956633 1.10079284311357e-22 1.988880599640227e-122 0.9988238044034857 0.00117208394824835 4.11164810802764e-06 1.578505709084277e-13 4.74900225354006e-07 1.096238351389323e-37 0.02849792835207199 0.9715015967477026 0.1817034651803376 1.665862329938489e-06 0.1208968559578927 0.6973980129994397 0.211520344753064 0.677984095383644 0.1104955598632917 2.195805213747811e-16 0.9536953783815794 8.441650158411477e-12 1.22318958663583e-12 0.04630462160875565 0.9937017063853355 8.914150384924359e-175 5.823540250048025e-60 0.006298293614664583 1.472957170458859e-34 0.9680626308317702 0.03193736916822972 1.558629519724889e-23 0.0001652743430494251 0.6589675683650921 0.3408671572918585 4.803525453222214e-18 0.304297714337252 0.6957022077793102 6.883116276014886e-08 9.052274871270006e-09 7.331386516506889e-10 4.381867432085762e-06 0.99999561739868 7.491904781962929e-13 1.55445594809574e-34 4.414287700473969e-24 1 3.320069930204655e-136 1.243026586800286e-07 0.0001900251408196869 0.9994968062749559 0.0003130442815657832 9.92118670998856e-05 0.5214789842139176 0.476691989659476 0.001729814259506558 0.6342367596821117 0.003479445981794795 0.3622837545795207 3.975657273485397e-08 0.8953643588644519 3.739574753563099e-05 0.0001794478205084328 0.1044187975675042 0.02447381090638873 2.269227000937308e-10 0.190310906640538 0.7852152822261506 1.939710182229725e-09 3.764246110383117e-34 0.00102182644437473 0.9989781716159152 0.9999999938792317 6.017665419941369e-09 1.703736929801336e-14 1.030859399865741e-10 0.01787858725322709 0.06094402302379496 0.2182353527013363 0.7029420370216415 0.6496792267641258 0.2872078776081091 0.06134109191695466 0.00177180371081043 7.637393100721712e-05 0.165791999971596 0.8341316259012922 1.9610463205187e-10 0.9868994723746692 0.0001870491502188407 4.650165230081139e-94 0.01291347847511193 0.9628124368445189 2.035611357706525e-11 2.846436106781085e-27 0.03718756313512504 0.04451035560500782 0.9554808810820983 8.763312893789311e-06 2.972175276231797e-53 0.00367423702893119 0.9373948565027334 2.123949864948567e-62 0.05893090646833542 1.546745355397458e-05 2.702446299635959e-09 2.996078789411615e-10 0.9999845295443918 4.607956686218224e-08 0.8076589427773496 6.805653460086518e-16 0.1923410111430829 0.0001851995390210492 0.9946444017300311 0.004539055320920769 0.0006313434100270575 0.003130113513186129 7.222173649749008e-06 2.260446546513023e-07 0.9968624382685094 0.3789682077522988 2.123894266576142e-08 0.02961289993731138 0.5914188710714471 9.747712184684326e-05 0.9998808633607661 1.423787667253149e-09 2.165809359932344e-05 0.9517767573146668 0.04822324268533312 1.748150599981194e-32 2.720157724625393e-33 4.81933293909329e-05 0.9979240851668582 0.002027720760097087 7.436536490805081e-10 8.532228472015143e-13 1.09546890012833e-06 0.002080691982159532 0.9979182125480871 0.0003684767572859767 0.999588105069971 3.651100254629134e-88 4.341817274297191e-05 0.6932311725702467 0.2344400121019059 0.0002340243828519377 0.07209479094499539 0.00625677613038187 4.552200424676472e-09 0.9014607690990217 0.09228245021839586 3.699807446692848e-10 9.189035591017028e-05 0.04156661483104822 0.9583414944430607 0.0001020069833938026 0.9851005302309468 1.389368393032571e-08 0.01479744889197555 0.6858655362686842 0.2878584655654457 0.009018363859211257 0.017257634306659 0.8777036778345344 0.1219870612076533 0.0003092609344937167 2.331869173953881e-11 0.3966036625978394 0.1814345123690152 0.05449118384165565 0.3674706411914899 5.149652720721204e-11 0.9879828340344546 0 0.0120171659140488 0.06188381211004673 0.7698884094044395 0.004684437413830238 0.1635433410716837 0.9113228607018911 0.08776989072948178 2.295969246235227e-156 0.0009072485686271337 0.000499571986059637 1.154537775015391e-05 0.9993644726203341 0.0001244100158562094 0.9999999999245189 6.517101418039284e-91 3.89704845382034e-11 3.651059305118213e-11 0.1168293861596005 1.617603863603855e-96 0.0001816825216295077 0.8829889313187699 0.1800842701998135 0.02731825043400792 0.7925974670199918 1.234618663947097e-08 0.00176199970615484 0.9814432411442044 2.322143287364302e-07 0.01679452693531189 5.811041864282188e-33 2.16989852183822e-09 2.383528705581207e-09 0.9999999954465728 0.8320324650145096 0.0003049411306846521 0.1676625937300978 1.247080678828005e-10 0.9993149842043064 2.792879161159204e-13 1.949669899904116e-21 0.0006850157954143998 1.039718465969122e-73 0.9998807392411089 0.0001192599030881972 8.558028018351996e-10 1.851403932874956e-12 0.02636185455031807 0.972753065034159 0.000885080413671407 0.9999167599319373 8.280737459692287e-05 4.315233543715296e-07 1.170111438371285e-09 2.831860370542477e-27 9.51737808201753e-05 0.9999041925559924 6.336631872663646e-07 0.01086648433294094 0.2532104484626448 4.035711546363324e-09 0.7359230631687027 0.07312231740398763 5.883160049594256e-07 0.5399650388604859 0.3869120554195215 3.214580099622647e-09 9.844224016629279e-07 8.33667713996324e-17 0.9999990123630182 4.745516616209385e-54 0.9734041954192071 0.0001596280368031082 0.02643617654398977 0.08307379671343547 0.5015012223624215 0.2392320556320603 0.1761929252920827 6.808688230260687e-11 5.174364483254713e-90 1.349217110601044e-31 0.9999999999319131 3.633801172953356e-14 4.477580047698007e-06 7.835845253711775e-07 0.9999947388353905 0.03316699894559529 1.917180239433051e-06 0.618830270441234 0.3480008134329312 0.8614392915319832 0.1385500753648821 8.600741875180504e-12 1.06330945339613e-05 0.0006033704776898321 5.133939405082266e-05 5.115302266680653e-18 0.9993452901282593 0.01305032260327256 0.000285611258931103 2.807955206784532e-20 0.9866640661377963 0.8623865667495896 0.0001450006675655102 0.00668614164096065 0.1307822909418843 0.3126321025464262 0.6873678974503582 1.846536316676927e-28 3.215535270903128e-12 4.153271642551427e-12 2.34991950446654e-05 3.652870396513083e-27 0.999976500800802 0.2572868756386679 0.0005651402984408043 0.06188935279411268 0.6802586312687787 0.9999792414991164 3.181425912480575e-14 5.89358967140717e-10 2.07579114927601e-05 1.885894205823524e-12 8.81293749460864e-24 0.3185011456195267 0.6814988543785874 0.9533947950362749 0.04194887229745206 7.366623926412747e-98 0.004656332666272939 1.557550515755489e-05 0.1280154408071156 2.099102894304471e-08 0.871968962696698 6.436399452005633e-55 0.1627555797711626 0.7492880860326262 0.08795633419621116 5.103316713673035e-06 0.00445152845616378 1.021192981583256e-20 0.9955433682271225 0.009601444104092477 0.02808661011374849 0.8859600555557854 0.07635189022637351 0.0007552548484152482 0.9992291536501565 3.053554520070361e-16 1.559150142789678e-05 0.0001919177421536861 5.909825119551606e-06 0.9773098892602565 0.02249228317247019 6.710912270033432e-86 0.9999998517794892 2.718256787953915e-91 1.482205107588844e-07 5.449740594863032e-309 0.9862444337160148 8.220114354708286e-08 0.01375548408284166 0.993226281577948 8.624317116784993e-119 2.923433061676438e-08 0.006773689187721349 2.628151072243637e-19 1.390424513278785e-08 0 0.9999999860957549 3.055014225314571e-27 0.9999988795244293 1.12047557076999e-06 2.564966773544291e-112 0.05527166808384149 0.002095106236300593 0.9422397595944095 0.0003934660854484525 0.9099048702536485 0.08635965278017901 0.0005136989432205299 0.003221778022952048 8.2941625570712e-05 0.8825236012801314 0.1170251866064326 0.0003682704878652263 0.1156056946037083 0.7148982243098512 0.1694960793598335 1.726607127350812e-09 1.551171492585117e-09 0.00982035822815161 0.9901796402206768 1.837439570271261e-28 0.2054102519961214 0.02513500730014647 0.7693247630715276 0.0001299776322044702 4.168620288472534e-17 0.4126857989138471 8.071488028756999e-18 0.5873142010861527 2.204421637447316e-06 0.3850873365644105 0.0006972906458995733 0.6142131683680524 8.785329242768847e-12 0.8504695825039766 0.1495304174872379 1.002385707665817e-54 0.8717688468747505 0.1282311056198764 4.750537303441055e-08 3.782477606026334e-26 0.0004848411243504962 0.9041163034129607 0.09539885546268881 2.703691811241955e-35 5.501138783564582e-53 0.002240191159237587 0.9977598088407624 2.478243127344096e-44 0.9991996126853248 8.150589033331826e-05 0.0007188814236574034 6.846025866530238e-13 7.189958211013413e-14 0.0655524668428515 0.9344431958785582 4.337278518477968e-06 0.0007139513365410195 4.06953425410151e-11 0.963363084776781 0.03592296384598269 0.4000960268063491 0.2082635744635996 0.386615386496312 0.005025012233739152 0.001495718690579793 0.009027850125619482 0.8395448813328503 0.1499315498509504 0.008879672727202657 8.768621133969682e-65 0.9911112194135615 9.107859236033512e-06 5.074508060001233e-06 0.00285464061811347 0.9969007158640125 0.000239569009814006 0.03296141325784221 0.05105976216955418 3.54354999569991e-08 0.9159787891371035 1.900521934794163e-09 0.9999991723685978 2.078816098780713e-19 8.257308802540329e-07 0.09353522753141634 2.212112523504282e-20 0.00141631379221632 0.9050484586763674 2.407679920613946e-69 7.856305435941725e-49 1 1.843589374139036e-264 0.9880001608014974 2.444098367267166e-13 0.001478264944934451 0.01052157425332371 0.9245326895092683 0.03905402901259799 0.01170935577715862 0.02470392570097505 0.9861644695409935 6.810991397468086e-09 5.587813662405498e-98 0.01383552364801525 7.016881400257078e-11 0.002381030815929121 1.216846911258719e-20 0.997618969113902 0.03770970238259553 0.7694446261078721 0.1928456715095323 1.304955318852466e-20 0.3013858078048222 2.71438816279038e-18 0.6985726253334954 4.156686168237684e-05 9.72025760549406e-06 0.0001425423090957051 0.8979261602554681 0.1019215771778307 0.9949364905720909 0.004878831319178023 0.0001846781087310897 6.021830723144592e-30 0.4672992340789188 0.07633780919211579 2.17529248631987e-54 0.4563629567289654 0.02384239207760624 0.5015873475817161 0.008271472616537061 0.4662987877241407 0.9327156284637308 0.01859246864194055 0.0001593135049856216 0.04853258938934312 6.780513406006547e-41 6.37712009305496e-06 0.9820140027562168 0.01797962012369013 0.9915985033372526 6.486707831174282e-35 1.492222678028616e-10 0.00840149651352508 1 0 1.018810406887835e-23 8.977720893853499e-48 0.9125277766989943 0.001198757761621728 0.004792108560283261 0.08148135697910082 0.0008901681196141928 0.8780570613914958 0.1208896305799644 0.0001631399089257107 9.528381818521254e-09 0.9999778901789584 2.210029265962685e-05 3.206429753783248e-37 5.520731192667746e-93 0.6998605582587437 0.05523834867778007 0.2449010930634762 0.5291139473282094 0.2698220163974446 0.02073084461194813 0.1803331916623979 0.001572584264006827 4.275111649003821e-14 0.9984027254812613 2.469025468907063e-05 0.000102122331621343 0.9964946589868463 0.003403217661373187 1.02015914386962e-09 0.997212065856751 7.160448068058641e-12 0.002787754983258307 1.791528301642173e-07 0.9184426201921485 1.396461467130153e-08 3.155271119845889e-09 0.0815573626879656 2.789503379508841e-12 0.0004809575634452132 0.002267492620301259 0.9972515498134641 0.2484467425097563 0.0002514360669149013 2.294751937533721e-07 0.7513015919481352 0.3827566682424429 0.6065185192699271 6.026249546048801e-05 0.01066454999216953 0.998209340622075 0.001790659377925066 7.023236013341645e-17 3.830655986735786e-18 0.6063701466106886 0.0003315017993802746 0.3932983515899312 9.131127250001163e-25 0.6462407810355799 0.3537592189644201 1.853874516625696e-50 1.115084233263257e-40 0 1.190757049727984e-113 0.1047310434370107 0.8952689565629893 3.454252371233106e-10 0.0001718360215942977 1.701835759459823e-12 0.9998281636312786 0.01894982566260532 1.872167808048281e-06 0.009987976935262353 0.9710603252343243 4.539565930423351e-06 0.6762733579279806 0.0007086788907627596 0.3230134236153264 0.4774055276632464 0.01077168780001407 0.432806182234462 0.07901660230227738 0.276708595989848 0.02437519075329156 0.6989123668336139 3.846423246387197e-06 2.898146731141483e-74 0.9911723070026992 1.499237818213529e-17 0.008827692997300775 5.232962166921859e-06 6.194955256220864e-06 2.433229427999542e-07 0.9999883287596341 2.422587080077578e-05 0.1126805904178553 0.8872896956886356 5.48802270834916e-06 1.315419022282727e-26 0.002387798260640104 4.729664040781896e-07 0.997611728772956 0.08910500370761058 0.002480033531405579 0.2710745991548623 0.6373403636061216 1.438818119767871e-17 0.6443027411556717 0.2872451214512565 0.06845213739307196 0.464253023511539 0.497330719995359 0.01693396303793763 0.02148229345516433 5.405862334200566e-29 0.07607283387359727 0.9237505936294463 0.0001765724969563908 4.716500976054312e-12 0.3392325655528183 1.12414152966135e-25 0.6607674344424652 0.9747322138995 0.00143424071410414 0.0007605694339532713 0.02307297595244258 0.1893475422644634 0.003107544122252733 0.3158148351613903 0.4917300784518936 4.997834268273959e-43 7.353663036318462e-13 1.844914850044769e-09 0.9999999981543498 0.9823812882153616 0.00812063985709297 8.842643113455142e-05 0.009409645496410818 1.317519708463983e-09 3.303761215787637e-29 0.6777830409853932 0.3222169576970869 0.1217215315459928 3.434899238477252e-06 0.8782750335547688 1.740106207798711e-103 0.7314381538563951 0.02183758785941437 0.1481222984112229 0.09860195987296773 0.001225077489766925 0.9982880989611391 0.000376567871585399 0.0001102556775087379 5.631486907542188e-05 0.04818027356453418 2.537602876563487e-66 0.9517634115663903 0.2139395514626086 5.864077943393405e-21 0.5533859666029377 0.2326744819344539 0.1916170645886369 0.8080596373401432 0.0003232980712199517 0 2.824856977829635e-27 0.8741417460281934 8.87303738388634e-05 0.1257695235979677 0.4461411451701743 0.5356528779150178 0.01820597691480786 2.520452218777309e-36 1.521052477138317e-07 2.203964515265404e-08 3.257207717254876e-18 0.9999998258551072 0.0005107946524613524 0.01049080801861365 3.140517183479059e-09 0.988998394188408 0.02204002011691831 0.956546585752491 0.02125075294853149 0.0001626411820592563 0.00021293669472084 0.00984843367371924 0.9899307932694775 7.836362082337738e-06 0.5378280774906046 3.142075983970283e-15 1.32673846575577e-07 0.4621717898355457 2.444461464262559e-05 0.9811214997785735 0.01883413126232894 1.992434445491561e-05 1.43812851137294e-115 0.9051088186458747 1.225496546154285e-34 0.09489118135412529 0.9900840598680873 2.253336770386239e-10 0.009915939311078608 5.955004466303748e-10 0.641050121273668 0.349233744771013 0.009715874557854831 2.593974644043225e-07 0.3098114534921325 0.2050497711981936 4.321870328154294e-07 0.4851383431226411 0.9985485550956591 0.0003204911107037647 0.001130953793637267 4.389067466500428e-46 1.647589867878558e-05 0.9999835201706585 3.759597851814612e-09 1.710647754292655e-10 0.9991862109742691 0 1.257979564709819e-06 0.0008125310461661355 4.238514996268219e-26 0.9624863543393012 3.559621259595385e-05 0.03747804944810302 9.915422416258879e-164 5.285367780168213e-06 0.9922618875220969 0.007732827110122922 0.9197676261743608 0.0003609785184024277 0.07981416940300955 5.722590422727271e-05 0.05464869934240695 0.03278319766055882 0.9125664097742814 1.693222752835199e-06 0.2159430562877508 0.1000814508885181 1.729588935889491e-09 0.6839754910941421 0.4956842033521989 8.676864549657955e-06 0.0002788970259087111 0.5040282227573427 0.9784707828345007 0.02092746001478742 0.0005495578495065549 5.219930120542158e-05 0.5001562345323469 0.1685284478322961 4.941738368325545e-07 0.33131482346152 6.871984622340605e-48 4.085608428136936e-09 5.749785868849587e-121 0.9999999959143915 3.42031839392585e-05 0.9999657941919972 1.982460924248853e-28 2.624063639229393e-09 7.085454358321143e-07 1.83316413623292e-25 0.7976276168192883 0.2023716746352759 0.9997747239082957 1.771031483527335e-06 0.0002198568358996212 3.648224321019433e-06 0.002762708389394161 0.02258892424448918 0.9746482733956361 9.397048063620256e-08 0.0007349906105448995 3.261117849852959e-06 1.810705162343813e-82 0.9992617482716053 7.952090326913291e-26 0.1477782560814802 1.128708091971394e-66 0.8522217439185198 0 0.003010988433016703 0.7731604403027708 0.2238285712642126 5.611397780607256e-07 1.362856546296796e-09 4.046068363512318e-229 0.9999994374973653 0.9216878774696284 5.170570684664561e-08 0.07509749654308395 0.003214574281580721 2.290066704032876e-06 1.084642418144137e-40 1.43423076978155e-180 0.999997709933296 6.254955356163709e-97 0.9314247507599542 0.06857502873286589 2.205071798989893e-07 9.773594969073148e-11 0.002507319712608799 0.07020699835107536 0.9272856818385798 0.9999333506007069 6.652395019085838e-05 1.282816781127735e-11 1.254362740778076e-07 1.652828211073312e-05 4.568572741336469e-09 0.8101337800079528 0.1898496871413639 0.0004592049173807278 1.36114515402695e-12 2.210338570178409e-06 0.9995385847426879 6.160109050458583e-11 5.572746424312822e-09 0.9997833316757089 0.0002166626899434457 0.06797065911675063 0.4620016047596926 0.4700261723037811 1.563819775669173e-06 2.427609072946573e-35 0.002989986752500464 0.949392810330615 0.04761720291688445 2.638629644619174e-11 2.447816042259156e-05 0.9999755169991538 4.814037431837397e-09 1.986494098911934e-06 0.8294458955663779 8.357746039489345e-36 0.1705521179395231 2.726780176887558e-10 0.8838574777574018 0.1149489402925475 0.001193581677372643 7.589654341473558e-08 0.9851844203191439 0.01481525700932581 2.467749870196762e-07 0.9589007146187144 0.03964616442380317 0.0004139118300725204 0.001039209127410041 0.0170401301556224 1.435536250323372e-06 0.9829584343081271 5.248948917142509e-58 2.212956595203129e-12 5.332083988375526e-14 0.2719131697735611 0.7280868302241726 0.003577649997731045 4.310478132298298e-06 0.9964180395241367 3.887581546839499e-37 0.007195537479606481 0.9927619756688233 4.248685157008185e-05 2.000709425761341e-47 0.5813092153438751 0.004183737584431447 0.4088428267799155 0.005664220291777976 1.489087638170239e-10 0.0141342017608777 0.9858657961214039 1.968809658111678e-09 0.9984598736639438 0.0001568784782504984 0.001383247857805817 4.218663315878797e-20 0.01176408615885285 0.9882359138188981 2.224917723502078e-11 0 0.0164875521874132 0.6610544978658434 0.3113912162377641 0.0110667337089794 1.144107645962481e-13 0.9999999930433263 6.359032761652189e-113 6.956559333787841e-09 0.2634715125254732 0.04944779284635754 1.757774453528506e-14 0.6870806946281517 2.809904146219715e-07 1.168874592701834e-06 0.8951721097092445 0.1048264404257481 1.205955711526141e-08 0.0001232685955131558 0.9957236654038832 0.004153053941046376 0.4923031207389602 3.45426320833396e-05 0.3731091174642753 0.1345532191646812 0.5903574523334629 0.3784786802703295 2.443655940812166e-44 0.03116386739620747 0.01202108461841503 0.02294988190947267 0.964861059920996 0.0001679735511162032 0.9884554733606277 4.405839943211228e-08 0.01154061105576268 3.87152521019075e-06 5.465127478047739e-05 0.0001573511449551641 2.228780895280368e-14 0.9997879975802421 4.531177781036675e-07 0.0001152905538967314 0.03778252499764844 0.9621017313306768 0.002448620548076005 0.6508207635789024 0.3459613380099019 0.0007692778631197833 0.9997800505268507 2.793000703119668e-09 2.158621947429387e-45 0.0002199466801487304 0.1552441996505891 0.0001197113131975168 6.814823676137378e-07 0.8446354075538458 0.630855614067155 0.001783700276740932 0.002196143635138338 0.3651645420209658 0.0001729486020372178 0.9998268465682972 1.288114549577933e-08 1.919485200576418e-07 0.0002158450592060869 0.1347088173473787 0.4831334831540119 0.3819418544394032 1.763052584058373e-13 0.9996294883243142 0.0003311088488318263 3.940282667787803e-05 0.7525495149300407 2.704091116216961e-07 0.0001208083391701997 0.2473294063216774 1.109529774327796e-05 7.045170152655892e-06 0.9387384498093343 0.06124340972276969 0.03450385657227872 0.004711672608429242 0.9607832952195727 1.175599719327728e-06 0.9975117665381334 0.002486704718948439 3.133227816998931e-07 1.215420136558071e-06 0.9325829319582885 0.04352815097930315 0.02388891706240834 1.891467906075006e-28 0.01078226911761731 0.9883105761300321 0.000907154752350469 8.552383849435204e-18 0.2957393978115551 0.02081334256407573 1.439964579133126e-11 0.6834472596099694 0.443864566578325 0.3731312124298302 0.0009366190643262343 0.1820676019275187 0.05820313820359235 1.425886498395434e-08 0.9417968475373157 2.268157704162079e-13 5.849734621175315e-45 0.04037246739997807 0.8866589601263648 0.07296857247365704 1.01117322025675e-07 0.9696956608737545 0.02779793745406942 0.00250630055485428 0.1445105241081326 0.8505855652077402 0.0009317372172360941 0.003972173466890969 0.9680691925587221 1.235812210155629e-05 0.0319184492359277 8.32485283152014e-11 0.01198250364684068 0.9734447900836387 0.003267854772188054 0.01130485149733245 0.00547009055938374 0.8674882020409089 0.1270363032946138 5.404105093571694e-06 0.005557463324849846 0.9938629151763889 0.0005793706335799465 2.508651812688479e-07 0.0351979517017317 2.609720882407771e-197 0.0959173279780508 0.8688847203202175 0.01685455324882476 0.9831430460337358 2.397154049865803e-06 3.563389707642608e-09 0.9292651984564894 0.002639882472057368 0.002319531643783903 0.06577538742766935 0.9999997775594605 2.745641747534704e-09 2.196948977079719e-07 6.166112288616508e-122 4.028776826782429e-06 2.014377238483886e-07 0.01626300959815235 0.9837327601872969 0.7670240424597065 0.04078023977167498 2.12116427536284e-07 0.1921955056521909 1.413553986444456e-05 2.63634231100006e-170 0.06322763012320619 0.9367582343369294 1.977736481940485e-20 7.150060272728712e-05 0.6858104491236263 0.3141180502736464 0.003379678252243336 1.339820517756812e-05 1.70025720825565e-18 0.9966069235425791 0.847007424762747 0.1528583943633634 0.0001153595103176465 1.882136357201344e-05 1.168381874457396e-06 0.999998437690138 2.391219921596898e-09 3.915367678031991e-07 0.08625393470373252 0.03007468979615534 1.511465800803594e-07 0.8836712243535321 2.278429192087743e-73 1.450954341634818e-99 5.221914772741246e-45 0.9999999999999999 0.003409992847000532 0.5841442812065495 2.498403145026961e-07 0.4124454761061355 3.949690392843067e-05 5.165041626539014e-23 0.9987600468450955 0.00120045625097619 0.002204496883795495 0.9974579240289939 0.0002699896452422736 6.758944196822355e-05 1.438932044678042e-11 0.9943055596227485 0.005623013774157797 7.142658870470418e-05 0.0004090315101954561 0.6298917171297631 0.3696992513600414 1.172440129220021e-29 0.6005363824810871 9.813736144693674e-06 0.3984757427966394 0.0009780609861286614 4.317740928355103e-12 0.9999998881388815 1.1185680090295e-07 2.484772272241577e-35 0.04360456762208334 6.823351380800334e-31 0.2848707828334677 0.6715246495444489 5.589060835526515e-06 3.411491598948745e-11 0.9999747757519702 1.963515307942208e-05 0.08076450509647053 0.0009438525926445287 2.828031805246314e-31 0.9182916423108849 7.293204219734673e-23 0.008093550381644912 0.661537491395953 0.3303689582224022 5.019662555888689e-05 9.056050152016698e-78 0.9866284963780289 0.01332130699641215 0.000175863263337497 0.6782094472614619 0.3214163638199276 0.0001983256552728837 2.023965875782694e-17 1.071047185138478e-05 0.9512664139282057 0.04872287559994307 0.06137693882117109 0.04125841403664735 0.8973645431585614 1.039836200349329e-07 0.9899093277150287 4.21368806424782e-07 0.0009304460763614297 0.009159804839803495 6.046436126741236e-41 0.1234972338740714 1.633647398636215e-08 0.8765027497894545 0.03574288403160456 0.005876915719996806 0.9583802002483985 1.218546863588161e-21 1.111023077590083e-11 0.2390276739427365 0.5638977325744465 0.1970745934717069 1.161211065308783e-08 0.1501644289145382 4.131768879121595e-19 0.8498355594733511 0.002950927281916157 7.462847363579276e-07 0.02132922448923813 0.9757191019441093 0.001843589383002073 0.9981564105410029 7.599504403160293e-11 1.179675187151107e-18 0.876347059878348 0.1236494107966578 3.529324994234666e-06 6.141781894954073e-30 0.733435727946851 6.862176817091329e-10 0.05503184264453404 0.2115324287223973 5.957561300444886e-13 1.628767501504914e-14 2.00107687423098e-29 0.9999999999993879 0.09611225092018505 0.9036024573782606 6.576933208365377e-22 0.0002852917015543301 0.9968642609466279 2.180296538837172e-12 0.0003161205855886582 0.002819618465603086 7.879623664133845e-45 4.935515256149054e-07 0.999999506448392 8.235482630489888e-14 0.001138188240844698 0.008373051416839002 0.009163624673094409 0.9813251356692219 0.009637141627120377 0.8517497861783397 0.1384417683409505 0.0001713038535894945 0.9861310809066834 1.009245160952217e-05 4.047816791032283e-114 0.01385882664170721 0.2482686937147683 0.3943898065097224 0.3361786706315861 0.02116282914392313 0.2939011262484221 0.7060976214931973 1.25223960759306e-06 1.877289351799265e-11 0.00130990439884386 0.6970707457844311 0.2994889539744278 0.002130395842297352 0.000188274651172635 3.664653796858178e-36 0.06764438171496151 0.9321673436338659 0.8887654871593414 0.1112242351366288 0 1.027770402959767e-05 0.001831486052549377 0.9981614526380576 7.061240055417112e-06 6.933747692300107e-11 0.0001082066853214057 3.232692283193871e-14 0.999882397178074 9.396136572173693e-06 0.3077805757050217 0.6922193827200639 3.692635656729779e-14 4.157487753494118e-08 2.685307297546724e-11 0.961435314138907 0.002127817826397234 0.03643686800784265 0.8764497768604612 0.1202765779812855 2.279488506190524e-06 0.003271365669747163 0.2238336910913092 6.977670095651853e-20 0.07804017320420512 0.6981261357044858 1.156504164876232e-07 4.845143484917456e-10 0.99083300119521 0.009166882669859204 0.0006388123367559595 0.1305293908799724 0.8687557886030278 7.600818024376976e-05 4.828033137270297e-12 0.7548060431089668 0.1081741588753898 0.1370197980108153 4.551008596236932e-103 0.6729612713788518 8.981593835190641e-09 0.3270387196395544 0.4214170979040838 0.002177506182962082 0.003254837703033366 0.5731505582099209 1.0797412251009e-05 0.9953001064772553 0.004687400664618362 1.695445875368157e-06 2.049817312053575e-26 1.243779509343285e-05 0.9999511415607341 3.642064417253936e-05 0.0185758798205707 2.685763708702277e-06 0.9814214344153288 3.917829361923051e-13 0.000128203003672076 0.944639364595929 0.003668759737350817 0.0515636726630482 3.118000287883132e-05 3.576995538748843e-05 0.001375783499838546 0.998557266541895 2.484413590053469e-05 0.9999737873274905 1.273009488786905e-06 9.552712024998821e-08 0.4092343659638309 0.3926739442851711 0.1980916897509981 3.736460188107777e-20 8.342806797896644e-05 3.21196924076232e-22 0.9999165575064199 1.442560104795673e-08 1.219994912950928e-05 0.1165152079031608 7.323930074778238e-11 0.8834725920744705 0.2025137775351202 3.604152717265197e-06 0.7972004382987271 0.0002821800134355836 0.9879838399560611 3.722430324966157e-12 0.01142776931145749 0.0005883907287590584 0.005732154598869764 0.0276131740384059 3.367355372424744e-126 0.9666546713627244 0.9882466407169096 0.01175333988314715 1.939994319333176e-08 0 0.9999999964835321 1.239403357339736e-92 6.941418787541373e-27 3.516467868811213e-09 6.707332530987439e-08 0.1402435567875549 0.3273385049659524 0.5324178711731673 7.127262418168431e-06 0.9989566050679137 0.0006517921488971795 0.0003844755207710815 0.02019069660967424 0.1129480345947956 0.86686126879553 1.488311316532172e-74 0.995265155576289 0.002397258487479867 0.00023973198374166 0.002097853952489401 0.01072887783534259 0.9700193031942167 0.002832719219570095 0.01641909975087059 0.999999999781749 1.842953001720825e-58 2.182509442366505e-10 2.244735580092515e-68 0.9496872351951622 3.054600119359883e-116 0.04948301602470637 0.0008297487801315481 0.0003906876965876192 5.722007288189423e-31 0.02678512656816386 0.9728241857352485 9.980537894042364e-70 0.9999999686186604 3.138133963334212e-08 0 0.0003865191430817659 0.003381520802311075 0.9962319600531557 1.451495320130151e-12 0.999998033805495 8.042805536126037e-10 1.765370925156943e-06 2.000192992658029e-07 7.00017012388724e-11 1.792861005597405e-08 0.0003173418175031202 0.9996826401838852 5.434733769322047e-08 0.2289559417644672 0.771044003644091 2.441041728805292e-10 0.9920896724336491 0.007910327566054047 1.724865361542074e-13 1.243684386368082e-13 0.02222809683497399 2.787995759189456e-05 0.9777048139282601 3.920927917409499e-05 0.5858528395509576 0.06539931688321708 0.3487477161493689 1.274164564152628e-07 0.04376551681647287 0.9157781238084041 0.0002253990498576521 0.0402309603252654 1.154629327367525e-09 1.307960982291068e-05 0.7835281558737085 0.2164587633618393 0.003291036276022142 0.9112568756779946 0.08545208804596183 2.136713562854505e-14 2.781074525534551e-24 0.9999990227204295 9.772795623286155e-07 8.228586426602317e-15 0.9997052403972801 0.0002947577938739868 1.808845885323894e-09 7.431962322462221e-17 2.941217007845758e-05 0.4808685780120651 1.201964070352761e-27 0.5191020098178565 1.872671265365121e-07 0.8753995390440888 7.434434948125658e-17 0.1246002736887846 3.078698060972258e-08 0.8651668222957735 1.531822040921446e-46 0.134833146917246 0.003546680527741473 0.9964533194687811 1.127402303001219e-24 3.477277492366427e-12 0.9967988531202725 0.003196694056913107 3.652203722879858e-08 4.416300776974129e-06 0.1281436267380676 0.8717351508054824 5.78717518914176e-10 0.0001212218777324228 0.1589480734825316 0.00234073464758803 0.7921548576573708 0.0465563342125095 0.02028785666479133 0.0008133473725717922 0.000804958487637455 0.9780938374749993 1.343851890308933e-06 0.9619272562357155 0.03807139991239412 1.513653699341949e-40 0.4154855726139888 0.5832155623734324 2.200067410974349e-09 0.00129886281251127 5.966540714984594e-20 0.1016609329708708 3.332447520804634e-45 0.8983390670291291 0.9985757844645147 0.001423876067303812 3.378265020409008e-07 1.641679543155364e-09 0.4366880063939279 0.5633119936060722 4.017114588052583e-21 4.28438509345794e-25 0.02381772356334026 0.9702413186769164 0.001782290788204024 0.004158666971539342 0.1660571641675476 0.00173523811916052 6.022468670537731e-06 0.8322015752446213 1.176389344390626e-09 0.01998736677340732 0.1498998771065631 0.8301127549436402 0.8963399927926627 0.1036598112371973 1.078181439228331e-08 1.851883255209273e-07 0.03417145817856601 4.119411741908135e-06 0.0001133883905055704 0.9657110340191865 1.469695830056113e-09 2.084322725210462e-06 2.751299449271961e-18 0.999997914207579 1.962661495693169e-171 0.003381475066521816 1.792918984856047e-07 0.9966183456415796 0.8941196374776623 0.1058771270881008 1.690738135797381e-06 1.544696101137501e-06 1 6.420094336261951e-74 9.291071628494948e-29 2.573793150766768e-17 1.79336319962034e-15 0.023894177456617 3.324276101096038e-11 0.9761058225101383 0.1043412753189276 0.7965015135678158 1.502299736765078e-06 0.0991557088135199 0.9837330106460165 1.187745344696945e-11 1.181994934773645e-12 0.01626698934092413 0.9779200839022741 0.006953285306373858 1.566900086293392e-22 0.01512663079135187 0.5925477417284187 2.196131625566216e-11 0.4073708384693254 8.141978029474305e-05 0.9915679605993897 2.169949440400427e-05 0.005440131240841644 0.002970208665364699 0.9999999799371965 7.692828951484418e-14 2.006271901758761e-08 7.64235300658631e-15 5.482953398503358e-05 1.829718654580349e-05 0.00014470950542205 0.9997821637740471 3.210369430232467e-13 0.00323345260503322 0.06764916855502873 0.9291173788396171 0.9960502028979465 3.495095394756884e-22 4.285942047887296e-11 0.003949797059193947 0.9846640615897109 1.936844447117407e-15 0.01533593841028715 3.971056958632154e-112 1.818507781413752e-06 4.291093720310813e-20 0.9995930004092409 0.0004051810829777335 3.320510852965067e-07 0.5786565058737893 3.887337425463754e-14 0.4213431620750866 2.30120224855854e-06 0.9929583593138983 8.981603220861526e-11 0.007039339394037044 0.8759149380100912 0.1170204380548021 3.160698629724578e-08 0.007064592328120386 0.9753935287918006 0.02182329672289354 3.190439430670403e-05 0.002751270090999119 8.751361712212671e-27 0.05732898880846878 0.9421199967680342 0.0005510144234971412 3.312881193487626e-11 0.6403887269101549 5.637683435225579e-22 0.3596112730567163 5.587540337202385e-06 0.7975070786396529 2.440109138982717e-15 0.2024873338200076 0.9999358815767586 3.173779800978554e-18 1.223570331869459e-05 5.188271992275568e-05 0.08172520050208637 1.443364624383191e-05 0.04906306506759481 0.869197300784075 1.946417067308944e-114 1.340788595916921e-300 0.9999999999999996 2.697051539630862e-16 0.9685286901124297 2.347492816957729e-08 0.0003748180569206097 0.03109646835572154 3.283324060335046e-19 4.241117759360806e-16 0.9999994988071211 5.011928784553148e-07 0.0002339439137697911 0.9952933029536609 0.0044724315589095 3.215736596836683e-07 0.6709658823710979 0.3270940840188939 0.001940033610008356 2.205741600050397e-55 0.421060256837945 1.545437140501587e-10 0.4936642591644052 0.08527548384310606 0.9999999996193927 6.151118074825229e-32 6.872109841063994e-13 3.799200450449059e-10 0.0508297240394894 0.005794371092475855 0.00368429112947435 0.9396916137385604 1.024404984542436e-18 1.850010960022901e-22 0.9999981966601189 1.803339881136887e-06 0.3253231290385602 6.73267218588207e-09 4.647073916595318e-59 0.6746768642287677 0.9873525828986128 0.01262453190858947 3.272804554473255e-33 2.288519279768671e-05 4.649746973072559e-08 3.479577832421993e-05 3.15787331081068e-124 0.999965157724206 0.001327889105042679 0.0002515529361791963 0.997970032598603 0.0004505253601752454 0.2554901313431837 0.7440237832249451 1.083434047251943e-06 0.0004850019978240587 2.34514173030526e-09 0.6801972478121208 8.458141954588968e-05 0.3197181684231915 0.9123046113005383 2.122477119483479e-07 0.08769472146124918 4.549905006485114e-07 0.8613155102894212 3.574778640926025e-12 0.13867567954219 8.810164814021431e-06 0.02171521159526303 1.969485514192615e-07 0.8423272788380222 0.1359573126181633 0.9904691714271913 9.491326825950326e-07 0.009516928118602922 1.295132152335092e-05 0.9400938799617146 0.009174292568726121 0.005752571081638097 0.0449792563879212 0.5120353615920837 0.01055378805683763 0.0002769176675615356 0.4771339326835171 2.75235456944679e-22 0.968247731209816 9.878959583014349e-08 0.03175217000058812 0.9998994757506017 3.564595645129489e-06 9.355044693352056e-05 3.409206819835092e-06 0.05521456526058852 0.002497981683838088 0.9422874530555734 5.558131576405344e-92 0.9189689387396919 0.08103106088490311 1.258727356079631e-11 3.628178285678752e-10 0.1174334610712197 0.1786556001081178 0.1888513411204581 0.5150595977002044 0.1977491845374422 0.802176652389509 7.41630730487333e-05 6.356744301116794e-18 0.0009562876044891161 0.002654953531698961 0.9963129740060979 7.578485771384344e-05 0.006120934094955746 5.045277107944707e-12 0.1199586772229531 0.8739203886770459 0.4790439293540684 6.415928560213171e-58 0.5209560706459317 1.362353976989461e-70 0.1821104765895658 0.01407160790523784 0.3336781795628805 0.470139735942316 0.0002191106194389781 0.0005409532235950196 0.9992385092517068 1.426905259155435e-06 9.676717243036315e-11 0.998063655447294 0.001936344455937914 8.410527262210437e-16 0.00564817621490315 0.9858236975225828 7.215849808861835e-17 0.00852812626251407 1.028293260655971e-11 6.272242563233928e-21 0.9950572542381753 0.004942745751541792 0.8783096305876312 0.00787928332765526 0.1138109977981236 8.828658978861562e-08 1.137995854131793e-06 0.8558932322340606 0.144105629770085 3.954253433601032e-16 4.834318267334251e-26 0.1391142027501354 2.783781698977025e-84 0.8608857972498647 0.0002755772594660145 2.059648613171832e-10 0.9997244225345691 1.834578552425599e-31 0.9160147039976639 9.81554865395428e-05 2.4874354412188e-11 0.08388714049092229 4.93255043302959e-05 1.85814639330239e-12 0.7024148313630152 0.2975358431307964 0.5748066366251418 0.1614268669547137 0.2631554034101921 0.0006110930099525932 0.1152700284490544 4.569241498352959e-07 0 0.8847295146267957 0.06274608953893132 9.694929824222135e-14 0.7208126990286456 0.216441211432326 3.437343196832289e-17 1.575446281039427e-07 0.9474652053942517 0.05253463706112024 0.3584365236123344 0.190515291312364 4.049930330590084e-06 0.451044135144971 0.4986779168899911 0.0002570090237009923 0.5010650740863078 4.729315910509215e-52 3.147638193083186e-151 0.008693217918911049 0.3861787763259181 0.6051280057551708 5.698248654391525e-260 0.9986512666185559 0.001348733381444248 5.051909798967315e-75 0.008396833682996778 2.359528787988797e-10 1.106673095971055e-17 0.9916031660810503 0.9572238780782968 0.01194187041484122 1.378714346547769e-25 0.03083425150686195 0 2.041865992813011e-19 1.205416109575259e-11 0.9999999999879456 6.998287662554214e-07 0.969430625590494 0.009011290255157374 0.02155738432558253 0.01317349090261707 0.7011061260609632 0.2856950100030801 2.537303333952656e-05 0.9005655266007345 0.09943319968582874 1.273713434639589e-06 2.02851967592101e-15 0.9773525091747458 4.351343576205654e-06 4.7813729495921e-07 0.02264266134438303 0.9993179003304765 3.262046411560939e-121 0 0.0006820996695233613 2.116061272294046e-12 0.9996851996033729 1.058267689056261e-12 0.0003148003934529036 5.154406340518379e-07 0.0256138530328414 3.431355083237395e-47 0.9743856315265246 0.6960165705819596 8.270662167059671e-09 0.3033099968657789 0.0006734242815994104 0.01793614842654735 0.6909037533844083 5.508822533710139e-10 0.2911600976381621 2.091814876158699e-08 0.9999999790751688 6.682605986135513e-12 2.088846977908461e-215 1.741482264956948e-11 2.889862305580475e-08 0.8033840496173086 0.1966159214666537 0.09317215789711501 4.271628548312004e-07 2.056670797025352e-11 0.9068274149194634 1.239254006370831e-08 0.965779476938908 6.862308079141439e-11 0.03422051059992894 0.9951122348483677 1.035830216321268e-09 0.004555665459007938 0.0003320986567939736 0.06270643740427155 0.9286518152731841 0.008618133647849564 2.361367469487342e-05 2.545542462851084e-13 0.8869180828268461 0.11308191717283 6.905908242917854e-14 0.2027386007323199 0.309026306344817 0.4882350922487818 6.740812209216066e-10 0.04996016367243732 0.2373037327723051 0.7105422587206689 0.00219384483458871 1 7.618739933159542e-20 6.340488946581125e-24 7.64261941644273e-22 0.1592658702414937 2.598095628989479e-25 0.8407188962484404 1.523351006577272e-05 2.891526601738055e-16 8.102118455505485e-29 0.999999446105869 5.538941307731841e-07 1.945080671647082e-06 4.145154909442337e-18 0.9999980549193285 1.632401087174809e-26 3.24039500934006e-09 0.2885834833197627 0.69049718830817 0.02091932513167217 0.07897811090828177 0.2613897976675008 0.3304552939109234 0.3291767975132939 0.9822427823522083 8.111220188043208e-09 0.01664527024860051 0.001111939287970988 4.203564369148329e-06 3.822948179607748e-05 0.0001385358530090371 0.9998190311008258 0.8124723396664986 0.0001653321548040726 1.030482311086288e-32 0.1873623281786973 0.2413126857184135 0.7586845819546981 4.195747503510534e-12 2.732322692556784e-06 0.002750649544846634 0.1927836054167051 0.8044657450384483 1.059254814971767e-26 0.6710288105350839 1.758634743134279e-05 2.04091408281248e-09 0.3289536010765707 0.4130065982082128 1.374107411846439e-45 0.03114641984080025 0.5558469819509869 0.9999999999995941 4.05997646233179e-13 5.892676260087793e-18 6.12893493022179e-20 1.472553193063889e-44 0.9923571710305098 0.00689202160470505 0.0007508073647850437 4.906461846677716e-07 0.01105345311523272 0.9889458124706448 2.437679376789399e-07 0.0004402047148265595 2.329106814443371e-12 1.989456127807054e-38 0.9995597952828443 0.8546043512100865 0.1444129565513675 4.292771250067472e-32 0.0009826922385461831 0.9950400918720138 0.004273217859208304 0.0005942762232556377 9.241404552204856e-05 6.688600645608036e-15 0.9976349102091364 0.002365089790856963 2.199286747801996e-19 3.286235194504007e-18 0.0004181893911525087 0.9995818106088475 2.006595016113357e-26 1.494024812649216e-15 0.9792666681695816 0.02073333181952618 1.08906071607395e-11 0.000203152566904048 0.7567217060601804 1.383758702748502e-34 0.2430751413729155 3.219360226128767e-43 0.7138550042471016 4.577506300608228e-33 0.2861449957528984 0.3919993406608432 0.5414853967778559 0.03443970989573587 0.03207555266556492 0.9999619765267005 2.285164850574161e-08 3.641911889222586e-05 1.581502758926404e-06 0.9999999824446273 2.424764639773673e-55 1.748085934994443e-08 7.451350487326177e-11 0.0002256776012963037 1.703212706814817e-05 0.0003837068290577289 0.999373583442578 1.974629260057797e-264 0.9999946971352797 7.441345128803319e-12 5.302857278959693e-06 6.145360687219226e-07 0.1532048450092961 7.863017939008997e-07 0.8467937541528413 0.1150380191527225 0.004298872041821803 0.8736105450539252 0.00705256375153051 2.943219380555699e-08 0.9988035048156175 0.0007263722969197304 0.0004700934552690034 0.4115403265530746 0.2067464063299513 0.332015492532298 0.04969777458467611 0.01598667526944687 0.107163886835691 1.028211607277135e-40 0.8768494378948621 0.8380259295137918 2.459538588712668e-13 0.1619740704859622 1.997897179211049e-19 0.9999921004710252 9.323076610943777e-07 5.35579327743941e-06 1.611428036512414e-06 0.000674867160737829 0.03172261893144587 0.9676024881909626 2.571685353354569e-08 0.2571176206875689 0.7428585856695633 7.901538041323716e-12 2.379363496623948e-05 0.0001074345874090906 0.08388947877420329 0.8492515312057811 0.0667515554326065 0.6666536927467507 1.905410044119443e-05 7.152467123111635e-07 0.3333265379060958 0.4846575203197171 3.081105534537321e-06 0.01180240807660604 0.5035369904981424 1.673575109344998e-05 0.8953687665416719 0.1038686279306434 0.0007458697765913596 2.772507170238021e-05 0.0004981824439287361 0.5034454489789267 0.4960286435054421 0.004098036099143 8.244029842710248e-12 0.9671456945055892 0.0287562693870237 0.8066720118734638 0.1798731346862004 2.151841189379635e-08 0.01345483192192378 0.5552627003483461 2.19731566483988e-07 3.003858384395684e-08 0.4447370498815035 2.593438856849953e-06 9.952332122112475e-08 0.9999185798965246 7.872714129737715e-05 0.001504615210425694 8.602498958872837e-08 0.0001174474708667965 0.9983778512937179 0.0001916608452073468 0.9998081935372232 1.456175694747983e-07 3.624775120041449e-29 6.738705105136625e-12 2.274810719433217e-05 2.476333907783951e-14 0.9999772518860423 0.1316044934842542 0.8674565605370645 7.990768044438752e-06 0.0009309552106371219 3.529143142114529e-05 0.3495318754458738 1.388561745699765e-08 0.6504328192370877 0.9269699000362662 0.07152345966814469 0.000601588976014462 0.0009050513195746933 1.334167501254306e-34 0.001029775072234947 2.008922492658127e-11 0.9989702249076758 0.001373546029529409 0.751198243221738 0.2461634780456782 0.001264732703054248 1.458850180516469e-10 0.07235864996040962 0.9276395255673598 1.82432634563762e-06 0.6126968068643727 0 0.2860434948391125 0.1012596982965148 3.655316341584929e-05 0.9297441259543938 1.289058877783051e-13 0.07021932088206148 3.460585039366381e-58 0.9998585188661282 1.01764531585932e-06 0.0001404634885558369 0.3634018111287368 0.5078238550450355 0.1286117616493989 0.0001625721768287854 0.9999878953444173 1.2104338302796e-05 8.968315797229663e-87 3.172799370285326e-10 2.749945631712074e-08 0.08129066636471724 0.0001680281852295937 0.9185412779505968 0.8004286052761844 0.1907031015352122 0.0001746245497119191 0.00869366863889141 0.6209855009638434 0.3788311171560853 0.0001832481758445383 1.337042268718918e-07 3.029741994271982e-16 0.003816112539494902 0.885605696018899 0.1105781914416057 0.9990868171802159 0.0007936912932166766 0.0001194915265617631 5.70890536869542e-15 0.00321811057580116 0.8140621789868701 1.282068757607915e-06 0.1827184283685714 1.509048511854841e-06 4.660322542009755e-05 0.9999518877260681 7.523817804278766e-25 0.999499020899285 0.0005003748740217969 6.041838244227984e-07 4.286883112228033e-11 0.08408685083550833 0.9098893983680261 1.23274108679648e-25 0.006023750796465543 1.240546612123712e-05 0.3664404017187567 6.460333881936983e-06 0.6335407324812401 6.905034874682593e-43 5.924228758199172e-09 0.504293019910963 0.4957069741648083 8.916956887017533e-16 0.6898558268187304 0.002510064877965738 0.3076341083033029 0.5737600725547579 3.886055697908954e-13 0.4262397769960115 1.50448841805609e-07 5.524234718479631e-10 0.0005659572128925455 5.281954463607775e-14 0.9994340422346313 0.01862167242843694 7.176821671626161e-12 1.965317647299044e-10 0.9813783273678546 2.671528256599701e-07 1.860869911282235e-19 0.01244800961340113 0.9875517232337732 0.04425284920614988 0.9552990221614354 4.623959308991009e-07 0.000447666236483762 3.699448681279112e-11 0.002912440218004197 1.583771513578886e-43 0.9970875597450013 0.105649293984754 0.000704980706169165 0.8936457253090767 1.970741823015435e-59 4.758634846611007e-09 5.338026638110286e-15 8.790759997249054e-53 0.9999999952413599 4.568869628167578e-19 1.274150162510793e-10 2.457122203495514e-10 0.9999999996268728 4.089035989400636e-23 9.774658904808649e-84 1.52716806209759e-05 0.9999847283193791 0.2136183180201462 4.150094319827113e-05 5.811976100045422e-22 0.7863401810366555 0.9926951209672026 0.007304697082945955 2.468609887312421e-23 1.81949851471208e-07 1.213661256653658e-27 1.480602594042487e-06 0.6090478629259156 0.3909506564714903 0.0368033967273991 0.06234503680459937 0.03132583540737136 0.8695257310606301 1.193773280347502e-08 0.3930588001778171 6.80954137363568e-47 0.6069411878844501 7.562824528813573e-60 0.6923054045123233 5.840628911053804e-17 0.3076945954876767 0.9999812452676456 8.994986135045615e-18 1.875473235424955e-05 7.755817443022813e-149 0.1200834257407215 1.862572662710316e-26 0.1827609378740229 0.6971556363852558 1.14794174233013e-62 0.4144799155782672 0.5774405081754308 0.008079576246301944 0.7701251504058956 0.00520597359692115 2.007480236359455e-241 0.2246688759971833 0.005548323346460164 0.9944516765867214 6.680164533656115e-11 1.69122243387735e-14 2.004870649280615e-09 4.93485481328197e-20 0.9999999620510495 3.594407983015338e-08 0.05459970041264773 2.882645374276909e-07 0.9394273834345398 0.005972627888275093 0.02914270570128656 1.216415152234375e-10 0.8418977897238448 0.1289595044532272 8.143894866752398e-29 0.1252257688116916 0.8747730896628968 1.141525411685889e-06 0.0002609789282185411 0.4236936848216216 0.02593165624091173 0.5501136800092483 0.002870513497404247 1.867284871093025e-05 0.4957981739688864 0.5013126396849985 0.0008061151204130248 3.879878172661025e-17 1.207222657936695e-43 0.9991938848795869 3.260749214361982e-18 1.607023533724931e-11 0.02796720010156649 0.9720327998823634 5.703917212058192e-56 1.419653022714966e-19 0.9485205271967689 0.05147947280323099 0.01370262617027929 0.9430401086242348 0.04292114573957737 0.0003361194659085759 0.2359128046181024 0.7553190401465386 0.008768118471867342 3.676349162958652e-08 0.9999999943218809 8.636749898962546e-10 5.358632378029414e-14 4.814390457170051e-09 0.05954309121699257 1.39283875910326e-47 0.9107734258385527 0.0296834829444547 0.9404858507208553 3.295223664640328e-16 0.05898570689845719 0.0005284423806873094 4.857382462688284e-05 0.9617992963251299 0.003163994568682017 0.0349881352815611 0.1259863013204611 0.0619155323469175 0.8099268814152861 0.002171284917335181 0.005331428366859615 0.06901030494773228 0.9256582666852213 1.868704689792612e-13 3.401938889208483e-05 2.767264556872915e-15 0.9994591533330494 0.0005068272780558646 0.1834104739030991 0.8059813272591058 2.248640277829486e-63 0.01060819883779514 0.9176542378132233 0.03268087689534574 0.0006463371488491106 0.04901854814258189 0.02356468327520766 0.9661357641089204 0.01029955260713856 8.733363574501668e-12 1.900195663118886e-14 0.339470704304388 0.6580673073989814 0.002461988296611454 0.002088432494469841 0.9979079321511034 3.635354219662695e-06 2.071038023302374e-13 0.7536210639936926 1.897436685693637e-05 0.02503925980203916 0.2213207018374112 0.0005597409668209785 0.001577070859316969 0.9069814938302291 0.09088169434363315 0.5523534596712708 0.1568087987217426 0.2908377174266379 2.418034857671635e-08 0.08881135274109096 0.9111886371156878 1.014321969242796e-08 1.556552197862423e-15 0.3544482901278427 1.785810920367504e-39 2.712561928957353e-11 0.6455517098450316 1.770969265650174e-35 2.298619342500065e-06 3.318248327836422e-40 0.9999977013806576 0.9999999987198862 1.109680779939329e-09 1.704329780617192e-10 2.961335005978862e-31 2.12664371854213e-55 1.33805794420548e-14 0.9974557621737998 0.002544237826186754 0.9979821593365769 0.000249059672356712 0.001768708176446878 7.281461949183193e-08 0.2492381111677333 0.01927618065038291 5.168455122169746e-08 0.7314856564973325 0.3833453864807428 0.6143187234332127 0.0002961510926803633 0.002039738993364022 0.01026439902654773 1.036285031719252e-07 0.6555978013181087 0.3341376960268403 3.444061611414939e-05 0.0139123092008934 3.216690268377696e-40 0.9860532501829925 0.7888583087029245 0.2084255351119371 0.0006053308991551002 0.002110825285983308 0.001047869802322503 2.12955641172024e-08 0.9975238009822077 0.001428307919905708 0.03361742201857851 1.309420154670391e-07 0.9662920756023047 9.037143710135716e-05 1 1.585988168792091e-24 8.313351243584296e-42 1.291801703320844e-21 4.430090375118984e-07 0.06079402257547826 0.9392055344154843 4.264584643472186e-35 0.0260624944325487 2.065699721561178e-32 0.06038229183363377 0.9135552137338175 9.799966184728837e-13 6.916654086138055e-10 0.9645590638363984 0.03544093547095604 2.473404943255565e-100 0.7391699253931722 0.2608298698975748 2.047092530123713e-07 0.3383936273968923 0.008501874604700444 0.6531044979984074 3.331937707092226e-54 0.1726954985315074 9.865984696396721e-19 5.321256346811106e-05 0.8272512889050245 0.8983561202764739 7.707941029597599e-32 0.1016438797235261 6.991274394308739e-38 4.60361723197019e-05 2.894629391203336e-16 0.99995396382768 2.690453212491775e-80 0.9934020412915158 0.006597928961829795 2.974665436507872e-08 1.487119209349036e-79 2.617509140135596e-14 0.8900713680056054 0.08852804573543674 0.02140058625893177 0.01246655734169582 0.9869812316707848 0.0005522014243488434 9.563170568457677e-09 1.501961083697126e-06 0.0001156643625303167 0.5573529445008496 0.4425298891755364 0.9989215782463552 0.000167891810613733 0.0009105299430312276 4.517692770897559e-35 0.1783491479009592 0.1192078349470682 0.7024430171519727 1.428779867535357e-37 0.5031064512956853 0.4967497337816671 1.34362993253556e-144 0.0001438149226476445 2.306724671317825e-05 1.437233608859218e-37 2.609806147828458e-38 0.9999769327532868 0.9999999999999998 6.849180363488276e-25 2.866938765148895e-16 4.230057484351958e-62 3.931523300952178e-12 3.153565958042692e-07 0.006451494113308417 0.9935481905261644 0.1203046083371316 0.004184621921327777 0.8681673017819123 0.007343467959628433 0.9999018794951596 7.804845156434617e-17 6.362512835525292e-12 9.812049847776494e-05 0.8347073854788438 0.0009024086648082761 0.1139160370017797 0.0504741688545682 0.1788253218576046 0.0501428287698901 0.539477828479473 0.2315540208930324 0.9720232924722467 5.792971281782145e-11 0.0037636655440124 0.02421304192581104 2.309926786801798e-16 1.47095574534795e-11 0.9999958935026557 4.106482634423117e-06 0.0007447305105672508 0.9992534117309348 1.85622875570402e-06 1.52974222801295e-09 0.9906995036504541 0.008993565796869447 1.098638897712086e-09 0.0003069294540375478 0.68838752452881 0.2827060496329949 0.02889278847820139 1.363735999344079e-05 6.284157048512168e-07 0.3245904034561594 0.6754089681281359 2.462756288146941e-174 1.575443780453903e-09 0.999999998420162 4.394147825085613e-12 1.392375665544458e-17 0.04744411140458879 0.9525558331129453 5.548246589074803e-08 8.520786054901952e-26 1.244581453556725e-10 0.0004677948172057667 2.730280887786652e-11 0.9995322050310333 0.8323747891604734 4.825899348922493e-28 0.1025758056793217 0.06504940516020485 0.001704800715873021 0.6174354357949908 1.763454101398468e-05 0.3808421289481222 0.9979559755635937 3.031163026407369e-09 0.002041955940224638 2.065465018596044e-06 2.115319239404803e-08 0.6038285948541202 0.3953503057206097 0.0008210782720778228 6.577698160305978e-14 0.003028437789111078 8.026142668857246e-27 0.9969715622108231 3.831612186226868e-15 0.4595553942987626 0.5404446057012336 1.997708802685942e-20 0.002126858905466804 8.419561601608657e-09 0.06509193291058614 0.9327811997643853 0.9753159044102928 0.02468273084445275 4.534917178960705e-18 1.364745254328091e-06 0.0694597906887116 0.9087024527465052 0.02161142768777729 0.0002263288770059878 0.03014633271199438 2.142390738996829e-190 0.9685356463300639 0.001318020957941759 0.2300110345775409 4.176268755114387e-06 0.00431435656198978 0.7656704325917141 0.9253190143415372 0.0746809557571413 2.22584361968181e-08 7.642885319521209e-09 2.969262318658311e-05 0.988927964951382 0.01104234242543139 1.914473910880254e-21 2.897980995215437e-08 0.9996707375622191 0.0003142022241629988 1.503123380795253e-05 0.04604201371589597 0.9538572420559436 2.102178577495098e-37 0.0001007442281603541 6.88030764641284e-12 0.7424987762064119 6.959338890212892e-05 0.2574316303978056 0.3012190384103399 0.6987385713365958 4.239022025021946e-05 3.28141092406652e-11 0.2301817977619169 1.977402532818335e-07 5.642344822010672e-06 0.769812362153008 0.002602670132850397 1.715640286015142e-05 0.9973801734642895 2.73087876701983e-49 0.002617314115348189 2.530265552318827e-111 0.01686589946613366 0.9805167864185181 0.04133888305767344 1.486929549418809e-09 0.9586216261538396 3.948930155738634e-05 1.000113447227084e-09 0.03743240867864149 0.9404479507622246 0.02211963955902039 0.8280428461338475 0.0496750620691374 0.1222820917969892 2.586038413367169e-14 0.0213985894269102 0.699272378512847 0.2710653146557516 0.008263717404491337 0.1516334454379754 0.3410684438856961 7.946931194901891e-20 0.5072981106763285 0.9296721798016472 1.818770834682342e-10 0.07026769644535685 6.012357111889552e-05 0.09982458877768877 0.9001706311890563 3.204249408725795e-28 4.780033254892355e-06 0.5831644010019802 0.4135915635801085 0.002998236488212945 0.0002457989296982297 0.9963727595271256 0.003605935542896418 2.130492997797841e-05 3.551106974138316e-46 0.0007579947183547132 8.92976265209638e-07 0.9992411123053799 3.174312608069948e-16 4.898410097365927e-05 0.935024497850043 0.007226090670433115 0.05770042737855027 9.470180561644621e-24 4.074553332881223e-13 0.9999999999995904 2.069381664459561e-15 0.9999999635246926 3.326600036118731e-08 3.209307109883474e-09 6.765112125217175e-18 0.8518816215788119 0.003146652268628516 0.1338385293029521 0.01113319684960755 0.1293747105774266 3.085936887292655e-09 2.154128810099098e-16 0.8706252863366364 1.841028382679549e-07 0.999950378358342 4.943753881968071e-05 6.382831319393326e-18 0.9994702750055148 2.38225945307095e-19 0.0003217802101117128 0.0002079447843736044 0.0006855327476246719 0.4855300453626274 0.0166547564551947 0.4971296654345533 0.001379187352073747 3.928975037887438e-07 0.9985069579895065 0.000113461760915893 3.519094437624885e-05 3.71863181435973e-06 4.425722579559616e-10 0.999961089981237 0.003763254844298201 0.001461766722938737 0.1004664831067805 0.8943084953259827 0.9457321493446905 2.354349189865654e-08 1.597350705202182e-06 0.05426622976111239 1.571924525171773e-07 0.07513495641282091 3.248309285543269e-10 0.9248648860698957 0.8942611526243636 0.0002221792807615326 0.105501998415417 1.466967945785088e-05 1.881894798628539e-07 0.9999061275316263 4.917234230776914e-12 9.368427397670763e-05 3.997246726342767e-14 7.12877101731914e-06 6.088842252210961e-22 0.9999928712289426 0.0001712507487551886 0.01312324876472722 0.9856389869070326 0.001066513579484866 0.3954979190030906 1.815115938438588e-18 0.02344320542782984 0.5810588755690796 0.08599537889381076 0.9133462044946831 3.192413779251705e-09 0.0006584134190921984 4.928852418035374e-21 0.02255299906629344 0.02211948494525847 0.955327515988448 0.002217508909936797 0.02560739531591077 0.7840311830251773 0.1881439127489752 0.1763362407623541 0.2116628626879849 0.455651465205181 0.15634943134448 6.771935315955047e-07 0.3576145176010554 1.393344522104976e-10 0.6423848050660785 5.037027029456044e-06 0.0001568510927051148 0.9998315738195269 6.538060738339338e-06 0.002807323974055575 0.0004124908014115634 0.7019801956383698 0.294799989586163 6.323315567882688e-10 2.515521062917496e-09 0.9963686820997947 0.003631314752352648 1.628814763788122e-30 0.9999797664713529 2.023352864717956e-05 1.660925659078925e-21 7.572727867529204e-09 0.001047396892961145 0.9989525955343108 1.238445095737689e-110 1.746653773520114e-05 0.4894385005976547 0.01725276052578699 0.4932912723388231 0.3982973555626557 0.2890274883708319 0.2969265897359817 0.01574856633053055 0.480299284043877 0.01272495633070787 2.386074646570576e-15 0.5069757596254129 0.9993713932465262 9.141778212119741e-23 5.274668206106088e-16 0.0006286067534734317 0.1452464147246411 1.16195051821726e-10 0.8547283015857418 2.528357342200323e-05 1.865389691925473e-06 4.13865159913987e-49 0.9583277481873824 0.04167038642292567 0.08526663857053235 0.8794376516057092 0.000178277898753372 0.03511743192500506 0.8039470927532041 8.506159609585426e-69 0.01053199826208866 0.1855209089847072 4.603643029635186e-85 1.401915189854128e-05 0.9999850929463908 8.879017107745945e-07 2.041618372945791e-45 0.9517285318795478 0.04827145091577408 1.720467825268519e-08 4.33407399789435e-07 0.994211257294277 0.005788309298323321 6.168690573909337e-98 4.726096081752658e-16 1.970961177659207e-09 0.02268429027520546 0.9773157077538328 1.532584714655639e-09 0.9988567184749706 0.0005693497448886854 0.0005739302475559115 5.769185553043515e-07 0.6591376826269345 0.2916672738911709 0.04919446656333937 0.9999766828204421 3.7717982336147e-10 2.331680237822365e-05 1.681658835179489e-38 0.3215319200420296 4.212273297905988e-06 0.6772996408571155 0.00116422682755709 0.2478490057267631 0.7443135825581991 2.345932559453511e-08 0.00783738825571189 0.9999999937298446 1.634633312106229e-18 6.270155447832024e-09 2.192855345111067e-24 0.7224944690434542 0.0002902722868433356 0.0001625576967051117 0.2770527009729976 0.09484041410054378 0.1086717373545976 0.7964878009149824 4.762987639287361e-08 0.009333569320871198 1.053581589146991e-84 0.9906614056844463 5.024994682679734e-06 1.428217225060617e-17 1.493944473524725e-09 0.01619730007888692 0.9838026984271686 0.9688998103596035 0.03109917723331834 1.012407078163244e-06 2.659536760854745e-18 5.635916579647032e-10 0.0001796272688882008 0.99982037198497 1.825501544387381e-10 3.206611635904586e-10 0.006311657704915167 2.416796337956327e-08 0.9936883178064602 0.09066013048013676 0.9092151300982215 0.000124739421641784 3.61286049235118e-20 0.9948678530672558 3.463889197761827e-15 0.005127309105941563 4.837826799228136e-06 6.311581215970053e-46 7.83924613618423e-28 3.929694772590408e-06 0.9999960703052274 0.4034560002597871 2.845302322242629e-09 0.3699288846825926 0.2266151122123179 0.001839230675831421 1.387270930074678e-24 5.406869855962889e-17 0.9981607693241685 0 5.106849194986973e-29 0.9999989338355586 1.06616444146409e-06 0.7813380223754036 0.2000127468828559 0.0001158279325252997 0.01853340280921514 4.625560108158089e-12 0.008876193940534209 0.9821184977069025 0.009005308347937651 2.861178004540006e-17 0.9872601685675934 0.0006281140363672664 0.01211171739603948 2.332382084023252e-11 0.1367456685573906 2.454779103530672e-26 0.8632543314192854 0.01748407761788194 1.0775563255566e-43 0.982515922382118 1.151058114448754e-94 2.292175874482509e-08 0.0003097530776602424 9.212379743075323e-16 0.9996902240005801 1.763215628583154e-05 3.760184228356963e-05 0.9999447660014303 2.93246525584585e-16 2.82260905660357e-12 0.7487269575707655 0.0008641611934928816 0.250408881232919 0.9970387950484368 0.002927560950752016 3.364400081118244e-05 2.681804124868763e-18 0.3155801027474338 0.3413090809031176 2.679559953927502e-05 0.3430840207499095 4.123172276490695e-11 6.557439202504288e-19 0.9999999999569761 1.792057041791676e-12 0.2480403711381871 0.01013804372432822 0.04528938663812758 0.6965321984993571 3.567252372939067e-11 8.92455771754154e-05 0.9999106995803473 5.480680480179445e-08 1 1.114339749100943e-17 2.586700615366587e-28 3.173215725206808e-101 1.210341840099945e-06 0.01212178099835099 0.9878770086554048 4.404135341100814e-12 0.000160390335380271 0.5905583670043577 7.466195644881069e-07 0.4092804960406973 1.603244031352919e-05 6.848236780337011e-116 0.9966137570251452 0.003370210534541172 7.597666258333809e-08 0.001947787697536306 5.622902081095081e-08 0.9980520800967803 0.0479793425387205 0.02803532988277448 0.9237913324136112 0.0001939951648937991 0.05491272289948388 0.8953619765808172 2.952932137518161e-08 0.04972527099037748 0.3733264073416276 0.1144533438062974 1.884624768216278e-17 0.512220248852075 0.2229426327061401 4.549248362022802e-16 0.0009457602555121396 0.7761116070383471 0.9994202350811205 1.707756330664439e-14 3.319526988592557e-12 0.0005797649155428057 0.03268697193152588 1.695035944049439e-05 1.068043643270313e-05 0.9672853972726009 0.009848694913747952 0.7347239398062602 3.718019604091455e-11 0.2554273652428117 4.223876460713697e-08 0.9999998437170488 6.932545839648406e-14 1.140441173796053e-07 0.2496042954729076 0.583481344434351 0.001551590764172869 0.1653627693285686 0.8983738106799872 0.04639093394536287 0.05456178166265154 0.0006734737119984122 0.000804849805369346 0.8619775156322289 0.1372176344595916 1.028101689555095e-10 9.068642555756922e-12 3.518810864884425e-34 2.769164885895107e-30 0.9999999999909313 0.06446116214856511 0.9348176968918461 2.742477647451496e-10 0.0007211406853411625 0.4095869410714477 0.004458052376709717 0.5859550065518425 3.069989140739831e-42 0.009385112188241972 4.252098802925154e-10 0.9904931247197698 0.0001217626667784645 6.527376435019961e-37 2.348457057518849e-10 1.445046435902617e-09 0.9999999983201078 0.7532818917824495 0.1195029300553015 2.745112150037964e-06 0.127212433050099 0.00010320222665935 0.1253360866899158 0.8745607109983029 8.512199617112214e-11 1.118255607221052e-06 3.897459933901949e-10 1.442838166445113e-14 0.9999988813546324 0.9780676612950301 5.045152066536409e-261 0.0006659184639259887 0.02126642024104388 0.9917739411395674 0.007658040585329461 0.0005680182751031158 5.292293004213848e-34 0.9120172835248708 4.259102326335782e-06 9.46624469050907e-15 0.08797845737279349 2.436344931569059e-34 1.914141594334621e-06 0 0.9999980858584057 0.6458866629214632 2.430394180339789e-11 0.3417797797077062 0.01233355734652666 0.006076657243741541 2.848196792832898e-10 1.221862003114682e-07 0.9939232202852384 1.882025613820961e-10 0.5637873992665462 0.4339918579414459 0.002220742603805293 3.020133947363498e-05 0.04339921152282233 2.120179688292916e-05 0.9565493853408211 0.01364011085861965 8.844766330558198e-10 0.9863598882569037 3.347307305960976e-31 0.6205493569544938 1.140253699583619e-56 0.3791940943808091 0.000256548664697181 0.0005434026054207777 0.09304165784990585 0.9064149395446733 0 9.056318842579372e-08 0.7051971163217698 0.2948026671936913 1.259213505596417e-07 0.9999944914525073 3.529975836928258e-45 5.508546487140041e-06 1.005594041561252e-12 7.726203411380282e-28 7.152349829377486e-09 0.5190387382604734 0.4809612545871767 0.9878484527653857 0.001978633469992215 0.01017291376462204 4.005374798959514e-27 0.05049747877334663 0.07393477320558861 0.0008220246241839696 0.8747457233968808 0.8439090275334172 0.0003133558945586061 0.0002713685816245224 0.1555062479903997 0.5110529526926715 0.1535054117167368 2.709833128650127e-11 0.3354416355634934 0.02020555097931031 0.9797591036875085 1.381150656412483e-12 3.534533179998359e-05 1.077901952764054e-11 0.9982674319674203 0.0001696920009785555 0.001562876020822045 0.001128443585072573 0.9921071325608716 0.006764422809943409 1.044112458218312e-09 8.631260417579085e-18 0.9992852748912811 0.0007147236405119537 1.468207002928665e-09 8.78144666701111e-06 0.2299683827198234 0.7500701042099825 0.01995273162352718 1.606685712794283e-06 0 0.002619148968473218 0.9973792443458139 0.999998613855038 3.99764839342508e-07 9.863801228293356e-07 4.97739618181964e-18 0.368076688379317 0.4188720636268479 0.1664845142878318 0.04656673370600333 1.052206267524727e-05 0.1487046007443056 0.8295089334368485 0.02177594375617066 0.01404291052802924 4.95182517467632e-10 0.6694153034043506 0.3165417855724378 0.3734845951481681 7.09294880769197e-48 0.6214270941631576 0.00508831068867441 0.9572482844558149 3.506514123084225e-06 0.04274820899193286 3.812918721271583e-11 0.8129421544072658 0.1822686112885069 0.004789234304195391 3.187757893235438e-14 0.0001913512959786205 0.3318611008918446 0.02697316900218276 0.6409743788099941 0.4387584530952563 0.000147911749488136 0.5610935340647277 1.01090527805494e-07 0.9695132261569017 0.03048677371880594 1.242924695358747e-10 3.079589980768482e-43 0.006591918954372054 0.9813234298404976 0.002907866102508134 0.009176785102622256 0.09545796768686413 1.195820962585661e-09 0.9045416163295016 4.147878133265852e-07 0.0002950542264532218 0.7733944342108199 0.2263105115627269 8.321846827469402e-20 0.03310624411673608 0.003614431758764863 0.3500624217613444 0.6132169023631546 0.9895262685028053 1.374424792316378e-07 8.076773738093082e-06 0.01046551728097728 0.08842463614469727 4.157125514169631e-66 1.88048442020689e-18 0.9115753638553028 0.9995764897631709 0.0003361684123210564 2.551275734335427e-09 8.733927323223556e-05 0.00335476083138957 1.254758589875333e-12 0.01554788166796815 0.9810973574993874 0.1882137601899645 0.3085291141540738 0.5032571256559617 6.683285078353128e-60 0.0001665346760187796 3.446757847678307e-73 0.9998334653239811 6.988519438475077e-57 0.3620612139150616 0.0001729215452352503 0.4542397541071608 0.1835261104325425 0.9907513477291123 0.0007788521331915567 0.00209609337264925 0.006373706765046876 1.968595939681509e-07 0.9999998031353763 8.906910937938002e-51 5.029761928030116e-12 0.7886912998397586 0.2112273873574517 8.13121922809089e-05 6.105086384872894e-10 0.1176913672699671 8.650665893865393e-05 0.8822221260710943 1.509921254250458e-38 0.452630964112775 3.011243808702081e-07 0.5473687058566997 2.890614436401996e-08 0.4089447714154067 7.292273738544199e-06 0.5910479244714133 1.183944146596338e-08 7.563136627410262e-05 0.0114148915698944 0.8275885966521976 0.160920880411634 4.281629404514921e-24 0.9999999505138504 4.948614969576893e-08 1.318434203044625e-137 0.00675796721527318 4.940544896798043e-23 2.610924333269466e-09 0.9932420301738026 0.9999999999966818 3.686326458562612e-21 3.297352113068492e-12 2.094748966451816e-14 0.003769444033605264 0.09047744001117233 8.535521198026666e-67 0.9057531159552225 0.05142984278214424 0.1715684585767842 0.7770016986084183 3.265326710397082e-11 0.9529177801220031 1.607639914979279e-81 0.04708221956842792 3.095688751820053e-10 7.566330390106209e-07 0.9992878681571111 0.0007113752096734453 1.764634105639469e-13 0.9924848675042734 3.365293615525625e-09 0.007515129130432977 3.472025608216379e-34 4.813094020077466e-06 2.811619660933588e-10 1.386143827643299e-18 0.9999951866248181 0.06925536142932906 9.190087206548604e-05 0.2723541767806648 0.6582985609179406 5.852255460953568e-05 0.0001333570322696896 0.8744303889026217 0.125377731510499 0.3428384797851813 0.3482474158640141 0.2341829518585777 0.07473115249222693 2.227351369673791e-31 0 0.5195264413313483 0.4804735586686516 3.670673227312137e-15 5.220845329400427e-06 0.9896465350931638 0.01034824406150327 9.876786091860414e-07 0.6757645461342828 7.810094393546484e-05 0.3241563652431724 2.074816429280132e-19 1.269372106278507e-44 0.999965038404293 3.496159570708283e-05 2.645900629064752e-13 0.01653760282895252 0.9506654503572631 0.03279694681351984 6.44003925290832e-42 0.6806634775545196 0.3191465755219527 0.0001899469235276044 0.9659320454896543 0.007594700719932919 0.02514130188202514 0.001331951908387713 8.730009663940571e-05 5.305558803830072e-10 0.01703595985090097 0.9828767395219037 2.120885479633531e-22 1.027929987770197e-06 0.9999989720700122 2.177274451224101e-43 0.007673747718047306 7.177204982893942e-103 0.0007005704812780049 0.9916256818006747 0.9045807631270745 0.0004086819947718329 0.08204702750111853 0.012963527377035 0.06915333337493627 0.4342814417485627 0.4937448420639738 0.002820382812527202 0.5051568738452077 5.780569689543701e-09 0.4948431203742228 3.276615364321841e-25 4.112232014676967e-08 1.569124032184998e-13 0.1367372068549314 0.8632627520225916 0.999910201003541 8.979899645910616e-05 3.361249137032271e-35 1.856216297507081e-32 0.3562799178975594 0.1149175906642805 0.003257978246113347 0.5255445131920466 0.2390235705720132 7.551236422208778e-06 0.5705683162364085 0.1904005619551563 0.8814049947926896 0.1185931482299469 1.856977363583124e-06 8.731690389898906e-20 0.1460785678470211 0.008854076744054284 0.84506735467201 7.369146564486372e-10 0.9373815664438542 5.27773208719044e-148 0.05291286162660709 0.009705571929538909 0.133505582510154 0.424785099904724 0.01514570414683768 0.4265636134382845 0.09824994653830593 4.970194774439861e-44 0.901750053461694 1.277145536263838e-36 0.06009858398861213 0.6125640141388703 0.009267862999920509 0.3180695388725971 3.651196419758976e-12 7.420375008331824e-11 0.004061370593618862 0.9959386293285262 2.028433691609776e-19 0.01018010299170021 0.9885370191532374 0.001282877855062395 0.634319302754413 1.195421952208634e-09 0.329409875279208 0.03627082077095706 0.1434781299596618 0.8564420363792655 7.957078876036274e-05 2.62872312341206e-07 0.06466991456325567 0.9351183449422145 0.0001836767675131766 2.8063727016682e-05 0.0156074249050299 0.02740067430763215 0.956991900787338 5.546656304860666e-17 4.905507850844763e-16 0.2325393496472661 0.469539936371796 0.2979207139809373 0.0001715561020078128 9.973623714066453e-119 0.8041391635966557 0.1956892803013363 0.000754570228807597 0.9992454297711924 4.604864916611581e-183 3.89345495724795e-75 0.6874299826152631 0.3120778546167055 0.000454340249166089 3.782251886552444e-05 0.04808616598093075 2.431056999274562e-208 5.039759661132363e-06 0.9519087942594082 0.009777180187213332 0.001355812636049856 0.08568533826248484 0.9031816689142519 0.01826250459858501 0.9707210931132997 0.01101634758111406 5.470700116480009e-08 0.0002914913636321278 5.488567657176256e-09 0.9995074963432921 0.000201006804508208 0.01643673354850961 3.074548765277529e-11 0.9447141067160745 0.0388491597046703 0.9964984297834759 0.003501570216465594 5.833929027068912e-14 1.457498646645083e-27 0.06815262478974633 2.324679034590526e-10 0.9318007515714236 4.662340636225557e-05 4.861563973665416e-16 0.9571633855514297 3.512700390942572e-11 0.04283661441344283 9.7938749311929e-12 0.9975584647035349 0.002441535286671028 6.87961964357125e-37 0.00102042825539565 0.9628382646721252 0.0004255710335350698 0.03571573603894398 0.9286819602772383 2.015960538439895e-08 0.07131758955971612 4.300034402478224e-07 7.587968989948668e-25 4.267457347539624e-05 0.9964009277983094 0.003556397628215113 0.980586843072304 0.002645651548652158 5.967480165997102e-07 0.0167669086310273 0.1226026693897718 0.8759970886402482 0.0003213238473450016 0.001078918122634799 4.469961015297355e-23 2.433684857019141e-27 0.1091006005506315 0.8908993994493685 0.4756868264405333 0.01375947807074217 0.418041327313614 0.09251236817511058 0 3.827348687182996e-33 1.448641334045645e-81 1 1.751253898725649e-06 1.140360287324461e-10 0.999998248121761 5.103043564603742e-10 0.04816680822374711 2.21607014619069e-20 1.234804003495346e-44 0.9518331917762529 0.998716565625502 1.110575278179481e-139 0.001283434368998617 5.499085048566453e-12 0.0002984076349925661 4.087416388405608e-15 0.9981617213927323 0.001539870972271187 0.09088909903660726 0.5260787915393542 0.3418737620188015 0.04115834740523715 1.256575420779898e-11 5.420263395854978e-106 0.06855655494898022 0.931443445038454 0.009278133742874147 3.12802606344176e-05 0.9900419331516954 0.0006486528447958847 6.982623200181273e-43 5.757297062002587e-05 9.620538021098761e-27 0.99994242702938 0.01380925805787457 0.5742586994626105 0.0005468134307136222 0.4113852290488012 0.3251985781838884 1.178955954581524e-76 0.0001435340719338546 0.6746578877441778 0.9997036677047324 1.213426068921747e-10 2.630745519473794e-08 0.0002963058664698737 2.431633434464562e-10 1.421858828806453e-11 4.030620816350944e-05 0.9999596935344546 0.01494353050356819 2.531936572593294e-33 7.529151443580688e-05 0.9849811779819959 0.0005861698283835762 2.475916585557625e-25 3.802803300995037e-07 0.9994134498912863 2.36676786246535e-11 5.105802643141237e-19 0.9998568290346258 0.0001431709417065108 0.982606532556113 4.311305570746319e-06 1.527368268623032e-06 0.01738762877004753 0.02885276965250513 0.4814478647934851 0.008282325121108033 0.4814170404329018 0.9135572788243725 0.05418842130927472 8.495007464726818e-05 0.03216934979170537 0.00210523457865288 0.003555373515297138 0.9943377932047155 1.598701334384011e-06 0.9767444328299235 0.003058134500045311 0.01881749885998785 0.00137993381004317 0.9999958822227873 6.779972458813104e-14 3.463913689800152e-06 6.538634550604881e-07 3.122132108386752e-06 0.06589413851200135 0.9291326477800986 0.004970091575791659 3.989659295248724e-23 1.158440530499494e-05 0.9999880434761802 3.721185146846911e-07 0.9999762215375081 2.377846249191688e-05 4.383702346374011e-61 3.286695302489116e-32 0.003084656679036675 0.9969147227722235 8.013741421406517e-22 6.205487399246348e-07 0.9999999978565965 2.056147704780337e-09 2.151733455165691e-15 8.725360178874263e-11 0.2251371682603222 0.7545749943599117 0.01363346273285384 0.006654374646912475 0.4456345008074635 6.740666041557935e-06 0.001038905149322039 0.5533198533771728 8.185872380195923e-07 0.01016287298828756 0.9898359185750819 3.898493924735568e-07 0.2915989632222098 0.1777146075576207 0.5306864292201695 2.570740786614008e-34 4.039846127058618e-23 7.262787758847773e-06 1.011318725728356e-77 0.9999927372122412 2.752160212898852e-20 4.231055408966416e-11 0.795276248462418 0.2047237514952717 2.217470990952159e-10 0.999647906625023 0.0003516008535731301 4.922996567673939e-07 1.477997065028867e-32 1.09056252293632e-38 7.345416316119326e-05 0.9999265458368388 0.9356532365511809 0.06383707995146397 5.087877572370529e-08 0.000509632618579306 1.441817019368312e-09 0.02388271921485347 0.6474836850188292 0.3286335943245002 0.9998314740839011 0.0001677593049707347 2.863578357268697e-08 7.379753446039408e-07 0 0.0001144067315508926 8.824490307769999e-07 0.9998847108194182 0 0.2965893300015987 5.080625053971261e-46 0.7034106699984014 0.002077328045548041 0.997880841921075 4.167731991373629e-05 1.527134634283294e-07 5.55021359826468e-51 0.01902937061787964 0.007323273104537421 0.9736473562775828 3.553895005708281e-14 7.911656023013695e-23 0.9882468708448221 0.01175312915514243 0.9999812196095994 0 1.146260749986393e-06 1.763412965067233e-05 1.130929197522145e-09 0.009682392336790545 0.9903170562255934 5.503066867331862e-07 0.05091412760943091 8.936367959044923e-12 0.8211538085526406 0.127932063828992 1.078627778474329e-06 7.596592904986112e-90 0.001644646931489577 0.9983542744407319 2.671375266650226e-07 0.9993478023319301 0.0001182182233552836 0.000533712307187781 0.9866732169881206 0.01327853749776567 1.416123811211678e-13 4.824551397218789e-05 2.290019376480261e-22 0.1456885915815575 0.8543106197081624 7.887102803149357e-07 4.684173734545307e-11 0.6418988673396586 0.3581011308275154 1.785984211715838e-09 2.210998379172181e-10 2.27255864417797e-17 0.9996629457002418 0.0003370540786583135 0.7746024453608749 6.810548906931062e-07 0.196577929807167 0.02881894377706731 0.3104961543104934 2.58344357487554e-09 0.6889105373253008 0.0005933057807621183 0.001711920593026627 0.06777243364940164 0.2901020007390143 0.6404136450185576 0.03050000004514154 8.465858430407134e-05 0.6646274396603432 0.3047879017102112 0.0009388253163845315 0.3508721013545136 0.02221135706054743 0.6259777162685543 3.851734553974781e-05 0.9997964558164476 0.0001650234217308518 3.416281795906128e-09 0.6938922800603566 0.09929683532431334 1.007913780155925e-05 0.2068008054775285 8.887327388470426e-28 2.158534085624117e-76 0.9999984185487603 1.581451239701761e-06 8.11952029363222e-26 