<?xml version="1.0" encoding="UTF-8"?>
<!-- This file was created by ACADEMIC version of SMILE -->
<smile version="1.0" id="Unnamed" numsamples="10000" discsamples="10000">
	<nodes>
		<cpt id="U0">
			<state id="a" />
			<state id="b" />
			<state id="c" />
			<state id="d" />
			<state id="e" />
			<state id="f" />
			<state id="g" />
			<state id="h" />
			<state id="i" />
			<state id="j" />
			<probabilities>0.04105211291786413 0.0004982816699941215 6.775544367413602e-52 0.1849514818759339 2.171953489096802e-13 2.36615968327122e-08 0.0003029164434294668 5.037578509398397e-05 0.09210751127121461 0.6810372963746557</probabilities>
		</cpt>
		<cpt id="U2">
			<state id="a" />
			<state id="b" />
			<state id="c" />
			<state id="d" />
			<state id="e" />
			<state id="f" />
			<state id="g" />
			<state id="h" />
			<state id="i" />
			<state id="j" />
			<probabilities>0.009826814139650563 0.007211575789229128 0.002919588267762616 0.713071958316272 0.005308591374171808 0.2614344711734938 1.880920581876206e-13 1.364786948760286e-08 0.0002266291584468281 3.581329155658095e-07</probabilities>
		</cpt>
		<cpt id="V3">
			<state id="a" />
			<state id="b" />
			<state id="c" />
			<state id="d" />
			<parents>U0 U2</parents>
			<probabilities>0.999839214948651 1.319737392864431e-05 1.290119020096235e-11 0.0001475876645191814 2.163556941759965e-12 0.9943259917824528 4.771382543149338e-55 0.005674008215383684 2.882551440282147e-13 0.9993470656690678 3.295111546791332e-09 0.0006529310355324559 0.1126518016618463 2.519439664718201e-05 0.8323482820927168 0.05497472184878967 0.9727693896289041 0.0001989999946712409 8.582074955800036e-41 0.02703161037642463 4.022236618594869e-15 0.02506833804012282 1.440087069849993e-33 0.9749316619598731 0.001468382746563196 0.003027452542144764 2.411887774575517e-15 0.9955041647112898 0.010891160145209 2.252037610739908e-15 0.8107112907600542 0.1783975490947345 0.2838098724577687 0.1174533896457158 0.5881618962560466 0.0105748416404687 0.9012095958816686 1.618319899463259e-38 0.05842479291833327 0.04036561119999817 1.603551391834662e-21 2.332805933721249e-71 0.9999999999999999 0 2.742838083155494e-06 0.8736077320625332 0.1263895250993834 1.542216303497572e-16 0.401622149125023 0.05401660212947826 0.001104929810846598 0.5432563189346522 0.7647553516558615 2.614845004133012e-08 0.2352446221320418 6.364666660361005e-11 1 1.57282271025472e-53 4.029234643244266e-76 5.372422810397475e-58 0.00059402063552881 0.6048828374384041 0.0002234108703847487 0.3942997310556824 6.683842943869426e-06 7.738457275682583e-27 0.4860192011236071 0.5139741150334493 0.993777707406713 2.738646699279707e-05 4.855166131494508e-58 0.006194906126294121 0.04285440029671609 0.1087060624093798 0.8465961990344538 0.001843338259450411 9.737025704844828e-09 0.9999999902629744 5.017292198518372e-17 1.670966592629266e-17 0.0002459919493079145 0.2172613717869007 0.0003938226612163213 0.782098813602575 5.336016916797751e-09 6.341857393930412e-07 0.9970461197840552 0.002953240694188277 0.9640062487036692 0.03599375129592079 4.100100870649625e-13 1.136303252445655e-39 0.08766545202313306 6.229880937935235e-14 0.9123345479768046 3.351480661538975e-18 0.8789807338144551 0.1210192573826785 7.181952322573295e-14 8.802794524062735e-09 0.5257982603003006 0.0007126975427097676 1.13663061572398e-25 0.4734890421569898 0.853485877648974 0.1465003412297227 1.37799534489471e-05 1.167854288239752e-09 4.176952106052257e-08 0.9867345857059491 0.01326467399618275 6.985283470072198e-07 0.9918729547227652 7.969868949220077e-112 3.486830468679748e-07 0.008126696594187958 7.810342995408804e-07 0.05528775172388132 0.9446856086141818 2.58586276373796e-05 1.18356645567064e-05 2.169516167827744e-07 0.4304877528128216 0.5695001945710049 8.635865662033125e-16 0.005091913403346159 0 0.994908086596653 0.0009343128910260721 0.9989532964550152 6.016778373045346e-34 0.0001123906539586589 4.071433541530339e-08 0.9999881265288445 1.183275599646521e-05 8.23560193107374e-13 2.499986245855609e-07 0.0002957015110887469 0.3220235450149125 0.677680503475374 0.9993134320969029 0.0005860493995781364 2.158585342415892e-35 0.0001005185035188593 0.03282164495009107 7.457021929858198e-34 1.05968860305026e-29 0.9671783550499089 0.9695687602982314 5.318903308283868e-05 0.0286021977487948 0.00177585291989107 0.8531313948783029 0.004264281856956197 0.142604266461672 5.680306891892156e-08 2.500109463376564e-74 3.598069990466875e-11 0.5460375431860059 0.4539624567780132 0.00275706580915339 0.8511064115447217 1.03449286856148e-77 0.146136522646125 0.04472765961585193 0.8951214189657395 0.05395901944501351 0.006191901973395199 0.0002164095278681464 0.01422083466132562 0.985562755810785 2.122667534065466e-14 0.8178169175702392 0.1641891820992703 0.01799390033049042 4.631562377425125e-232 2.655508844555651e-45 0.9989690523975356 7.024371158264754e-68 0.001030947602464438 0.1310716225921174 3.861710812568506e-30 9.464687708772886e-15 0.8689283774078731 1.86964750821833e-05 0.02238516723781934 1.56906879796548e-12 0.9775961362855294 3.83492258573663e-08 0.05126826909016587 0.9086939266604807 0.04003776590012761 0.3198853988990953 0.2135509731619445 0.466359286995738 0.0002043409432222329 0.09700920696276148 9.709190612121264e-37 0.9027865512427238 0.0002042417945145619 6.792215111189876e-15 0.3840991626151037 0.6159008373692656 1.562375944005482e-11 0.1249299888014758 0.00263288699447341 0.8724370335841326 9.061991823012926e-08 0.09271727972090832 0.004163662984437994 0.7583820084045149 0.1447370488901389 1.368573182962748e-08 0.02173756116541978 9.186443170312964e-05 0.9781705607171453 0.9911146303441986 7.463839731509405e-19 2.597714454864618e-07 0.008885109884355875 0.0009140828275603314 0.0007456156304288985 0.2306064534852749 0.7677338480567359 6.583661365606432e-05 3.025574673522387e-19 1.042771822550217e-23 0.9999341633863439 0.2130640636172539 0.7788251357245563 8.026090601615928e-35 0.008110800658189848 0.9317207971351354 2.731784795557862e-05 0.06825188501690913 2.579152192445075e-45 0.7060343618425033 0.2854399761903201 0.008522681058823995 2.980908352509612e-06 4.570449097780068e-06 3.710844832006692e-08 0.06430453777651353 0.9356908546659403 0.9990506257401959 6.399967405286323e-05 0.000885374585751233 3.317829745579066e-164 0.6969415054292731 8.347186531765384e-19 0.3030584945707269 8.500091782998147e-52 1.283715714834043e-11 0.4433502150975512 0.4280883324486281 0.1285614524409834 0.7718990172783714 0.1851223119352829 0.04297865886175807 1.192458767310661e-08 0.999880685089794 2.175212953015323e-43 0 0.0001193149102060152 3.875653329515042e-10 8.464059618069067e-21 0.9993634036050447 0.0006365960073900702 0.01271074633303278 0.001369541647782233 0.9859160250390111 3.686980173894773e-06 0.999814246274814 8.148324321549569e-17 2.924392863551575e-28 0.000185753725185977 0.7135784201920619 0.2777238371512697 0.008697581818657108 1.608380113943127e-07 9.709854920413199e-05 3.086516783694388e-07 0.01191476664572579 0.9879878261533916 1.204568140480981e-11 1.144164897058194e-05 0.9999869357294543 1.6226095294911e-06 0.9098378644478883 1.625336704071587e-05 0.0007966548160572158 0.08934922736901377 2.824412096014446e-05 0.9999717558790097 2.246092433879894e-30 3.04025754986199e-14 0.02929568168879721 2.347975679572382e-18 0.0113272520902393 0.9593770662209635 1.384685864951532e-05 0.0004214195316100952 0.9545555152079159 0.04500921840182451 7.518444300779816e-14 0.9999992609038219 3.842863997220661e-41 7.390961028220672e-07 1.817762052481014e-12 0.0002324983543600934 0.9991811670796397 0.0005863345641824646 1.654006445025199e-05 3.110196307124518e-19 0.1904839275924362 0.8094995323431134 0.003147393007128416 0.1148868420564195 2.040849597173816e-23 0.8819657649364521 5.174056669984029e-10 0.03436424514445729 0.08240204961555167 0.8832337047225853 1.603779973084126e-10 0.9999972895494467 2.710266752868237e-06 2.34224794380703e-11 0.9994038251111167 2.090334702880411e-63 0.0005953574893178425 8.173995654541583e-07 5.726009686333381e-05 1.468823448544763e-28 0.0004676575456181862 0.9994750823575185 0.01098735884912501 0.9412072382061213 0.04000280675943425 0.00780259618531953 0.0001537447342655783 6.326986640756812e-24 5.345582733110279e-15 0.999846255265729 1.573460535288585e-05 2.640476545773959e-13 0.999984265394383 4.032004341426125e-94 0.9999609267409947 1.864019727282633e-41 3.90717600345187e-05 1.498970801949645e-09 0.1334914650146327 0.02925276726950577 0.07844981048358041 0.7588059572322812 0.3609702875912323 9.871476396421016e-59 3.315769556279641e-21 0.6390297124087676 1.856486324837653e-05 0.01096166108387442 6.023719255537984e-07 0.9890191716809518 1.538216751172409e-221 0.9976082618791782 0.002142804731139868 0.00024893338968192 8.903535603736892e-36 0.5341347307081837 0.4658652692910565 7.596145640313362e-13 3.5474130112804e-05 0.965354087158763 1.753003056834814e-83 0.03461043871112421 0.04428158508793915 5.85089782394629e-37 0.04721622825157846 0.9085021866604824 3.743450005600291e-06 0.007199340876994492 0.9927969156443216 2.867809000018776e-11 0.03638155116677808 0.9141509752333183 0.04946747359990352 1.163423799442969e-32 3.686484995391294e-05 8.286572450310904e-63 0.9999631351481041 1.941942835307125e-12 0.01055169861288016 0.0009087746119273797 0.02466833846045216 0.9638711883147404 0.0004151601330639244 0.9973828583227283 1.413695953561503e-10 0.002201981402838141</probabilities>
		</cpt>
		<cpt id="U1">
			<state id="a" />
			<state id="b" />
			<state id="c" />
			<state id="d" />
			<state id="e" />
			<state id="f" />
			<state id="g" />
			<state id="h" />
			<state id="i" />
			<state id="j" />
			<probabilities>1.002064612820634e-06 0.02617774357825228 0.1878050318595933 0.5127261014386653 0.0004412389100273435 3.399550777046153e-08 0.2403731585058732 7.385652823002438e-09 0.02947590382142916 0.0029997784403861</probabilities>
		</cpt>
		<cpt id="V4">
			<state id="a" />
			<state id="b" />
			<state id="c" />
			<state id="d" />
			<parents>U1 U0</parents>
			<probabilities>0.04927192455181149 0.6080628436388484 9.268873423473122e-09 0.3426652225404666 0.4039788360022875 0.5960185906795968 2.573318115593315e-06 9.13230731036767e-23 0.9843659705014488 0.01543789982841406 0.000196129670136998 2.52867625511444e-43 0.0136308775667696 0.9783051091581318 2.85834830288666e-09 0.008064010416750211 0.7649392013404377 0.2349146629661575 0.000141652659155734 4.483034249061178e-06 2.676730674912779e-06 0.9856108952537688 1.214361871877162e-08 0.01438641587193763 0.06062648539107504 0.05852208401127801 0.880851430597647 2.936203291907923e-26 0.02586822373859915 0.0008714623330815435 0.0439231501482207 0.9293371637800985 0.9987963586128131 1.195414757600312e-28 0.001203641387186914 4.7373038474179e-28 0.01773136602235302 9.849335420795446e-10 0.9822679989656191 6.340270943288867e-07 0.001651085036097081 8.746759272987138e-16 0.9983452894268944 3.625537007619525e-06 0.03139922138263712 0.9685931631514069 7.615465955931226e-06 3.504707526053697e-41 0.2813369251982311 0.7125472458958371 0.0001505948068720002 0.005965234099059862 0.9999900262389697 1.684014291702534e-10 9.37321522711736e-06 6.003774018334532e-07 0.002112925424605793 2.541928972448374e-08 2.147859783456419e-14 0.997887049156083 0.9934182563565717 0.006577023689449754 4.719953978469719e-06 2.374536408577717e-17 0.2097084339311702 6.519273155612762e-06 1.636017489698185e-27 0.7902850467956741 0.9999999713127187 9.341356230450878e-17 1.146538072451772e-11 2.867581596108294e-08 0.09837875416779074 1.054529424283885e-22 0.9016212458302186 1.990683833167423e-12 0.0192211217529872 0.0009454181376456114 0.1797813923214068 0.8000520677879603 0.9358611579510202 1.893498584846973e-13 0.06413208866796725 6.753380823250003e-06 0.1559751012540901 0.6266416863503101 0 0.2173832123955996 0.3544874397010693 0.645509293456447 1.902452571150238e-06 1.364389912694583e-06 0.9597145870734457 0.0004440481304960497 0.03984136479605826 1.773492684581154e-50 9.482668009913852e-42 0.999998788627432 1.211372568219991e-06 1.575645694074019e-53 0.6590873082366675 0.337259450129166 0.002092916002613773 0.001560325631552942 0.9994306732395036 0.0003321696893069341 0.0002197717732436674 1.738529794569099e-05 0.008310973663505361 0.7050886745958042 0.2866003517406903 3.647739172413755e-99 1.289357748416584e-05 0.7630295174616617 0.01202216340808999 0.2249354255527641 0.6557838498000038 0.1862731284588 0.000776794253831612 0.1571662274873646 0.7737797451832847 3.318714419275167e-05 0.01030227186496533 0.2158847958075569 0.2368536399072306 0.08578187022786803 0.4901882052235552 0.1871762846413461 0 0.1770422069910622 0.8178774076507092 0.005080385358228546 0.9970377552442415 0.0007264611014129053 0.001448565352565871 0.0007872183017796363 0.002525617665124789 0.002691186289352079 5.923540396745377e-09 0.9947831901219827 0.9732948463980131 5.573803451556295e-12 0.02505323066219278 0.001651922934220323 0.0003971849081449245 3.994829181660767e-05 0.9995628668000384 4.602721230849988e-46 5.636669345028725e-11 0.1793722810789231 0.8206275137301468 2.051345633115074e-07 5.430775728913499e-17 0.01151303499117761 0.9883615971231129 0.0001253678857094638 0.003336961713419622 5.090072974721931e-42 0.9966630382865802 5.106309027116098e-18 0.482952878049714 0.517047121950286 0 1.689238799971629e-23 0.0001637308644333806 2.085219342817412e-05 0.9951234726113533 0.004691944330785234 8.532859055791056e-14 0.9996905674938706 1.882939162551921e-05 0.0002906031144183593 0.7448451354666703 0.01190947588536755 0.001939912684454919 0.2413054759635073 0.005062223903852648 0.8359735865009502 0.1589641895891236 6.07341328545921e-12 1.31932304752772e-05 0.8097881605434842 0.1796893974390201 0.01050924878702023 0 0.9999999999943869 5.623476980259727e-56 5.612959149678109e-12 0.9966249412327833 7.64639376736931e-53 1.081172561067867e-21 0.003375058767216688 1.017221955267329e-219 0.000215885059572584 0.9486306277102556 0.05115348723017186 0.9927236782457763 7.526459133344848e-19 0.006376554181914961 0.0008997675723086503 1.00408020393168e-18 0.7601378599070144 0.2398621400929856 2.085977279220476e-56 0.500598624955776 2.845455488917976e-26 0 0.499401375044224 2.670180614769227e-08 0.6666404393293925 0.02605000128473746 0.3073095326840639 0.0001073506813207088 0.9998926493186793 2.047487684128374e-261 1.411563570099556e-170 0.002057617650315167 0.9916846779043017 0.006257700180584268 4.264798849928317e-09 2.034501047418207e-177 1 1.116481250250311e-18 6.214189363047334e-58 0.9654820183072307 2.011434546046666e-08 0.03451796157842374 9.542899345293286e-29 7.097818754139234e-07 0.591440151282641 0.4083617774076561 0.0001973615278272863 0.01517158167921721 0.01014095023334484 0.9746377591933647 4.970889407310378e-05 0.0003049052927628367 0.9996943777157615 3.284678331182342e-74 7.169914754887569e-07 0.9000071806024185 0.0001787047350354144 0.09981411466254607 4.989770955321846e-24 4.122002373317864e-16 0.02714985504506788 0.9728500473397478 9.761518397755582e-08 0.0352745058225905 0.000152554431404614 0.9627165051269799 0.001856434619025022 3.805652934725645e-13 0.5936981082324685 0.4063010260481975 8.657189534234857e-07 5.938410174854442e-05 0.005296897460715621 0.05180745471440676 0.9428362637231291 0.0004167687337531182 0.5921989788029849 0.4073098915220879 7.436094117406854e-05 1.368941978697061e-32 0.948775095014785 0.05122490498521454 3.888820314749205e-16 0.03683928696952401 0.8986817480312783 0.06447896499919778 1.131975011870114e-116 0.9964290114967551 0.003570986929035284 9.623529252933705e-39 1.574209496918595e-09 0.4947788501555032 0.5041750745610419 0.001042894300309492 3.180983145515582e-06 0.8132633971514782 0.1230721359334368 0.06366446691508196 3.033269702965748e-15 0.9790081503671072 0.02099184915798002 5.19389400370439e-71 4.749127789755891e-10 0.9992697191126142 8.817858763897926e-06 4.331676610415655e-05 0.000678146262517654 0.8671381801182797 0.0005984804457035194 2.112185692072716e-76 0.1322633394360169 0.9761836797493662 0.02121299635519738 0.002600791019619543 2.532875816862576e-06 0.599211444675006 0.01489526494477649 0.0001483705859709073 0.3857449197942466 0.001691845274830813 4.580919699729158e-15 3.724384994485332e-08 0.9983081174813146 2.036988343568455e-27 4.949038845698036e-06 0.9999950509611542 4.38691470085782e-135 3.517536493601237e-35 2.709298266164255e-10 0.9749376733486526 0.02506232638041779 8.988189269038368e-22 7.28455789722635e-38 3.270269560659098e-58 1 0.9782867760208962 0.006016776412832735 1.717379613070703e-05 0.01567927377014043 0.07435705710196815 5.556260084366544e-14 0.9256426526898544 2.902081219556043e-07 5.537433062576322e-07 1.722307979513622e-09 0.9999994444494853 8.490038503454643e-11 0.9976346817991695 0.002365300927964519 8.897655796274252e-20 1.727286587988939e-08 0.9824499874060588 0.0175479748501262 1.185193497335903e-07 1.919224465246669e-06 0.5445372190259232 0.008290945348248507 0.447117073895062 5.476173076614298e-05 4.643508707202858e-22 1.419304660107041e-09 3.199963538158435e-06 0.9999967986171572 5.302838358716381e-06 0.07680676656620242 0.9231663972393769 2.153335606208905e-05 5.734644378116835e-06 0.707104688682256 0.1394469742577873 0.1534426024155785 1.495507429964617e-10 0.9647767734011471 1.604959865460523e-05 0.03520717685064757 0.9938119405105894 1.837739042847099e-06 0.004181667741822977 0.002004554008544793 1.104680946380236e-14 0.9374874786725748 0.001013610210047617 0.06149891111736639 8.574633821813301e-13 0.02964220968137278 0.969885657614636 0.0004721327031338464 0.4305372231362608 0.001961555397609801 8.002519944072061e-05 0.5674211962666886 0.9415743804131292 9.028506477721575e-14 6.795200648776555e-06 0.05841882438613169 2.511692361748504e-26 0.4207482724619226 0.5467127465715075 0.03253898096656979 6.607080685438812e-06 0.9555447476209772 0.04444864529553671 2.800696506866299e-12 0.01843784269434207 0.9772487428226643 3.491042489703119e-06 0.004309923440503848 0.205746601113458 1.041114295580235e-10 3.124852548601543e-87 0.7942533987824306 1 1.10939235486133e-42 2.283479953993488e-18 7.63037046117791e-162</probabilities>
		</cpt>
		<cpt id="V1">
			<state id="a" />
			<state id="b" />
			<state id="c" />
			<state id="d" />
			<parents>V3 V4</parents>
			<probabilities>6.660716639947511e-26 0.9998639465960285 2.520586164592098e-29 0.0001360534039713862 0.001507450441973786 1.320099102384667e-21 0.9877292787281239 0.01076327082990238 0.999869915445739 3.755996659840873e-06 0.0001263285576011111 4.291193982892921e-17 3.039409043497074e-08 0.9999999696059096 3.533243014048656e-50 6.337285215686562e-52 0.4379507529299346 2.046277946573196e-19 4.443856905498542e-16 0.562049247070065 1.466965147339299e-204 0.00039879062879613 0.9995072196926946 9.398967850918296e-05 0.9529243775089878 4.064682813058404e-22 0.001028973186942489 0.0460466493040698 0.9999804354426102 0 1.956455738966646e-05 3.890633440161832e-57 3.00119104806052e-11 0.0006877580808323659 0.765439753070288 0.2338724888188676 0.8548911508863258 0.0003643754284032952 0.0004731353965529652 0.1442713382887179 0.07696385559004838 0.8769703629717052 9.583349354967963e-19 0.04606578143824656 1.094370072457732e-14 2.291109108970249e-05 0.002994871464069055 0.9969822174448304 0.002534243558544973 0.9970723459518899 0.0003934104891362313 4.287564253677794e-13 2.167701840914806e-05 0.0003322216537491067 7.911916107783852e-06 0.9996381894117339 0.9998157099628453 0.0001842775733033103 0 1.246385140180956e-08 0.07074451924654138 0.007909911687811041 7.119113303944921e-10 0.9213455683537364</probabilities>
		</cpt>
		<cpt id="U3">
			<state id="a" />
			<state id="b" />
			<state id="c" />
			<state id="d" />
			<state id="e" />
			<state id="f" />
			<state id="g" />
			<state id="h" />
			<state id="i" />
			<state id="j" />
			<probabilities>5.951055104179478e-11 5.91807467184108e-05 8.295826994518887e-15 2.015092005957762e-07 0.000427282430064385 0.04777738796417789 0.6457535468173924 6.750307373778125e-24 0.01416386424409111 0.2918185362288365</probabilities>
		</cpt>
		<cpt id="X">
			<state id="a" />
			<state id="b" />
			<state id="c" />
			<state id="d" />
			<parents>U1 U3</parents>
			<probabilities>0.3602243406512764 0.6397756511369651 8.211758484496652e-09 4.441560707081455e-34 0.005224793119937343 6.405373435381384e-10 5.21329119464729e-32 0.9947752062395253 0.168737282242431 0.0007507330397488967 0.2160563735141899 0.6144556112036302 7.093992290273594e-10 1.446529892021724e-08 0.9999999848246466 6.552637189489133e-13 0.02099874510010647 0.6197494205495674 1.873120335278262e-40 0.3592518343503263 0.0002041054962390003 0.0003916575422031604 0.9994042369615578 2.94818738269846e-138 1.244419229367815e-12 0.6706710960599844 0.0005464203891441991 0.3287824835496271 0.3369365865270388 8.334485980230822e-11 0.6630634133896117 4.631161023204862e-15 0.001282658620374975 0.00238113142419439 0.4218817985545393 0.5744544114008913 0.01840701858924008 0.0002630492443159241 0.9813299275842225 4.582221503827416e-09 0 0.9999999999999919 1.954284043911646e-34 7.965610189229298e-15 2.208283184930067e-20 0.9999631359147648 2.094930756354621e-13 3.686408502567073e-05 0.4166058844982962 0.5833904848854996 3.630616204198907e-06 1.816775009386446e-18 2.146503383683491e-24 9.425445461761021e-34 1 1.180776419417411e-56 0.6128446975059868 5.676040871718558e-06 1.154693960014632e-86 0.3871496264531415 0.6480130351046294 0.000205623613880867 0.3517813412740887 7.401129568424756e-12 4.37372443637105e-07 0.03991938792059762 0.9600801652676929 9.439265685770442e-09 0.04278902725835654 0.9086572564798145 0.0485536826700988 3.359173014856278e-08 0.5676219316967042 0.4321834590551661 1.064643729826253e-13 0.0001946092480232451 0.4493948306094125 2.831328477903276e-31 0.01195960139520174 0.5386455679953859 0.0005072798476894439 1.397891426076807e-06 0.9994809502402583 1.037202062631553e-05 0.94721182740499 1.605136851374373e-06 0.05038680761011419 0.002399759848044266 0.9893754238160845 0.0005471582291180455 0.004059306486134468 0.006018111468663191 4.677915920364959e-275 5.217740080344536e-11 1.105359002119926e-58 0.9999999999478226 0.1478177464434405 1.604770409160039e-77 0.8521419553613665 4.029819519299948e-05 3.72898224492498e-09 0.0003277958319636008 1.748468539621266e-11 0.9996722004215696 0.0003168514866360401 0.9913467749914747 0.008336373462465151 5.94240261534105e-11 0.5480493327049316 0.4207068741981347 0.02718586607523367 0.00405792702169989 2.448975101673968e-09 0.00319531947510445 0.477497397650566 0.5193072804253546 1.771000531921522e-20 0.908884726565234 2.96471010078099e-22 0.09111527343476607 0.003385159155766189 0.2684404882788893 0.0007176841901515075 0.727456668375193 2.668459472221034e-52 0.005213822061279475 0.9947861775847991 3.539214783569812e-10 0.0023320086823593 1.874033618787405e-32 9.661060442910265e-11 0.99766799122103 0.03748448739775467 0.9605781771696573 0.001937335432556451 3.142233165774546e-14 0.000126273246100584 0.04339893918345662 0.9564747875415542 2.888845199342432e-11 0.03360026462956251 4.973821989912134e-10 0.9663997348728692 1.860727072833272e-13 0.004474143623504875 2.718844528689617e-07 0.7520355869457876 0.2434899975462544 2.46076424135717e-07 0.02995157058421793 1.506365839480946e-194 0.970048183339358 1.111069914547143e-34 2.167431583375435e-07 0.9999997832568416 1.801127976855871e-59 7.764991589522535e-05 0.3855235831407292 3.82673213904734e-38 0.6143987669433757 0.5461066699269483 1.823181344229654e-10 0.4538933298876413 3.092143885468477e-12 1.377077892650415e-173 0.9995925880139132 2.547097318721493e-05 0.0003819410128995709 0.007565601008009528 0.0005559901982392192 0.06775715096964086 0.9241212578241105 0.6703567952007965 0.02081803943583637 0.2089371803784424 0.09988798498492468 1.98208204111566e-21 0.8908841792160817 5.936681655577257e-15 0.1091158207839125 0.4204622324267671 0.5779246302503244 0.001613137322908642 1.44535982921959e-20 0.00171817792546332 0.9978760364666662 0.0004057856035145556 4.356036808231183e-12 0.462752536896657 0.4650874008504204 0.07031399366080493 0.00184606859211765 0.3601946355783032 0.0002287498665360106 0.5487081920308033 0.09086842252435745 0.8646028680452328 3.204453803704038e-97 0.1342236482701605 0.001173483684606655 0.3409485998427195 0 0.6590514001572806 9.202576811661217e-27 0.4846419388222076 1.210636112726373e-07 3.48280605970368e-12 0.5153579401106985 1.427348510947802e-211 0.7398171329738386 0.2601808843078318 1.982718329647005e-06 1.110878708644117e-09 0.493112198991454 0.05818256557633024 0.4487052343213371 0.706798321507936 0.0403361642174938 0.241340350115664 0.01152516415890639 0.3561059756375362 3.304633101984901e-06 0.6438907196808171 4.854454990163508e-11 0.01393909675175057 0.8443055143529133 0.000600624883206815 0.1411547640121293 0.06157247932714698 0.0001307885118375829 0.9381370106725587 0.0001597214884566355 0.2541387186409514 0.5094938657132289 0.2363674156458196 0 0.984364004650033 0.01519805883809841 2.130093849247028e-29 0.0004379365118685481 0.004882742458105388 0.0004374303299750872 1.060943594227497e-06 0.9946787662683253 0.5991388800678557 0.007579922537312454 0.3932811900109767 7.383855207447984e-09 0.003034293254996304 0.0108237393037308 0.0008916251069654554 0.9852503423343074 3.788405418431678e-06 1.703739472248919e-06 0.9999566193265502 3.788852855910108e-05 3.108813312412999e-11 3.095829480285682e-11 0.1337435410000346 0.8662564589379189 0.9912519041748137 1.154506179018065e-05 0.008736550763396167 8.177911878733798e-31 8.893143095518295e-30 5.908290058179412e-05 0.9999213765020976 1.954059732064368e-05 4.544107555602678e-18 0.9654252304525803 0.0003284796046619321 0.03424628994275771 1.30884683895556e-07 0.9768822224839493 1.03844116162479e-07 0.02311754278725045 6.531758711975998e-06 0.9979453862432774 0.002048081998010616 2.408981543911541e-35 1.571907822928357e-06 3.193261872250702e-05 0.9999664952844739 1.889805915029614e-10 5.110316302705e-05 0.0401775604726488 0.3282080401197268 0.6315632962445973 0.003080139999586954 0.995653350694878 6.503991634605887e-14 0.001266509305469897 0.9996777085400271 0.0002100102734662205 1.10979052747726e-06 0.0001111713959792106 2.707314219569768e-05 0.001282719650155842 0.990486057914732 0.008204149292916327 3.74342386870115e-05 0.9999625655152636 1.651162746957024e-35 2.46049357544205e-10 0 1.965013984651431e-05 0.9933887605046089 0.006591589355544641 0.9968082886878027 0.002460193414832882 5.639770501337869e-09 0.000731512257593955 0.6228305269780591 0.3745044966948781 0.002664959308837034 1.701822582739341e-08 2.343716599205439e-06 0.002768152457360157 1.157379709426362e-43 0.9972295038260406 0.3926382423488948 1.190146527001045e-13 0.606811503026081 0.0005502546249051291 0.9999489190344419 5.898849159649433e-07 3.697742688767051e-05 1.351365375452687e-05 0.5285929509050304 0.0004356020826802829 0.4709714470122892 2.122102565651478e-19 7.077553555025325e-08 0.9999651811708223 3.474802829328306e-05 2.534879766529084e-11 0.0003706647168053418 1.294472950239056e-76 0.0001024227172704282 0.9995269125659242 9.221045483363592e-11 0.999998035828348 1.964043110603779e-06 3.633101614322218e-11 2.791790341515005e-05 0.0001286242512082771 0.9998434577884791 5.689757191145457e-11 0.0127489823539541 0.9282977562940596 1.945525403829143e-06 0.05895131582658242 0.01835284541525952 2.440115373226855e-07 6.154437136803904e-05 0.9815853662018351 0.8174536161884425 7.416322188498986e-168 0.1825440732425421 2.31056901551807e-06 0.0009078185629246314 0.079140702417739 0.2943811163443971 0.6255703626749395 0.004026186349942064 1.100440015414973e-27 0.1941416653749072 0.8018321482751507 0.352953787957698 9.055333746662933e-05 0.6295693400700871 0.0173863186347485 3.68920062920619e-11 0.2540464945716804 1.505291837523027e-100 0.7459535053914277 0.004380890201158351 0.001735201407069241 1.526300617675439e-17 0.9938839083917722 0.9866490550976957 0.01335078826689187 1.430270649015791e-10 1.564923854196315e-07 0.08410420433250637 0.0001347688446458496 1.081665798716016e-21 0.9157610268228478 0.0380494082644605 2.227986149035817e-06 3.996997189440164e-14 0.9619483637493506 0.7432030125837819 0.07246362060911844 5.455382801218565e-08 0.1843333122532718 3.530256078587565e-07 0.001710575884517852 0.9453838038147316 0.05290526727514242</probabilities>
		</cpt>
		<cpt id="V2">
			<state id="a" />
			<state id="b" />
			<state id="c" />
			<state id="d" />
			<parents>V4 X</parents>
			<probabilities>9.518191073045137e-13 0.98817242934216 2.98041010849349e-15 0.01182757065688531 0.001413427870222721 0.0986365207374565 0.8998752724179451 7.477897437570146e-05 2.053804864236421e-05 0.234346207523261 1.821911630640513e-15 0.7656332544280948 5.335294160772743e-05 0.9919689702750523 0.007958445294622574 1.92314887172355e-05 2.292968356042197e-09 4.139139706555159e-10 0.0303106197716835 0.9696893775214341 0.002321708914594438 0.9818781154572369 0.0001896880467123147 0.01561048758145654 1.331190457581066e-24 0.9999997455001842 2.544998157008907e-07 1.50900781154843e-21 0.6170884330118621 2.174103470300168e-17 0.0003921984275172149 0.3825193685606207 0.01844742340427611 0.1523955753484161 0.8291570012472731 3.462658564095647e-14 0.03065086671992237 3.731896094653412e-44 0.004390498861204046 0.9649586344188736 0.0009355924946560669 9.094443168759848e-08 0.4974741937616218 0.5015901227992904 0.001821361300374154 0.4776968198033709 1.136498156864608e-05 0.5204704539146864 0.01637382042407001 9.702267783521104e-11 4.208846268385177e-16 0.983626179478907 0.1202513313425516 1.334371892697438e-13 0.5167429207547579 0.3630057479025571 1.313526840100732e-17 0.07235375038315817 0.1378725503597725 0.7897736992570693 0.2400506697006406 3.272545531507331e-08 1.994582433247614e-08 0.7599492776280796</probabilities>
		</cpt>
		<cpt id="Y">
			<state id="a" />
			<state id="b" />
			<state id="c" />
			<state id="d" />
			<parents>V1 V2 U3 U2</parents>
			<probabilities>2.766022164835931e-110 0.9878431966439319 4.16283348494165e-19 0.01215680335606796 0.001408473801154947 0.9979816588613093 1.554762554683526e-25 0.0006098673375358619 5.426007249556401e-113 3.879521836588649e-22 0.99999999992183 7.81700015348341e-11 0.9987393424360377 6.282967009003854e-09 0.0002023003859298676 0.001058350895065519 6.001357090220056e-11 0.8881314507916364 3.733148355387101e-13 0.1118685491479768 2.577647054215521e-05 0.9925615467201726 0.007412346488762426 3.303205226913881e-07 1.409672733425407e-42 0.09518142421713156 0.003127934062494447 0.9016906417203738 7.315851803292314e-08 2.13911249228052e-15 0.1483223890353877 0.8516775378060922 0 0.942460176054108 4.331059406733064e-41 0.05753982394589195 0.9001535711027217 2.693180565980215e-05 0.09523759248941657 0.004581904602201841 8.306312265695368e-16 0.9787204281923237 2.412234251873598e-08 0.02127954768533277 9.856934587251809e-08 0.999914694366089 8.018995083687717e-05 5.017113728186987e-06 0.001414127106951809 0.9980956704247873 0.0001060905261417253 0.0003841119421191621 8.2768607792512e-05 0.2271046865091752 0.7728125448736853 9.346859408771415e-12 0.9957903948675169 1.361432183829375e-08 0.004201900613391533 7.690904769855961e-06 2.200370084505974e-33 0.04431209155812852 0.8850190659107571 0.07066884253111443 0.1427288523301938 0.8556659060136405 7.393466271462852e-10 0.001605240916818986 0.9849743043131007 0.002423902561794044 1.395221711801401e-94 0.01260179312510534 0.9733666806259208 0.0004973168302709917 5.261474463689082e-12 0.02613600253854677 6.126865995553191e-06 8.672753082180344e-12 0.003949541160485563 0.9960443319648461 0.000954496286224969 1.44012165391052e-09 0.4430506245158375 0.5559948777578158 0.2767555524408687 0.002438481299374826 4.213310087800597e-08 0.7208059241266556 4.799093989716491e-05 0.8622114937289571 0.1377377959602997 2.719370845932735e-06 0.701387452419844 0.0001721679045472394 5.271798098427368e-34 0.2984403796756088 2.721092397554924e-07 0.9994827089679611 0.0005170189227991174 3.541920181976676e-48 0.5844298920387244 0.4155642002293282 5.907696552762919e-06 3.539452007856971e-11 4.340252878547336e-21 1.131958261576563e-21 0.002719207054028621 0.9972807929459714 0.0253157250987496 0.8997861611905023 0.0748980472282513 6.648249679934506e-08 0.3876133134355838 0.6121547409131882 0.0001517150815980614 8.023056962988698e-05 0.0005999489842877419 0.0007157283984766484 4.211936641345275e-09 0.998684318405299 0.9999957640027536 4.11947703901018e-06 1.1652019513566e-07 1.230445076447338e-14 0.7538958391575797 0.2461041608414384 9.810865663479812e-13 8.236345571812894e-16 0.5344401125919801 2.518968102077914e-10 2.496898736032227e-08 0.4655598621871357 4.108672954540872e-26 0.8437683500927881 0.1085459409169813 0.04768570899023059 0.001457106863672452 0.0614411794766727 0.08381108839871357 0.8532906252609413 8.538792322920762e-06 0.9993784805528173 2.340902934842152e-09 0.0006129783139568009 0.1918916249764631 0.1682192366399374 0.6398891383835994 1.183299721411888e-38 0.1928403491714176 0.0003780434457989626 0.5933716609724111 0.2134099464103724 5.38578061562313e-06 5.128681662402163e-71 0.999954894292708 3.971992667646847e-05 0.906582132029853 5.527192950355506e-05 0.09044771391177188 0.002914882128871457 0.6192314936986202 0.3247683720825563 0.01676819670349797 0.03923193751532553 0.5343483614900207 0.4432807620824959 0.02237087642748336 2.037213994644797e-37 0.01968971794783561 4.986762308493383e-17 7.241846843667229e-06 0.9803030402053207 0.1195210242575258 2.77217703540294e-05 0.8804512539721031 1.705589537688391e-14 0.0006628550468802465 5.033178786080069e-06 0.5517229299554126 0.447609181818921 1.56462893659419e-78 0.9998765914825453 0.0001233843061602878 2.421129444765028e-08 2.235645696783919e-08 0.000251865451166803 6.021642496757989e-15 0.9997481121923703 0.9998375499248969 2.550066869843704e-26 0.0001624500751029452 8.957121599118515e-20 4.119817838288381e-24 0.0001959612464572041 0.846637479128908 0.1531665596246347 1.466636466587243e-06 0.9993880803963126 0.0006053588615812738 5.094105639723384e-06 8.589588014767911e-07 0.99936354765887 0.0002818109132049181 0.0003537824691236794 2.213117776747882e-156 0.0001457871497979635 0.9998542122463643 6.038376896821756e-10 0.3175991139600794 0.682400885933527 4.958715543751892e-28 1.063936385579848e-10 0.3489206660826987 2.268979745332853e-134 0.0004282914265658203 0.6506510424907355 0.8195688847534616 0.01300276161232482 0.01664403617296353 0.15078431746125 0.8555918779618272 2.726045704456619e-10 3.678994666185828e-15 0.1444081217655646 0.0333758835862121 0.9487842196641125 2.792437257563787e-07 0.01783961750594947 0.001412054544757843 0.8498469703907374 0.0001360115459395182 0.1486049635185653 0.9999515548070008 4.844515943482531e-05 5.301784016988476e-21 3.356451755849258e-11 0.0002435748791462643 0.2580049767867278 0.001457147939252849 0.740294300394873 0.9947491561671267 8.424655136090014e-07 0.005249860861230054 1.405061297958287e-07 6.798282336730642e-10 0.05699389766824157 0.474647811914635 0.4683582897372951 0.4672153968422272 0.5327843804643385 2.937300888143111e-29 2.226934341667457e-07 9.63757715551215e-06 0.9690265393130922 5.789500218101278e-28 0.03096382310975222 3.812034144006075e-07 0.8280046308840002 0.1719836887388054 1.12991737800573e-05 0.9999999981529039 1.847017661858916e-09 7.85416899815504e-14 6.355972316414825e-36 3.98545185802821e-15 0.006141064810702456 0.9938508682243259 8.06696496774445e-06 0.4804377171128565 0.431563321554457 0.001061042560554476 0.08693791877213207 0.0001875772824458178 2.358879481743557e-127 0.9984119589754956 0.001400463742058577 7.670491924156188e-08 1.343848552894262e-11 7.92526880964256e-07 0.9999991307547612 1.134680936227489e-05 0.9993357513170783 0.0003202018836668277 0.0003326999898924127 0.6376372683428032 0.2800315876809847 1.244895444871024e-13 0.08233114397608771 3.724044979380635e-06 0.9999759356839421 1.679867236140131e-05 3.5415987171673e-06 3.281522977525145e-107 0.999999999952573 9.007298925932756e-14 4.733684391962981e-11 0.0314834023247226 2.936212674694924e-21 0.8401867857966816 0.1283298118785959 2.564145269757348e-13 0.9787521028963145 0.02124789710342898 3.115701310110849e-24 0.7701701975868944 7.282722667068456e-10 0.2298298016808746 3.958797831247438e-12 0.9335922127663666 2.101022112286784e-14 0.0664077872336104 1.840860080322257e-15 0.07018816698929078 0.6201106277002784 0.005499996312398767 0.3042012089980321 0.8935487337770383 0.1064491238491053 2.142373856416727e-06 5.922048343688498e-21 0.9972801166814733 2.238480042314184e-06 0.002716879996344928 7.648421394473654e-07 0.7792622171140949 0.2204075556507674 2.456642931436337e-12 0.0003302272326809692 2.459300659590959e-06 0.4440234741370153 0.06216741691505125 0.4938066496472738 0.01453036508572195 6.526793248680178e-07 0.9854689822349532 4.818052830162321e-21 0.674916812886277 0.318486286954679 5.091900952759359e-16 0.00659690015904357 3.429359890154673e-06 0.6603404304112892 0.3396561402288206 0 1.381750138944701e-06 0.9344932944519292 0.06550532379793182 6.473972429379916e-44 0.1860073328502795 3.435270064722833e-06 0.1492613744724842 0.6647278574071716 0.7004267225218771 6.115401587422263e-06 7.718478562004081e-11 0.2995671619993507 2.487254332724593e-189 5.741132099097134e-32 0.1428873214918805 0.8571126785081195 9.211146539427595e-23 1.07861956066934e-16 0.9935101909034875 0.006489809096512491 0.9999999990672966 1.495407500461451e-13 1.817402958236357e-20 9.32553701198136e-10 0.9985765476714141 0.001423452328579996 4.29320251420773e-15 1.492146652719591e-15 1.132563274293821e-08 0.9831888607994181 1.467127493949757e-13 0.01681112787480242 0.4491253842092256 1.381052861758742e-09 4.728788062749549e-06 0.5508698856216588 0.1413154119301458 5.961354385016213e-05 0.8479403943687215 0.01068458015728262 0.0004266635891921392 0.04592661877942978 2.058977876450743e-07 0.9536465117335905 2.98510412935757e-06 7.055528295370382e-70 2.13417533724741e-56 0.9999970148958706 0.9442953393276671 0.05570465714921233 3.523120444667796e-09 4.315055898438746e-77 4.560132376170332e-29 0.05376034703122914 0.2217874785752807 0.7244521743934903 0.001021039647184445 0.953531106481418 0.04544785387139746 2.654936991656925e-19 0.9998903348947223 1.047614922600164e-10 0.0001096649971524697 3.363594853395506e-12 0.1507785456174067 0.000205849889721873 9.015412170925979e-40 0.8490156044928714 0.0008031493895753275 6.145865483290717e-08 0.3783817025266535 0.6208150866251163 0.8749260235146967 0.1245517569894098 0.000463453099778731 5.876639611489144e-05 1.962257359090823e-24 1 5.109429214227612e-179 7.387431560007285e-120 0.6012701511025079 0.3985017741859888 0.0002280473424681058 2.736903533492581e-08 0.9999790873210708 7.119175557274153e-07 2.020076047980695e-05 8.938097669259788e-13 6.259068775296919e-79 0.02406071361166031 1.596368386588528e-10 0.9759392862287029 0.9879924331390695 0.0008103491196829971 0.01119721774124758 5.792779991993818e-22 0.004448547616446071 1.032855506790891e-05 9.401953443715257e-05 0.9954471042940488 0.001731220286847485 0.9982683992499271 3.804630847575627e-07 1.406206072662332e-13 1.350633683189065e-91 1.268548239123201e-25 0.9987227516297059 0.001277248370294087 0.0001156090821588884 0.01852814545550138 5.719337886291026e-11 0.9813562454051463 0.004068275575884565 0 0.8307329883420688 0.1651987360820467 4.627133934049715e-22 1.532987295571077e-08 4.153273908563179e-09 0.9999999805168531 7.659239774255166e-07 0.9615424714344752 6.112266372886396e-07 0.03845615141491004 0.9086815436204931 1.397269301871212e-28 4.136654316022592e-89 0.09131845637950697 0.03521998875895663 5.523357706106511e-05 7.92381609077071e-21 0.9647247776639823 0.0006087100556503119 0.2061259698494607 0.05139842277963931 0.7418668973152497 0.001358379914028704 5.802977503589153e-27 3.776633860213243e-17 0.9986416200859712 1.542679715409465e-05 4.143640776133123e-07 0.05072847401701462 0.9492556848217538 0.999668207237929 3.595586043023253e-06 0.0003281971757076806 3.20078779837129e-13 6.11969855070832e-06 0.1178731349542796 0.03158715692124274 0.850533588425927 6.157684723381873e-05 0.00437264531081745 0.9949584098805833 0.0006073679613654037 0.004159321096107243 7.220294445586366e-15 2.319914131055978e-13 0.9958406789036536 0.0001774763820889813 1.453403506401802e-10 0.9998225234725706 3.308109641522424e-33 0.0001048532283818868 0.3077899294726509 0.691000261809414 0.001104955489553257 0.9951706189187349 4.508761671243459e-141 1.9831056490961e-23 0.004829381081265081 0.9999860079402819 7.944571959965152e-07 1.319737027939069e-05 2.322426796950093e-10 0.05602091398345473 0.02123721729626878 0.001193965253179559 0.9215479034670969 5.401309543796422e-13 4.209590557601275e-25 0.9959333865558648 0.00406661344359514 0.005052938749997024 2.359504295162386e-70 6.141372578078383e-09 0.9949470551086304 0.008075972742292584 6.709777200407293e-09 3.740947022871218e-07 0.9919236464532278 2.798574131017843e-05 1.538228591194842e-06 0.1072621974248374 0.8927082786052614 0.9957959606851733 5.273227981802487e-08 0.004203986582547005 2.662289884166742e-19 2.922698069668346e-06 3.453366022473759e-05 0.8689805430113763 0.1309820006303294 7.46130014595622e-34 1.920383083974528e-06 0.02033401757473501 0.9796640620421809 0.003007537122118325 7.555550309845803e-05 6.739079835379689e-08 0.9969168399839848 0.002344167796747153 0.7695333539328987 0.0003022458997114488 0.2278202323706428 0.5786178422949055 0.4213821577050944 4.406806406990131e-20 9.768675855746107e-31 1.271468104943669e-05 0.0125058489776578 0.9874814363401825 1.110322280305696e-12 0.0001633949556622516 6.057394170982417e-08 1.893029053050532e-14 0.9998365444703772 0.0309169588258721 0.0009404917975567771 0.2601468166971282 0.7079957326794428 0.1385010803751202 0.03814401026831558 0.206132139520907 0.6172227698356572 0.0006314099764455128 0.0003622116821551351 0.9990063783413995 8.835654079755995e-26 5.87271609670234e-30 3.440242033952327e-11 3.412818474746958e-07 0.9999996586837501 0.9999966080646924 3.391880241610396e-06 9.579732346203475e-28 5.506607549424886e-11 3.53116604851966e-05 8.558787934360651e-28 1.841569699400841e-18 0.9999646883395149 3.663284684932923e-16 0.002200792248157258 0.9943135292452174 0.003485678506624976 9.824497973476234e-86 0.696504746734146 2.919884718591334e-07 0.3034949612773822 3.236773866693753e-09 2.043659789216185e-06 0.9999979161499818 3.695345509151992e-08 1.430641556085421e-05 2.775402459389379e-91 0.1355088160946855 0.8644768774897537 8.656976837031433e-06 0.9143973576407969 3.183612136430473e-28 0.08559398538236618 8.673299287951041e-07 2.131175912993092e-08 0.9999991113583121 2.546656718801523e-114 0.9982777520583566 2.924254948436931e-10 1.403012660025643e-08 0.001722233619091256 1.891784812776092e-08 1.328943224483879e-09 0.9999586986163642 4.128113684449034e-05 0.9534411658103623 4.268220457884088e-08 4.66276835377225e-05 0.04651216382389526 2.969574787405883e-20 2.030070058999288e-08 0.9995958283562982 0.0004041513430011496 2.712742794029807e-06 0.3150458099781855 0.684951477278991 2.938904047545526e-14 4.611272207343898e-23 0.0004780344720464178 0.005113883329777068 0.9944080821981764 1.231442084592643e-36 0.9948097610056219 1.69551972078379e-23 0.005190238994377935 4.986282456491063e-208 0.0002834958370337101 0.9771759396251556 0.02254056453781049 0.4096068024021241 0.5893226512732616 4.949800762877264e-28 0.001070546324614263 0 0.3531169890282879 0.6468830109073119 6.440028682992925e-11 0.03815774251367592 0.6400178238878217 0.32182442866326 4.935242291502957e-09 0.6923740237111885 0.2755585081735785 0.009104820512271215 0.02296264760296165 0.1493132757302103 3.34266439589666e-14 0.8506867242697561 7.323008921194316e-63 3.214811589218634e-30 0.940791597381155 0.05920734798032237 1.054638522676325e-06 0.0007008558216642982 0.9539422666485251 0.0004715364232230784 0.04488534110658735 3.798650767947115e-05 0.2411452702169638 0.1388911461539677 0.6199255971213889 6.800719921325553e-54 2.75383974217947e-09 0.9999999900790227 7.16713768795935e-09 0.8218943695711676 0.1051534085943668 0.0001402302212644004 0.07281199161320141 0.007455516826837893 0.9925403859142828 7.669082912571788e-11 4.097182188359426e-06 0.006838870560743692 0.9931611294391929 6.321060878345391e-14 7.331655577964079e-19 0.7243352273329579 1.532600141152278e-28 0.2756647225939991 5.007304315625931e-08 0.2728877300180531 2.130815232444494e-05 0.1429429269822878 0.5841480348473346 8.112313420287505e-07 0.1247849275290688 0.8752095641656352 4.697073954066986e-06 7.368786253556252e-06 0.9988751875584544 0.00018390823994278 0.0009335354153492517 0.6109182547941941 0.05117492135828466 0.2888945103764683 0.04901231347105303 6.732939758708418e-06 6.330654003835341e-10 1.19860850614387e-07 0.9999931465663253 0.0277496735721937 0.8115168327991035 9.709596169917053e-12 0.1607334936189932 6.45478025680588e-19 4.808511268555209e-39 0.9999999999999999 9.070218170370198e-27 0.0009564661380040277 0.9987532445017804 4.315856015748794e-05 0.0002471308000580568 6.843566924735398e-82 0.02666070423376176 0.9724034005948532 0.0009358951713851492 0.0007668751766472193 0.999233124462179 6.671804233002094e-26 3.611735723902943e-10 3.237300892094001e-15 0.9999998690540722 1.309457411666542e-07 1.834142867073508e-13 5.648682328462324e-08 5.176931796937134e-07 0.8267727203022643 0.1732267055177327 0.04920613823003897 0.001844313755250955 0.9458042181928115 0.003145329821898565 0.7913443741358027 3.967735390902001e-16 0 0.2086556258641969 0.0005621968644996585 6.798665655712145e-115 0.9994178047954975 1.999834000298949e-05 0.1658109649402748 3.190151191462774e-11 0.02600496613534845 0.8081840688924753 0.02042487290733943 0.0006246347670865578 0.001418266297270838 0.9775322260283033 5.359306310858777e-09 0.00272222790025931 3.180686802139564e-11 0.9972777667086276 1.32333466806492e-16 7.275251501792919e-20 0.9999979128803964 2.087119603421771e-06 0.004683975680698504 0.9773456697742579 4.007438781582617e-15 0.01797035454503938 0.09918648284965535 0.02694984166324961 0.8738231132280563 4.056225903880296e-05 0.99995985577924 9.690503114435331e-35 1.771529809591831e-05 2.242892266424262e-05 0.04738599849657746 0.9526140010358694 4.675532901664277e-10 4.82816227207253e-84 0.8059688602452906 9.802359577391297e-08 0.1882650119180735 0.005766029813040292 0.000336483259037065 2.695832478129882e-07 0.9996632471443592 1.335607066177972e-11 4.267459378708387e-93 7.567860200917396e-05 1.75712246713397e-05 0.9999067501733196 0.02455796409771048 0.8729348681399899 0.005334475908963949 0.09717269185333552 0.7139979538727076 0.1723228596629827 0.01011220904293434 0.1035669774213754 1.535693079828907e-05 0.003349354640208446 0.7838705475090005 0.2127647409199926 6.628295869890596e-11 0.130895529890961 0.02621366367571752 0.8428908063670386 3.216751509783179e-13 0.4415294398650211 0.5584705601346571 1.045884991904934e-79 0.01423838701828709 8.159080897678085e-16 0.9857616089663643 4.015347688382677e-09 0.01482515387781363 0.5017431252685463 0.4834304927998892 1.228053750834616e-06 7.086121659802283e-12 4.716947198671027e-05 0.999945044040533 7.786480394315625e-06 0.05290618605331194 0.5526868867368788 0.005925301487561169 0.3884816257222481 0.9634916171457099 2.119848144779226e-08 0.03650836165580867 1.059957849414698e-108 0.003111736563869902 0.9601032966266472 0.00258787224835268 0.03419709456113026 0.9915140297631967 1.05154354697146e-18 0.008485970236802856 4.896245390470196e-16 0.0001398737049589373 9.046639706548036e-06 0.2625310482076498 0.7373200314476845 0.09609942637209952 0.9037525897188305 0.0001479837894378853 1.196318510742234e-10 0.07976570963632873 0.02919660488509046 0.7699671146084202 0.1210705708701606 1.77041567032384e-05 1.789531513039549e-26 0.9857575957632772 0.01422470008001967 7.115433140118579e-06 0.9528639199849269 0.02444543127999755 0.02268353330193531 0.002079452496088282 0.00734639710982939 9.442426858733958e-06 0.9905647079672235 0.4684516199123677 1.055938871711621e-06 0.01725895815745535 0.5142883659913053 0.0003192407831767576 2.645881250102812e-181 0.4415681949807435 0.5581125642360798 0.3283872839596852 0.6469290446442564 2.486487506331305e-05 0.02465880652099499 0.0004297973143121781 0.002173474951728204 0.0001512792805183538 0.9972454484534412 3.604901337592075e-16 0.9970800970227556 0.002789416564086822 0.0001304864131572978 0.9999998488972888 8.38760495702672e-21 1.511027112928084e-07 2.238429801455569e-35 8.653126154482481e-10 0.0004929017831594106 0.9952221468784996 0.004284950473028347 0.006025299683215858 6.975280853179951e-05 0.988771867592903 0.005133079915349379 0.8023133293821363 0.03614458976130298 0.0005913995429737709 0.1609506813135869 2.836976590491806e-08 0.999999971630234 4.052562983867293e-57 7.200480902107073e-115 0.0001589606360749672 0.9926735201219534 0.005275005261763146 0.001892513980208513 0.0006262844394557557 0.0122854636176276 3.308321607490946e-76 0.9870882519429166 0.8692551843872288 0.1303770313721754 8.628374986108487e-05 0.0002815004907346094 4.595700652764127e-12 2.666064899951397e-08 0.9999999733347552 2.918685794123225e-19 0.0003063991917313601 1.202909562249027e-08 1.308195384306463e-23 0.999693588779173 0.9002765099988197 1.282452168153234e-06 8.166608238064732e-52 0.09972220754901223 0.1346710457252235 0.1988559366706614 5.861383916724216e-23 0.666473017604115 0.0003335450103971913 0.05094843664630602 0.8111154924602167 0.1376025258830801 0.5354305822642104 0.4597529899307378 0.004811355416518029 5.072388533920385e-06 3.28610358539311e-07 0.8064379548191327 3.203873617511694e-06 0.1935585126968913 0.3137008071028123 0.004116124030858001 0.1927012641182264 0.4894818047481033 0.4780509338883681 0.01377883635474727 0.2101877821376079 0.2979824476192767 5.310413784497761e-15 0.4059004228930744 3.489195291110003e-05 0.5940646851540091 0.01611923106748266 0.9803050286209208 0.003575740311596597 1.164147767756625e-40 4.094921958120989e-09 1.089629855501724e-84 0.001877652776350755 0.9981223431287273 0.0009735614436095899 0.3454109058239319 0.2842295161649794 0.3693860165674792 0.004458286609933231 1.780658202176375e-07 0.9955415340676715 1.256575061774681e-09 9.360604321937073e-13 0.7495886887114968 4.587714529952127e-17 0.2504113112875672 0.1693060797855611 0.8306764419130418 4.808403520992187e-109 1.747830139710051e-05 0.4065231741045851 0.001561909101085608 0.2941106940568912 0.2978042227374381 0.9997359156276405 7.815481776508367e-05 5.841393417568654e-06 0.0001800881611766883 0.9557293972096303 2.814545434536144e-28 2.289243102525072e-60 0.04427060279036966 6.067638792011487e-13 0.6761916610108093 0.3238045850548353 3.753933748617846e-06 0.7480812538825942 0.247748721535103 0.00416783728641257 2.187295890208179e-06 0.3667116357971064 0.0002369852478977401 1.764654683216283e-41 0.633051378954996 0.2749248834326556 0.719765141315223 6.405191472682909e-08 0.005309911200206826 0.9996951777525325 1.175253103097507e-32 0.0003048222474675466 1.288316706055263e-22 3.48394357304739e-24 0.01927674071779244 5.697607271201435e-17 0.9807232592822075 0.004821087797204844 0.9559176849024905 0.03926122730030111 3.637110645552903e-15 4.238883301810116e-64 0.2696194546246315 0.7184141332320093 0.01196641214335909 0.0003156605126344762 0.9981561481836595 3.635017798713672e-08 0.001528154953527912 0.01313916258260974 0.9868604564702463 3.473097972717901e-15 3.809471404057333e-07 0.003262858458344692 0.05675127965878261 0.8840730623170003 0.05591279956587236 0.009556513067922739 0.606933671586686 0.1653992393359584 0.2181105760094327 0.1294782420865274 0.01377852410536038 0.856533688338202 0.0002095454699102883 0.01072618651206663 8.024822910209423e-17 0.9870641989160494 0.002209614571883933 1.176217600200721e-07 1.106967695280247e-19 4.407181972101174e-17 0.9999998823782399 0.001665401656782602 0.08888979204650117 0.9094412121349386 3.594161777507057e-06 1.681501434139298e-05 2.36349771064445e-28 0.003845956073068987 0.9961372289125896 0.0001302830508666524 0.9997661505727907 0.0001035660422637239 3.340788712347685e-10 0.9904615518172747 2.041385947568113e-28 0.001215553489270058 0.008322894693455289 0.9721175266967133 7.940474672438313e-05 0.02780306855656229 2.119386082101921e-63 6.89887110160039e-12 1.054302252531191e-51 0.0001257116266484272 0.9998742883664526 3.064182243179917e-09 0.4939922847690058 0.5028349013028726 0.003172810863939386 4.77707730143541e-20 7.156068990287266e-05 0.08433509319078024 0.9155933461193169 7.074975381597064e-09 5.500256978027525e-19 0.2642720234842871 0.7357279694407375 4.848484305974071e-55 0.8549664404343679 0.002035646065411473 0.1429979135002206 0.0005872720959419701 0.3348585482983517 0.01834685589510544 0.6462073237106009 1.39925628279529e-24 1.026568472755487e-05 0.9995541936373077 0.0004355406779649248 0.002096575595279017 0.0002739699683931646 0.9976294544363279 2.138190203928689e-75 4.18728840772919e-06 0.9879626560836021 0.01203315662799014 2.102523219232024e-62 4.521470655111364e-06 0.3527381048646927 0.6471838388410317 7.353482362055884e-05 0.008479787520391326 0.9382937645752526 0.003769391940202931 0.04945705596415329 0.06777809443616563 0.1041809474664159 0.8280357567999782 5.201297440065139e-06 0.9999999562043917 7.341138634049178e-10 2.430056675976962e-08 1.876092755072373e-08 0 7.58823395675534e-11 0.0003084707378537903 0.9996915291862638 0.9930813801659159 1.944802825293244e-07 0.006916441895921754 1.983457879865314e-06 0.1290995727232459 0.01674153225081141 0.8541588950257981 1.4446611909054e-13 1.955044603754976e-28 0.002332893969232441 0.9976670569127569 4.911801062130949e-08 0.01143917487425373 0.9885607702434704 1.933929349281325e-08 3.554298236208763e-08 2.014949275943013e-08 0.02455324818880596 8.283205203757888e-27 0.9754467316617013 0.3303481248665397 0.1058022980731844 0.03266097473234914 0.5311886023279269 4.670840904989626e-11 0.6902815700034756 0.3097184123336306 1.76161855564836e-08 0.6396901490856198 0.1667374682006325 0.1030169551372243 0.09055542757652348 1.966531448360466e-12 0.9991561410665728 0.0001161081515715881 0.0007277507798892386 4.607035578630544e-13 0.01886525495771543 0.0008966590230921419 0.9802380860187319 0.9999715479212751 2.836140031067221e-05 3.36060983094501e-26 9.067841428775736e-08 3.605021896566437e-05 6.582927249270414e-24 0.1500645897118768 0.8498993600691576 0.8175514070669501 0.0201377922246045 0.1621359701551457 0.0001748305532998316 9.048198546114262e-07 5.600811628158031e-19 0.999885999889029 0.0001130952911162362 0.8269789092712621 1.01474857461831e-09 0.1730210871033988 2.610590741139539e-09 0.0006486139865677348 0.002076552685835176 0.9956663019105061 0.00160853141709095 0.9863965200129661 2.881165487125438e-177 0.0002795696830667925 0.01332391030396717 4.915787110831072e-110 0.7868561952241234 0.2131438047758766 6.344343884791098e-20 0.9957756977021586 0.001979680520592307 1.389543212629032e-07 0.002244482822927748 0.005196411402372111 0.4407831095177003 0.09203624569532592 0.4619842333846016 2.86500492382406e-24 0.9046704187852446 0.0004137378820319839 0.09491584333272332 0.7125642174051844 7.099001651791835e-25 0.2874357825907164 4.099133230239622e-12 0.2198307000106577 2.457879659440745e-20 0.5343956462194726 0.2457736537698698 2.476648466494719e-14 0.0002208396994023221 1.193645540152894e-08 0.9997791483641174 0.9740046361910892 1.05499376538457e-16 0.025995356368117 7.440793462777473e-09 0.04684220373273133 0.9531574562954234 3.399718451982785e-07 1.803631827068613e-25 0.9998832911008062 2.160447426621994e-06 1.453026542679399e-06 0.0001130954252243643 0.2252992981034055 0.4381634886880867 0.1369897513234968 0.1995474618850109 1.029193976208418e-105 0.003931879851890187 1.249524034324204e-09 0.9960681188985858 0.1598207125593745 1.979196540702896e-57 8.418287910464256e-08 0.8401792032577463 0.1335272755661166 3.020663316368829e-12 0.8664727244308628 3.97809494313069e-62 2.741555924738329e-14 0.00092062206557277 0.9951342076091948 0.003945170325205098 5.721338699561497e-18 0.910147892501405 0.08949002769052081 0.0003620798080742825 2.082392549306447e-06 2.998217486637525e-08 0.8447548427085774 0.1552430449166984 0.9999999991943899 8.056100737568234e-10 4.708608135482785e-20 7.447758847027918e-37 5.935355635614772e-21 9.639397694010654e-05 0.0005713306210042791 0.9993322754020556 0.0001682431938271488 0.9813744223167424 5.929731627760188e-09 0.01845732855969864 0.04120982476281996 0.9587898143314874 4.936275364572611e-14 3.609056434293015e-07 0.9954034872068656 1.754266373826931e-22 7.83989367414648e-20 0.004596512793134364 0.8965533847278357 0.0336248693158283 0.06957423192288444 0.0002475140334516085 0.2305620654221881 0.7199654636892013 0.00742463528115724 0.04204783560745332 7.457456438508303e-27 0.9827846539470798 0.01520833384561254 0.002007012207307438 2.566830976980508e-29 0.9999627964522682 3.720354773177749e-05 2.761990233744594e-19 1.662732843706051e-07 0.0007340273818631356 0.9992658063448514 9.538846872910589e-16 0.03817303756108404 0.4026746530361248 1.861769806855837e-05 0.5591336917047226 7.179866440754654e-07 2.529446576610214e-05 0.001991461942437133 0.9979825256051527 2.62413445152493e-08 0.001854246426090499 0.9981457219043165 5.428248526154595e-09 0.9715294204623816 0.02842942528029905 1.534908502723987e-06 3.961934881671638e-05 8.695095591545514e-58 0.9999980570271559 4.728700556776607e-11 1.942925556971939e-06 9.112266917281843e-31 0.9999999991681127 1.148578794251229e-157 8.318873548637485e-10 0.9278470165761398 1.177524586443917e-06 1.063842333308222e-70 0.07215180589927374 0.6154736380027098 0.000723093085688606 0.3171211026072574 0.06668216630434416 0.9667592345458034 0.03316928089493391 7.148455926271796e-05 4.416467605412346e-39 7.932503215743566e-08 0.9963086175436854 0.003691303130280425 1.002019790027308e-12 1.66730469846628e-11 3.558487110368224e-10 6.572314294546253e-34 0.9999999996274783 6.302352455948397e-12 0.9999996220140099 3.779796878460592e-07 1.174136122817534e-59 3.397494087284768e-12 0.9969738265178621 9.49097852470222e-11 0.003026173383830637 0.03839106969089824 1.612364303576597e-08 0.0853131924885471 0.8762957216969117 1 0 1.367433978383978e-23 4.79037700879247e-96 5.137701488571158e-09 0.9937199348171967 2.191674342026888e-32 0.006280060045101837 1.896763550384259e-10 1.017799971148465e-05 0.9999898218106121 1.181997137000572e-120 0.9999991301372095 3.487451434666686e-29 4.108442787615006e-44 8.698627905747875e-07 2.528971134088322e-19 0.201283246014973 3.075246401049659e-06 0.7987136787386259 0.3636542475717013 3.549398230143028e-42 0.06231229916487193 0.5740334532634268 1.136396996581426e-19 0.001544726682241248 9.285137338629345e-15 0.9984552733177495 3.201358337067547e-21 4.699986486492412e-06 0.9996332582920286 0.0003620417214849262 0.9999999960229988 2.844496234311763e-14 2.382725959337843e-12 3.974589984997827e-09 0.9931386810725849 1.601704444476272e-10 0.0002301806742334525 0.006631138093011352 0.7668189975836315 0.2286189786427844 0.0007756963885093837 0.003786327385074688 8.119271975774226e-05 0.3926049045557627 0.5738729388993012 0.03344096382517829 0.0004024569309067195 4.430218607333236e-38 0.91394757036244 0.08564997270665309 4.008696498437364e-21 7.38323243559714e-09 0.9999999926167624 5.060421109774874e-15 0.00123091113460935 2.244946742508229e-12 4.27919504653608e-11 0.9987690888203538 0.9836795491634442 2.881903236852956e-17 0.01590594939814933 0.0004145014384063989 2.229643492196113e-17 2.521480308329042e-07 0.9819673674708738 0.01803238038109539 0.02327711233301639 0.9722607227927222 0.004462164874261559 4.96438457644243e-21 0.01149015163686345 1.720962960632065e-10 0.9885098481777279 1.33123809382742e-11 0.4597206387269859 0.5323232196224903 0.005773682578646269 0.002182459071877794 0.0001459246611706687 7.301600836418813e-15 0.9961093871388348 0.003744688199987318 0.9483378980581534 0.02081023154857307 0.03085167701143999 1.933818335261041e-07 0.5033103539219154 0.4966136191268609 7.602695122376652e-05 5.474561217665539e-27 2.164046452775727e-63 4.934592249030949e-19 0.9999999999999999 1.132310669267791e-16 0.3249443761609271 5.695651240818734e-12 0.6750543289451607 1.29488821638868e-06 0.9669609773746571 0.02976016774857039 8.846720610516002e-258 0.003278854876772523 0.03468160679016154 2.773839393247294e-05 0.965290654815906 1.272626750892256e-21 1.026228318511163e-08 2.208882058830645e-06 0.9962514194034502 0.003746361452207872 0.9999999923128045 7.609172222319478e-09 4.422951301285453e-14 7.79788495486643e-11 0.884626010210583 3.638791340500026e-34 0.1153739897894169 1.230941314896408e-25 4.850493462616379e-14 0.9970979320511029 3.515272794469585e-20 0.002902067948848671 0.9761646878476437 0.02187971241626254 0.001955466441856635 1.332942371857261e-07 0.004329901944541335 1.000687380376013e-05 0.8982902691629578 0.09736982201869709 1.147690837014939e-08 8.850480167161679e-27 5.101882027315763e-170 0.9999999885230916 1.053007527239092e-60 0.0005131081780624684 0.9994868917781677 4.376974550003142e-11 0.9783937532950739 0.0008953534294373889 0.02071089327548867 5.176840633879444e-40 4.601761543970697e-17 0.003495240467658859 0.01645051553126549 0.9800542440010757 1.622647534565492e-19 0.005140693318399027 1.551271640446321e-74 0.9948593066816008 0.003277891812965543 6.573188377727432e-19 2.868551220034976e-65 0.9967221081870344 0.9969566615480032 1.997359859220353e-80 0.003043338451996954 2.83275264858269e-18 0.9814419644249137 0.01830955769822738 4.712715350142591e-08 0.0002484307497055788 4.459936400524991e-21 2.797730570700883e-09 0.9878812152653956 0.01211878193687387 2.896641325423976e-91 1.217002163212302e-13 6.225027761692316e-07 0.9999993774971022 0.9882508486149857 0.01174580151589756 3.349869116738864e-06 5.69067956372402e-52 1.117576702612247e-290 0.0003798084468904703 0.988860238600987 0.01075995295212258 0.0008698601886427283 0.03871495394123074 0.7131714656350975 0.2472437202350291 2.847293272257656e-40 0.1199557279575733 0.8800425813052717 1.690737155025832e-06 2.985189282443515e-11 0.9999730618432104 2.693796117887643e-05 1.657588384463365e-10 1.056731817762434e-12 0.9894733534991484 0.009082496880063823 0.001444149619730994 1.060814565173781e-10 0.004799247284053868 9.459937322657096e-19 0.9952007526098646 0.8345249723301509 1.636407799046302e-12 3.225347083108181e-09 0.1654750244428656 0.001373527421505236 0.9986263133717848 1.061550694701721e-08 1.485912031849782e-07 0.8139852931553485 0.1650683843792856 0.02094615486142164 1.676039443486484e-07 0.0009970346206377265 9.094732682573674e-09 0.001753601962597174 0.9972493543220324 0.004351597932139999 4.999099872534765e-08 4.440544124482662e-12 0.9956483520724208 1.405591649736652e-07 0.003081457263645155 0.6193009699410608 0.3776174322361291 0.03022812006666445 0.01341091907343191 0.1067033263820287 0.8496576344778749 0.9764944963697915 1.320298560544462e-17 0.02350550363020787 6.637421069006789e-16 0.006215112865423756 1.5649692251584e-36 0.9936255917047183 0.0001592954298578814 0.9890469231214863 4.075557907897631e-17 2.269332667562672e-54 0.01095307687851368 0.9080873130965708 0.03464056712849906 0.04852019551351226 0.008751924261417812 1.392385812715172e-05 0.02326967670193632 0.9625324132018759 0.01418398623806064 0.7946383126356817 0.0005274615853970762 0.2048342257789212 4.665959265732651e-49 1.502423908657234e-10 2.267542453516517e-10 0.99997593918279 2.40604402131739e-05 0.000220486632752856 8.215220213294357e-07 1.425722701883371e-06 0.9997772661225239 7.703743987781262e-26 1.888056859096924e-09 2.654667009309857e-05 0.99997345144185 0.9967099297301993 7.017571552712516e-08 0.003289986924150615 1.316993459886758e-08 1.200683133329775e-11 0.0005112697475150705 0.1592665669757611 0.8402221632647169 4.649013314065793e-12 0.01645299663704749 0.001679547590457629 0.9818674557678458 2.580085761773025e-23 2.45797547601861e-05 0.9949859436286386 0.004989476616601321 0.09401645811500098 2.047295585019935e-26 1.673335065735117e-08 0.9059835251516484 0.6167198514098079 0.1612465404222818 1.400895791137781e-19 0.2220336081679102 0.02857166057833433 0.6341378027981469 0.337290355723291 1.809002277568635e-07 0.9838833680233056 0.001094897977244744 0.01502150203488171 2.319645680622882e-07 0.9401096222175366 0.004675591047366317 0.05024170562797981 0.004973081107117258 0.00598498457132053 1.523701486378232e-11 0.0006662639002219937 0.9933487515132206 0.6488858682252926 0.0005126989089059596 0.3491760474468016 0.001425385418999755 0.9221769110756538 0.0004066719806510184 1.7288283258202e-13 0.07741641694352212 5.620034850399952e-20 8.540245921611487e-76 0.674897497893861 0.325102502106139 1.595425867061369e-87 0.03153216852503223 1.367189516133278e-23 0.9684678314749677 0.1580531927957915 3.738905197832923e-10 0.8419467219608765 8.486944158320656e-08 0.0001558135605288028 0.0002861678524809666 0.0001703833165060088 0.9993876352704844 0.001502956836077492 0.002549229379591927 1.139825719240803e-35 0.9959478137843306 0.07460425532802266 0.7339489134363538 0.1203353163184403 0.0711115149171834 0.4009251714652471 5.26787240155729e-12 0.4923477479675364 0.1067270805619487 0.1304876138401217 0.001005684155302368 0.868506641089517 6.091505892930886e-08 1.750258571660143e-09 5.287145108949755e-53 0.9999999982497413 1.382937049338903e-20 2.078230108814922e-06 0.03697073148140805 0.9630203703659256 6.819922557576869e-06 1.727972435664017e-07 5.322099866971067e-41 0.9638778480850168 0.03612197911773969 0.5430618253568265 0.07410165095450855 0.3828365236684657 2.019929356602816e-11 0.0003521594946125401 1.109200154189204e-11 0.7649548796888616 0.2346929608054339 0.8641817312424975 0.04319639831686591 1.382188211266727e-39 0.09262187044063648 1.830558352428375e-15 0.0007208487866520917 0.01195041526730706 0.9873287359460391 0.02208753569658692 0 0.9779124643034131 1.337353661586908e-31 0.9299301992848947 0.07006980071504645 3.570635316543864e-56 5.890853485379796e-14 0.2028418773892041 0.0003990685573626971 0.5564077345262309 0.2403513195272023 3.291005379947681e-09 0.9999948485176898 5.060070675934631e-06 8.812062892777767e-08 0.6788398922313055 0.0001511107494361672 8.483191065362537e-05 0.3209241651086047 3.134343627475032e-05 5.090973296336079e-14 0.9999686491346313 7.429043028915854e-09 2.959585136074696e-08 1.602241497318695e-18 0.02614094087294837 0.9738590295312003 0.003941012341920335 0.9957523268283223 0.0003066608297573514 7.056630054090276e-50 6.38242827466641e-09 0.8958732632046591 4.247900357780421e-15 0.1041267304129083 0.3021844394750693 2.225530151634835e-76 0.03968179520592793 0.6581337653190028 0.4142486026408895 0.2697258630995956 0.3036680986515559 0.01235743560795897 0.9835204540722512 0.01647954591611862 1.163016831494452e-11 5.20415550835854e-36 0.8532522256207649 0.007809583573221571 1.684684889276736e-17 0.1389381908060136 0.9999924110231621 2.920043810389781e-08 6.040391346041993e-14 7.559776339450314e-06 1.893379535571684e-74 0.2433181925600652 0.1194583769883845 0.6372234304515503 0.2242700785833507 5.225896307126813e-74 2.983720829052431e-24 0.7757299214166493 1.075963457822562e-20 7.430815901863336e-24 0.1377182573029712 0.8622817426970288 0.9151835607201214 0.0848164392798786 3.229262953632983e-62 3.834830811355368e-20 8.589060781282592e-06 0.9999914040543116 0 6.884906979130201e-09 5.690229249717118e-05 0.9777660359526321 8.552309286332434e-05 0.02209153866200738 6.681571111836593e-11 4.752688867383611e-11 0.01146022233468236 0.988539777550975 8.519353645344924e-05 1.463666351239735e-47 3.537918041499401e-13 0.9999148064631928 0.935003224163992 0.03220302165785909 0.0327681036965799 2.565048156908431e-05 2.81598709171706e-134 0.001631434908725472 0.9983676942083615 8.708829131112829e-07 4.296536426443507e-82 0.1988950489944131 3.131011785429399e-06 0.8011018199938015 0.9990884733306176 0.0002926386138864716 2.029805347195832e-11 0.0006188880351979239 0.842695517892483 0.0001665047961050705 0.0245093598103035 0.1326286175011086 0.04845401592891903 0.9514946762349672 5.130783469558143e-05 1.418270183371995e-12 0.9879284484523815 0.00025440789119938 0.00534141383587597 0.00647572982054339 0.0542579596231113 6.633383503459162e-11 0.9438862452908362 0.001855795019718455 3.75628468382142e-22 0.997086761710657 0.0003522439351035119 0.002560994354239428 2.42232074558857e-32 2.064516499506915e-05 4.508929659458689e-05 0.9999342655384104 1.270108190565634e-05 0.009200633785769808 0.005049291996148072 0.9857373731361765 0.0005483691100576547 0.1194788101438865 1.62018910609164e-07 0.8799726587271453 2.202742105173387e-16 0.9999999998555601 1.441735106213822e-10 2.662575259828591e-13 0.002181549367793865 0.9785848890455703 0.0002485210461921985 0.01898504054044378 1.899529617933589e-26 0.9969807251073913 0.003019175246780026 9.96458285552384e-08 0.0008599989281172693 0.05326011975805676 0.01617666700242022 0.9297032143114057 8.017865663355141e-11 0.9985165649294481 0 0.001483434990373378 0.5552470642536794 5.146896996406405e-06 1.270107344429147e-22 0.4447477888493241 1.329031849051657e-12 0.0006627005495454259 4.181294572339727e-06 0.9993331181545532 0.9110308799318076 0.08896912006616024 1.35751493068501e-17 2.032170002967686e-12 0.03543500216635803 0.9623959025258534 4.783883619722363e-29 0.002169095307788762 0.0121267118624695 0.3854132189049934 0.5867657740528361 0.01569429517970094 0.08996208685123455 1.14876476601252e-05 2.690757524574351e-06 0.9100237347435807 5.609227607897705e-25 0.9994303519744456 0.0005696447831323635 3.242421919878511e-09 2.728005566580704e-38 5.265363331197733e-05 0.999947346366688 3.148546484194765e-24 0.9999934569555962 8.266147135033054e-08 6.460382918408909e-06 1.406376296015574e-14 2.886262873002507e-07 0.9862809354951098 5.331070755447654e-07 0.01371824277152733 5.337677850052967e-12 0.1270644338011045 0.8729355661935578 2.369503124635114e-65 3.551209966420822e-16 3.700172427116155e-07 0.3716744781026041 0.6283251518801529 5.42234093842288e-14 4.586945783739539e-19 6.775987111134103e-05 0.9999322401288344 0.4389373430396332 0.2566276017906775 0.3044350551696894 6.650900895823561e-38 0.000267553611458274 0.9993529391912833 0.0003763998640454048 3.107333213139793e-06 0.9540492693853845 0.01754090257196992 0.02659151572862546 0.001818312314020008 5.762176935405439e-168 0.9953346660043811 0.002425009769042616 0.002240324226576217 1.364399308194343e-57 3.097082294202732e-07 0.02532418434786276 0.9746755059439078 0.02068974951766181 0.000352798562064548 0.9789381889471702 1.926297310341727e-05 0.002224654958684241 1.751685427258346e-23 0.9257390147478576 0.07203633029345827 0.1397360917009364 0.6105115906420961 7.611380272764565e-07 0.2497515565189402 0.01723936215292553 2.089166703796472e-07 1.601974519883995e-15 0.9827604289304025 1.190200162837238e-09 0.926755314107768 0.07324468470203195 4.154833767790203e-17 0.9831195856166469 0.01688041411161415 3.757524603946982e-14 2.717014272173507e-10 1.300521360286949e-05 0.007836936460076044 0.7365909584803112 0.2555590998460099 0.3496503080943479 0.01834940227217116 0.2711741863008141 0.3608261033326667 0.05077018677400962 1.303833488032757e-234 0.9396635863357994 0.009566226890191026 0.00149161842416223 0.2981065433839492 0.5569127661792829 0.1434890720126058 0.9939101839322814 1.220445861831189e-05 0.006077610649702235 9.593980582610534e-10 0.0001647308376114652 3.720775821551005e-06 0.999831548385368 1.198776321794712e-12 0.1189510502740243 2.318690972276949e-05 0.88102548109391 2.817223429762516e-07 0.1718373962555948 0.00149652859749964 0 0.8266660751469055 0.005538452163037381 0.9944606550762598 8.906343365008633e-07 2.126366161068156e-09 0.000129559571499122 0.01774855252298346 0.9821218879055174 3.484800899735914e-21 3.1698923700116e-05 0.03418376694542621 8.428224525041913e-05 0.9657002518856233 1.875950692755537e-13 0.9636736564666466 0.01845145431680454 0.01787488921636105 0.8322156687222367 0.1674332759028327 0.000351055374930045 5.908191065007167e-16 0.9904064344400691 7.49732111890102e-05 0.008286760917599169 0.00123183143114256 0.003252327313408983 0.9941205488131296 2.604504563452143e-15 0.002627123873458661 0.07340174122682443 0.9265982587698871 3.066904588595527e-20 3.288588701539807e-12 0.08344393168188212 0.9165543900412314 1.678276886519999e-06 9.528371107526127e-32 1.259744847970909e-16 0.03182321565575082 0.5752005517729407 0.3929762325713083 0.8865923492741909 0.1134043046079876 4.026895904261281e-08 3.305848862250174e-06 0.0001241402829284533 0.4188052419693407 1.63549491309953e-08 0.5810706013927817 9.161030260284653e-05 4.66624122381628e-15 0.9999083896973925 5.431953679117496e-17 0.9999999934129449 1.247360192072288e-28 5.151793199147351e-191 6.58705509735762e-09 7.055398300941441e-06 0.7480895760435516 0.2301148300219994 0.02178853853614797 4.682250225837168e-117 0.0001181317318946423 0.8304898599216752 0.1693920083464301 8.952027318209389e-10 6.525063239576088e-25 0.9999358927203206 6.410638447653017e-05 0.008353862895532476 0.8877692414538313 0.1004838864576255 0.003393009193010775 0.06187682766917846 0.9378525723452438 3.151989268932264e-23 0.0002705999855778566 0.9600597802337574 0.03875997718325754 0.001180242582984841 5.984370019044924e-17 0.03484206199168242 0.9186126613389011 0.04654527666941647 1.422827422749041e-54 1.850855127797975e-07 1.489383768436026e-05 0.4649553153404943 0.5350296057363086 0.1960128158441979 4.000673643060613e-55 0.8039871841558019 5.622892461073714e-17 0.004353199928938492 5.086132448734165e-06 0.0006181120134769856 0.9950236019251357 3.254153145416718e-11 3.216443530019883e-06 8.629479565834469e-291 0.9999967835239284 8.823487881322401e-14 0.6932388588871928 7.13533283194592e-06 0.306754005779887 0.00515771681614118 0.4198443769106729 0.5749283335719299 6.957270125600921e-05 1.819199619079648e-07 0.5902864363401884 6.535316197088859e-07 0.4097127282082301 0.9881896164082853 0.01102316154671459 8.627955132892503e-09 0.0007872134170451449 0.9518220548781504 1.82219333773784e-129 0.02204158050240941 0.02613636461944015 0.999990276705478 9.723276336458365e-06 1.800215144459191e-11 1.833491708028257e-13 0.000343905673021392 4.492451558184376e-07 0.9981147104229742 0.001540934658848542 0.08882962784743328 0.9008515173658455 0.0001382387772484791 0.01018061600947274 1.49803776427663e-112 2.376016797004274e-48 0.999509428365942 0.000490571634057926 0.05928880926086499 3.28334300338177e-09 1.97239190461276e-05 0.9406914635367458 0.001758530968897944 3.158546875966079e-30 0.9967904883813815 0.001450980649720507 2.104585312405638e-05 0.03576957252830159 3.452077688283209e-17 0.9642093816185743 0.9999433441091828 5.665299206753381e-05 2.072154796694685e-19 2.898749679951801e-09 0.248043848466113 0.6653207045491121 0.05846732369515841 0.02816812328961662 0.02483635368973486 0.0003633134919937687 0.9748003011440076 3.167426396856973e-08 0.01833342451142694 1.393466430676212e-41 0.2236598658024041 0.758006709686169 1.825899057522253e-05 0.9361762637367411 8.980543027139515e-07 0.06380457921838113 0.09880504727081031 0.8837278582257542 1.041172796199884e-05 0.01745668277547352 0.9999103771406239 1.756333931993899e-38 1.379618725921483e-06 8.824324065006398e-05 2.318420665134732e-19 0.9999981081042352 1.322081304143958e-143 1.891895764879487e-06 2.541978905770793e-13 0.237846046148477 0.7552379704889594 0.006915983362309389 0.5081180085753415 0.4918819914025543 2.962208525473648e-14 2.207451155217591e-11 1.808206274917361e-14 7.509604912460515e-06 9.157139707717677e-09 0.9999924812379297 0.01418083334994906 4.189183422248443e-06 5.604824651558707e-08 0.9858149214183821 0.01900885239138457 0.001394625561757978 0.006097781508060485 0.9734987405387969 0.4887379887371596 6.146038894603937e-05 4.0804633499981e-20 0.5112005508738944 1.394563261111585e-08 5.421352239790879e-21 9.226927586090618e-06 0.9999907591267813 2.049264744417925e-07 4.568709883557023e-21 0.008663204977953181 0.9913365900955724 7.094943804098826e-08 1.488650780653948e-53 0.9911591069750599 0.008840822075501995 0.01189104256322699 3.647197614645574e-08 0.988108920964797 4.847556948671716e-22 0.9768477604561248 0.01369248312990236 0.008392943225998064 0.001066813187975081 7.11744667666803e-05 2.498178157863949e-13 0.8097437839378389 0.1901850415951447 8.912546516756412e-09 0.08918709373811967 0.9105406006964538 0.0002722966528798276 0.9493922517687721 0.05060773679109765 1.12971916727247e-08 1.429385818313553e-10 7.069064418052367e-06 0.9718045489715602 2.407634719611621e-10 0.02818838172325816 0.9990155437205666 0.0009844562794334049 3.410550913087443e-18 2.031462294717183e-42 0.5826838897340098 0.4173159057778336 1.825792422906929e-13 2.044879742164085e-07 0.01383203859414177 0.2730842288463969 0.7099348969871745 0.003148835572286847 0.006003209835437492 0.9935677979952481 1.215683468633995e-11 0.0004289921571575719 0.6044238716259758 1.130324092473472e-24 5.607835885429067e-11 0.3955761283179458 4.208523635654931e-09 0.9394829889783267 4.065761423554193e-05 0.06047634919891421 0.6518823417949422 0.007897175228535063 3.986449591982235e-22 0.3402204829765229 1.260431584436231e-53 0.0004801145641946939 0.6470203239620514 0.3524995614737539 1.711835601888545e-16 0.07117452895143113 0.9287605326412547 6.493840731404518e-05 0.03478597567041217 0 2.39622257071493e-15 0.9652140243295854 0.9997537794839335 0.0001258353594646444 0.0001203850226859855 1.339158360878279e-10 0.9993080934381248 2.656204823660514e-07 5.569254262921444e-07 0.0006910840159665812 3.267672720911876e-06 1.394646416643523e-05 0.9999739012153906 8.884647722077522e-06 0.01273051474029694 0.9504780668243372 6.645948630527838e-09 0.0367914117894171 1.419757475920714e-24 5.562862639158416e-28 0.997574835889779 0.002425164110220955 2.823680489098298e-05 0.9690659444619383 0.03090330875590938 2.509977261352153e-06 2.810775680830782e-10 0.01021638042174792 6.053767625118472e-06 0.9897775655295493 0.9997522390721705 3.860928262317248e-05 0.0002091224956771947 2.914952910498356e-08 1.415366112703534e-06 0.9556612953861484 0.03612445989061421 0.008212829357124656 9.244308805566038e-13 1.037076404487776e-14 0.9999998135969591 1.864021061603324e-07 0.180658240297984 1.278356768040097e-68 0.8193416177718117 1.419302041559276e-07 6.366236256973209e-17 0.008461416585627747 0.6543285868587763 0.3372099965555959 0.9305252858663546 0.06947471413364535 1.593581059464784e-129 2.082532843076387e-32 1.167656663056183e-05 0.0001667560674051142 0.9998215673659643 5.282011312601917e-54 0.9975169040870543 0.002483095912945717 2.408483409404125e-17 3.950841983931289e-19 0.1141619376674695 0.02308897788929938 0.8627490844432312 8.883108887942638e-21 0.560569489918477 0.4195909425645226 0.01011980352504747 0.009719763991953102 1.048623186063023e-71 0.7031627757360214 0.2968372242639788 1.990947135903842e-59 0.8441600394061156 0.1433234157061656 0.01251654488771537 3.578398790313816e-15 0.04184690881982437 1.159104232912276e-20 0.9581530911801758 9.25214223031863e-88 0.9413590345536416 2.078086154913023e-08 2.389125497135728e-19 0.05864094466549694 0.00582641208076226 0.02212418951624475 1.232149096899568e-05 0.9720370769120239 0.9999993921195798 7.944759100101831e-30 5.462124784286503e-207 6.078804202671524e-07 7.360828706089628e-137 0.909246856137512 0.09072248585072798 3.065801175988382e-05 0.08892792024660465 2.360757245456477e-06 0.8275951687660775 0.08347455023007257 5.15498397991681e-07 0.3755802317086542 0.6244192527929476 2.673264163924297e-20 2.146997610190065e-14 2.294032898023063e-155 0.07953047674028027 0.9204695232596982 2.036566927220177e-16 5.068608829864946e-38 0.9999999999999998 1.940319349377095e-42 0.8517223827507664 0.14712211033948 1.602002714164572e-07 0.001155346709482256 3.324389898809537e-24 0.1434970973082326 5.221164452090133e-117 0.8565029026917674 1.997471729684506e-07 0.9999373719268989 3.375520391579436e-12 6.24283225525785e-05 7.893518285886873e-07 4.830158192644669e-08 0.9999991623465895 7.373898278329626e-37 4.339898075628747e-07 9.554568467842431e-31 0.9995500130380406 0.000449552972151761 0.02452037427592513 3.640870363716704e-12 0 0.9754796257204339 7.248395228335293e-09 0.01897665108464284 0.006393257613424448 0.9746300840535376 0.01141027652050577 0.8467095812625745 0.1418801422169199 1.974949290378475e-54 8.188776184668865e-40 0.01967432609213048 0.95530455794312 0.02502111596474954 1.406330846148957e-102 0.9320418518250677 0.05390202331659467 0.01405612485833778 0.0003581007729862604 7.369105129495508e-05 0.6887133383038064 0.3108548698719124 2.319289825188714e-09 0.1599732463950948 0.8014183635178183 0.03860838776779704 0.2612015738341188 0.7382464995774433 0.0005519265884377872 2.416161435674036e-84 1.470426412732868e-06 1.982086775225203e-17 0.9990932739067869 0.0009052556668003721 0.1563248745436978 0.8436529857223458 2.154802870474087e-48 2.213973395648442e-05 0.2170981616505329 1.218502662420736e-09 0.7829018371309643 6.43983440693589e-115 7.521325552094969e-07 0.865420015561099 2.108935131403287e-06 0.1345771233712144 0.8971646765541467 2.019291385712247e-09 7.667557992701342e-06 0.1028276538685693 5.215089032452465e-16 1.751599317345782e-08 0.9721984597496129 0.02780152273439343 2.828301111523533e-73 1.275857714446967e-08 0.01311328695767331 0.9868867002837495 0.00223935044129631 0.4776319955590652 0.4261333273497798 0.0939953266498586 0.05685010371605411 7.304990316533904e-05 0.06132724304543323 0.8817496033353474 0.9752980399001712 0.02470179404041391 5.511356937133649e-09 1.60548058079563e-07 4.274812804427645e-10 4.103728986272093e-59 0.4616820074183645 0.5383179921541543 3.19808641224842e-26 1.018797314772598e-26 1 2.718549902315378e-24 1.309044369193209e-07 0.004348659440751969 0.2439275606391997 0.7517236490156114 0.9882827827048049 8.368873565820999e-07 1.425223284888908e-07 0.01171623788551006 6.025095567997052e-07 0.05916109802663849 4.537704515097877e-16 0.9408382994638043 0.004638191700605252 0.0001046873573118186 0.336843333609735 0.658413787332348 0.02092374721396741 0.856357360337066 0.01416607772426737 0.1085528147246993 0.4270846202161231 0.5729153797838769 3.317413025530152e-39 2.559010497568302e-37 5.599731957128044e-05 1.724162228402877e-08 5.759786646481155e-05 0.9998863875723416 4.837253500746262e-11 0.8095834913188764 0.14191132333347 0.04850518529928102 0.5152875191507925 0.4843504923308534 4.221567634965497e-14 0.0003619885183118923 0.01448738589315126 8.809123508025352e-06 0.9855038049833407 5.529606564039763e-19 3.856276089914241e-15 0.005199246695648451 2.061514137862531e-08 0.9948007326892063 0.1552437446463037 0.8096026309887996 0.03515362227022158 2.09467507681017e-09 0.6669299675478209 8.004437894291696e-10 0.3330700316517355 4.805181265505656e-55 1.620820181152423e-07 4.965191324543984e-24 0.9999998379179819 3.951621890801326e-18 0.1012252211484458 1.066332533492792e-13 0.8987717614682775 3.017383170093966e-06 0.001066421145644712 0.1121983145661027 1.260208443382591e-14 0.88673526428824 0.9999357165192447 4.507918100789137e-05 1.777797341638362e-12 1.920429796972312e-05 9.17371444659868e-05 0.001554091686543688 0.9983540058029335 1.65366056677424e-07 0.4960590874795678 0.01714342361666147 0.4867974887829689 1.208018529370773e-10 4.954815802097857e-06 7.942954010939234e-08 1.705808916308874e-13 0.9999949657544871 5.320062617219389e-57 4.471476866547701e-17 6.802509810197886e-08 0.9999999319749019 0.9999520978864654 4.790211282811075e-05 3.801961972158153e-17 7.063810382694492e-13 0.0002022023973216573 0.005624801692199166 0.4501786030451706 0.5439943928653085 1.090737382442925e-11 0.7448405578748509 0.001298206844334204 0.2538612352699076 0.3484046245353112 0.08999421289996856 7.859586129520515e-20 0.5616011625647203 1.782397017733714e-05 0.07645252544950937 2.00221142116194e-09 0.9235296485781018 0.0006969879104982194 0.000949396789226814 0.08187964574330178 0.9164739695569731 0.5713007086769284 0.007430457126189264 5.364309486647496e-07 0.4212682977659337 2.453294570906481e-05 3.742968777290624e-49 1.672134386944145e-59 0.9999754670542909 2.058329299868088e-309 8.336616384052776e-07 2.183285207809407e-27 0.9999991663383616 0.9757032900278337 2.070439001939291e-08 1.753761862502173e-06 0.02429493550591375 0.726354836208555 0.001033170268371247 4.974078169244631e-22 0.2726119935230737 1.741121728427228e-28 0.9999883709653258 1.039615113659778e-24 1.162903467419872e-05 3.422769782042911e-10 0.9998634667313683 0.000115877336491799 2.065558986286764e-05 0.03695045273819355 0.9630495472587551 3.051311420965697e-12 2.508760343536538e-68 1.643917083024932e-06 1.279377230127996e-08 4.930024188892409e-51 0.9999983432891447 0.02983233052317592 0.002347110485539588 0.9627934715275995 0.005027087463684901 0.7092131802424009 0.2364361358333904 0.04719404692239412 0.007156637001814734 0.9999003504505968 6.598230980745525e-16 1.747485898653456e-10 9.964937465405392e-05 1.398480253425175e-10 0.01143956659200376 0.12488946884432 0.8636709644238282 0.5778248929497835 0.4221495535743864 7.101625142555459e-72 2.555347583005621e-05 6.726621152487795e-20 0.03800225681857715 2.457491815160629e-14 0.9619977431813983 1.100429818118231e-24 6.897672763578327e-14 0.9999999999999309 2.708376950464173e-20 4.466757738137413e-12 0.9999999901487214 9.846811932910013e-09 6.132487646936909e-50 3.420978697967117e-16 1.768380790318917e-07 7.024723217609793e-05 0.9999295759297445 3.011053427449742e-06 7.173334817883421e-05 0.05810646744627461 0.9418187881521193 3.433457398849265e-08 0.6932270690330357 0.3067728683098046 2.832258575547625e-08 0.0002115568286214342 0.5386117768564774 0.0003396278526050956 0.4608370384622961 0.9690109432321482 5.611504571193746e-05 0.0309329417221399 1.234897942537209e-119 0.0004885407405716142 0.4694144458993355 1.426153794672857e-14 0.5300970133600786 3.402200788771074e-09 2.051570454883751e-05 4.701789625130973e-05 0.999932462996999 0.996648764369568 1.492741839188236e-14 0.002578016722938838 0.0007732189074782345 6.365592350260553e-06 3.634794915823676e-05 0.9999572864584338 5.774060258037025e-14 0.00179568300588938 2.855263240166764e-37 0.9982043169934519 6.586754530857933e-13 0.6383274373910696 0.3616722609131935 3.016957368955858e-07 1.56208343413139e-22 0.0002339927774993111 0.0003982263143104622 0.9975716314706848 0.001796149437505398 3.826769194315945e-17 0.0001107744172571603 4.966102464714556e-97 0.999889225582743 0.1402431454857534 0.01388908542615197 0.02574664979646361 0.8201211192916309 0.04873161125341032 0.009041298351099394 1.629394385734881e-29 0.9422270903954902 1.531560967896327e-09 0.5497313222093938 0.4375994043711456 0.01266927188789957 0.005658352261068998 1.306698225406469e-33 0.007274340300506338 0.9870673074384246 1.504559875820974e-10 0.2531831472102783 0.6894673631739526 0.05734948946531292 1.1022331969188e-05 0.9766905164077304 6.405746815680541e-07 0.02329782068561873 1.352772543096378e-11 7.768082699515804e-13 0.687645616769526 0.3123543832161695 3.170802891947082e-07 3.937592184627914e-10 0.9999996825257804 1.711904505852497e-13 2.34142999863319e-20 1.948216879913878e-09 0.9999994717925381 5.262592450683058e-07 0.9790621663587543 1.264308796072265e-07 0.02093770721036611 5.519519673956629e-53 0.003417907919597902 0.9235526157831836 4.754659266590138e-05 0.07298192970455258 0.9999999999982108 2.99351751615263e-21 1.789161206720202e-12 8.585221342584389e-206 0.2130281766177453 3.377632159994982e-16 0.7869705547831042 1.268599150273039e-06 3.164433732109868e-11 0.9996726728661032 1.836874150387382e-06 0.0003254902281019601 0.005252730652766444 0.001284442935709193 0.09711001088754471 0.8963528155239797 0.9999149115367576 8.995519734465157e-122 8.508846324239821e-05 5.38280004018487e-45 0.9244741083019945 0.0755225070052611 3.384692744390106e-06 4.806712672466869e-20 0.9801022166053402 1.147143804790622e-10 0.01585359015415498 0.004044193125790167 0.007028547370050709 0.001798838385777245 0.991172614244172 4.492172507997387e-17 0.001242189314570089 0.008602221501256169 0.9901555891545154 2.965831102746468e-11 1.509667948191632e-05 0.09687484466447711 2.379195296850902e-16 0.9031100586560407 0.1017075168131902 4.09510007752353e-06 2.293738212231865e-17 0.8982883880867322 2.021056052946964e-12 0.9737975551842261 0.0262021342163234 3.105974296290421e-07 6.210791705566095e-75 0.003368974910604178 2.922715229478619e-05 0.9966017979371011 0.3776075663513988 2.643413361811982e-07 0.0005066296200556289 0.6218855396872094 0.05434729531940713 0.001940203607953443 9.400115619386897e-21 0.9437125010726396 1.890401182754326e-24 0.05892423037812541 0.9410757665799947 3.04187992611998e-09 0.9783670517600123 0.02162876547944718 4.182695963066641e-06 6.457770369188471e-11 0.0003757140670113783 0.9996082393914636 3.381798408835278e-13 1.604654118695797e-05 7.068385553710412e-99 0.8638342194958594 0.1354437449118325 0.0007220355923081156 6.06835019594721e-36 8.706526968562851e-225 0.9999102113967185 8.978860328148811e-05 0.6297432309866198 8.134726915171211e-21 0.3702566441008874 1.249124928191279e-07 0.839131756626482 0.005140191177652982 0.1557277846506214 2.675452436950978e-07 6.928236831248111e-14 0.4419159441121008 0.558084055755524 1.323059281351784e-10 0.01869190969549862 0.9197588580326221 4.796593828930987e-06 0.06154443567805029 0.02192609554112631 0.8823937601811604 0.0956764770339768 3.667243736238679e-06 4.020261328362837e-27 0.03953070246363943 5.510906893880589e-36 0.9604692975363607 0.3494422638164222 0.601928399088663 0.000132854564944394 0.04849648252997043 0.0002917329369608234 0.9996128363996143 9.527836034701998e-05 1.523030777115836e-07 0.8574473267949341 0.06147721025168128 0.07101152740484237 0.01006393554854208 0.2814140902552518 0.0001586414579229267 1.907075626480653e-14 0.718427268286806 0.1413095921379605 0.8558703419289085 2.820145846553696e-08 0.002820037731672454 5.890404801520029e-07 0.998520456034819 0.001478954924700868 0 5.440731912933344e-13 0.9999327958748685 6.720412458731111e-05 8.101843449078711e-28 0.1340246307544709 5.805040211161361e-81 0.865975368695331 5.501979803449512e-10 2.050920548730791e-09 0.003364535368622351 0.0007955870615345977 0.9958398755189224 0.6510371173527607 0.002080626281342287 0.3468821644829989 9.188289805183458e-08 2.312087569292137e-80 0.0004940301572369402 2.341668448607393e-20 0.999505969842763 0.4401791186580274 0.130208270002402 1.023824748993379e-11 0.4296126113293322 0.1529463791096404 0.7446336864495205 3.023332540697143e-10 0.1024199341385058 0.5194319581081173 0.4398569656005534 0.04071107629132915 3.998265824621402e-19 0.1304447112898413 0.00022555163577554 0.1146895717023807 0.7546401653720024 1.503369628756331e-07 0.04689522942820826 0.9461769256713607 0.006927694563467973 2.022185867787974e-08 0.9995247069300981 3.019569860171208e-38 0.0004752728480430176 0.03096369809987039 0.7252088337838379 0.2417268885191618 0.002100579597129939 0.01158690915185746 0.002448297439242164 0.9849297300953562 0.001035063313544144 3.498049282205999e-23 4.323453369175198e-32 0.9951400004458362 0.004859999554163877 6.832787270470441e-10 0.9037720662456279 9.478568044921153e-16 0.09622793307109241 0.551006782162957 2.865682411684796e-13 0.03889262499223341 0.410100592844523 0.5358713260753885 1.439034014712179e-05 5.953901062673442e-18 0.4641142835844644 0.2718075256500039 0.1214900191600746 0.6067024551899215 2.659125424080406e-28 7.801061500614012e-11 1.790382088550233e-44 5.349946855814056e-12 0.9999999999166393 0.001536210279040917 4.25311738435145e-09 1.913191750549409e-16 0.9984637854678415 1 3.624296587090688e-30 0 7.011039904592676e-132 1.412655309728644e-71 1.026262907071512e-07 7.585799250823559e-21 0.9999998973737093 0.6284808716811877 5.4271634642609e-05 0.3714648566841698 9.032086600504998e-19 9.339060870703415e-09 0.02391109817122427 0.5392151343992161 0.4368737580904988 0.9453656991594607 0.0274398291356949 0.0271937836370525 6.880677919990123e-07 6.249813500875894e-05 0.9999375003583578 1.312541684281477e-09 1.940917669679572e-10 0.02679894370323165 2.137341446420448e-247 0.02310831666891135 0.950092739627857 0.9977492768068893 0.000676276426230357 0.0007342685368370516 0.0008401782300432816 0.006460554313252424 2.351781720472922e-06 0.2866504969965409 0.7068865969084862 0.6124891134216253 1.663411852549524e-05 0.3874942524597462 1.030834276321367e-13 1.984087322208499e-14 9.285339899852697e-14 8.429515344551182e-05 0.9999157048464418 0.1531684481316052 3.286175933665983e-06 0.003056499999971171 0.8437717656924899 0.5675907524682726 0.02411864558339942 0.3993263556559802 0.008964246292347759 0.2205821742340889 2.283200267939166e-52 0.7793938465557697 2.397921014149578e-05 0.2380740498002484 0.7611433080769073 0.000176636528967432 0.0006060055938767234 0.9968152678805166 0.003184732119458738 3.477626194391082e-20 2.463670736966529e-14 2.123231358302938e-09 0.001178582303887116 0.007400010886130132 0.9914214046867514 0.01473030689357988 1.989043823363603e-05 0.8350969549953681 0.1501528476728183 4.824454584239963e-05 0.1536503761417958 0.3719977726303565 0.4743036066820054 0.9992535953738676 0.0007409408802225524 5.454540794694473e-06 9.205115289504258e-09 0.9998500181065426 1.026438129169762e-15 0.000149981893456399 1.287515890320861e-18 0.1582493695370097 0.2713187494905714 0.5704318622173256 1.875509334349275e-08 7.645800004658661e-05 9.815869933425069e-14 0.4882816932659147 0.5116418487339405 3.620222136938821e-50 0.5636785787886279 0.4155680473477706 0.02075337386360128 0.0002718185481249804 0.6819953691497724 0.3177328089126532 3.389449405615688e-09 0.4900860719356614 0.5094241950799148 0.0004897117527187694 2.123170503329809e-08 0.003852658651198452 0.9316557921856372 9.296521543012306e-42 0.06449154916316428 0.999863734754202 0.0001362652457808837 1.724314297529882e-14 5.526312898851753e-22 1.396943617484234e-12 2.440637630475699e-22 5.21451176644538e-23 0.999999999998603 0.6128667904014538 0.3746379699785119 0.0124952395605818 5.945247998100814e-11 1.394964127743318e-22 7.955996783842257e-14 0.9999999999997988 1.217330351387477e-13 1.787037082386182e-13 5.755509438059566e-05 0.3596842576279938 0.6402581872774469 0.05195623740394448 0.301092733982349 1.272907375434733e-78 0.6469510286137066 7.360460013067391e-112 0.5971515291187314 0.4028484708812686 3.421812289852477e-127 0.02184950046850225 0.949426129778952 0.0001017308725276529 0.02862263888001782 0.5907613406611384 3.268998111637642e-08 0.1428267999031477 0.2664118267457328 0.0001113755972777855 7.46451775466315e-05 0.9944977409241856 0.005316238300989949 1.988063013943618e-10 0.001320292572797167 6.853537125498852e-05 0.9986111718571417 0.6749866337402427 0 5.268869590168441e-06 0.3250080973901671 0.8460784337476606 9.885934804188355e-05 1.631254568519273e-29 0.1538227069042976 0.9354015762357838 0.06455067507483137 4.774868938295042e-05 1.810348842110298e-15 1.391902172302566e-06 0.6095629034696081 0.3904357046282195 2.113901234836649e-17 0.1283429788132597 0.8716570211867404 3.136931974928985e-36 3.700126787447337e-34 0.04127020369605258 0.03550281226070694 3.45698301901244e-05 0.9231924142130504 0.9135666271823979 0.003440394397248138 0.08299275105675658 2.273635975578232e-07 0.9999959590629616 8.786093872744969e-23 4.04093703839332e-06 8.249899745842601e-29 0.9991520189120133 0.0008479770419334937 2.746181898288215e-12 4.043306918711362e-09 2.183763501740325e-09 0.9999992577052226 7.401110139496441e-07 0 0.5636578610586915 0.0001003733346571174 7.409017093718591e-13 0.4362417656059104 0.9024330515061446 0.001032138128239079 6.439797844548686e-19 0.09653481036561629 0.0001053473238253799 0.08203452410539801 0.9178601285707766 1.369895342454509e-27 0.1361822707572006 0.859507044974003 0.004310684194756016 7.40404464640659e-11 0.0001408527442707596 4.209612527978496e-13 6.757222380255222e-26 0.9998591472553082 0.9143601416594853 6.844859500165643e-07 0.08563917385456465 4.738532899671007e-37 0.290090205354785 1.058000137293426e-05 8.483996376705631e-07 0.7098983662442044 0.001885480743772109 0.9210522805655631 5.851441065766596e-14 0.07706223869060642 0.009532929339371549 0.8178949985388057 1.418413109769682e-09 0.1725720707034098 3.816158355627493e-05 0.9983922513389765 2.551270595871248e-07 0.001569331950407581 0.007486868509623454 7.984315488282e-14 0.9862445607358385 0.006268570754458302 0.000936017095786025 7.627292346528469e-07 0.9990632167196665 3.45531285830361e-09 0.7980554700550552 0.07159203877008741 0.1139783515145946 0.0163741396602629 0.9998107589612724 2.931982333395148e-05 3.330470512344266e-53 0.0001599212153937093 0.0002479977051995009 0.9948886667875391 1.441384978227179e-08 0.004863321093411585 3.083160216715138e-06 3.800936223563923e-06 0.0005675152236818067 0.999425600679878 6.738774027512917e-09 5.113051008820696e-47 0.8297373643771685 0.1702626288840574 0.003275123376329094 3.088907194218592e-09 0.7480995358987023 0.2486253376360616 0.127049525599796 1.368961964457271e-17 0.6894816723760309 0.1834688020241733 3.320840991465682e-12 5.920344530632595e-41 8.662581046776123e-29 0.9999999999966791 3.429500235991036e-07 0.8475763266966025 0.1524223423208261 9.880325479032284e-07 2.724541729176511e-17 0.0006470698801280572 0.9953936001579232 0.003959329961948563 0.8823444330487035 9.644824625998684e-12 4.891272999967532e-10 0.1176555664525244 0.03322496325252727 1.297929404172114e-34 0.6653307997437258 0.3014442370037468 0.07429205398421147 2.258312717793834e-111 0.9257077532734443 1.927423442315617e-07 0.4225024462745564 0.297482037887343 0.2790781886779122 0.0009373271601885278 0.0003439802405750974 0.7854707347114251 0.2076479179636025 0.006537367084397346 0.5111406948640126 0.48883218734947 2.706436521731061e-05 5.342130016715455e-08 1.226110265637937e-07 0.9433907549436976 6.450257346106856e-20 0.05660912244527572 0.4049727567225622 0.003897475882413752 0.5883464237725171 0.0027833436225069 3.803671068574971e-14 1.907732711216692e-06 5.167262590610293e-08 0.9999980405946249 0.07439453796956158 0.9059220263145601 0.001741441246154991 0.01794199446972335 4.658049898911714e-16 7.733713573209802e-33 0.9999750782268347 2.492177316470107e-05 0.3820423035886971 0.002836786725957817 0.6151208267844869 8.290085801883409e-08 0.0001780190427117645 0.8222744716933259 0.177523982119285 2.352714467737577e-05 0.9797226089816642 5.36661082595734e-99 0.02025049895502114 2.689206331471738e-05 2.978577631628929e-05 0.3231081604589375 8.604077179665651e-163 0.6768620537647461 0.9989595664297888 5.231228056462554e-05 0.0009547087621637856 3.341252748286283e-05 1.40839275771249e-11 0.001297688550321199 0.9193447924397065 0.0793575189958885 5.846871315147878e-16 1.986448759166141e-05 0.4607148029842243 0.5392653325281833 0.6970852322590748 0.3029142098469621 5.577969510560524e-07 9.701211572725856e-11 2.357440386102611e-05 0.006045073344217809 0.06769717114274929 0.9262341811091718 0.1161583332954864 0.1703527388642848 0.006227235976437644 0.7072616918637912 2.337339595043901e-09 0.2044857171313781 0.001023212350431821 0.7944910681808505 0.05710579260158723 0.9428942073269654 3.616959091870276e-215 7.14474393257487e-11 0.5097953755541693 3.591756697738491e-10 1.056139189748727e-28 0.4902046240866549 4.281737829991825e-06 0.8054116563891685 0.07756706041357951 0.1170170014594222 0.04526514744352757 0.07533129654326634 1.514985081629521e-14 0.8794035560131911 9.747847625583119e-08 0.01525844390964855 0.9847402966262603 1.161985614897668e-06 0.9889882613674799 7.543194035783367e-08 1.881665046135352e-21 0.0110116632005799 0.05565737682227078 1.021281087167613e-78 0.9443426231776754 5.374426747997392e-14 0.001773989289041338 0.8425879087207144 0.009677975527002879 0.1459601264632414 0.03196807576844687 0.7215003165526593 4.18095836524607e-08 0.24653156586931 3.075680665767433e-12 4.571136992961313e-17 0.9981557175030661 0.001844282493858081 1.280754304294327e-12 0.3350628966482934 0.6604702604458668 0.004466842904559001 0.9993888626096608 0.0002565894323654624 0.0003545479579738657 7.095845200803249e-51 0.9977917436410113 0.002208255930388563 6.593342465347092e-38 4.286000395997037e-10 0.06604723445326931 0.2249865265670873 0.7089662389796434 4.069948662994687e-69 0.1131304680749625 0.0004256712080745256 