<?xml version="1.0" encoding="UTF-8"?>
<!-- This file was created by ACADEMIC version of SMILE -->
<smile version="1.0" id="Unnamed" numsamples="10000" discsamples="10000">
	<nodes>
		<cpt id="U1">
			<state id="State0" />
			<state id="State1" />
			<state id="State2" />
			<state id="State3" />
			<state id="State4" />
			<state id="State5" />
			<state id="State6" />
			<state id="State7" />
			<state id="State8" />
			<state id="State9" />
			<probabilities>3.356858047629853e-13 6.792894040144209e-103 0.002630350217376096 0.01303257680746182 0.0001973570164998599 0.0003928068013433971 0.281321980874813 0.7024249019785532 2.627509472903221e-08 2.852221506839266e-11</probabilities>
		</cpt>
		<cpt id="X">
			<state id="State0" />
			<state id="State1" />
			<state id="State2" />
			<state id="State3" />
			<parents>U1</parents>
			<probabilities>0.0001364999220925067 2.961473606398324e-07 0.9998632024215313 1.50901551577084e-09 6.348427491798772e-15 3.427120026576198e-08 1.093547725234172e-216 0.9999999657287935 0.9872788767172678 8.663012366760014e-26 4.417201694768994e-05 0.01267695126578451 0.8793438402988625 0 0.1206561597011376 1.384810059851271e-19 0.002912668096431652 0.997087331900672 6.333771464638176e-16 2.895881835868383e-12 0.9999936183921361 6.202673891594019e-38 6.381607807579812e-06 5.62831620874209e-14 1.543475504683341e-26 3.513036893833049e-14 0.999841277443821 0.0001587225561440392 0.1188948676398467 0.8650068264143466 0.01499544678321317 0.001102859162593637 0.9579265253191191 2.265616403708556e-22 0.04207329624972422 1.784311565345535e-07 2.929909809500475e-05 0.9999706998520231 2.226880106839399e-11 1.027612936983113e-09</probabilities>
		</cpt>
		<cpt id="V1">
			<state id="State0" />
			<state id="State1" />
			<state id="State2" />
			<state id="State3" />
			<parents>X</parents>
			<probabilities>0.9957477235023247 0.0009897469562360492 0.001751647414178552 0.001510882127260727 0.0008942996865231694 0.9957477235023247 0.002409405846530687 0.0009485709646214731 0.0009467357200089161 0.001370951631806274 0.9957477235023247 0.001934589145860139 0.003626891176240145 0.0004527851448258212 0.0001726001766093628 0.9957477235023247</probabilities>
		</cpt>
		<cpt id="U2">
			<state id="State0" />
			<state id="State1" />
			<state id="State2" />
			<state id="State3" />
			<state id="State4" />
			<state id="State5" />
			<state id="State6" />
			<state id="State7" />
			<state id="State8" />
			<state id="State9" />
			<probabilities>0.1056949704995666 0.01545868231187979 4.25285375699697e-06 0.03324191330929765 0.003024342180502662 0.7058133028648392 0.1334236383975885 3.582669714012733e-05 0.003303070885428379 0</probabilities>
		</cpt>
		<cpt id="V2">
			<state id="State0" />
			<state id="State1" />
			<state id="State2" />
			<state id="State3" />
			<parents>V1 U1 U2</parents>
			<probabilities>0.9992114201084897 0.0004014164902242674 0.0002039139088225453 0.0001832494924634866 0.0003910009624670893 0.9900330507369376 0.006360721180772633 0.003215227119822644 0.0008759582443051905 0.0008698245787356421 0.9976347350796668 0.0006194820972923817 0.00275560086830192 6.141348399304385e-05 0.0004310956631305602 0.9967518899845744 0.9921637663095598 0.0005855169839929378 0.0001311758905654911 0.007119540815881755 0.002274249016689402 0.9965416824064205 0.001126845335463455 5.72232414266698e-05 0.002155740178232141 0.0003242768638746452 0.003008146640269811 0.9945118363176234 0.0009724654001712846 0.0002629979075434263 0.9985075758028457 0.0002569608894396664 0.9918221594891531 0.00572904467142055 0.001629414282912535 0.0008193815565137785 0.0004788027840596783 1.997465153014046e-05 0.9994811839769659 2.003858744425015e-05 0.0004491955275535159 0.9928048211647826 0.002298606623658276 0.004447376684005534 0.006386966026506247 6.597870737788593e-05 0.0006784535347745482 0.9928686017313413 0.9904135714487585 0.004552970904361776 0.004190674008767515 0.000842783638112141 0.001694649370999354 0.002184387592102972 0.9957432265668154 0.0003777364700823372 0.001499186854374957 0.001563566190568651 0.002433027555979099 0.9945042193990773 0.0004676014686611032 0.9901210222349325 0.00236256465852212 0.007048811637884247 0.9988158920664064 0.0005847789462523686 0.0001855046105053739 0.0004138243768358088 0.006353423987085275 0.0001787321738328886 0.001429290444253699 0.9920385533948282 0.004662682550233072 0.9926998896534298 0.0006949001149670821 0.001942527681370013 0.002712878778485444 0.0009449549355298734 0.9936304880388809 0.002711678247103823 0.9960045371143094 0.0007113045324826328 0.0028866026903451 0.0003975556628629268 0.0007305068121074507 0.004014462388401044 0.001568176998247223 0.9936868538012443 3.332440614214012e-05 0.003956742408581136 0.9958947040826446 0.0001152291026321065 0.002478082582686292 0.9966303762905221 0.0006188168538517941 0.0002727242729397823 0.008400779762044459 0.0002502790632129604 0.0004433201350408015 0.9909056210397018 0.0003793769267381596 0.0003721438447464765 0.9987531471720529 0.0004953320564624508 0.006076769865568381 0.9910966003780377 0.002398513525003529 0.0004281162313904321 0.9939841570126308 0.0045182712723161 3.35891961965259e-05 0.001463982518856556 0.001363220220714698 0.0006047108825636619 0.001403564227581737 0.9966285046691399 0.004456077273300228 0.0007951663694605428 0.9902024760304214 0.004546280326817774 0.9969671077527613 0.00201258114418579 7.276858496604516e-05 0.0009475425180868005 0.003343837814602686 0.9949367604153386 6.255920546998351e-05 0.00165684256458866 0.00594291798950193 3.937554588047315e-06 1.510771260187877e-05 0.9940380367433082 0.003255371044642932 0.9964393900116399 8.077911401658831e-05 0.0002244598297005541 5.699695469973878e-05 0.0001121494345833164 0.9994786061744897 0.0003522474362272005 0.9975653365420212 0.0006008071512262312 0.0003085983038686459 0.001525258002883969 0.002134206975437219 0.00149694983660976 3.663675985333742e-05 0.9963322064280997 0.002297022341446182 0.9930212249596622 0.003261525416536114 0.001420227282355557 0.9912809011241439 0.007968960551544686 0.0001821749480976528 0.000567963376213714 4.91802476886881e-05 5.276050168875989e-05 0.9998916025390934 6.456711529223806e-06 0.002152657292684205 0.0001125119207142548 6.708620216556134e-05 0.997667744584436 0.9967112466444741 0.002574419107309773 0.0004775799645961436 0.0002367542836200372 0.0003553121309536805 0.0004036986630775024 0.999091626010562 0.0001493631954067788 0.0002296209791125126 0.9973772773595686 0.001794233841352044 0.000598867819966822 0.003687565689812634 0.0001778923513010585 0.005763317881046295 0.9903712240778401 0.9911485579236146 0.005164202639321241 0.00307693912721833 0.0006103003098458727 0.001704765843386693 0.9950988006103768 0.001307380075930313 0.001889053470306157 9.347901120897386e-05 0.0007943068077373637 0.9989892641708847 0.0001229500101689326 0.9946474663004699 0.003066131542855514 0.0001811886328185223 0.002105213523856105 0.003617489537007874 0.9956155269909774 0.0004665405289453173 0.0003004429430693806 0.0009663338097060017 0.0006622090858992585 0.9974702244315077 0.0009012326728870184 0.002792889918855443 0.002478526000194287 0.0007007025536269864 0.9940278815273232 0.9928009496751284 0.0009888809385878738 0.002880744544445407 0.003329424841838228 0.0001555191970801981 0.9998257565758512 1.580296988856538e-05 2.921257180060906e-06 4.569497931573841e-05 0.0002274423700908745 4.61019418641746e-05 0.9996807607087292 0.005184441535255673 0.00184980579665174 0.9929411845258618 2.456814223080763e-05 0.9925847858895874 0.006249319644139388 0.0009628576142871798 0.0002030368519860301 0.001303706904846876 0.0002654908389371759 0.9970931585011377 0.001337643755078318 0.0003261015746389623 0.9987608417860572 0.000499331352262194 0.000413725287041704 0.001728673206660063 0.003604633751595261 0.0002932878224641581 0.9943734052192805 0.9962307880504684 0.00122322870438891 0.0007786405307564817 0.001767342714386232 0.004007691821366577 0.002660710057834305 0.990568956600573 0.002762641520226097 8.23926138006173e-05 3.553391407399766e-05 4.672629357555028e-05 0.9998353471785498 0.008086915901900459 0.9900904491739543 0.0003151155959025202 0.001507519328242792 0.9992024332808962 0.0007264921245229644 5.614671702765101e-05 1.492787755318621e-05 0.00288964393574477 3.038308319843541e-06 1.503797975759305e-05 0.9970922797761778 0.002582261623253289 0.9920192857510417 0.001956858826277869 0.003441593799427188 0.0001893310750587837 4.871930852557965e-05 0.9997467375743572 1.521204205847059e-05 0.9996221562201822 0.000235049086265416 9.667366591241772e-05 4.61210276398755e-05 8.903817756651567e-05 0.00223876384476067 0.000825785248655233 0.9968464127290175 0.001984746636654148 0.001430869296957922 0.9920286935654796 0.004555690500908293 0.0007879544292983057 0.9974742015040652 0.001409457704025634 0.000328386362610907 0.0004506329212184353 0.0002917443829410062 0.0008120979143271469 0.9984455247815134 0.0002293867527434339 0.0003960191629565007 0.9992809314558683 9.366262843175e-05 0.0005621777963005818 0.9993295356712804 9.025839434684229e-05 1.802813807218029e-05 0.998064588200365 0.001845037214777967 2.616857962267208e-06 8.775772689471622e-05 0.006121883815757876 1.585445749870902e-05 0.001219119247038495 0.9926431424797049 0.0008392455322819853 0.0003518966029778809 0.9987588510223456 5.000684239445558e-05 0.9920885624711616 0.003379355899386234 0.004399999704660529 0.0001320819247916426 0.007833988493199774 0.9905122953061337 0.001269590083120196 0.0003841261175463583 0.003928765662882572 0.002422917351921977 0.001035389101851689 0.9926129278833438 0.003747346091163537 0.9935270418459248 0.002415313863478093 0.000310298199433619 0.004973126953714982 0.0009587792620587967 0.9911187311138079 0.002949362670418289 0.9912858970846857 0.008270283053965616 0.0004367609877244041 7.058873624287765e-06 0.005672737164169589 0.001897730070252081 6.255807714404603e-05 0.9923669746884343 0.0008643854316790917 0.9986398013872202 2.538899136976024e-05 0.0004704241897310063 0.9918643096862203 0.005368094073736398 0.00213849590337723 0.000629100336666051 0.007737695813241393 0.0002084179779501548 0.9918758619133815 0.000178024295426942 0.002648562035213265 0.001312148466181891 0.0002535529041783754 0.9957857365944265 0.9901409233080868 0.006654346206278332 0.0006253120282684469 0.002579418457366419 0.0003280689883872359 0.0003297090832458134 0.9981689901422817 0.001173231786085297 0.001482398184614298 0.9970978467191853 0.001132950862502158 0.0002868042336981703 0.001471574302291418 0.001810413044230605 0.002474917257170408 0.9942430953963076 0.998888534162789 0.0005637292141473534 0.0005059065769591318 4.183004610449357e-05 0.002936026570309262 0.9960086183202804 2.655836750072101e-05 0.001028796741909639 0.0008414790791036172 6.829115027656665e-05 0.9990196351446871 7.059462593280134e-05 0.9932248234094895 0.0001988690335564005 0.003939005269381605 0.002637302287572548 8.604517142514918e-05 0.99375451087947 0.005844689169067024 0.0003147547800378533 0.0006671870447263708 0.0001863101943527119 0.9973114217628118 0.001835080998109101 0.003893626807153396 0.0001757264580154332 8.077083807652514e-05 0.9958498758967547 0.9932718901604395 3.350654532355296e-05 0.002365883349201525 0.004328719945035412 0.001761176179817093 0.9942056106146909 0.00332067498108086 0.0007125382244111559 0.001678127271932049 0.002393321307392974 0.003133044930889622 0.9927955064897853 0.004981419894772222 0.0008377441497455033 0.9936352134354201 0.0005456225200622412 0.9982048560429679 1.037861111718777e-05 0.0007750193846524447 0.00100974596126239 0.0008206816852072198 1.071658755131281e-05 0.9988642871799481 0.0003043145472933391 0.0004403452103307116 0.9983036905609461 0.0001267755052944625 0.001129188723428737 0.007953257413206257 0.0001518120872709092 0.0003095222754134012 0.9915854082241095 0.9967022439100098 0.000304620075409438 0.002363359586020042 0.0006297764285607401 0.001456594267137066 0.001847833422352511 0.9964458490219997 0.0002497232885106499 0.0009601367816273036 0.0006612624542885137 0.000255218347936101 0.9981233824161481 0.001818363174697495 0.99553380053675 5.993023726762441e-05 0.002587906051284857 0.9966381259973507 0.0001928896410067629 0.001552805757905238 0.001616178603737316 0.004579746552044548 0.000601885246725708 0.0001995269804311639 0.9946188412207986 0.002881961990592427 0.9965279308700217 0.0002580066649182698 0.0003321004744675871 0.001618283439812036 0.001156041333542278 0.9953331467833098 0.001892528443335977 0.9945071710004749 0.003537028245167121 0.001532145234444142 0.0004236555199138613 5.883350917206832e-05 3.668343520436779e-05 0.0009889259914660773 0.9989155570641575 0.001840855889286132 0.0002378075178418216 0.9978563516895618 6.498490331032636e-05 0.003407671453938095 0.9900527380302456 0.003146190577954102 0.003393399937862221 0.00411930938806304 0.001465050349540117 0.001114975696944608 0.9933006645654522 0.004843251648918473 0.0005317649064697019 0.9943121159757021 0.0003128674689096694 0.001427186566018976 0.9953581873791648 0.002472007658794469 0.0007426183960217276 0.992131215553877 0.003533301510213934 0.001225301475792335 0.003110181460116736 0.007643642422331324 0.0006828308259569035 0.0008541090394493711 0.9908194177122625 0.006410919139192724 0.0003618698360935244 0.9913688887752495 0.001858322249464209 0.9965493722299333 0.001889259431412312 0.00142014396524434 0.0001412243734099643 0.0006432247303229583 0.9991629988918783 3.978560263312983e-05 0.0001539907751655451 0.00122058474505926 7.371910029313484e-05 0.0005826015225689746 0.9981230946320786 0.002470647283384127 0.9912373630599335 0.005062790923931921 0.001229198732750454 0.005437427606057144 0.0003926889666830802 0.9923287606898775 0.001841122737382295 0.995850117391101 0.00325945617575777 3.971911096376428e-05 0.0008507073221774489 0.000621461840805975 0.0004665042147699857 8.145630212876633e-05 0.9988305776422953 0.008153298982083614 0.9917495162585327 5.461112120371775e-05 4.257363817992691e-05 0.993474780001986 0.004003526905838826 0.00111739300790569 0.001404300084269512 0.0003093794101571788 0.0001553020796649385 0.9995273853965402 7.933113637668211e-06 0.001207095721747962 0.003086525990643855 0.0008666746696642537 0.9948397036179439 0.9923707647311337 0.003779717203382835 0.0003302714703630609 0.003519246595120393 0.001246760598866626 0.003814583824537292 0.9945296715931936 0.0004089839834024796 0.001387172891531896 0.9943786938407032 0.003716707831426376 0.0005174254363385037 0.001402293456111013 0.0003506808109338985 0.001118664082286135 0.997128361650669 0.9966320777134063 0.0001974854982137572 0.00298856353271421 0.0001818732556657372 0.002345784773231593 0.9956208484270015 0.00200266435413896 3.070244562798207e-05 0.003192126841974434 0.001135200212239893 0.9934025126626492 0.002270160283136444 0.9925967927437467 0.0002996289482531381 0.006279564667072617 0.0008240136409275994 1.806256784695718e-05 0.9999436278205831 1.944013313438378e-05 1.886947843550162e-05 0.005894250429678036 0.0001095254918734128 0.9933917970110442 0.0006044270674043107 0.007264422578228462 6.122270262996475e-05 8.491680385444347e-05 0.9925894379152871 0.9907644883105201 0.004967601053274187 0.00411072621056561 0.0001571844256401242 0.0006598973141574852 0.995869432418569 0.002658165185829842 0.0008125050814436858 0.007056544438076406 0.001363140265255294 0.0002459157790306991 0.9913343995176376 0.003985271051124067 0.0009761462985006499 0.9944607600752928 0.0005778225750824772 0.9992938901485461 0.0001525196419329523 5.589744695835313e-05 0.0004976927625626024 0.007295782307108081 0.0004851783987355298 0.9916031871472668 0.0006158521468895911 0.001808086094164958 0.9939245577354116 0.002022457495326416 0.002244898675097064 0.005990428531421269 0.0003042093145334745 0.002288711586581689 0.9914166505674635 0.999063737491015 0.0001884681265040899 0.0005740380136307102 0.0001737563688502661 0.002436520306482393 0.006564032866159712 0.9902746328961699 0.0007248139311879587 0.008837693089264104 0.0002627083109270325 0.0002592471764444815 0.9906403514233644 0.001862608433628428 0.9945954113005853 0.0005369803139157414 0.003004999951870528 0.9968827879217862 0.0003841535184603219 4.007719729234495e-06 0.002729050840024198 0.001517347784953512 0.001179347900046028 0.0003139429458775492 0.9969893613691229 0.0005909140068732799 0.9992124404996364 7.751166005792692e-05 0.0001191338334323692 0.006013235472910438 0.0002861230203689752 0.9922294146404802 0.001471226866240391 0.9964713768759011 0.0008103255470151427 0.001890332221645207 0.0008279653554385514 0.0005892863917408397 0.0002229401909108247 5.580770015767465e-05 0.9991319657171907 0.005125293842218223 3.988269642471696e-05 0.9947908997436902 4.392371766689177e-05 0.00528513208718461 0.9927727687116221 0.001073218407025232 0.0008688807941680892 0.0001349274111407033 3.499382653400859e-05 0.0001817769220580066 0.9996483018402673 0.0001030481242093791 1.737240779953739e-05 0.999849647711243 2.993175674808203e-05 0.00163507230246339 0.9928895767698768 0.005460396088215822 1.495483944396938e-05 0.9992583306866775 4.858266985178259e-05 0.0001330386893941459 0.0005600479540765954 0.005305279534697812 4.417307917363879e-05 3.832208838347883e-05 0.9946122252977451 0.001282626001587833 0.0003369575952393666 0.9973588389063592 0.001021577496813547 0.996689546866055 0.002403414830815626 0.0001061482538622227 0.0008008900492671506 0.001839688349313234 0.9925404477169827 0.005456474702376404 0.0001633892313277086 0.006122535331997612 0.002508573357182518 0.0001427764441203163 0.9912261148666995 0.003933965674081384 0.9910069715534242 0.004195552281316969 0.0008635104911774811 0.001002382387714952 0.0003393739543652419 0.9982926928503858 0.0003655508075340113 0.9945026376766046 0.001925770343740058 0.002459790930746926 0.001111801048908425 0.003010561330631476 0.0003716143837067786 0.0001002273393061823 0.9965175969463556 0.0001392958162142274 0.9916110869980974 0.002346995185003947 0.005902622000684414 0.993058658511847 0.0006422429627905906 0.002523538156551239 0.003775560368811146 3.081875957522561e-05 3.978812234164289e-06 0.9999573160606255 7.886367565033928e-06 0.007526781981423925 0.0009548664327625747 0.001363643183904034 0.9901547084019094 0.9902366372521219 0.009294953856210394 1.380598823258513e-05 0.0004546029034351147 0.001504114386964624 7.583376306840954e-05 0.9981177995158164 0.000302252334150601 0.007278721002980925 0.991404935673513 0.0005938363959780313 0.0007225069275280476 0.004383846067819822 0.000197989468503479 0.000164640003179767 0.995253524460497 0.9917037982464021 0.005682343887589572 0.001012345034231416 0.001601512831776973 0.002297943695291707 0.9969091517717062 0.0006846033650052074 0.0001083011679967899 0.004731305078022865 0.001567306748674615 0.9936246302453206 7.675792798194866e-05 0.9919498110341957 0.001539500418502597 0.004243535747457821 0.002267152799843896 0.0003554477915921078 0.9984832811265616 5.406737558721381e-05 0.001107203706259067 0.002949177622210458 0.001679781798497429 0.9946552368250707 0.0007158037542214365 0.0005025289095136301 0.0004540324603267758 0.0003028453010646119 0.9987405933290949 0.9920186151264596 0.007873101453933759 3.115997076521112e-05 7.7123448841422e-05 0.005072686061661323 0.9901006528899504 0.001881099590462665 0.00294556145792556 0.003871804400809446 0.0002974521160437104 0.0005325726219360997 0.9952981708612108 0.0039319262251643 0.005719645506446328 0.9900175579448232 0.0003308703235662272 0.990550298474926 0.004157063847184323 0.002572713594449568 0.002719924083440027 0.003472558779976531 0.001214091012436289 0.9902790713240416 0.005034278883545643 0.0007923234305393499 0.9968859122394342 0.002167440585735766 0.0001543237442906118 1.039246886268067e-05 0.004003749704056814 0.004452489890822678 0.9915333679362578 0.9925347246515653 0.003841356896591132 0.0006298320946699547 0.00299408635717359 0.004306755599463675 0.001382327087386494 0.9937279532395433 0.0005829640736065551 0.004312972082984786 0.0005484104758057667 0.00273234228349984 0.9924062751577096 0.0004097332725988424 0.9994701833138993 8.67998075381359e-05 3.328360596377189e-05 0.9915701606703134 0.001654391896624885 0.001544831379647601 0.005230616053414113 0.001267250384936661 0.006424471493115342 0.00164212339563945 0.9906661547263086 0.0003285947926486226 0.9993772615371876 0.0002476395132852756 4.650415687842746e-05 0.00142233177085388 0.0007362603968740451 0.99756401680394 0.0002773910283321003 0.9993340334584708 0.0004538869614534729 7.951072020058736e-05 0.0001325688598751468 0.0005218863668881597 0.0003077188365654716 0.001244157561685364 0.997926237234861 0.001568762206307506 3.598291712542137e-05 0.9922896201447949 0.00610563473177209 0.003913618003043949 0.9935784263243127 0.002034828255600626 0.0004731274170427209 0.006703014294450632 5.656436824753558e-05 0.0007299658878906277 0.9925104554494112 0.0007488397604838124 4.637412191203804e-06 0.9989398577320243 0.0003066650953006906 0.001279985242362184 0.9970214342571212 0.001245858398690773 0.0004527221018258368 0.9968546132114972 0.003063451305129265 5.173367214296055e-05 3.020181123065401e-05 0.0007518250796378648 0.0002506591200881215 0.00310696367138166 0.9958905521288923 0.0003031620052460432 0.0004181882396294508 0.9984770867197029 0.0008015630354215441 0.9947198935280325 0.0001297927274042383 0.00176809753958924 0.003382216204974011 0.0007877370157654114 0.99739455728785 0.001666780609835546 0.0001509250865491087 0.002239174596434571 0.001566181765828966 0.001361094493386642 0.9948335491443498 0.002986933699873978 0.995394160932364 0.0005810039146288173 0.001037901453133208 0.003147102063123527 1.433389048602747e-05 0.9968058478556214 3.271619076897209e-05 0.9991127890255473 0.0003880063952957469 0.0004668019802949297 3.240259886197813e-05 0.006814236153712051 0.0004269722554493866 0.001465500690841964 0.9912932908999966 0.0005333951784151828 0.9987673835738953 2.117315309749334e-05 0.0006780480945920463 0.9931814350495455 0.004427919252383077 4.079562963880937e-05 0.002349850068432685 0.002358036589775318 1.663545834991393e-05 0.9976079591872699 1.736876460491019e-05 0.003158047801896865 0.003564234942342755 0.0009563873695594867 0.9923213298862009 0.9921005901961353 0.005055668969377614 0.0009509694363451241 0.001892771398141954 0.006489768337772771 7.391819616296415e-05 0.9926594359985467 0.0007768774675176086 0.0002281622268812695 0.9901977090818408 0.007184049081768072 0.002390079609509915 0.001805666389071989 0.0002655709347593897 0.002962126816853277 0.9949666358593153 0.9937723310436958 0.004872467135409313 0.0005912589524737995 0.000763942868421085 0.00277985607203344 0.9907347378631701 0.0009985582208103714 0.005486847843986092 8.546072014197655e-05 0.002211103324392761 0.9935760657243801 0.004127370231085204 0.9962912956625236 0.002018983502771038 0.001465966886229718 0.0002237539484755999 0.0002754646416609175 0.9973920419081151 0.0007877928839821116 0.001544700566241807 0.0002989473311320203 5.775496978661264e-05 0.9993367183096875 0.0003065793893938442 0.0008053498490420464 0.0002354033781114811 9.38798386068567e-05 0.9988653669342397 0.9945049255710856 0.002114746494582632 8.77524602905204e-05 0.003292575474041195 0.001557045150918986 0.9957896359223509 0.001244143220357241 0.001409175706372798 0.002271065124226936 1.104273123347171e-07 0.001299400517148566 0.9964294239313122 0.0001606151886318352 0.0001436060267843414 0.9990510403664448 0.0006447384181390931 0.9928372422236595 0.003924937355887544 0.003110638034101428 0.0001271823863515311 0.0001229375754661143 0.002805326212338229 0.9967210191885568 0.0003507170236388721 0.00422545729849739 0.9931077329667781 0.0008073293575449071 0.001859480377179559 0.003557515458723297 0.0001578172273311114 0.0001202280040988738 0.9961644393098468 0.9936828144595549 0.005491293286727582 0.0005205952269846706 0.0003052970267328546 0.0002068094759400417 7.413926490523217e-05 0.9977691641718194 0.001949887087335399 0.0005687858261430346 2.891591919861028e-05 3.729204108288896e-06 0.99939856905055 0.0008577571635146733 0.9966760004744697 0.0003436150454737843 0.002122627316541904 0.9944694758347369 0.004972928482220649 0.0004508428094688018 0.0001067528735736491 0.002307515246138221 0.0007783715421886281 0.002515195222462412 0.9943989179892108 0.002940185961526404 0.9907262247536716 0.002638133933929903 0.00369545535087212 0.0006436494331503619 0.005943513856521346 0.9915899298204658 0.0018229068898625 0.9973667540041237 0.001105071188402923 0.0006823069421445267 0.0008458678653289012 0.006735798962811509 0.0005715762905190354 0.001672202827441354 0.9910204219192281 0.003283589051973465 0.00156457175885258 0.992091820715119 0.003060018474054892 4.068686925137461e-05 0.9993697317242249 0.0002360689938165391 0.000353512412707124 0.0007007950296854163 4.650323106299229e-05 0.0001362520976175025 0.999116449641634 0.0003710907709075796 0.003085912520855698 0.9939457470713157 0.002597249636921056 0.002641783150904283 0.9958978019756737 0.001281448885089409 0.0001789659883326272 0.9967097126837615 0.002730631887381674 0.000514398944003336 4.52564848534596e-05 0.00953851951210583 0.0003932930338313192 3.0174026977206e-05 0.9900380134270856 0.0006921648625510701 0.004273045708899434 0.9921875396043428 0.002847249824206646 0.9982503607078157 0.0009220881992114526 0.00039137321232865 0.0004361778806442458 0.0003292712260522073 0.996872865060921 0.001919254163457974 0.0008786095495688219 0.001845247065661875 0.004662563062706342 0.001838038635759588 0.9916541512358722 5.959380866876246e-05 0.9954300294487711 0.003502202388521307 0.001008174354038765 0.0005333356130773838 0.002140559196960512 0.994345507284279 0.00298059790568319 0.9944360653643626 0.005163746587148413 0.000214191395958417 0.0001859966525305589 4.344127982485999e-05 0.0006455736942878014 5.728107444259473e-05 0.9992537039514447 0.0008252910776920732 0.9972938485114974 0.0008201583519705339 0.001060702058840036 0.9954408933268306 0.002089948227245404 0.0008045238738546486 0.001664634572069375 0.002124580807751474 3.386309982989934e-05 0.9977976551172077 4.390097521089425e-05 9.528294414626131e-05 0.0002594609134695608 0.0001184705837432911 0.9995267855586409 0.9901541204859197 0.003556441047472532 0.001957254064524668 0.004332184402083114 0.0002306124254015411 6.44043223991023e-05 0.9996219589736155 8.302427858380346e-05 0.0003529790137186626 0.9991807981006648 0.0002091467799093044 0.0002570761057071478 0.002064810050982778 7.826470429981414e-05 0.002886736554571836 0.9949701886901455 0.9921515398642087 0.001471591626503701 0.003646381120983074 0.002730487388304555 0.002696900711891986 0.9924525119547575 0.002620263503452358 0.002230323829898154 0.00768352281821522 0.0002010019099610955 0.9909262196515211 0.001189255620302597 0.9934955587978905 0.006067156632357218 0.0002061741731376731 0.0002311103966146239 0.005294656390326992 0.9922377890298226 0.0009993385075308355 0.001468216072319575 0.004126457422778177 0.0002358453869111019 0.9951253452305078 0.0005123519598028941 0.00180035281146824 0.0007632185712160339 0.0007823560886618321 0.9966540725286539 0.9907289384560478 0.008330989138265561 0.0001875467776694928 0.0007525256280171738 0.001465107641246525 0.9985257087861072 8.183310815633025e-06 1.000261830645309e-06 0.000223057370821986 0.0001415133970880188 0.001086839649485186 0.9985485895826048 0.0001643679039318805 0.00187353218724257 0.9926788201652365 0.005283279743589125 0.9961432830708565 0.0006611158486449879 0.003130005300292642 6.559578020584426e-05 0.001203361453455439 0.005462227754468306 0.9900461076381369 0.003288303153939265 0.003144695597397781 0.9956229809736558 0.001226197994305035 6.125434641479329e-06 0.001423137836680778 0.003584440992084846 0.001060194823459194 0.9939322263477752 0.9951237968743223 0.002685994811008978 0.0016861395285503 0.0005040687861184896 0.001872202121404287 0.001121215310284462 0.9961759832487784 0.0008305993195327874 0.001105665280826032 0.001986873103252734 0.003172575498998141 0.9937348861169231 0.007508272978922838 0.9901689837694451 0.002258589874190757 6.415337744131383e-05 0.9993924398040755 0.0002729748090089153 0.0001874265357962992 0.0001471588511191814 0.002572276121774916 0.001661716348345694 0.002926201013562149 0.9928398065163172 0.0003420007165260465 0.9993532514647077 0.000277964834289962 2.678298447632331e-05 0.0001418957493394342 0.0007772599486734821 0.9990001576460257 8.068665596137881e-05 0.9935494805902528 0.0005093401665859398 0.005609346597367363 0.0003318326457938956 0.001553988939809258 0.0002973392953856315 0.0007628648448530779 0.997385806919952 0.004744126111782572 0.004052157216204653 0.9903392416767287 0.0008644749952841134 0.001315793343103493 0.9957060213196951 0.00172390038779899 0.001254284949402387 0.005045934528099589 0.0002400589110802287 0.001679204453138343 0.9930348021076818 0.0003605222993692127 0.0002468731726890039 0.9989941213693504 0.0003984831585913349 0.006963251202587711 0.9923201033363477 0.0001997171042538277 0.0005169283568107929 0.9990198077026615 0.0001071832587199547 8.962812585813734e-05 0.0007833809127604127 0.001079733837985533 0.005080507178265199 0.001620579246255301 0.992219179737494 0.005817193056602577 0.0002503289172521692 0.9932630680316334 0.0006694099945117919 0.9917803720272284 0.001893617655262161 0.002477393839241513 0.003848616478267963 0.00236310193594448 0.996956245150888 0.0006064283272912962 7.422458587621713e-05 0.0007509050829468277 0.0002723604234024224 0.001279534831025565 0.9976971996626252 0.005655019462925999 0.9921076875276921 0.0009877282593013315 0.001249564750080549 0.004747934979032937 0.003158406823905881 0.992066620462296 2.703773476515252e-05 0.9925927629234926 0.003285768686820235 0.001271203190669058 0.002850265199018125 0.007283029593315977 9.995230319319506e-05 0.000697319800415953 0.9919196983030749 1.141784833997475e-06 0.9999926941260692 7.551459572612538e-07 5.408943139559767e-06 0.9979634953282382 0.001061187082750988 0.0008718197791860886 0.000103497809824654 0.005460286304053403 0.002217177587720206 0.9921764865217814 0.0001460495864449764 0.002649857775617564 0.001296780208961081 0.004252394534030859 0.9918009674813905 0.9973683742175884 0.002106853696046369 4.468879322532869e-05 0.0004800832931399406 0.002491133454593497 0.004779892725712733 0.9913275651614183 0.001401408658275463 0.0008433968518858488 0.9951083408702751 0.003702913742700709 0.0003453485351383842 0.003976226527104927 0.0007001358988954671 0.001002019487110056 0.9943216180868896 0.995017156446507 0.0001011331566966912 0.004460613912208846 0.0004210964845874398 0.0002126824854324574 0.9960437466960005 0.002312759135760091 0.001430811682806922 0.005797411769330268 0.0001089617865252128 0.9920105894223955 0.002083037021749062 0.9993351328862293 0.0002456233109496797 0.0001466616360280966 0.0002725821667928878 0.005606477261836951 0.9933211521176438 0.001019466306723593 5.290431379560766e-05 0.0004574746610409456 0.002271552540352511 0.997250044923697 2.092787490962176e-05 0.001541760212674814 0.001602655166859071 0.001696642771995999 0.9951589418484701 0.9965217631394768 0.0008113788004154133 0.002197961337155776 0.000468896722951933 0.001698258461761815 0.9982481859236739 3.150031951915359e-05 2.205529504515888e-05 0.000190011535988617 0.002529409232676815 0.0005521564832515926 0.9967284227480829 0.0009627210188956776 0.001497019414368883 0.9939259160122327 0.003614343554502755 0.9946382456009335 0.0001572841972212307 0.002100924192149619 0.003103546009695596 0.005510257419221285 0.0007115470492763637 0.9933303242392516 0.0004478712922507187 0.0002444405912233294 0.9996291930531683 0.000110470514556777 1.589584105152467e-05 0.0001426990506330843 9.16797528340929e-05 3.556674405455639e-06 0.9997620645221273 0.9943372007855438 0.005002948576939042 0.0002754367671493233 0.0003844138703678728 0.0006097973755085842 4.567452792720844e-05 0.9986801216434037 0.0006644064531604941 0.001920427495160415 0.001289355595980122 0.001949516302062111 0.9948407006067973 0.003313423426317486 0.9901238453321997 0.0008522251923594343 0.005710506049123469 0.9965952148916304 0.0003980624557775425 0.001959466580314339 0.001047256072277765 0.0003064403607236077 8.025794127458783e-06 0.0001177487216279892 0.999567785123521 0.005948015156604734 0.9932132285568765 0.0003058278792466799 0.0005329284072720529 0.002060650126930479 0.003880154411798737 0.9913211373661903 0.002738058095080455 0.9993581140270654 0.0002150311689837447 3.18898322488544e-05 0.0003949649717020224 0.001221074448542355 0.0003518782188826614 0.003413624370963062 0.9950134229616119 0.003413373624967121 6.432032844754743e-05 0.9958220733500055 0.0007002326965798271 0.003658324807202932 0.9956821002562414 0.0005591319493678381 0.0001004429871878227 0.001306701583213213 0.0004928336686120683 0.002367102590347713 0.995833362157827 0.001903544679780873 1.672009337352032e-05 0.9980693032372367 1.043198960884991e-05 0.002421530799258362 0.9964755648368819 0.0001927302953585996 0.0009101740685010946 0.99226623817062 0.007253173206166324 0.0001667269056037413 0.0003138617176098944 0.001406719502146804 6.886616143419911e-05 0.001178344877815973 0.997346069458603 0.005128516275211697 0.0002231630273842245 0.9943085663928966 0.0003397543045074706 0.996538910897257 0.0007308537556352196 0.001385546199384068 0.001344689147723672 0.003310451793943855 0.9966182206715105 3.302767519418903e-05 3.829985935139622e-05 0.0005425807233075411 1.826387446227188e-06 0.000920448918660194 0.9985351439705861 2.872646920558202e-05 0.992549462255051 0.003255337838576613 0.004166473437166826 0.000119966647364214 0.001856927983848041 0.997010553154328 0.001012552214459804 0.9922970058193965 0.002075455229794675 0.002364030489724541 0.003263508461084333 0.0001333956644248375 0.003254767525766139 0.002608794227623917 0.9940030425821851 0.004160056070009453 0.9909490558989245 0.001677298571600213 0.003213589459465917 0.9972881651905205 0.001406140945854859 0.0003298245828780638 0.0009758692807464876 0.0002907128637742356 0.0001918331267334904 0.9988637802900838 0.0006536737194084105 0.002507215579411063 0.002538053840541422 0.00120082911247258 0.9937539014675749 0.9909357492950849 0.002226030174919149 0.006179924999808822 0.0006582955301871005 0.002805818747770768 2.896561115088907e-05 0.9971610654451744 4.150195903981574e-06 0.008400259537948434 0.990026632798448 0.001079528384004077 0.0004935792795994572 0.001217192423901341 0.0007035334643128323 0.001583000996871618 0.9964962731149142 0.9967380468763847 0.003119724777077462 5.139219710783233e-05 9.08361494300844e-05 0.003156012785017642 0.990720981989047 0.001832533928061475 0.004290471297873914 0.001485117323965294 0.0001467662236445339 0.9977962104996827 0.0005719059527074339 0.9959065179544303 0.001354013664145027 0.0005450230370841568 0.002194445344340523 0.004914721146759187 0.992577750273824 0.001320116567292259 0.001187412012124594 0.001713449091643473 0.001798609060463484 0.9943253978671592 0.002162543980733788 0.009338596936734831 8.79761800574855e-05 0.0002747815956029879 0.9902986452876047 0.993310980775054 0.005006396728553493 0.001361943631358214 0.0003206788650343536 3.089448345605543e-05 0.9999321104037238 8.466252773513788e-06 2.852886004669567e-05 0.0004648475316631129 6.973058671173966e-05 0.0001711865184146718 0.9992942353632105 0.001331738494483765 9.239551244777143e-07 0.9986009117850643 6.642576532747578e-05 0.9913718889551597 0.002786154320372687 0.002729017083854693 0.003112939640612932 0.004867622418035152 0.001182145400776768 0.9916503609923432 0.002299871188844918 0.00147473820343595 0.9979473336600186 0.0004172774749399412 0.0001606506616054114 0.004336863062760476 0.00118475113443306 8.781837254776795e-05 0.9943905674302587 0.9910560968711617 0.003783755525168529 0.004039591149489118 0.001120556454180702 0.005054222310458177 0.00330387277874491 0.9907996366650536 0.0008422682457433534 0.0003979662442135772 0.007915711119733802 6.350659520296294e-05 0.9916228160408497 0.00240174158896906 0.9972959253232513 8.264007046653205e-05 0.0002196930173131379</probabilities>
		</cpt>
		<cpt id="V3">
			<state id="State0" />
			<state id="State1" />
			<state id="State2" />
			<state id="State3" />
			<parents>V2</parents>
			<probabilities>0.9991577269106363 0.0006525775417714944 0.0001243945442456935 6.530100334647978e-05 7.60749762683737e-05 0.9991577269106363 0.0006937529784142904 7.244513468100352e-05 0.0003165572018654127 8.934440078380632e-05 0.9991577269106363 0.0004363714867144487 0.0006715376887331478 0.0001472063599012377 2.352904072928211e-05 0.9991577269106363</probabilities>
		</cpt>
		<cpt id="U3">
			<state id="State0" />
			<state id="State1" />
			<state id="State2" />
			<state id="State3" />
			<state id="State4" />
			<state id="State5" />
			<state id="State6" />
			<state id="State7" />
			<state id="State8" />
			<state id="State9" />
			<probabilities>0.06166536752110172 8.271446146726902e-11 0.0004729293468210918 0.08090589189641854 0.1743364433456635 0.6782876967629564 1.076339807418358e-07 1.748390521796579e-43 1.247176720664383e-06 0.004330316233622943</probabilities>
		</cpt>
		<cpt id="V4">
			<state id="State0" />
			<state id="State1" />
			<state id="State2" />
			<state id="State3" />
			<parents>V3 U2 U3</parents>
			<probabilities>0.9943590846653113 0.0003878762676124191 0.001972245484967379 0.003280793582108855 5.291498209245039e-05 0.9999239599955739 1.112282186210456e-05 1.200220047155174e-05 0.003325050261160749 0.001133527864750325 0.9941273990194143 0.001414022854674605 0.0006616132744254358 0.003463038526392668 0.001410825325757155 0.9944645228734248 0.9980486761732248 0.001600980846927744 0.0003304249838451093 1.991799600230076e-05 0.009057279505841552 0.9905624164841175 0.0003403945958495925 3.990941419140651e-05 0.001269754048652587 0.0008637905477016123 0.0005319354157419262 0.9973345199879039 0.0047449454963425 0.003170475610951514 0.9909200618903752 0.001164517002330812 0.990308230710769 0.0079382650598865 0.001120080227231997 0.0006334240021124572 0.0008899115482890628 0.001534395635016197 0.9973098796047023 0.0002658132119924335 0.006410830714253481 0.9915345195153442 0.0004298922171889237 0.001624757553213434 6.510656271677254e-06 2.524578641317935e-06 1.713084446126605e-06 0.9999892516806409 0.9901136342491486 0.007525013551748034 0.001330423825501626 0.0010309283736018 0.002895221172080041 0.00186235651662287 0.9948079134031553 0.0004345089081418075 0.005906144150529187 0.00146922781772359 0.001505698111279753 0.9911189299204675 0.000516719500098698 0.997005191319599 0.0006887122276224692 0.001789376952679892 0.9913433650275664 0.008236896175150405 0.000258839998001704 0.000160898799281547 0.001031793343133959 9.058862053733955e-05 0.001240205351101219 0.9976374126852274 0.0005662006514433646 0.9981032955300769 0.0002429715656304063 0.001087532252849319 0.005526873885663194 0.001074106935475627 0.9924083558452989 0.0009906633335623174 0.9913403030526337 0.006796504768564782 0.0003984082537565355 0.001464783925045008 0.004508729507433236 0.002367459559015687 0.003028923677942769 0.9900948872556083 0.0001196566523540595 1.295961044248356e-05 0.9998566821468586 1.07015903448462e-05 0.0004156400380535691 0.997192965899598 0.0004319659621639654 0.001959428100184438 0.005988758870441931 0.0006533171223290396 0.001812263974346323 0.9915456600328827 9.062043843889223e-05 0.00385134878512589 0.994177412940038 0.001880617836397168 0.002827060442795123 0.9928280811336325 0.002746281900071757 0.00159857652350057 0.9969729046597557 0.000821203639974192 0.0009402660614623336 0.001265625638807693 0.004193795522620413 0.0003864882165353629 0.004859107405721931 0.9905606088551223 0.00377134670225231 0.0003461921068369231 0.99577837582023 0.0001040853706807254 0.9986758898139614 0.001268463126083441 1.378619877136092e-06 5.426844007801351e-05 0.005518338886715427 0.9920724719335867 0.001816494128034538 0.0005926950516633696 0.0004210346725451712 0.0001611164649495257 0.0001949566573171075 0.9992228922051882 0.006601224080675919 0.9913576024928363 0.002015129975025794 2.604345146197578e-05 0.0001967063522446059 9.630106563637467e-05 0.9996833543055605 2.363827655844304e-05 0.9957061534361287 0.0008338297222468531 0.002293098075730867 0.001166918765893604 2.814634900371589e-05 4.398959143557151e-05 0.0001173861937575193 0.9998104778658032 0.005591623135412705 0.9940016988953825 0.0001749154052898226 0.0002317625639149653 0.9932168582939725 0.001922935919353063 0.003178735497457389 0.001681470289217 0.004609088841071972 0.001654935036617017 0.9932806458272835 0.0004553302950274971 0.0007790075113337174 0.001366569644631599 0.0007554972821613689 0.9970989255618733 0.9983915481789906 0.0002902969506448262 0.0006869735918380845 0.0006311812785264849 0.002513365160076785 0.0006221562111241191 0.9925769905029168 0.004287488125882283 0.0009596490109027322 0.9988725369046706 3.604903089507631e-05 0.0001317650535316376 0.0007292167268458504 0.0002478290042626675 0.0003221213018717451 0.9987008329670197 0.9997380777215614 3.11656307815752e-05 3.890727079127587e-05 0.0001918493768656823 0.0009230114373795256 0.9987873794474188 7.226836816614066e-05 0.0002173407470355077 0.001683660201653073 0.001687229887269166 0.9930176311042879 0.00361147880678985 0.9970280598135478 0.0009594377711077423 0.001729418600300765 0.0002830838150436942 6.415580631707901e-05 0.9978163125974703 0.001992197607111441 0.0001273339891011928 0.000559984619355017 0.000880982265508828 0.9967767237660358 0.001782309349100442 0.0007844391497021311 0.0001951134750965809 0.001311757814377173 0.9977086895608241 0.9970329100841928 0.0004827638057740716 0.001140397458646821 0.001343928651386282 0.002615450259795743 0.9958735286987649 0.0004692213293021251 0.001041799712137228 0.0007739795075770343 0.001143519813832041 0.0003387190113315834 0.9977437816672593 0.0006389142835543144 0.0013679638727572 0.9955654886615473 0.002427633182141261 0.9967898752875179 0.002074655767021204 0.0005744846770821293 0.0005609842683787653 0.008128785840875879 0.0004118900358793869 0.9914402496228586 1.907450038617358e-05 3.717962764074378e-06 0.9993318168029824 0.0005371082606907432 0.0001273569735627879 0.001054027821383372 0.0008041553591602555 0.001888133798616484 0.9962536830208399 0.996390911158234 0.0004979754658327834 0.001471449440427897 0.001639663935505324 0.001190053642657988 6.018541770030112e-07 0.9987905317159712 1.881278719379194e-05 0.003032957314299435 0.0003355374491635656 0.0007904868312050184 0.995841018405332 0.001112487659098232 0.9981603015421379 0.0002721389631499208 0.0004550718356139342 0.9981775790924665 0.001679325356795416 0.0001372809360906209 5.814614647490872e-06 6.460318774038382e-05 2.438372309412094e-05 6.517176254595974e-05 0.9998458413266196 0.001604033095559709 0.9969617073375817 0.000160228662936118 0.001274030903922426 0.001412363181934348 0.001156557223878473 0.9967141867904469 0.0007168928037402916 0.9997382128405982 0.0001390643982985881 8.505221729549865e-05 3.767054380770275e-05 0.004316665352067905 0.001237589047019417 0.002541162560309777 0.9919045830406029 0.001365254768624508 2.186033624537861e-05 0.9986081791841879 4.705710942256915e-06 0.0004316903293588095 0.994818722223736 0.002366087903018633 0.002383499543886494 0.0003227269541223156 7.11448897657807e-05 0.0005821100830452029 0.9990240180730667 0.001486354511880977 7.50471144986927e-05 0.9979284210241869 0.0005101773494334668 0.004158966186110109 0.995730654197721 5.972289028284486e-05 5.06567258859923e-05 0.9941870187255155 0.001176671909267012 0.00162920924258256 0.003007100122634918 0.007729906231592126 0.0009641244557036636 4.512870409699335e-05 0.9912608406086072 8.48932948658305e-05 0.007577861355720407 0.9902169862355346 0.002120259113879259 0.9960757240381709 0.003060466255053165 0.00020682986644374 0.0006569798403322008 0.001076335493011581 0.9969064917080254 7.994269964213205e-05 0.001937230099320959 0.0003831015170606427 0.0001632173848176455 0.002105045501533975 0.9973486355965877 0.0008921837642684589 0.99066821249226 0.004289039099196478 0.004150564644275111 0.001949078854312637 0.002077556325044197 0.995936644913868 3.671990677519893e-05 0.9929349300464421 0.004393220537325894 0.001434025285923455 0.001237824130308586 0.005320931262316413 0.002037460508350437 0.001298884282064647 0.9913427239472685 0.001935435732571887 0.9963962923130144 0.001105620471383359 0.0005626514830302995 0.991420282771058 0.001284600024610087 0.002871882231790465 0.004423234972541518 0.004951251707621129 0.003855191306752387 0.9910326323978534 0.0001609245877730206 0.003285838008930615 0.001114450551698951 0.0006383033050353221 0.9949614081343351 0.9994924755392275 0.0002042736020468139 0.0002665757152831163 3.667514344260465e-05 0.002578291167669423 0.0009647262288242064 0.9958205170421839 0.0006364655613224844 0.000344094283620478 0.9945641564707031 0.001351001192356613 0.003740748053319848 0.0009420512398029049 0.001221635114005577 0.002281817603481716 0.9955544960427098 0.9961547032848463 0.002394157787792405 0.001280539051849284 0.0001705998755119822 0.001624666442095768 0.9940979654283394 0.002855041198800114 0.001422326930764779 0.001445929839379064 0.0004017079346938167 0.9980536754822137 9.868674371344029e-05 0.9912473807312718 0.0002631926288482306 0.005177191541958279 0.003312235097921687 0.001143237435055774 0.9984101748315806 0.0001989713401871148 0.0002476163931765765 0.0006094609256939805 0.004153981044705196 0.992594690857884 0.002641867171716855 0.0009543646183541746 0.00625030026522837 0.0004804736428885978 0.9923148614735289 0.9945773063179261 0.0003685816412697918 0.004610406186202069 0.0004437058546020844 6.635526008761498e-06 0.9963638229849933 0.0008003459547434599 0.002829195534254547 7.323266640181067e-05 0.0001462335139500643 2.669801207119896e-05 0.9997538358075769 0.001876323032299761 0.003117321526190676 0.9906910824730226 0.004315272968486916 0.9901309102222328 0.005251671213758555 0.0009165162530418067 0.003700902310966822 0.001640817302672212 0.0004008551622771195 0.9962875869849146 0.001670740550136073 0.002343160018754049 0.9973493402262745 0.0001638090625512372 0.0001436906924201413 0.001414971084460087 0.002164523309979683 0.0003575120408090748 0.9960629935647511 0.9903919848999444 0.009484295731041347 0.0001087544244903402 1.496494452395422e-05 0.002201961563715511 1.966948244243178e-05 0.9965619634501778 0.001216405503664226 0.00287600176038175 0.000687929615476552 0.005651854590981336 0.9907842140331604 0.004466124059518601 0.9915841313346212 0.001372448025767991 0.00257729658009225 0.9934831719438546 0.001020277485542845 0.004719372935137985 0.0007771776354645625 7.970211570331881e-05 2.867161247013757e-05 0.0006792894830893026 0.9992123367887372 0.008023928752643654 0.9908385469192271 0.0006422400162334454 0.0004952843118957771 0.004946448766632615 0.000748615724985899 0.9937541652597731 0.0005507702486083246 0.9989266523096403 0.0002287493437328232 6.162814312066044e-05 0.0007829702035062336 0.006188898161361124 0.001767913406381805 0.001163387434848227 0.9908798009974088 0.0005262574785282597 0.000314395917906761 0.9987488870677997 0.0004104595357652373 0.004435900463542745 0.9949541548173744 0.0002208491141843028 0.0003890956048986088 0.008080697678429562 0.0005347550124084931 0.000748074178849467 0.9906364731303124 0.0003984719151650683 0.0004247435172050919 0.9987597701891009 0.0004170143785289879 0.004078794407226605 0.9937524148769011 0.0003201866986437793 0.00184860401722844 0.9915597394951569 0.0003750160141100129 0.00253717047984651 0.005528074010886602 0.002083505919645797 5.108914770208216e-05 0.001492499440360988 0.9963729054922912 0.004469514539829178 0.001502540891720314 0.993519903405382 0.0005080411630685026 0.9983516051351008 0.0004438603298408803 0.0001918804298646896 0.001012654105193666 8.458898144193769e-05 0.9998425144028424 8.163117775652954e-06 6.473349793993221e-05 0.0009450939707508333 0.0005027819515661385 0.0008280103568638439 0.9977241137208192 0.001172071600682198 0.9920409749621406 0.005780101324759167 0.00100685211241807 0.0004093689872681342 6.874442957950339e-05 0.9994961200400586 2.576654309375806e-05 0.9949036934000067 0.003275427150030533 0.0007597328164085642 0.00106114663355415 0.008096066815170409 0.00074114940226822 0.0004235512304768666 0.9907392325520845 0.001044123937896444 0.9972100220795342 0.000447433095815067 0.001298420886754218 0.9929012011728954 0.001727915223458745 0.003652795073362365 0.001718088530283517 0.001419969265714399 0.0001544626981408226 0.9981578321299039 0.0002677359062408745 0.0008889972933982521 0.003877271427447495 0.002005562651525602 0.9932281686276286 0.9914845083079666 0.006944384302965067 0.0005353183683093606 0.001035789020758932 0.004336851582439507 0.00315017239288125 0.991858045468972 0.0006549305557071797 0.007568813904784018 0.9901804815787348 0.0005508242107272974 0.00169988030575389 0.004959484654777267 0.0007362274299219332 0.004255414489552341 0.9900488734257484 0.9975256293606697 0.000687217487670677 9.664957300583053e-05 0.001690503578653821 0.002170688163377818 0.9967852069188656 0.0005812049295517233 0.0004628999882048003 0.00538171769277446 0.000404501747861228 0.9941563910761346 5.738948322966221e-05 0.9970633476168255 0.002642047619494805 9.429217353786072e-05 0.0002003125901418273 3.140075141950476e-05 0.9914941468329196 0.007231078525239358 0.00124337389042157 0.001384897028019867 0.0002955593559999105 0.9973886374752198 0.0009309061407604636 0.001295321972748454 0.0004750927714827442 2.300748902704793e-05 0.9982065777667417 0.9954951822290028 0.004002429018313752 0.0002182362841754829 0.000284152468507999 0.0001400120121443986 0.9998407643671093 5.057386303438224e-06 1.416623444282727e-05 0.004361013422936221 0.004042035405211037 0.0002007570276386294 0.9913961941442141 0.0003583906258489372 0.0003193820974139039 0.9991028243209074 0.0002194029558297911 0.9985522880725298 7.203152722521175e-05 0.001100960585395865 0.0002747198148491169 0.002353646878619033 0.005973957616560104 0.9915468705888612 0.000125524915959678 0.001569125080611344 0.9976329254412067 1.524046258116107e-05 0.0007827090156007408 0.004606588323753447 0.0006950609640779207 0.001651038485556222 0.9930473122266124 0.9945312368558759 0.0004138374872644081 0.004500087039579491 0.0005548386172802748 0.00108578995531941 0.0006067837246596213 0.9932333072614888 0.005074119058532127 0.0003700954938544816 0.001835271206604429 0.006826611969164234 0.9909680213303769 0.006547687413573858 0.9909655840514715 0.0006359539010976253 0.001850774633856978 0.9911965435499265 0.0003749588269890963 0.006380580282568031 0.002047917340516407 0.002987627094135081 0.006102628948111436 0.000879470262922062 0.9900302736948314 0.000993927922562574 0.9985664946460854 0.0003740311318097884 6.554629954226787e-05 0.004155341361477623 0.000857331291590853 0.9946909422283142 0.0002963851186173485 0.9984776760535738 0.001509204685453438 2.131926046852669e-07 1.29060683679762e-05 0.0004584403140905396 2.622396985495116e-05 1.779605927769623e-06 0.9995135561101267 0.004364784252065124 0.0005301094560855501 0.9936422879445364 0.001462818347312972 0.008490210042620731 0.990332446343975 0.000886975840517081 0.0002903677728872246 0.005699260554539533 0.000500344994718057 0.001099296466844453 0.9927010979838979 0.001586315862930981 0.0004404097506515525 0.9977053798072159 0.0002678945792016294 5.553790796936651e-05 0.9997379021881526 0.0002009103945258881 5.649509352078107e-06 0.9950409453355957 0.0008575919037493754 2.876059516479693e-05 0.004072702165490093 0.001580296190446076 0.0005594055477900132 9.275259510008334e-05 0.9977675456666638 0.002763281379202478 0.001556542608464359 0.9953717088652788 0.0003084671470543596 0.9959312330013106 0.002965744057901891 0.0005487448994749971 0.0005542780413125328 0.002020511066600221 0.9939083432579002 0.00388318795665073 0.0001879577188488271 0.003757657724761862 0.003125114143448177 0.002568628913997874 0.990548599217792 0.006133610924019928 0.9918740159025971 0.001851554695119521 0.000140818478263503 0.004695035943523135 0.003529812720988127 0.9914569199986843 0.0003182313368043956 0.9941341111439222 0.003317511191853956 0.001752728879162263 0.0007956487850615361 0.001270534794441507 0.0002092665777677229 0.0007356209147429855 0.9977845777130477 0.0007233685798609876 0.9977974181433951 0.001209256088735838 0.0002699571880081584 0.9964988874039346 0.002934971252123306 0.0003949243225143446 0.000171217021427762 0.0001225576505395892 0.003917396560095274 0.9920465365643659 0.003913509224999258 0.006955483342123466 5.752112810495096e-06 0.0006159344351023959 0.9924228301099637 0.9904253274986458 0.00191987355893793 0.0005864053300144241 0.007068393612401903 0.002718964106363189 0.004626531441537608 0.9908533204911776 0.00180118396092157 0.0005389349173602805 0.9988315229663653 0.0005163302999462899 0.0001132118163281023 0.001461038782353942 8.121182390450954e-05 5.968412579617535e-05 0.9983980652679454 0.9938852044157928 0.0002159415602200039 0.005781773325062741 0.0001170806989244794 0.003840884307525724 0.992686600614812 0.003410928115872601 6.158696178972228e-05 7.838203033252327e-05 0.000136504194603287 0.9996114379394012 0.000173675835663018 0.991231106790784 0.001623658514224665 0.00599609173073535 0.001149142964255962 0.006810229072031754 0.9923377877771593 0.0003786643708283393 0.0004733187799806195 0.0003083344328479057 0.00014406056264559 0.9962530217959641 0.00329458320854243 0.001054616429416242 0.001447728005659215 0.0007973919696994708 0.9967002635952251 0.9925654419018511 0.007360199441556776 4.496022915266683e-05 2.939842743944985e-05 0.0008082590454259744 0.9991856170395853 2.895007486464164e-06 3.228907502281653e-06 0.001912456554447665 8.588895360450981e-05 3.158012624897299e-05 0.9979700743656988 0.004158649223976457 0.000594506235115915 0.9949612667513613 0.0002855777895462607 0.9988278616470941 0.0003055249701642156 0.0002949463807603501 0.0005716670019812748 0.002514691561278836 0.003297688358643557 0.9916297727819291 0.002557847298148558 0.001698769099891873 0.9972384383290217 0.001008607825039543 5.418474604690793e-05 0.003030926700790657 0.001436245521219887 0.0004041398168914982 0.995128687961098 0.9999482835004116 2.955033940717021e-05 6.28399929211209e-07 2.153776025202199e-05 0.004380635016634915 0.003383655407792668 0.9917475479077889 0.0004881616677835641 0.0007693285969153029 0.0007961630863219544 0.0002162184894724779 0.9982182898272902 0.005714556710617251 0.9923180755576632 0.001215059503409434 0.0007523082283101804 0.9943129056558054 0.001915640224663748 0.002183581258261698 0.00158787286126912 0.0004077402890344452 0.0002493445828240046 0.003633187424103655 0.9957097277040379 0.0006660686894467608 0.9947101112374058 0.002372106834834924 0.002251713238312542 0.001263270952896174 0.0008956293597476494 0.9971817071114588 0.0006593925758973873 0.9958723020146172 0.002675877355418009 0.001378773202102204 7.304742786264735e-05 0.0007537446660343266 3.658126464155206e-05 0.0002561594039955156 0.9989535146653286 0.0007109131209282576 0.0003318422074221687 0.9981778753445517 0.0007793693270979074 0.002338938164539444 0.9962987701536997 0.0007793471863291643 0.0005829444954316803 0.003010487203561579 0.001540503245575693 0.001113057599168873 0.9943359519516939 0.007450742972529268 3.036907124179467e-05 0.9918029730340622 0.0007159149221667305 0.004745290310068245 0.993560283212519 0.0002719607933089101 0.00142246568410383 0.9938118613336562 0.005978235826434989 8.509521746868958e-06 0.0002013933181619737 0.004025332767158951 0.0001088786008952389 0.000111734530944746 0.995754054101001 0.003050198548116763 0.001450529876050886 0.9900667725800031 0.005432498995829252 0.9995149009525078 0.0002825332902474338 3.945888717205149e-05 0.0001631068700726405 0.0002108788731483834 0.9981363993809077 0.001601001128198959 5.17206177450037e-05 0.004045803267372171 0.001964312605591876 0.0004217520870783567 0.9935681320399576 0.004993894998570669 0.9922423423782032 0.0003037955150312048 0.002459967108194981 0.00264511393168314 0.002189634556984702 0.9922214832838003 0.002943768227531798 0.9940923399865513 0.005769665328845863 4.113333314137207e-05 9.686135146145961e-05 0.003862714474251659 0.0001909584286518039 0.0002954694592714954 0.995650857637825 0.0004559077330996471 0.9992892724312979 0.0002119827962144847 4.283703938791019e-05 0.9998625765339088 4.258412094906488e-05 3.74764991602883e-05 5.736284598190671e-05 0.003105908608936802 0.001935668503574139 0.9945902221400712 0.0003682007474178825 0.0007266466267833991 0.0002423264326661984 0.001436320555489222 0.9975947063850612 0.9995703874888245 0.0002263945002409417 0.0001701357575821579 3.308225335230488e-05 0.002043844099981352 0.0001950658420913002 0.9977123873280166 4.870272991078887e-05 0.001155572491888922 0.9945036848415928 0.002564647879672154 0.001776094786846145 0.002610019096057428 0.001159038952141431 0.0001156381019699958 0.9961153038498312 0.9939514975123894 0.005863818569262271 6.342100706603218e-05 0.0001212629112823024 0.001244168440316928 0.9904153217690335 0.002482396285392164 0.00585811350525745 0.0006179265872875313 0.0005521944040892137 0.9987039054958302 0.000125973512793023 0.9907244827702388 0.008099199051062454 0.0003014207268751151 0.0008748974518236013 0.0002653766789243302 0.9940472570684259 7.434624167186951e-05 0.005613020010977922 0.002108614640948088 0.0007601613790400122 0.9933869558265468 0.00374426815346506 0.0004056691493567351 0.001587550537215441 0.002313139863428348 0.9956936404499995 0.999296745883261 0.000118584986465527 0.0002547853795357453 0.0003298837507377428 0.0003476714104124496 0.9951984035130945 0.001583134945417626 0.002870790131075364 0.0004571882123062603 0.002848563611419661 0.001504979021951486 0.9951892691543226 0.004006719651239282 0.001930602919777953 0.9934918965432592 0.0005707808857235612 0.9999154504793523 2.22363294461759e-05 8.849073055397733e-06 5.34641181461695e-05 0.006517893959049486 0.001025862740043021 0.9917974030916551 0.0006588402092523782 0.00927662161067698 0.9900370799444401 0.0006765984062506625 9.700038632287546e-06 1.123846531345026e-05 0.001114944473575491 0.0009314525653960296 0.9979423644957151 0.9917732541605494 0.004520211906944281 0.0008138774110378923 0.002892656521468429 8.198688974338634e-06 0.001403870032110571 0.994288597445495 0.004299333833420036 0.002233382888475127 0.002363157165191067 0.00266936120176597 0.9927340987445679 0.0005632712983120062 0.9934521633922736 0.003069095140572956 0.002915470168841428 0.9942585635313625 0.002954446686861237 0.0008973537693658702 0.001889636012410364 0.005137996116172991 0.002096264978830862 0.00152029606109843 0.9912454428438977 0.006501610114214814 0.9913317151871612 0.00208291141667682 8.376328194708215e-05 0.0001500893713545662 0.0002451570080086418 0.9994730452039972 0.0001317084166396717 0.9988478310657436 0.001042958035496891 0.0001031911751937607 6.019723565768727e-06 0.002142134669355436 0.005221394917076792 5.965258951602485e-06 0.9926305051546161 0.005118041328531503 0.002589705060957204 0.9900913590652204 0.00220089454529089 0.004292421451518217 0.9908149137080818 0.0007680489986554437 0.004124615841744517 0.0009384033777465402 0.003063085931779817 0.004104136245154495 0.9918943744453191 0.003323127083260309 0.001016361480249345 0.9940271688004357 0.001633342636054623 0.001561153507236273 0.9968665676885061 0.001253206179575091 0.0003190726246825582 0.9960975516905345 0.001898238674470485 0.001623819989565604 0.0003803896454294537 0.005440044029993507 0.002002175339651317 0.0008359074325176245 0.9917218731978376 0.002094824037940396 5.791902822702488e-05 0.9978431031646349 4.153769197748287e-06 0.9959707603374308 0.002506458038664328 0.0006694843978472611 0.0008532972260576201 0.004326760645807478 0.9941723000620223 1.083823294229474e-05 0.001490101059227918 0.005054942138470716 0.001022695864900854 0.0002309121688539827 0.9936914498277745 6.747273187588342e-06 0.9994603059046364 0.0003504610505806349 0.0001824857715953688 0.0009429123449918087 0.0002191473891501516 0.9987572155045054 8.072476135265297e-05 0.9985226926069847 0.000377470386686361 0.001083431490291063 1.640551603795059e-05 0.0030867446286564 1.235255743348399e-05 0.001129877949929991 0.9957710248639802 0.003926564353182044 0.9913073610308508 0.0001762717183176458 0.004589802897649483 0.9958114774934003 0.003391817769139223 0.0007823662319968082 1.433850546372331e-05 0.0003198061675651872 0.003232959518461896 0.9963775064939903 6.972781998263724e-05 1.7589302045315e-05 9.921566187818798e-05 3.791481625254506e-05 0.999845280219824 0.9907523097319378 0.005637261037293772 0.003184809293971095 0.0004256199367973358 0.001662878986684559 0.0006155184689864771 0.9959332042992413 0.001788398245087699 0.004760422029417787 0.9919536277501531 0.0008463267757504432 0.002439623444678722 0.003988843769269497 0.0003051992808830045 0.001798089712619111 0.9939078672372283 0.9932329204159582 0.003446472327434483 0.002000405230375819 0.001320202026231446 0.005338618591201756 0.990325741577024 0.002197456040863061 0.002138183790911163 0.005444507554277227 0.001545570740299202 0.9929290006806121 8.092102481154265e-05 0.9904231674666144 0.008970545343668658 0.0003842066656837624 0.0002220805240331539 3.608482792075835e-05 0.9995397511914097 0.0003860925424546334 3.807143821486721e-05 0.0002730104234310605 0.002328015063109941 0.9969544946823929 0.0004444798310660539 4.983445516220468e-05 9.534436084434167e-05 0.007885153049346123 0.9919696681346474 0.9963175470401043 0.0001527023655374834 0.00287896952540345 0.0006507810689547425 0.004621311687545487 0.9933237340622764 0.001018673235486831 0.001036281014691299 0.0009338080286110138 0.001484969061521252 0.000231784517475167 0.9973494383923925 0.0032666174079243 0.001201343008466702 0.9939348903910545 0.001597149192554461 0.9902322530837067 0.004507571735096097 0.002504837773360715 0.002755337407836531 0.003344962608229658 0.001006678537860662 0.9942002534227552 0.001448105431154502 3.741315310738993e-05 0.999731593757197 0.0001012815725300699 0.0001297115171655744 0.001292584188601931 0.0009245062984361519 0.00265393845130562 0.9951289710616563 0.9932544370295436 0.006428238984216235 5.860727404067365e-06 0.0003114632588360513 0.001818792159501312 9.479391216350674e-05 0.9974237064164078 0.0006627075119274288 0.002045405456937094 0.0006732098768759063 0.0003720604875540734 0.9969093241786329 0.005476272953705978 0.9942089317268974 7.717402027925774e-05 0.0002376212991173457 0.9969059792068352 0.0006839183786357062 0.0002085716352102405 0.002201530779318892 0.001133927484720251 0.0001886312795399204 0.0001350555888857984 0.998542385646854 0.007331069081130182 0.9913828253946716 8.42174918805474e-05 0.001201888032317687 0.001876382856078437 0.0004512428355449879 0.9969926602229345 0.0006797140854420645 0.9996984686503261 0.0002797132791538428 2.258259585333006e-06 1.955981093469561e-05 0.004015771935095565 0.003512184815246944 0.001661570382302153 0.9908104728673554 0.001379947622106906 0.004007621286952368 0.9930085262442714 0.001603904846669291 0.00282746751356063 0.9967913344357319 0.0003219989775248075 5.919907318271766e-05 0.001532827458973665 0.005689092878637514 0.0009052713981426248 0.9918728082642462 0.0009693814371520923 0.0008784999417874368 0.9967723664324837 0.001379752188576798 0.007947273249196521 0.990004605872748 0.0004821494997331874 0.001565971378322339 0.9912374033813712 0.008291104223108008 0.0002630989630045475 0.0002083934325161906 0.002346513495701933 2.322371809291095e-05 5.09297743158469e-05 0.9975793330118893 0.002253852961627504 0.001126512734318802 0.9936536156472109 0.002966018656842863 0.9932427968952825 0.005441726380357506 0.0008452794063668293 0.0004701973179932022 0.0005063587934794253 0.9904886093877661 0.008585458515577699 0.0004195733031768494 0.002673933396606003 0.002423321607044522 0.002659888670524805 0.9922428563258247 0.004331620598250073 0.9924296885681544 0.0002248609559570692 0.003013829877638453 0.0008764746016761013 2.830388305454138e-06 0.9986335784610859 0.0004871165489324812 0.9915933803576641 0.001253334585710908 0.003749960842147839 0.003403324214477203 0.00246391107091636 0.002401638506506985 0.000625707094203887 0.9945087433283728 1.47628545384656e-05 0.9994939151311397 0.0003705772026961281 0.0001207448116256834 0.998049445976898 0.001035840387899783 0.0004699151384506627 0.0004447984967515391 0.0006261861943776967 0.003783656720122778 0.9921660742620184 0.003424082823481088 4.124302989808588e-05 0.0001072747093102417 5.894568653335535e-05 0.9997925365742584 0.9928249174296514 0.002524852320824108 0.001524209698499053 0.00312602055102545 0.001207483675740153 0.00318389879306247 0.9926857441913445 0.002922873339852877 0.0003078130259347175 0.9982698503669211 0.001350708764203278 7.162784294094458e-05 0.0006363415585531349 0.0008792821821653916 0.0004419214535619114 0.9980424548057195 0.9942039699695677 0.0001523762670312434 0.003464653555825003 0.002179000207576076 0.0005864055911603823 0.9990862540978036 0.0002394760235986617 8.786428743735267e-05 0.004598640958973299 0.003444526284230161 0.9908023433139148 0.001154489442881738 0.9979482821242589 0.0009743917376499312 0.0001141170509552178 0.0009632090871359104 0.003470905187078872 0.9937288762749942 0.0003015043346497183 0.002498714203277204 0.0003808062080352175 0.001213010443472537 0.9955189147464222 0.002887268602070067 7.378608214699635e-05 0.0006976195947364096 0.0004574243357311165 0.9987711699873855 0.9911132758305204 0.004026712312544887 0.003695328804616399 0.001164683052318221 0.003071305116207206 0.9921640498253704 0.0007077919046535386 0.00405685315376879 0.005117708736677939 0.003668648203387293 0.0001359475419793412 0.9910776955179554 0.0007182556508493397 0.0004544282702987458 0.9950163336184947 0.003810982460357159 0.992358563087969 0.006101817710564325 0.001053223939790672 0.0004863952616760111 0.003173212537117803 0.0002518851863637554 0.99096567842528 0.005609223851238383 0.004420970551790952 0.9941441519028074 1.742378913720859e-05 0.001417453756264439 0.001499147274839903 0.0004532865387276446 0.0001648393241536433 0.9978827268622789 0.9934444510242172 0.005697279137994186 0.0001937364524732845 0.0006645333853153917 0.0002080992124797389 0.0002052608725497357 0.9995784012862834 8.238628687117541e-06 0.0001034145432462787 3.906851359272875e-05 5.166281949970306e-05 0.9998058541236613 0.0007334019508899092 0.9903968037478836 0.008202765399375601 0.0006670289018509083 0.9953016995923317 0.00221600011459064 0.00141008100293303 0.001072219290144614 0.003615131869475119 0.001297063331015527 0.001587595579234425 0.9935002092202749 0.0002188325487505741 0.9968095432508647 8.572660361285176e-05 0.002885897596771907 0.005584799483155444 0.001954255141391554 0.9923449472745376 0.0001159981009154587 0.9970871560462501 0.0003980466292666011 0.0004207698731227408 0.002094027451360545 0.006085102669622611 0.00173876222028124 0.0003142808143611923 0.9918618542957349 0.007590344656540681 0.0003801281592907073 0.991781294411279 0.000248232772889588 0.0001137674181057435 0.9990069474221368 0.0006189715726341379 0.0002603135871232612 0.005617507848293862 0.001112295005036452 0.002253880474096345 0.9910163166725734 0.009683351119978836 0.0002373944708981988 0.9900025163241131 7.67380850098569e-05 0.003541308095778531 0.9925979385217402 0.000426819056479512 0.003433934326001754 0.9946195843811725 0.002726545439112536 0.0009227815871479313 0.001731088592567049 0.0008977990958799206 0.003432372108991044 0.002422420482334396 0.9932474083127947 0.003120440835029448 0.006400830911388617 0.9900927945054856 0.0003859337480963797 0.9993275074707824 0.0002396600664561668 0.0001926434876220069 0.0002401889751394351 0.001362978862984293 0.9985201025308416 8.767047450164392e-05 2.924813167253436e-05 4.586989778411703e-05 0.0006867194806155996 3.221623027819197e-05 0.9992351943913221 0.007112676227885505 0.9909065634625186 0.0003859166928243894 0.001594843616771517 0.006861287679149383 0.001083030478994083 0.9902837378785543 0.00177194396330229 0.9957131714095949 0.002832899832086175 0.000186045732167339 0.001267883026151536 0.001072212722754584 9.740262798280908e-05 0.001193071257765837 0.9976373133914967 0.003687562277457796 0.9935529936599072 0.001641130564253338 0.00111831349838167 0.9938976437820461 0.002224023244028659 0.001602564475466485 0.002275768498458658 0.0001219038177539805 0.0003049513626371117 0.9987162159348993 0.0008569288847095529 0.006314840584802217 0.0005002395818265242 0.0009634309984662534 0.992221488834905 0.9991772342479747 0.000665993363596381 0.0001235792901728354 3.319309825608425e-05 0.0005744328424941862 0.002585374695288686 0.9941886770834958 0.002651515378721317 0.0007585813987390822 0.9954420837244674 0.001075839105173314 0.002723495771620217 0.001799120317955067 0.004530438830357506 0.002066000191801054 0.9916044406598864 0.9938186205769893 0.003789555144768087 0.001218067499513586 0.001173756778728944 0.003286620972267293 0.9960250562169454 0.0005927525865909059 9.557022419641361e-05 0.0006852612977576576 0.001019150807416441 0.9981101944378729 0.0001853934569530304 0.9911390215002496 0.002837475548396326 0.002456666437962758 0.003566836513391345 0.002964925547885889 0.9963424444050142 7.949529602494986e-05 0.000613134751074925 0.005275857638057715 0.001304740793147623 0.9917618777588399 0.001657523809954683 0.002060165633412919 0.0001407822749389128 0.0004136997214286385 0.9973853523702195 0.9956237184011804 0.004183125030819923 0.0001928837365083086 2.728314913854289e-07 0.0001709874789259042 0.9932489691189545 0.006098807499916129 0.0004812359022033884 0.00111792671489688 0.0008132882540803324 2.049684558284338e-05 0.9980482881854399 0.0001887728258235238 0.001949025598261076 0.997487302948697 0.0003748986272183261 0.9950588978947121 0.002840478300193038 0.001529394540228859 0.0005712292648659793 0.0001460937164783448 0.0001460175517894284 0.9996672795161855 4.06092155466994e-05 0.007233243127923172 0.9909640042882695 0.0004615490798390202 0.001341203503968379 0.001310030328675099 0.005539814904086618 2.825329331804845e-05 0.9931219014739202 0.9999155912687124 2.346350030784706e-05 1.084954055686359e-05 5.0095690422869e-05 0.003153866850952886 0.006224486793229148 0.9903708594441699 0.0002507869116480854 0.004206937260043957 5.516071525889508e-05 9.276075517384419e-05 0.9956451412695233 0.000272200619577828 0.9982579744601051 0.000522537109696915 0.0009472878106201428</probabilities>
		</cpt>
		<cpt id="V5">
			<state id="State0" />
			<state id="State1" />
			<state id="State2" />
			<state id="State3" />
			<parents>V4</parents>
			<probabilities>0.9928507337322521 0.004661985088989754 0.0001726766148950888 0.002314604563863051 0.002970894586921361 0.9928507337322521 0.002638133390730735 0.001540238290095799 0.006489077081484465 0.0002222439745441835 0.9928507337322521 0.0004379452117192459 0.004216787130640493 0.001994140227796788 0.0009383389093106142 0.9928507337322521</probabilities>
		</cpt>
		<cpt id="U4">
			<state id="State0" />
			<state id="State1" />
			<state id="State2" />
			<state id="State3" />
			<state id="State4" />
			<state id="State5" />
			<state id="State6" />
			<state id="State7" />
			<state id="State8" />
			<state id="State9" />
			<probabilities>4.843150718790916e-13 0 1.677818854889671e-09 0.06237638810712717 0.01334429254907668 0.0004451223694485987 8.713036427608269e-05 0.01081206602786671 0.9129349989039015 7.924125489827458e-18</probabilities>
		</cpt>
		<cpt id="V6">
			<state id="State0" />
			<state id="State1" />
			<state id="State2" />
			<state id="State3" />
			<parents>V5 U3 U4</parents>
			<probabilities>0.9932381075978124 0.002975839637492855 0.002817685522456442 0.0009683672422382602 0.0007514915738852662 0.9948055735973558 0.001471940212849817 0.002970994615909088 0.002057043548653916 0.0007891592704410254 0.9960063859009245 0.001147411279980595 0.003563689116352083 0.0003273154208304045 7.583585614323265e-05 0.9960331596066743 0.9949024013606089 0.001072564005990574 0.003435825701391117 0.000589208932009434 0.003757161068466514 0.9957057099986323 0.0005223312800588503 1.479765284231058e-05 0.00170994046823246 0.001233421215962603 0.001280900507085489 0.9957757378087194 8.013788361089304e-05 0.001561773327146683 0.997618004010648 0.0007400847785944025 0.9920535684005179 0.0008660157157124033 0.004867084053821812 0.002213331829947825 0.0001791026992873466 0.0006948587926848594 0.9981194128295557 0.00100662567847208 0.00284198322320542 0.9930617995553498 0.003408942086551939 0.000687275134892825 0.001350702072554217 0.0003355231064282964 8.056581634113499e-05 0.9982332090046764 0.9914795262604283 0.003865163871236277 0.002158569798828539 0.002496740069506796 0.0006084294565162616 0.0006235088327096088 0.9946807927602364 0.004087268950537828 0.002877759501249843 0.0002032877968937411 0.000895051900753669 0.9960239008011027 9.16061227315127e-05 0.9995406212075981 0.0003265252535013261 4.124741616905219e-05 0.9930583281726172 0.005950470406217391 0.0004421584889619931 0.000549042932203459 0.00763921268848665 4.3902552352254e-05 9.114231039475782e-05 0.9922257424487664 0.001208724751821819 0.997465275519428 0.0007251885099610589 0.0006008112187891232 0.002455799356302429 0.0009263543702579272 0.9926648598574462 0.003952986415993393 0.9903820738787965 0.004197915724292193 0.002801580184001946 0.002618430212909308 0.003876102995742627 0.0002606202299500232 0.0006271057528653612 0.995236171021442 0.0007162829415873804 0.0001451757057511472 0.9981601447615746 0.0009783965910869388 0.00391927520681718 0.9943557802562171 0.001110652062842031 0.0006142924741237195 0.0001244864034356197 0.004771703029215992 0.004345186533619907 0.9907586240337285 0.003001035349807107 0.002085857977966372 0.9922079915456032 0.002705115126623273 0.003736941384976008 0.9932751984545903 0.002156248700506952 0.0008316114599266813 0.9971342647401769 0.001620785411620468 0.0002909734893648278 0.0009539763588378463 0.002901921362418993 0.002443413083902746 0.00108423791394901 0.9935704276397292 0.003212103356602926 0.0003031853800909273 0.9961321972466212 0.0003525140166849475 0.9979876123055929 0.0002089166100026222 0.001011211200663516 0.0007922598837410049 0.001017219693997562 0.9950268473123928 0.002267689084879254 0.001688243908730451 0.004824424820473215 0.000620880144117895 0.0007499979054405438 0.9938046971299683 0.001915422292292633 0.9979426012271633 0.0001274432574601518 1.453322308388706e-05 0.0001599464380607515 0.0001559332685947741 0.9972179822613046 0.002466138032039845 0.9947268407416082 0.004423496837084325 0.000462042415736352 0.0003876200055710581 0.003148050647052759 0.0005267016872679323 0.0004017035409519206 0.9959235441247274 0.006303391349286636 0.9917681815883321 0.0009340185739614834 0.0009944084884197938 0.9957745424511345 0.0004718298344180454 0.003030343822868957 0.0007232838915785028 0.007686133993745686 0.0003007497563657968 0.9918600856569398 0.0001530305929487275 0.00287490307404671 0.0002102729584925644 0.0001999109447798171 0.9967149130226809 0.9946480488594081 0.001029456570492835 0.002678177133618736 0.001644317436480424 3.122051747704466e-05 7.641864847304791e-05 0.9998630848992751 2.927593477478554e-05 0.003417204933706932 0.9960280603108224 0.0003394104201395213 0.0002153243353311806 0.0001241670681254959 0.0005842659925672305 0.0001034184367398278 0.9991881485025674 0.9992201628155636 0.0006153678584941206 0.0001084717335278476 5.599759241440113e-05 0.003516095377565575 0.9946961254635074 7.690829216840151e-05 0.001710870866758661 0.003968769980554649 0.002659367371436387 0.991685278042608 0.001686584605400998 0.9951780223607574 0.0003695580831820411 0.00292453829609682 0.001527881259963726 0.0006460435666351595 0.9980513788249821 0.00127507369758072 2.750391080200056e-05 0.001177256428161197 0.0001250842647023457 0.9986464434796221 5.121582751442145e-05 0.000431647086196773 0.002514264105799813 0.004221824193945336 0.992832264614058 0.9978658251151524 0.0009796001581080798 1.2762849470077e-05 0.001141811877269417 0.0004639417730939111 0.9969467168357111 0.002175286335323108 0.000414055055871815 0.0004288243119855835 0.0001224394286372054 6.309736888985228e-05 0.9993856388904874 0.003294874312878157 0.003347600611755471 0.9930541464629739 0.000303378612392552 0.9927421611412992 0.0003924974197030384 0.003922370465017531 0.002942970973980207 0.001649016401262464 0.000658218431139634 0.9960519163345712 0.001640848833026674 0.004408269460897931 0.9941633250935572 0.0008693110694166646 0.0005590943761281888 0.001725719486331304 0.0005770684201103392 0.007561621460579551 0.9901355906329788 0.9945333227136687 4.673342369498545e-06 0.003485332582092398 0.001976671361869372 0.001399805387052978 0.0006608558651816772 0.9976874812621686 0.0002518574855967685 0.002087238525783055 1.036791356199799e-06 0.0002231352718547331 0.997688589411006 0.001758825490077342 0.9947989182869532 3.135504370077726e-05 0.003410901179268627 0.9941568251203621 0.002868017033184028 0.00155695893767112 0.001418198908782741 0.007140579399755992 0.0002931542065639417 0.0001247587354297855 0.9924415076582502 0.004303896084957265 0.9939307757455716 0.0005387526076179283 0.001226575561853161 0.0006031429032239495 0.003316897783450555 0.9945939508052025 0.00148600850812303 0.990260958664507 0.009201068856293359 0.0002801268864372835 0.0002578455927623334 0.003135508834638465 0.002035445447242179 0.001727981984715434 0.9931010637334039 0.001637083969508624 0.0002157582732624997 0.9959755620376606 0.002171595719568276 0.006304963107156341 0.9926524610574138 0.001012672518425154 2.990331700476918e-05 0.0001076769440326504 0.0003927067611620517 9.2467183292985e-05 0.9994071491115123 0.0003429371629592089 0.0006791210846497199 0.9987126685714254 0.0002652731809657162 0.001954511232551086 0.995972897063877 0.001784739731771909 0.0002878519717999849 0.9959947077181437 0.0003595151939775108 0.0008517423905681654 0.002794034697310648 0.007848648089618231 9.88811693696356e-05 0.0007806437953888975 0.9912718269456232 0.0008162363837699795 0.002199940543037837 0.9969692953763988 1.452769679342967e-05 0.9995326763130223 0.000103857082730373 0.0002805222054705409 8.294439877680259e-05 0.0005682013903355436 0.9923490254748305 0.003164605401208557 0.003918167733625376 0.0003533823818317622 0.0002403799355433786 2.405401919741452e-05 0.9993821836634275 0.001588190171623814 0.9930805824708512 0.0002669376367458235 0.005064289720779204 0.007532582799986152 0.0006854242630707223 0.9910380198792609 0.0007439730576822121 0.9971948054820683 0.0006635138544037019 0.001652863097431544 0.00048881756609643 0.0002734294752198773 0.005614636013915939 0.002913397718771176 0.991198536792093 0.0001509106039467199 0.9952604641355587 0.002802836415002455 0.001785788845492178 0.9922586876686759 0.006133647375892267 0.0008814118276075412 0.0007262531278243321 0.004195226721878241 0.0009697019048358151 0.9936035360010763 0.001231535372209683 0.001557686297506238 8.591758706982324e-05 5.628211452714757e-05 0.9983001140008968 0.9940338404495584 0.005540137412461894 0.0004060967810122802 1.992535696734653e-05 0.003868169074319056 0.004404953510543082 0.9912525747882576 0.0004743026268803239 3.149654432482659e-05 0.999615046486905 3.417615007373193e-05 0.000319280818696377 0.005196145156640958 3.693895614740112e-05 0.001295260033103438 0.9934716558541082 0.9926303594288728 0.0006296328357854464 0.002727244058219306 0.004012763677122444 0.000666220242378177 0.9989491309041345 0.0002546457710989407 0.0001300030823883733 0.0005707955731751755 0.002341396345020898 0.9946751314671179 0.002412676614685936 0.9992507761217321 0.0007423512008419673 9.963460882997315e-07 5.876331337701303e-06 7.939021243499845e-05 0.9999123894694137 1.939303777095134e-06 6.28101437419818e-06 0.002813969282408792 0.004104211068199214 0.9926705039268614 0.0004113157225306401 0.001759990110029768 0.0002859775669400417 0.001099666566878156 0.996854365756152 0.998906674451696 5.509718510673904e-05 6.979446884964218e-05 0.0009684338943476315 0.0002094977120331635 0.9997150179721668 4.081337284508319e-05 3.46709429549616e-05 0.0002193679912427 3.087942175252341e-05 0.0004667895814466063 0.9992829630055582 0.0001040454244443699 6.58396747841118e-05 0.9994999606823367 0.0003301542184348128 0.9940916382232017 0.004795021166867644 1.105568538083759e-05 0.001102284924549824 0.0007589482673865682 5.66226539927634e-05 0.9984540610014733 0.000730368077147403 0.0003258021660913961 0.9994787567339994 7.148659543069345e-05 0.000123954504478481 0.0008127562747090368 0.0006933539255461358 0.000889001033532441 0.9976048887662123 0.9914957816483299 0.002018803854377198 0.000744760257587934 0.005740654239705018 0.002440463892511524 0.0004349306420574653 0.9969052612982644 0.0002193441671666628 0.001170548515323953 0.0001253105025278076 7.405868306157437e-05 0.9986300822990867 0.003265040037681516 0.990801109696562 0.0005200503211629047 0.005413799944593537 0.9928919948961971 0.006087957830984632 0.0003902299670504634 0.0006298173057678754 0.005340735288154048 0.0001163054898845199 4.985246985458269e-05 0.9944931067521069 0.003117174440872587 0.9934223496171573 0.001404330478703691 0.00205614546326651 0.0004075774532432753 0.001680518449824789 0.9956366051227751 0.002275298974156912 0.9943323753213174 0.0006647914485227481 0.002965036046388427 0.002037797183771511 0.002284620343876239 0.005017272908203787 0.000889546103909465 0.9918085606440105 0.001988392177971368 0.003474106737750442 0.9920371515078906 0.002500349576387611 0.005595199965177054 0.9919245656815772 0.002237207039551289 0.0002430273136945203 9.393585218917269e-05 4.686359515665522e-07 5.18032322823626e-07 0.9999050774795364 0.003737748427723368 1.393150004659867e-05 0.996227916582521 2.040348970903036e-05 0.006700045208177506 0.9901025366973385 0.001874495114785427 0.001322922979698538 0.9953892297709502 0.003436283418271975 0.0007914523836354494 0.0003830344271423499 0.0007264905528594944 0.0005082493522441677 0.001033683392227539 0.9977315767026688 0.00385408591208137 0.0001499726531726711 0.9958294923696933 0.0001664490650526318 0.9946370154971133 0.003958615769547592 0.0004666532685260608 0.0009377154648130461 0.006266653572381317 0.9908148303247488 0.0002943650539665498 0.002624151048903363 0.00601464441640763 0.0004987954500491897 0.0006389877826754397 0.9928475723508677 0.0004317733476942943 0.9916981663539459 0.001759020800189443 0.006111039498170333 0.0001619636099158346 1.258278183985347e-05 0.9997777991954254 4.765441281884467e-05 0.9947742855937384 0.001991314284874003 0.0005748723941657061 0.002659527727221955 0.003004573646051516 0.002893068945034777 0.00102585304760535 0.9930765043613083 0.004674238179579323 0.992792656979556 0.0005398490396312413 0.001993255801233437 0.9988709366320907 0.0008705963146372187 0.0001025448219747269 0.0001559222312973443 0.001196705601757939 0.001963726743772594 0.9957780107651609 0.001061556889308516 0.002006995329707586 0.0007133960445611192 0.0007364152071469485 0.9965431934185843 0.9947084764975981 0.003960744962336485 0.0001357559368470361 0.001195022603218442 0.0006020843218107033 0.0004090433676705698 0.9989323614871995 5.651082331920639e-05 0.003233482899411344 0.9951325479806998 9.80031177970673e-05 0.001535966002091786 0.002613887075182373 0.003610547658337603 0.001880893156105924 0.9918946721103741 0.9994955669508649 0.0002311521860773517 0.0001585996819333543 0.0001146811811242986 0.001940745714918592 0.9972842138142665 0.0003531778585570089 0.0004218626122579136 0.001188253867085136 0.0004034920212488221 0.9968031698447969 0.001605084266869207 0.9952611588135989 0.000367925704954719 0.0008230357384454303 0.003547879743000976 0.005021611506497129 0.99371987294417 0.0006721882003253146 0.0005863273490076013 0.001473416190637212 0.002495150416453358 0.9936869449795127 0.002344488413396698 0.003615314319628894 0.004044127555328473 0.002136324105215091 0.9902042340198275 0.9918116811463322 4.310440842207824e-06 0.004745495502072864 0.003438512910752746 0.001781511716191198 0.997297914430334 0.0008671196020531767 5.345425142163284e-05 0.00483834679337444 6.000199018888416e-05 0.0001133378247855092 0.9949883133916512 0.004450466813618688 0.003897241346096208 0.990523792649654 0.001128499190631134 0.9960053971404712 0.002597296019157498 0.001372501005078552 2.480583529278408e-05 0.001748734723513242 0.004759648609129497 0.9917646534306055 0.001726963236751822 0.002974405233111983 0.9957036816165277 9.518462276487185e-06 0.001312394688083865 0.001451834825056491 0.005639310276514479 0.002752195521152661 0.9901566593772764 0.9929338795033485 0.002799417195715959 0.00124361901377518 0.00302308428716035 0.002741402586015594 0.002275817372526026 0.9937627551837389 0.001220024857719501 0.006180381648090398 0.00271069969856493 0.0002048967272531461 0.9909040219260915 0.001224360636452361 0.9967042049048238 0.0008617627045638593 0.001209671754160014 0.9960138679067362 0.001838256644068389 0.001285660259117383 0.0008622151900779973 0.007734614117263115 0.0004288195123940054 0.0004825341896002527 0.9913540321807426 0.003216540217993427 0.9900089038274081 0.001307390678367241 0.005467165276231212 0.002868056807849617 0.0008412687403204941 0.995527148688452 0.000763525763377794 0.9960451435063273 0.001011278881966738 0.001855563840299655 0.001088013771406307 0.006387923422414499 0.0003304185294715995 0.001381008729944512 0.9919006493181693 0.003988263374783248 0.004107442411429625 0.9905006684646886 0.001403625749098495 0.001167962110723442 0.9983645318444645 1.698001052630143e-05 0.000450526034285708 0.004391486036689683 0.0009698282556174343 0.000130881169605048 0.9945078045380878 9.523931460138124e-05 0.002267611234926918 0.9949758081864118 0.002661341264059862 0.002095537713310845 0.9952473942289347 0.0002329849722248816 0.002424083085529597 0.9984701038483242 0.001245243003936075 0.000164019510113961 0.0001206336376257021 0.0003257102435613964 7.199887101165065e-05 2.049529951358222e-05 0.9995817955859134 0.001846711668572263 0.001064222055106633 0.9950742485126092 0.002014817763711892 0.9916386950929472 0.006779666442966755 0.0006420594222468133 0.0009395790418392243 0.0003703249909610509 0.9985311079624019 0.0003142393281962823 0.0007843277184407765 0.005484046247232391 0.000789294209981102 0.00051271597733927 0.9932139435654472 0.0001384275190220866 0.9913259902787688 0.004963508973462932 0.003572073228746154 5.757754431664639e-05 0.0007980211539537216 0.9986932658536223 0.0004511354481073358 0.9941226057254745 0.004240459463159732 0.001334152963040244 0.0003027818483255322 0.004485230587499982 0.0001802037770408524 0.001364492485528568 0.9939700731499306 0.007540188253677033 0.9906260021183114 0.001284367306786302 0.0005494423212252133 0.9913169453639453 0.0006813157373742712 3.692107772448505e-05 0.007964817820955887 0.0003810168585296225 0.002591815198742489 0.9962452667816363 0.0007819011610915826 0.001162108001716503 0.001367411784499408 0.001057515747244226 0.9964129644665398 0.9997053747308386 0.0002496566374918709 2.519941504056495e-05 1.976921662896906e-05 0.001241160552788792 0.0002302157500808661 0.9959235415954966 0.002605082101633801 0.00335165865023882 0.9910810913878696 0.003224702292511513 0.002342547669380109 0.0001176560800502174 0.0001260803760791752 6.812163461757315e-06 0.9997494513804088 0.9932333667071853 0.003629886887068293 0.002861187978179794 0.0002755584275665802 0.002160661496159061 0.9965513968993305 0.0009979440694865762 0.0002899975350238915 0.001315908787314602 0.005790162348524861 0.9909697060649812 0.001924222799179313 0.995780188662536 0.004147938478070071 8.076190713585685e-06 6.379666868032252e-05 4.418501048265561e-05 0.995548889588284 0.002002723233214113 0.002404202168019251 0.001780119554122767 0.0001237468252099912 0.9974791636176197 0.0006169700030475231 0.0006998811372787621 0.001968560145559019 0.005630412955248984 0.9917011457619133 0.9947198723041548 0.003336878645524852 0.0002726920677590969 0.001670556982561277 8.595584329889667e-06 0.9996939924471662 0.0002000069224475443 9.740504605639625e-05 1.85670867855791e-05 0.001644792972201861 0.0007203056903132235 0.9976163342506993 0.001647541106681811 0.00154811082603143 0.9955091321063461 0.001295215960940687 0.994383114210821 0.003713486140425997 0.0006276967362630132 0.00127570291248993 0.004733470231313224 0.001089813432662739 0.9941649043022631 1.181203376092433e-05 0.0001815011054907036 0.9969678398102176 0.001753731768697012 0.001096927315594671 0.005187081845895019 0.0007049226563429301 0.003120470829008796 0.9909875246687533 0.9983775633808825 0.0003090216264766422 0.001235857991206247 7.755700143464365e-05 0.005209109735751863 0.0001369982028239285 0.9933511529182156 0.001302739143208617 3.167464884208886e-05 5.479253120045101e-07 4.680852446535134e-06 0.9999630965733993 0.001729484886594486 0.9958346088779748 0.002347999067390348 8.790716804035108e-05 0.9985242886755918 0.0003681695006841338 0.000527026812815482 0.0005805150109085099 4.257704072644563e-05 7.218130699414784e-05 0.0001826301217147001 0.9997026115305647 0.0003241154864022355 0.9988399570417573 0.000645843341239107 0.0001900841306013493 0.000309941613458119 0.0001190057922046229 0.9988793869089033 0.0006916656854339863 0.9933338796716316 0.001175531958018466 0.001836557775760695 0.00365403059458924 0.007209427516896515 0.001175308027571437 0.0001794386483196745 0.9914358258072123 0.001341552846079448 0.002087356120661354 0.9952727646025118 0.00129832643074741 0.0003204279751685412 0.9995994593369935 3.788234543665942e-06 7.632445329431179e-05 0.001761860035155945 0.00398339928691235 0.003618254385148319 0.9906364862927833 7.763109281607128e-05 8.52390646568938e-05 0.9992102147950943 0.0006269150474327659 0.0002527808693843365 0.9970759459712121 0.001477942086675517 0.001193331072728027 0.9990949330847029 0.0006180879005577752 0.0001811954946720685 0.000105783520067301 0.001270602543835973 0.0003921704200785575 0.0002247802014751564 0.9981124468346103 0.004600343481645934 0.0006323576726621527 0.9939610236298753 0.0008062752158166634 0.9992106471556138 6.536878436108674e-05 1.054155362928651e-06 0.0007229299046621543 0.001545233498568075 0.9976727127145415 0.0007465376600891731 3.551612680127226e-05 0.0006860653077413379 9.766036561875117e-05 0.0005633072131592669 0.9986529671134806 0.0003193804164948888 0.9996523952235972 2.408826893014378e-05 4.136090977766372e-06 0.0002412099813375759 0.0002548357538841748 0.9944506837453249 0.005053270519453393 0.9960628820606949 0.0023444709484636 0.0004397462875776388 0.001152900703263796 0.002062166197509212 0.0001540474265495573 1.454255149325721e-05 0.997769243824448 0.006311166255216808 0.9916876778403995 0.0009834151909431375 0.001017740713440628 0.9989961270970406 0.0001654758680892588 0.000677419747037696 0.0001609772878324448 0.005115884241253394 0.0001603884593866199 0.9943262877024486 0.0003974395969114442 0.006024802482681772 0.0004375711157347947 0.0002462447238234198 0.99329138167776 0.9966786292760274 0.0001385246096411505 0.002253276366276172 0.0009295697480553406 0.0004044568138740678 0.005407411820083595 0.9929248248883563 0.001263306477686015 0.0004912664334064768 0.9961905133281075 2.528199876961747e-05 0.003292938239716387 0.001576106623015509 0.0006316623428727336 0.000155464948281186 0.9976367660858305 0.9905204542296383 0.004193694171710888 0.002719199212976887 0.002566652385673885 0.0002628952417487166 0.9987197147093068 0.000854060130548456 0.0001633299183961036 0.0007695224332562012 0.005707515400791887 0.990657825499326 0.002865136666625844 0.9949404657343853 0.0009151274229023543 0.0010645280256667 0.003079878817045596 0.004263444873610921 0.9946198797443062 0.0003296980369920637 0.0007869773450907922 0.0002760420502958636 0.002745198175313082 0.9959610782942928 0.00101768148009829 0.000112197254454158 1.558365529237889e-05 2.531746450570046e-05 0.9998469016257477 0.9971402132635737 0.001672732473420183 0.0007862045200943669 0.000400849742911731 0.005214051836392554 0.9905123661228918 0.0004037119276856675 0.003869870113029979 0.00156994272512098 0.0003522652111035303 0.004590412221119645 0.9934873798426559 4.6684105149588e-05 6.312759966920376e-05 0.999731759951238 0.0001584283439432289 0.9974009464106629 0.002114415156802361 0.0001552071047455288 0.0003294313277892334 0.0009533249069601762 0.002214896785504573 0.9941376904912236 0.002694087816311671 0.001542891987695258 0.997395975675618 7.680185504012522e-05 0.0009843304816465862 0.007154118451989133 0.0009903153914152731 0.0008096157975130195 0.9910459503590826 0.9915301679250237 0.008050486030004991 0.0003958859413565353 2.346010361474585e-05 0.002925472319870834 0.0006705302783969532 0.9918374599355965 0.004566537466135792 0.00225869568977678 0.001481281397079269 0.0001292448984402395 0.9961307780147037 0.003642764483062842 0.9956380673159526 0.0004766897540162851 0.0002424784469682044 0.9962965249408189 0.001279881743760535 0.0005505366149354662 0.001873056700485126 0.002629908362518849 0.001901246158191132 0.00347237123327785 0.9919964742460121 0.001711493610095988 0.9925025340464169 0.002425225479340625 0.003360746864146563 0.001689516426864356 5.791262346926792e-05 0.9980920787225436 0.0001604922271227492 0.9999862047752816 5.093067875952122e-07 2.430165865134918e-06 1.085575206576679e-05 0.00662942417612994 0.001277681191365299 0.001488272641373798 0.990604621991131 0.003351728754538973 0.003902876581491081 0.9905872110730171 0.002158183590952844 0.004976261121930984 0.9904151860462619 6.706441994093217e-05 0.004541488411866203 0.003330657496287354 0.001348457408820798 0.0005862198537847114 0.9947346652411071 0.002322598007044328 0.001080855233758183 0.9909397344957314 0.005656812263466151 0.002541914206916563 0.9963047175999026 0.0003451948378217287 0.0008081733553591004 0.9937099816532766 0.003784271557353001 0.00150712067659677 0.0009986261127736089 0.000441160749642087 0.0006152280966966187 0.001295910159850496 0.9976477009938108 0.00251432608879394 0.0002153915615067962 0.997252463896089 1.781845361028045e-05 0.9907047371345262 0.006273625487928191 0.0008568764557925291 0.002164760921753048 0.001186261057975874 0.9959304785021262 0.002236198630764723 0.000647061809133145 7.354666659185614e-05 0.0008097858181180764 0.0003760968825262618 0.9987405706327638 0.002867502982609178 0.9960540502506463 0.0004147090689292201 0.0006637376978153044 0.001932423906299552 0.001010235748208828 0.9951605089579386 0.001896831387552993 0.9997405353824934 0.0002227576660183474 2.859091910565536e-05 8.116032382532374e-06 0.0001293370755796411 1.586321026420891e-05 3.775033140143221e-05 0.9998170493827547 0.003703404690620494 0.9913615873541622 0.002918537586633226 0.002016470368584062 0.9921450196239356 0.002535395615908057 0.0005211117818405764 0.004798472978315716 0.005967454695728381 0.0002651523429563865 0.9925062132805265 0.001261179680788723 0.006578712196724681 0.0008450652889683235 0.002169174205134441 0.9904070483091726 0.9949901266747612 0.002115415840008943 0.001621259384193223 0.001273198101036627 0.001664235756373077 5.368744072627691e-05 0.9982353590946994 4.671770820124361e-05 0.0001362655399285707 0.9964612264975019 0.002322603987793053 0.001079903974776515 0.001821940136806685 0.0005870916664068217 0.0001030826466002083 0.9974878855501863 0.9971859772284959 0.001829896739744199 0.0008917302022186136 9.239582954133775e-05 0.005320471262696938 0.9900261241807097 0.004303003927686364 0.0003504006289070209 0.005699457821342728 0.001128116218720667 0.9915887431173906 0.001583682842545904 0.9961966943824437 0.0003502420460506613 0.002731171851317038 0.0007218917201885951 0.005611572971752104 0.9943555932856039 2.282459261091616e-05 1.000915003314068e-05 0.0004641936336653191 0.0003498750183774652 0.9989991624940969 0.0001867688538602373 0.005749597459769865 0.0014434833501671 0.001579043518404694 0.9912278756716584 0.9913599283721974 0.007552049066789156 0.0005296062099060785 0.0005584163511073457 0.0002341476893053551 0.9959200015724656 0.001282830710826773 0.002563020027402203 0.002442620254062341 0.001361487404548066 0.003540331837902964 0.9926555605034866 0.0003851097943805919 0.0004870047119222952 0.998687193419285 0.0004406920744120831 0.9967335995887727 0.001495454040384657 0.001596746919331279 0.0001741994515113829 0.00427265668654794 0.001294310642694104 0.9942396132450579 0.0001934194256999675 0.006479002430044731 0.9931905546865042 5.19566581438782e-05 0.0002784862253071618 0.003781119076793273 0.0001251347434865245 0.0002131161390811134 0.9958806300406391 0.9972672131387208 0.0007873972274658805 0.0005297550630267332 0.001415634570786608 2.511498919641189e-05 2.744385207429169e-05 0.9997379691634195 0.0002094719953097511 0.003346848786869566 0.00117751466411898 0.0007463732436854902 0.994729263305326 0.002993784040046486 0.9904167592028875 0.00300036882266396 0.003589087934401995 0.9911629711667791 0.005064437410993013 0.00322043683352232 0.0005521545887055778 0.00027054196316331 0.0001243851862221862 0.00394020432680629 0.9956648685238082 0.002877748714208516 0.9952429484299333 0.0008325402576324761 0.001046762598225635 0.002621581137144842 0.005517712467628937 0.9902684530280195 0.001592253367206759 0.997281217453157 0.001674204972444021 0.0003731252820160331 0.0006714522923829784 0.001824011324260637 0.003004747964325578 0.0002425304657809246 0.9949287102456329 0.005524457412963253 0.0008855653088809272 0.9927232091267671 0.0008667681513887112 0.0008049173891653467 0.9982543168782415 0.0004754058058657823 0.0004653599267273489 0.001635319999447055 0.002262816746553715 0.003092005646044187 0.993009857607955 0.009777994998903281 1.399616798156264e-06 0.9902204936724089 1.117118896195643e-07 0.0007926193850511222 0.998749557921417 0.000422812589277327 3.501010425454812e-05 0.9942652069203191 0.001905855194419389 0.002379231221855285 0.001449706663406243 0.009071470671345798 5.014113539819476e-05 0.0001388128756054684 0.9907395753176506 0.003510211134266327 0.0003231591556238295 0.9957326373481448 0.0004339923619650725 0.9985872182304678 0.0003907060621198611 0.0007549986214598637 0.0002670770859524518 0.0008317371203420288 0.9962114763461931 0.002388785308651684 0.0005680012248131866 0.002455563428421503 2.772001063417273e-05 0.0006596603936414181 0.9968570561673029 0.001950719872187186 0.9958636524278431 0.0007694350310606652 0.001416192668909031 0.004584853167995107 0.000406607876680045 0.9945595714520199 0.0004489675033049003 0.9965094615165876 0.001370146355947475 0.001348056620908611 0.0007723355065563189 0.001021327824926718 7.666163909560191e-05 0.000552953803337356 0.9983490567326403 0.002604900779227118 0.997048389199569 4.29892417180057e-05 0.0003037207794859535 0.9925955142673035 0.005187021947530676 0.001970315738130836 0.0002471480470349241 0.001883705225550544 0.002968429585565021 0.9908685584190511 0.004279306769833381 0.009894467410623992 3.452659978716643e-05 5.815851039221862e-05 0.9900128474791966 0.9935180007276098 0.004061578976764317 0.001631508126956375 0.0007889121686695058 0.001116607060411234 0.0004466191434442837 0.9982266981690783 0.0002100756270661845 0.002287889938967233 0.9915158486464948 0.005889803147110358 0.0003064582674276459 0.002039872245972435 1.515011727731736e-05 0.0002918076994284803 0.9976531699373218 0.9997933878866566 7.950000184129104e-05 4.384133752255426e-05 8.327077397953206e-05 0.002349456566042444 0.9957404018131807 0.0001085006997446771 0.001801640921032208 0.0002174093675296739 0.004609371871940241 0.9915155705727885 0.00365764818774161 0.9988895632568747 0.001048995609301062 3.731754644172711e-05 2.41235873824555e-05 0.006585055546967971 0.9911686354141975 0.0001433571998139365 0.002102951839020597 0.0002197903979083802 1.790837219729896e-05 0.9997080577041588 5.424352573554631e-05 