<?xml version="1.0" encoding="UTF-8"?>
<!-- This file was created by ACADEMIC version of SMILE -->
<smile version="1.0" id="Unnamed" numsamples="10000" discsamples="10000">
	<nodes>
		<cpt id="U0">
			<state id="a" />
			<state id="b" />
			<state id="c" />
			<state id="d" />
			<state id="e" />
			<state id="f" />
			<state id="g" />
			<state id="h" />
			<state id="i" />
			<state id="j" />
			<probabilities>4.685810057447358e-05 0.3922419353898233 0.4587768423391906 0.1489017521090595 4.945751754202354e-06 2.692909908321539e-05 4.858031806869099e-07 2.885016280903096e-45 2.445003271759697e-07 6.907006912463037e-09</probabilities>
		</cpt>
		<cpt id="U4">
			<state id="a" />
			<state id="b" />
			<state id="c" />
			<state id="d" />
			<state id="e" />
			<state id="f" />
			<state id="g" />
			<state id="h" />
			<state id="i" />
			<state id="j" />
			<probabilities>7.234249883974344e-08 3.375857913037491e-07 6.856076972897175e-32 0.8690824826918692 0.1298326737251893 9.888909824377232e-05 1.641122453147661e-06 0.0008396826032755088 0.0001441739888565599 4.684182258950172e-08</probabilities>
		</cpt>
		<cpt id="V10">
			<state id="a" />
			<state id="b" />
			<state id="c" />
			<state id="d" />
			<parents>U0 U4</parents>
			<probabilities>3.813561745751481e-08 0.01134236072416281 6.408946826789757e-25 0.9886576011402197 0.999999999677354 1.286301472429334e-90 1.420418474776424e-11 3.084418450484752e-10 0.1715327973458677 0 0.8284672026181434 3.598912697750005e-11 0.001779632726432683 0.07034510607862932 0.927875261194938 1.581191550061464e-24 1.979127407254925e-07 2.58210057481168e-28 0.9919192583067651 0.00808054378049408 0.9465353289987828 2.928394119502057e-20 2.753973299758728e-06 0.05346191702791731 0.5537711256670043 0.4462288189379823 5.53950134906391e-08 4.132563582030333e-184 0.2451822718123458 0.01127946866721516 2.510802470336974e-17 0.7435382595204389 1.30164880421255e-100 2.478302480656171e-16 0.9999999999837327 1.626715545023128e-11 0.9999999999802772 4.015258736720609e-14 4.058862062243409e-14 1.964231188478953e-11 0.2009673841247245 0.7990125438958358 2.00705314254096e-05 1.44801436781616e-09 0.9581896282351312 0.04181036442191047 9.956179743927737e-26 7.342958372335956e-09 3.291875582808426e-05 0.9833994150006862 0.01527883479137607 0.001288831452109731 0.001700129013784275 3.494147434848319e-05 1.166699481514975e-07 0.9982648128419191 2.933122251217183e-19 0.9763815163416306 0.02361842556746618 5.809090318391201e-08 0.9335562528065841 1.426258728033727e-05 0.06642948460613575 2.668973770950531e-21 0.9164029241265771 1.242169501958525e-07 1.970703887450802e-09 0.08359694968576871 2.008225915745344e-05 0.10153322182327 8.495365789090795e-05 0.8983617422596815 1.849547636144911e-15 0.999999999999998 3.250183784519515e-58 5.323999951742084e-33 0.9256600214981188 2.14345246269866e-24 0.06202512788170288 0.01231485062017856 0.001328379607000737 0.9986587222238903 2.087397114131143e-06 1.08107719948594e-05 0.8291827199648097 4.061871690965195e-28 0.170817280035186 4.325110728002431e-15 0.2777343302651185 9.555010823765215e-11 0.7222656600528046 9.586526883643494e-09 2.403724729438287e-29 0.7320706662327795 0.2679293245959288 9.171291652745678e-09 0.8674742116883442 3.498713477536084e-06 0.1325220765556203 2.130425578504718e-07 3.653800638917223e-11 0.9874412596457248 0.0003464566762612976 0.01221228364147601 3.599702936802605e-29 5.675395047933659e-92 0.9999902041079921 9.79589200775003e-06 0.1507668531292126 0.6820573211194931 9.070008441735393e-23 0.1671758257512944 0.5820219761406461 4.477767749390125e-05 0.4176576133044486 0.000275632877411443 5.083619819407874e-05 0.9999102887593082 2.52527849733624e-51 3.887504249759849e-05 6.180659609527012e-41 1.395723004217475e-30 0.9999999821670381 1.783296188034753e-08 1.27093658096066e-45 0.9999997593276683 2.40140244231185e-07 5.32087532493466e-10 3.416773402075003e-13 0.9976608328213464 0.002297447391864097 4.171978644782839e-05 1.464375215197745e-05 5.166014728056194e-08 0.9999853045877007 1.636046695016802e-19 0.9783470830618162 0.01180138367357316 0.006460883247447007 0.003390650017163644 0.05809905224546735 0.001214671637084992 0.9244357962586667 0.01625047985878102 0.9791690158102253 1.19339364823464e-44 0.001449755486492032 0.01938122870328265 0.04283752002680143 0.6036508671368218 3.174004623165828e-07 0.3535112954359145 6.817162052398846e-08 0.001701033573751437 0.9976739994706499 0.0006248987839781407 0.9854181233247261 2.363506154832754e-05 0.0145582416137255 1.335034936723387e-33 0.0676443793878056 0.007485330913720246 0.8590221805889992 0.065848109109475 0.007702416241158003 0.6873910004658694 0.3049065693553006 1.393767197913908e-08 0.4275130778108047 0.02032753387457249 0.5521516030149879 7.785299634790142e-06 4.503422907572424e-11 0.02428142154367816 0.9415945609921978 0.03412401741908969 0.979380970696493 0.02061902930350703 7.105228871157927e-109 4.910224891727622e-29 0.0008985034409133851 5.321003189400674e-07 0.9990960742126556 4.890246112216587e-06 0.09156925007409124 0.006920508496527372 0.4991605391276018 0.4023497023017797 0.5947557961473562 0.0018355507882895 8.921604126042643e-05 0.4033194370230937 0.9664649700129083 0.0328544690078468 0.00068055608201879 4.89722613608494e-09 0.8384975214837785 2.044454620599779e-07 6.981218645124967e-08 0.1615022042585729 2.070269391275703e-05 2.310728618677962e-09 0.01515177839917213 0.9848275165961865 0.01904914473925685 0.0943530410930522 0.8865978140845348 8.315620188096984e-11 0.000523683582201651 0.9982714159838205 4.419297861659402e-10 0.001204899992048021 5.244218292592139e-12 6.237319104434926e-19 0.03013914669424411 0.9698608533005115 5.240272806860287e-08 1.103979699911497e-15 5.599311273322454e-22 0.9999999475972707 6.805271900430285e-08 1.745935099972911e-05 2.794378573038426e-06 0.9999796782177083 1.072627895158292e-25 4.361131988796171e-70 0.989942021767 0.01005797823299994 0.02118140271916284 0.9788185972808371 7.758040898848331e-226 5.567066143574364e-27 0.01045282535422239 0.9747927979247185 5.974285193093205e-05 0.01469463386912838 0.01277323376199185 0.9872267659193984 0 3.186096979071369e-10 0.001194894200741228 0.7374898623080649 0.2613152434911939 0 0.00514803035122159 0.0002880621853756209 7.999665218156381e-108 0.9945639074634027 1.484107206621669e-09 0.0158690753218476 5.644354386785109e-36 0.984130923194045 0.0694958466115312 8.833571359768369e-06 3.620714733661844e-05 0.9304591126697724 9.195398657464349e-08 0.9904376399411619 0.009562267625066746 4.797848342810238e-10 1.362458914693556e-17 0.001140057128438889 0.01721311387822026 0.9816468289933409 0.2310711057985596 0.7689288941387573 6.268319589908936e-11 2.173799138530533e-126 0.0001723056810033655 0.9946820636242232 0.005145628876598962 1.818174516958918e-09 0.002698359029618951 0.9970522431649005 0.0002493277813664844 7.002411413855123e-08 0.9004808287254403 0.09673424853016749 0.002784922741520147 2.871878485470249e-12 0.8309552422680213 0.1409153446891333 0.01460795646386545 0.01352145657897997 0.007899677587022666 0.9921003168121513 5.600826103423723e-09 1.349393072379009e-18 6.53404113215407e-39 0.8241865219156256 0.00236595801934884 0.1734475200650256 0.719227754897157 1.116097112938987e-05 0.2807610841317136 1.402147989838768e-18 0.0002733391925706765 3.315217132001064e-47 0.0004658656254549476 0.9992607951819744 6.779129535472099e-06 3.207818959358255e-06 5.743178236995972e-41 0.9999900130515051 0.9985902204404867 0.001321122164209561 1.703582481797849e-15 8.865739530200184e-05 0.1054977241005 0.01317561230661501 4.262816613373592e-07 0.8813262373112236 0.2310567418734394 0.03805082268440774 0.5183155046948259 0.2125769307473269 0.6638633732713399 1.103211332167651e-07 0.3171956234327594 0.01894089297476738 0.01303781626442007 0.01612189671921862 0.9152170026156069 0.05562328440075442 0.9999999992368431 7.386490862272608e-10 9.352363487831524e-15 2.449846324867428e-11 0.8061312522595135 0.110619122920345 0.08324962482014145 7.236838248597377e-21 0.4540089237267608 8.917914097381055e-07 0.5459901844818296 2.955233678179759e-27 0.9513445607985705 0.0394028633047069 0.009160580949541803 9.199494718060958e-05 0.1435107844745814 0.2589249895903601 0.001156255261681941 0.5964079706733766 0 0.8984537062941595 0.0007522656596272058 0.1007940280462131 1.335857478870232e-16 0.3995753430734002 0.2711638657835532 0.3292607911430465 1.459987372999637e-06 0.000476839912611648 0.9993402747094944 0.0001814253905209029 0.04976726339636302 0.2543345388473189 0.695898197756318 2.07813603206182e-16 0.331274259138701 1.07515760721499e-05 0.04746304021755324 0.6212519490676738 0.7746629229632453 1.616034334196748e-06 0.2253354610024205 9.433181788983186e-292 6.674696848395092e-10 1.228768197706806e-23 0.9999568195392636 4.317979326663427e-05 0.09873112445301328 4.92215933138022e-07 4.406405275773223e-10 0.901268382890413 0.00723522911150263 0.003604402696257408 0.954136028621644 0.03502433957059588 6.224092146125117e-13 0.4278388005197415 0.5721604356108201 7.638688159535578e-07 1.658232288618767e-08 0.3047547028470096 9.907267350577745e-31 0.6952452805706675 0.891094838266149 0.1088654454354584 1.77666607913105e-26 3.971629839271434e-05 2.254362234631475e-05 7.877725109292417e-05 4.674725967483933e-10 0.9998986786590881 0.2552848882975282 0.6433076106444817 1.353302370714694e-70 0.10140750105799</probabilities>
		</cpt>
		<cpt id="U1">
			<state id="a" />
			<state id="b" />
			<state id="c" />
			<state id="d" />
			<state id="e" />
			<state id="f" />
			<state id="g" />
			<state id="h" />
			<state id="i" />
			<state id="j" />
			<probabilities>7.354711569678147e-06 0.000384812228489598 3.456225054333299e-08 0.02428820383644209 1.591593665760389e-06 2.24307922974105e-19 4.930471219563908e-10 0.01217727188064543 0.2345604840717354 0.7285802466221545</probabilities>
		</cpt>
		<cpt id="V11">
			<state id="a" />
			<state id="b" />
			<state id="c" />
			<state id="d" />
			<parents>U1 U0</parents>
			<probabilities>0.001114645078779502 1.988178249614032e-06 6.326158057505401e-07 0.9988827341271651 0.997197400654924 6.131471091471721e-07 0.002801985911494119 2.864725380292574e-10 0.09715096479656431 0.2176838204407339 0.004597759053167273 0.6805674557095345 0.07999068501535955 0.01609532763737013 0.9017900632422963 0.00212392410497405 0.161251017365602 0.008620551840391316 6.396267598362131e-11 0.8301284307300441 2.419827207014177e-08 1.886133269582477e-09 0.9999599229620096 4.005095358498829e-05 0.002437214811804341 6.354739904514849e-06 7.968657729260288e-16 0.9975564304482903 0.3030315856107178 0.01230488694204817 0.6770496048851213 0.00761392256211275 6.06397436123356e-08 0.000266266017106661 0.02237738275707809 0.9773562905860717 0.9999950728947589 1.676226502222289e-07 0 4.759482590942371e-06 0.009414083273052863 0.990585904031412 4.458673003284873e-30 1.269553497244809e-08 2.329791083908616e-07 0.1981791846175069 0.8018205824033846 3.004108461842928e-78 0.2167357719600168 2.855753563876962e-09 0.7832202494517765 4.39757324531282e-05 1.703244261760282e-77 9.350578997208519e-05 0.9998135876008479 9.29066091800837e-05 0.792556799657441 3.069914551322101e-05 0.08025965423886772 0.1271528469581781 0.956789064364708 0.02266879315021789 0.02054214248507412 0 0.0004867544409067895 0.9573632755750792 1.197035161464779e-08 0.04214995801366252 0.03830394804521714 0.9616958056851406 1.081471453653595e-11 2.462588277407208e-07 5.795999257323491e-06 0.9974263178408145 9.516900149008022e-07 0.002566934469913414 4.594470978177575e-17 0.002383786030558687 0.3664823629781069 0.6311338509913342 1.461040039653622e-42 6.824668803469401e-08 0 0.9999999317533119 1.130153043216242e-15 0.002015327640215927 0.0002127718364056166 0.9977719005233774 0.002813124433629002 1.929294941706275e-06 4.289683165983801e-35 0.9971849462714292 4.103977173608087e-13 1.031708003911763e-09 0.09049403947047414 0.9095059594974074 0.9797077449171431 0.01467402280118963 0.004504411884304902 0.001113820397362337 1.00499786912746e-06 1.375882661966318e-08 0.999455712300232 0.0005432689430721848 0.999999999037282 9.394387945516356e-10 2.035074197133726e-28 2.327922643872398e-11 3.313269582902898e-06 2.911580603135643e-06 0.002874175290718367 0.9971195998590956 0.5279146172773624 0.199425627367755 0.2726597349068809 2.044800156499047e-08 8.516158623871775e-07 1.587785610550651e-05 6.970845883994907e-07 0.9999825734434437 0.03871414745532085 0.001039622207350684 0.9602462303373286 6.302514461260785e-34 0.4971263659871135 0.02405953816532542 0.4788140958475612 0 2.181940968199977e-06 6.09182439977043e-33 3.840249573807226e-36 0.9999978180590318 1.172961815789307e-95 0.9909829822069649 5.18636120898914e-06 0.009011831431826201 0.5357662215351175 7.615032403930721e-06 1.759484096092989e-05 0.4642085685915177 0.01065248592576772 0.004519158113818231 0.9228066233260338 0.06202173263438027 7.37454719090845e-16 0.0137186771920289 0.003472347405840787 0.9828089754021295 0.1629085905284168 6.946419474659119e-24 0.03932413073397308 0.7977672787376101 0.9957417298045911 5.526185414296676e-12 0.003429127612431352 0.0008291425774514653 2.865955157669858e-07 1.699720677124916e-06 0.1467466861213796 0.8532513275624276 4.849672890769765e-12 3.272764949630681e-08 0.9999999672675006 1.518737989003905e-16 1.593569277079662e-09 0.5914414579125382 1.50016455236278e-05 0.408543538848369 0.01465880119620519 0.9750160771151344 0.01021324483792919 0.0001118768507312074 0.5379420439686778 0.4604649321961954 3.522632523003286e-08 0.001592988608801354 0.3091580152878209 0.0008432487905117972 0.6893027740255765 0.0006959618960907509 0.2609796817268654 0.5649164661526882 2.428078267636763e-05 0.1740795713377699 1.279622804666861e-08 0.6844848648978463 0.2457155433162468 0.06979957898967892 0.9334580503504802 8.022793946511095e-21 0.02583682129847455 0.04070512835104524 0.002654142323263031 0.6702242155211098 0.3271216421556272 5.400401315544028e-36 1.849027587543795e-14 0.9999955393390796 1.799404159118415e-10 4.460480961392121e-06 0.07496019146377052 0.0003240493508871794 7.496257956771655e-06 0.9247082629273855 0.9653098707873599 1.504139301302158e-18 0.0003700434551996028 0.03432008575744056 0.0006469071311647448 1.260528488500281e-97 1.276366885413959e-27 0.9993530928688352 0.001230654604238987 0.4130906585087442 0.004026354501230195 0.5816523323857865 6.346977794842985e-57 4.796723841801363e-49 0.1827502175033772 0.8172497824966227 1.262943967733122e-06 0.0003318913753038567 3.014824162071635e-07 0.9996665441983124 3.063986287661088e-26 0.9999999999999999 3.071378126170666e-20 2.121398231851172e-23 0.1930279854583591 0.6514626392441578 0.1539154105746597 0.001593964722823545 0.000354950027159364 8.523044354930619e-44 6.981526428589084e-05 0.9995752347085547 0.5010077628656915 8.237035046998252e-06 0.4988926503778209 9.13497214407525e-05 2.181684511031045e-07 0.4763034807730269 1.796035772890898e-05 0.523678340700793 0.9988759204568117 3.904459685590691e-18 0.001124079543188234 5.006342082887502e-61 0.8038485243131773 0.003788394411266231 0.1729124703717368 0.01945061090381949 0.06726761240436631 1.606337460227374e-06 3.065049348380556e-11 0.932730781227523 0.0003088523098685573 0.05058825281027594 0.9470606516123192 0.00204224326753628 0.001445281725447782 0.8788295240313213 0.004532250392534445 0.1151929438506966 4.923156611603784e-06 0.0002541211541898095 0.9997409556396608 4.953782233057229e-11 4.583537369289595e-05 0.9930199591082489 0.006934201437815922 4.0802420447316e-09 0.9054729287966807 0.0596078094498888 0.006709108265646225 0.0282101534877844 0.0005831564246172788 0.892824095614518 4.008062085229158e-35 0.1065927479608647 0.0003522054640525618 1.233741880181286e-28 0.9996466054578924 1.189078055062672e-06 0.9999999999989176 1.312397337965507e-18 1.283111685709978e-26 1.082332725112046e-12 0.9315185981839067 0.06330998930588468 0.001327325867428168 0.003844086642780581 0.999999989405797 1.059418803462017e-08 1.476784112454724e-14 1.326828299834939e-16 0.4973519912851692 0.497982385928792 2.078996748871722e-10 0.004665622578138988 3.221230697385775e-05 0.9959078673720251 0.004059920321001053 0 4.615885587520655e-10 1.243429297850925e-11 1.673024874837244e-09 0.9999999978529523 0.5431044171683089 0.000577127349596032 0.4563184554820952 8.486206932372058e-42 0.9999386544946117 6.070813717796459e-05 6.251554849770535e-12 6.37361958869206e-07 9.039937455970748e-08 0.0006147966143985375 1.215509058510339e-05 0.999372957895642 0.009376963668714652 0.9906221452451878 6.497596843585313e-07 2.413264132051775e-07 0.8579810545675363 3.1771783480212e-11 0.01385355746473774 0.1281653879359543 2.666205054461702e-18 1.147067448349445e-12 0.1614671639595014 0.8385328360393515 0.412999228494172 2.379074028609821e-20 6.921172439864015e-08 0.5870007022941036 0.01569181261458701 0.5281857061092287 0.4561224812761843 2.705880068547704e-49 0.271999858490404 1.237892206228999e-11 0.0029191149797334 0.7250810265174837 0.008055459793148588 0.9919445402068513 2.87557382512315e-80 1.175626818124688e-17 0.836517111751633 0.004170462632215158 0.008932379099941138 0.1503800465162107 0.664251064333185 9.787595220917404e-07 0.33574575156952 2.205337772977719e-06 0.006684626126959194 0.00279081584001145 6.148371202337796e-179 0.9905245580330293 3.639304212358161e-84 0.05392103456250714 0.1411737448726043 0.8049052205648887 1.168542821981704e-16 2.664888161823142e-293 0.9913140959499552 0.00868590405004448 5.466681967056342e-36 1.766382024544412e-07 0.9994796327717258 0.0005201905900718261 4.419649126267313e-06 0.1898558759225125 8.549371378899741e-207 0.8101397044283613 0.9999999999988803 1.11960880878095e-12 7.808444553608476e-59 1.186491023907359e-66 0.9999999993001224 6.998775869747093e-10 7.51384109190163e-25 2.035866443386922e-130 0.002665082716673467 1.509450968131671e-95 0.9584081327573344 0.03892678452599215 2.355249664936571e-15 0.9973744988550086 3.906581772985026e-15 0.00262550114498507 0.0514114166312785 0.9484744007875133 4.493500984059268e-39 0.0001141825812081548 0.9987112492665761 0 0.001288750733423899 4.477991909248425e-80</probabilities>
		</cpt>
		<cpt id="V6">
			<state id="a" />
			<state id="b" />
			<state id="c" />
			<state id="d" />
			<parents>V10 V11</parents>
			<probabilities>1.047363048773054e-33 1.953924062494507e-29 0.9958205845631334 0.004179415436866726 0.0001215922764000674 0.0006507209635832298 4.256830474950614e-10 0.9992276863343336 0.3255939926615424 0.000147535628090035 0.058172913699713 0.6160855580106546 0.2220909518234661 4.387810650609279e-05 2.169943013638228e-17 0.7778651700700276 0.3259907977384613 0.001556228639726249 0.6715117121322087 0.0009412614896037187 0.01173374222743008 0.9882179077512047 3.840414005614622e-08 4.83116172252084e-05 5.536838682100813e-06 8.434015638714633e-08 0.1913004158121912 0.8086939630089703 0.9400625506914507 2.581220296699435e-16 0.0001075126115049792 0.05982993669704399 6.534658459639922e-10 0.002213341120713017 0.997786658217104 8.717070191606641e-12 0.02446286248328268 0.9755370350608175 1.066931408414106e-14 1.024558893077068e-07 0.3266672389693266 3.985865450027019e-07 1.770171401279778e-19 0.6733323624441283 0.93676033585157 1.093197720878995e-18 0.06323966414780989 6.201693788461873e-13 3.028620494574131e-79 0.9331437092231055 0.06086205025102496 0.005994240525869454 0.0001078387993343281 0.07711244062568887 0.002603718186317872 0.9201760023886589 6.950540179390622e-29 0.0001688970784695251 0.1118384711900581 0.8879926317314724 0.000644855472037171 3.928799514001375e-06 0.9990369818048542 0.000314233923594633</probabilities>
		</cpt>
		<cpt id="U2">
			<state id="a" />
			<state id="b" />
			<state id="c" />
			<state id="d" />
			<state id="e" />
			<state id="f" />
			<state id="g" />
			<state id="h" />
			<state id="i" />
			<state id="j" />
			<probabilities>0.0006886850102227679 3.638831421971308e-43 0.0001729009955776301 0.5305180167320969 0.00819443328925998 0.05153228126922726 0.01827158026160446 0.3427826537624906 0.0368180650990145 0.01102138358050578</probabilities>
		</cpt>
		<cpt id="V12">
			<state id="a" />
			<state id="b" />
			<state id="c" />
			<state id="d" />
			<parents>U2 U1</parents>
			<probabilities>0.2174600815180844 0.003695960827935024 2.490218196520325e-06 0.7788414674357842 0.6235351164487526 0.3291562562944502 0.002516172455621992 0.04479245480117517 0.004791190410782993 0.9852790618701943 0.009929496697819895 2.510212029082411e-07 0.9245426691166111 0.07067448186050877 0.00426249210296274 0.0005203569199175563 0.1700945908496511 0.5804993134650321 0.2074887427649121 0.04191735292040466 0.9999990633358206 5.762151949155432e-23 4.537077536056046e-63 9.366641792995033e-07 0.9070929950840733 0.07872352161558931 2.36106154132922e-06 0.01418112223879604 0.9311428190368739 0.006614673442463339 0.06221460502346905 2.790249719363721e-05 0.8967094176634098 0.0188757914853569 1.909225723637466e-06 0.08441288162550961 1.94735665759621e-09 0.0001044249030013 0.8645701597446278 0.1353254134050142 0.9992147791892382 0.0007851251230462028 4.507950270241326e-09 9.117976534780899e-08 1.305913291574381e-10 0.7622994403402182 0.2310352706852198 0.00666528884397039 0.1431088360387296 0.856509201040649 0.0003818903306983251 7.258992295963155e-08 0.003119806722269366 0.4751937185304154 0.0404326600284249 0.4812538147188904 0.3750474090573602 0.01626951749887203 0.608683073443723 4.483744724888228e-14 0.8934036808181264 0.1064061870154535 0.0001901321664201252 1.060297390282189e-149 0.002676140417712165 5.297575252915826e-09 8.998498046915139e-10 0.9973238533848628 4.178143201293293e-13 0.0006414322105258185 0.9977676598261308 0.001590907962925508 0.03128127264288438 0.824805911711158 0.1438863283263421 2.648731961555206e-05 0.9561666085874031 0.01715614595449409 0.02667724453102772 9.270750313029761e-10 0.01165082349564119 0.02809033958238061 0.9602577470723092 1.089849668921222e-06 0.9194508047908965 0.0001687084990328146 0.07951401554909572 0.00086647116097496 0.0002410017956974571 2.558463964307335e-53 0.999735779290573 2.321891372956714e-05 0.7663484095890106 0.2336385301962819 8.318335996135764e-06 4.741878711381059e-06 0.009734265206409413 5.887002262920375e-12 0.9902657347877035 2.911929779091612e-22 0.006671373559715167 0.1516600857317203 0.2381676673148008 0.6035008733937639 2.097514313985265e-07 0.8952958568252478 0.1047008173869719 3.116036348980509e-06 5.701090185972661e-08 0.9852478625593578 0 0.01475208042974039 0.178789336985234 0.2135224331240077 0.6076882298907446 1.385568939121451e-14 0.9973471425133827 0.002609280731327953 4.337653555633054e-05 2.002197329654948e-07 0.01323269873681764 0.9866356107801614 0.0001316904830161985 4.805805396529342e-15 0.09665607661568237 3.697477835089669e-06 0.9033402259064826 1.528264470703461e-34 0.009785180846217529 4.52519942378451e-08 0.01871536129875866 0.9714994126030296 0.9965525243659124 0.003319618381316152 0.0001278572525044357 2.672333031495099e-13 0.06656812998527907 4.769289357220448e-05 0.9333841694713938 7.649755003829807e-09 0.8647065308183867 5.118113836002426e-65 2.518367342664524e-19 0.1352934691816133 0.6678186840978123 0.04193601886200502 0.006112633671176046 0.2841326633690066 2.800671101591623e-11 0.0001256306835474986 0.0001340279556345761 0.9997403413328112 4.45620600607776e-07 7.629117981474137e-21 0.02384341452588453 0.9761561398535148 0.64779227293099 0.0003573510927801732 0.3517951241890915 5.52517871383989e-05 0.9990788908678067 0.0006130946137276422 2.413649119613616e-31 0.0003080145184657669 5.909580932952209e-25 0.7114867357735368 0.06708895879117134 0.2214243054352918 0.06076388968494403 9.133594399665503e-46 0.01604576111965394 0.923190349195402 2.001612588532888e-05 3.380240953601242e-06 0.3655254684831842 0.634451135149977 0.0002455382165816351 5.166306946719256e-10 0.9997537208766089 7.403901787695413e-07 0.9999817869841278 2.340510036370369e-21 3.262803630651571e-28 1.821301587243097e-05 0.8197017626795319 0.03125843883834256 0.1490397984821255 1.683025095255434e-219 0.0008078022809372385 0.1085803360689221 0.00098674023419176 0.8896251214159491 0.0001954540012119323 5.490886918428142e-05 0.9856093157764082 0.01414032135319562 0.4821469809000533 4.360462820703348e-06 1.387313238282686e-24 0.5178486586371261 0.0002934265392938775 0.9055609821652851 0.09414536125613518 2.300392859010097e-07 2.825647516113947e-26 0.005969135411976313 0.04164310734638066 0.952387757241643 0.100408192169815 0.899582989556426 1.290080393837733e-10 8.818144750893542e-06 0.5470089585714712 0.0001732627817954029 0.2443051336560236 0.2085126449907097 0.0003913584543633104 4.892295901633112e-170 1.854329577569673e-07 0.9996084561126789 0.194877031553842 0.8002503658750768 2.254714942276536e-05 0.004850055421658178 0.09304182667679151 7.59425328428966e-14 0.09270274326456486 0.8142554300585677 0.2538826943589143 0.0005428503735757143 6.096118980530066e-77 0.7455744552675101 3.611921145325567e-05 1.147806614309985e-13 6.937780102907363e-43 0.9999638807884319 0.05362233826788011 0.9455112773597564 0.0008625861796895527 3.79819267398178e-06 3.877543579509738e-05 9.263030719570662e-07 0.1367996945119799 0.8631606037491529 0.9820943491819316 0.0179001117195572 5.539098511254789e-06 6.459515039936855e-21 2.421650570962812e-22 0.7403325368514659 0.0001084812975005963 0.2595589818510334 4.16466484908774e-06 0.9990712937457873 1.346825284865472e-12 0.0009245415880167987 6.818106252448936e-08 0.08290713057721816 0.9170866549932982 6.146248421020834e-06 0.260073367975491 0.0002040307617438572 0.7048290820922936 0.03489351917047154 8.253549754654535e-06 4.455281190770611e-06 0.01711053600606677 0.9828767551629879 0.07318833037306566 1.541171311344631e-09 0.001925456520681566 0.9248862115650814 0.003827894039734367 0.4417615591584864 1.150910085520658e-05 0.554399037700924 0.04713072479078163 5.172023455646596e-08 0.9464099774507113 0.006459246038272605 0.09760879842536277 0.8495246505507551 0.05285855099804827 8.000025833824972e-06 0.8515897466404811 0.0003555390912430321 0.01369054878751354 0.1343641654807623 0.0005771080120987195 0.7587120173852892 0.2406918152971337 1.90593054784958e-05 0.0007586152735168517 0.0009521488015137207 0.9982855892493457 3.646675623554223e-06 0.1814733906347746 2.536660158584561e-06 0.8185240727050669 4.817684379061168e-29 0.9890570541519742 0.0001147487000110604 0.004831487646291838 0.005996709501722821 0.9630897876900691 0.03267994241515378 2.352080777280082e-13 0.004230269894542001 0.0004317492546978415 0.9986182828310309 0.0009499677914837387 1.227873414874957e-10 0.004802363011503883 0.7600206480799587 2.454227089740108e-06 0.2351745346814477 0.1944462721153266 7.54262763468741e-58 0.1558570972517224 0.6496966306329509 0.2016182826881375 2.040198285357737e-07 1.941274814426484e-08 0.7983814938792858 9.255950143005644e-25 4.879462084931512e-05 3.447578288616076e-17 0.9999512053791506 0.0275315569709329 0.02437271493512235 0.9480957165129391 1.158100580793122e-08 0.2114528127741219 4.784582371075269e-14 0.3008654927306461 0.4876816944951843 4.809354403117197e-07 0.61662346371411 0.0006004945931759041 0.3827755607572738 1.405536092006393e-14 0.02851393975551994 0.9714856471533085 4.130911575322499e-07 0.006210590853056724 7.33278924208159e-17 0.9909032039958391 0.002886205151104199 0.3030790822182959 0.6346429670335182 0.0622779507030305 4.515539571873713e-11 0.001675452711446204 6.363658330761041e-09 0.000453936796286756 0.9978706041286087 0.9999967340847402 4.458022609763541e-08 3.521264880039738e-61 3.221335033651545e-06 1.502202813351318e-07 0.997414971378125 0.002584017188529604 8.612130642135192e-07 0.9999959217872089 6.155076933550104e-08 4.016662021798264e-06 6.000642260851598e-36 0.004214575838269849 4.614450214845584e-08 1.71587504028873e-29 0.9957853780172279 1.910580728839103e-06 0.4140029727920338 9.428090598040397e-08 0.5859950223463314 0.9881383376765489 6.442790569965542e-10 0.01050512380710148 0.001356537872070609 0.009240339287055413 4.987772909596881e-24 0.001477142366102906 0.9892825183468418 0.004122236787396405 0.8461964015726609 0.1496813616399272 1.550251414275482e-14 0.9785229783341222 1.153925141441272e-59 5.701967871670264e-14 0.02147702166582087 0.009738328464364704 0.8210988160658962 0.027447225838144 0.1417156296315953 3.179335199589085e-08 0.9999825930458386 6.561857299562919e-06 1.081330350994063e-05</probabilities>
		</cpt>
		<cpt id="V7">
			<state id="a" />
			<state id="b" />
			<state id="c" />
			<state id="d" />
			<parents>V11 V12</parents>
			<probabilities>0.0003154439662537824 0.01283178480681127 3.365046986225957e-09 0.986852767861888 2.133676774383622e-05 0.002599197989508629 0.2654786622704193 0.7319008029723282 0.0007862229143113766 0.001905167846263415 0.8415125491956851 0.1557960600437401 1.825189391584689e-16 1.401622994714766e-08 0.09353476561501213 0.9064652203687579 1.941593545082488e-13 0.2002182564497535 0.2032280947470756 0.5965536488029767 0.01713781905878812 0.6810683046465328 0.3017938762943808 2.984948897606523e-13 3.974551238721643e-12 1.252391688485792e-06 0.999998747604337 7.78602947738983e-21 0.5256097477049733 0.3322553315880744 0.1421349206838815 2.307099781891551e-11 3.905990800754345e-05 0.03651652439252715 0.9634444155331006 1.66364813158775e-10 0 0.9996675448010079 1.064784718413714e-05 0.0003218073518077956 0.9595011692528538 0.02011955668261846 0.02037388216224033 5.391902287327019e-06 0.002358429870650549 1.641322201955342e-24 0.9773938079265959 0.02024776220275355 0.0002219419403410877 4.070711775123486e-141 1.503986776787481e-09 0.9997780565556721 0.001091496891139605 0.9392842357111535 0.0192587091292326 0.04036555826847425 0.06807658415098239 0.931923415848683 1.208338196382597e-108 3.346894937285788e-13 0.9555439438231748 0.04445605617682518 4.642897378826643e-31 8.77157113163438e-18</probabilities>
		</cpt>
		<cpt id="U6">
			<state id="a" />
			<state id="b" />
			<state id="c" />
			<state id="d" />
			<state id="e" />
			<state id="f" />
			<state id="g" />
			<state id="h" />
			<state id="i" />
			<state id="j" />
			<probabilities>1.719786523417842e-06 0.03540887752886201 3.450298290166503e-22 0.002893328854256507 4.514126026590758e-05 3.69361539955208e-05 0.179701282882781 0.3172889964395858 4.912329136116559e-24 0.4646237170937299</probabilities>
		</cpt>
		<cpt id="V3">
			<state id="a" />
			<state id="b" />
			<state id="c" />
			<state id="d" />
			<parents>V6 V7 U4 U6</parents>
			<probabilities>0 0.00899539275914215 1.182868375339127e-05 0.9909927785571045 0.9999889601521467 1.026032025625872e-06 1.001381582767995e-05 6.057666904658202e-72 0.05114434402574559 9.204512948294356e-08 0.9472254976986122 0.001630066230512677 3.445497384976807e-12 0.4996566267153464 0.5003119277516462 3.144552956186523e-05 0.9932978068933149 2.984786277800201e-21 0.006702184572982451 8.533702764476725e-09 0 3.937976954054441e-08 0.9991190607431498 0.0008808998770805693 1.552630577893214e-06 0.9980136666252716 0.001984207852598088 5.728915524459469e-07 0.2699663181048533 2.340034943466311e-05 0.7300102691284134 1.241729886494627e-08 3.604682675394465e-14 0.04011536802151933 0.9471904282893968 0.01269420368904776 1.520979370475767e-14 2.398330367282029e-07 0.9999996922529508 6.791399723943727e-08 0.009581034966343929 4.734021117922767e-13 0.9904189650331827 5.547726213209278e-130 0.01792136979014217 0.1264208292041964 0.8414693358266868 0.0141884651789746 0.01906057518505044 4.016763666476749e-05 0.9808992571753244 2.960139562469745e-12 0.006820757201634481 0.0199286886810863 0.2807446141840695 0.6925059399332096 0.8346726707256227 0.01283929094712498 0.1524869483564217 1.089970830852909e-06 0.02671520140548057 7.863815381731856e-05 0.9732061604406997 2.241459476458218e-15 0.0003101042792341195 1.606661441761523e-05 0.1110816250289102 0.8885922040774381 0.0449076833470634 0.8162232739515307 9.86787811319663e-11 0.1388690426027271 0.3420624620832565 7.251117613846977e-116 0.6579375379137332 3.010316959463411e-12 0.008665663224137326 0.9554629186432602 1.224884472843747e-05 0.03585916928787412 0.02066472738902412 0.001040423718337826 0.7918031239326866 0.1864917249599513 0.1150875538739713 0.5349516422133411 0.02364944008857848 0.326311363824109 1.858888580922696e-07 0.001075918401284914 2.934884856437891e-28 0.9989238957098571 1.356414263845449e-11 0.6458613126551566 2.976821219727883e-05 0.3541089191190822 6.868529144274509e-07 2.530103632811289e-12 0.9970598857037017 0.002939427440853712 0.01963115043670203 0.1291585878912407 8.541455894459626e-22 0.8512102616720573 0.998053843460746 7.015514588978241e-05 1.18424833539136e-05 0.001864158910010216 0.4409501655497549 0.006056242350363718 1.422251824391514e-09 0.5529935906776295 0.000488777993762334 8.503184379040323e-09 0.9925335681003408 0.006977645402712469 0.8226700323033386 1.63408598723036e-64 3.086691037652913e-06 0.1773268810056237 8.547947263334812e-07 0.02616378868060078 0.9679325488703719 0.005902807654300997 0.01174041065485702 0.03204808361268988 0.1379517158232388 0.8182597899092143 0.009958222505517358 0.2264435100004881 1.083663359833763e-06 0.7635971838306348 3.571351686300511e-44 0.8899202529148875 0.1100797469662437 1.188689580670155e-10 0.560983150559948 0.4390168494397823 2.697021522866636e-13 1.616304720315489e-21 0.9514249605840224 0.0485750387150597 1.383398955657662e-68 7.009180307768625e-10 3.340104592655313e-06 0.4692025042427914 0.5307941556526152 8.233095334094612e-16 1.885403491712592e-27 0.9999957632391925 4.236760807445502e-06 1.867657069382386e-219 0.6793663284789364 1.06353343961666e-08 3.815530943290471e-13 0.3206336608853474 0.07092850898475439 0.0001292372998292079 0.9289353283847956 6.925330620731517e-06 0.9933212885008103 0.0008552822154135886 2.63744778762473e-08 0.005823402909298288 0.01841567326492259 0.0001627469400156638 0.02195877120144518 0.9594628085936164 0.09406856892899362 0.04612244519739914 0.7558470657749233 0.1039619200986838 0.4289603953730046 3.944059530559986e-10 2.757757532690796e-10 0.5710396039568137 0.0004102762888870565 0.9993542718401994 1.702330038386827e-12 0.0002354518692112731 5.434709380734853e-05 0.9988101031550927 0.001135549751100005 9.375781499365689e-65 8.820652262806804e-06 2.159758981774161e-05 0.9999695817579195 1.057946287821311e-33 0.9998939611178254 5.350719980258384e-05 1.524866280672677e-08 5.251643370927935e-05 0.0006495519665590358 0.9993406219864909 9.826046950134651e-06 2.61183851937696e-23 5.122977987025413e-05 0.9476074336447257 0.04757574098211875 0.004765595593285165 0.9999934250212786 6.574978721438139e-06 8.858539041585542e-56 7.287358401117918e-19 2.066581869162843e-06 0.787134677456411 0.2128632559617198 1.712133183054613e-63 0.2450497191515764 0.2351471509732019 0.1242043511782148 0.3955987786970069 5.221884134985114e-11 0.01069165184390344 0.9893083481024151 1.462585651056278e-12 0.00464577322694545 2.830583402015548e-06 0.1384270212693388 0.8569243749203136 1.18283064576087e-05 0.3146061665903357 0.6853819731020218 3.200118482701879e-08 0.0003884429594046703 2.079600966322906e-16 0.999432930033035 0.000178627007560075 0.6031947129016162 0.3277239878639605 5.091792756152739e-05 0.06903038130686188 1.050049828836779e-10 0.9962822127237904 4.477271821541858e-15 0.003717787171200238 1.782902848066106e-07 1.509859046298019e-39 0.9999997933484057 2.836130941372915e-08 1.365678878746764e-79 0.9951689991342491 0.004831000865750828 3.421437806850782e-145 0.0499831528043197 1.636233498397938e-06 0.9500152106636627 2.985192066124817e-10 0.6408785489148436 2.9260964959259e-05 0.3429121675207268 0.01618002259947036 0.0166966767509272 0.9822017588109638 0.001101564310861207 1.272477518172797e-10 0.98586020276537 2.248963107445635e-05 0.009507346811392176 0.004609960792163324 0.6292192120227945 0.01253138329258894 7.483464110480179e-11 0.358249404609782 1.098960726485176e-06 0.9175837173834587 0.08241517228694681 1.136886803954267e-08 0.003499727610264172 0.9333911743330805 0.06266163711393162 0.0004474609427237983 0.1729777751613651 0.8097817915911394 0 0.01724043324749575 0.03853052924917615 1.002467167553294e-06 0.1132135438792419 0.8482549244044143 0.9999999999853226 1.465546314580976e-11 7.243755890135248e-122 2.18418171546138e-14 0.06551308185101208 0.002760288339663765 0.9316326165024151 9.401330690901115e-05 4.681050562403607e-05 1.747802521608921e-05 0.9999357114691598 2.21533335601342e-33 0.8659939320957823 2.405947290771297e-27 1.538139318498018e-07 0.1340059140902859 4.927653956728581e-14 0.7094220064993202 0.2370855497753037 0.05349244372532687 0.7706336288042444 0.0401593888974098 3.864193659277913e-06 0.1892031181046865 4.979230773725501e-17 0.01186104471024738 0.09316510847666316 0.8949738468130893 0.4175075662028287 0 5.91999652550603e-20 0.5824924337971713 3.484597899015828e-09 0.0001012307133621519 0.9891323397585481 0.010766426043492 9.496493403705158e-09 0.1636790384335697 8.954807310051189e-06 0.8363119972626269 0.2380815205602894 0.5564367380704327 1.475903045740759e-10 0.2054817412216877 0.6609078815585651 3.171935463674524e-05 0.008124501425869056 0.3309358976609293 0.5939227666593017 0.2841089809373435 0.1113873667053794 0.01058088569797527 2.207373089458042e-11 0.9826936389244552 5.91533024941736e-05 0.01724720775097682 0 0.9990021110718019 0.0009978885104596493 4.17738384898698e-10 0.9970031225080763 0.00254079953555152 0.0001228136347435623 0.0003332643216286377 7.565027053447857e-11 1.206928528162978e-09 3.146894826233673e-18 0.9999999987174213 0.5230951745175978 0.02690460035738644 0.1465447044926481 0.3034555206323679 5.417412778644002e-12 0.004636823429637913 0.9640453653539898 0.03131781121095505 0.7264942285949593 1.739855211413269e-16 3.688900916139967e-05 0.2734688823958791 0.9180085265126805 1.261711359617908e-12 3.012503778577284e-05 0.08196134844827202 0.1485565093897566 0.3721682322795679 0.02846223698889149 0.4508130213417841 0.1123797943619411 0.002242839434321919 0.8695866228865468 0.01579074331719028 8.135881244614793e-05 0.4356631642656937 0.5642554648164473 1.210541280276532e-08 0.9999962869660133 1.282523821195948e-33 3.713033984481036e-06 2.221747541582996e-15 1.686608749168729e-08 8.803817746126279e-07 0.5594144862950664 0.4405846164570715 0.9967153800684739 5.27636788946604e-11 3.555338190040448e-09 0.00328461632342411 3.524031344538753e-14 7.288426876246721e-21 1.736099097785813e-05 0.9999826390089869 0.0008625376127091471 0.9991213953420766 1.601237128169878e-05 5.467393258522504e-08 0.894601129205834 1.709750833713906e-05 0.008332594135588196 0.09704917915024089 0.999982498330892 1.746269499245819e-05 1.036350803317741e-64 3.897411545549515e-08 1.618238468689689e-06 0.0007421685357307678 2.16325369845325e-15 0.9992562132257984 5.965574397652242e-21 0.0004090144588928047 0.0006174933298436732 0.9989734922112634 1.299329524979342e-06 0.06558952705413006 0.001397364125507468 0.9330118094908376 0.1166019123376144 0.8833886573896744 9.43027271123689e-06 1.993705556239815e-23 0.001218617721442239 0.6377230540878167 1.611691112810334e-06 0.3610567164996282 0.9098757447341329 5.963270464157758e-113 0.09012425526586713 3.572587102180518e-26 3.145018945958457e-59 0.9999999999999978 1.732873067776647e-80 2.216755982501549e-15 0.9999999999981376 1.721877742165094e-12 1.402142819434774e-13 1.105357798887225e-16 0.904506662069691 0.01762937728956897 1.520233662854976e-19 0.07786396064074003 0.9406829829274759 1.09863335886762e-35 0.05813193350843315 0.001185083564090943 0.005997803796472622 1.169578691314929e-05 0.9257950198210851 0.06819548059552916 0.01272204331895589 0.9808205809788525 2.173436025573848e-15 0.00645737570218938 2.86849664153463e-29 1.269692339104728e-12 0.9999999999987303 0 0.8732544281166374 0.0009107171566114228 0.08081570151321622 0.0450191532135348 0.9849889835753782 0.01500500485514132 3.535459456544173e-07 5.658023534798388e-06 7.899552742150526e-11 0.2008074184428723 9.043137108578402e-19 0.7991925814781321 0.6997851198719255 8.516865767956626e-12 6.831442890835268e-63 0.3002148801195575 0.002629685043187311 6.408098862078959e-08 0.9973702508758242 0 0.8796916963989913 4.796946721034391e-23 1.298811452679227e-10 0.1203083034711276 0.9189917141478404 0.08100828585073183 1.427761115781559e-12 3.792482074390589e-100 0.2933533482924252 8.954465263968619e-72 0.001496406334558265 0.7051502453730164 4.666334645486716e-06 0.6589014176189907 8.288334913280346e-05 0.3410110326972309 0.0004972509893638454 3.042117406962347e-113 0.9994292049658118 7.354404482455943e-05 0.997220063687683 0.0004427216089877773 3.286598816589534e-07 0.00233688604344768 7.87023563508516e-06 0.02930500118559238 0.9706581715589007 2.895701987181655e-05 0.9502595182620192 5.874629088716974e-35 0.006720338426701347 0.04302014331127948 0.01472013324267746 1.575474760708922e-49 3.385367100165875e-07 0.9852795282206126 3.436145972648399e-86 0.9999999999997962 2.965294444995884e-24 2.037735052339567e-13 0.0002196812584161466 6.378168363831004e-06 1.327055355799951e-83 0.99977394057322 0.4571146534344126 0.2365268728365711 0.006999354597914524 0.2993591191311019 0.3044484110876967 0.5926513593422141 5.124410562736608e-15 0.1029002295700842 0 1.37123220474874e-20 0.9180425637790763 0.0819574362209237 0.8299445679231325 0.02013159237913165 2.215867427000432e-07 0.1499236181109931 1.518574170509902e-39 3.488902463208187e-06 3.341721874428887e-12 0.9999965110941951 7.440919428305251e-70 3.011290882112065e-12 0.9838571032234186 0.01614289677357017 0.2329902208409241 0.5627252783404674 0.001374553168830979 0.2029099476497775 5.087037984909809e-06 2.049668266683253e-11 2.12009973126689e-09 0.9999949108214187 0.0004730279602913647 0.9995262573149777 2.848864468688509e-79 7.147247309865234e-07 0.03819647063206444 0.0666573183897906 0.6158113940826518 0.2793348168954931 0.2403054169514027 0.5669937566600566 0.0001609760482099783 0.1925398503403308 0.001456302219367509 0.903756427712144 0.008466856616962113 0.08632041345152629 0.0004535165012553111 0.9994472959137879 8.493532155869335e-05 1.425226339814654e-05 2.263937028838441e-258 0.4337136861429866 1.459055682831112e-09 0.5662863123979576 0.001029637948856212 7.228853151392254e-08 1.533894899787098e-08 0.9989702744236633 3.571222080476872e-08 0.04443166910224316 0.05418386914279405 0.901384426042742 2.172867682164847e-13 9.595631724180203e-06 0.987705513524346 0.01228489084371263 8.931586123684516e-23 0.0002533499463327356 0.1513147174304811 0.8484319326231862 7.770014381613667e-08 0.9997859115859837 0.0002140107028953841 1.097716692208527e-11 1.625072586540032e-13 0.9999379610500637 1.360316392397163e-29 6.203894977365353e-05 6.818859376579157e-21 0.9065834980251474 8.473063704956956e-35 0.09341650197485252 0.0007218115316716525 0.1106645404439514 4.90267619002804e-24 0.8886136480243769 0.04450914235302379 0.02556878002857256 0.7314383508683572 0.1984837267500465 0.2267784830534364 1.876337409458759e-08 0.7722793404209559 0.0009421577622334862 0.0004565769393907704 8.949104971618161e-06 0.9808678819551477 0.01866659200048994 0.02626401339702214 0.0001450227863694564 0.4687901335863744 0.5048008302302341 5.327468150419323e-06 0.004047409222536495 0.9959472633093132 6.913606738110593e-25 0.0001266978648831728 0.9998588389349247 1.363534778827772e-05 8.278524038783086e-07 0.01373675603914605 0.002941395997564139 0.9833217398566596 1.081066301467162e-07 0.03126659166960795 0.02074518382399333 0.9479881172679903 1.072384084500361e-07 0.07161980276882764 0.9278550613692735 0.0005075900146695916 1.754584722908268e-05 0.01189651285080675 0.9880698669952818 3.362015343203217e-05 4.794778035673638e-13 2.823749368838689e-20 0.9999997733103431 9.765709407826531e-09 2.169239475442978e-07 0.6199757580366491 4.906188824252855e-05 6.492229396113117e-44 0.3799751800751084 0.02976888774872358 0.9701670568399986 6.371452035249253e-05 3.408909254071732e-07 0.3619557633020636 0.1313965419316598 0.50664338279995 4.311966326452635e-06 1.488618734067645e-08 0 4.065722321162059e-77 0.9999999851138126 0.273876051841663 1.696447395828039e-11 0.7226084617817911 0.00351548635958144 3.359089938502242e-19 3.359516430659471e-09 0.9999999966404834 9.223870147539124e-32 5.049133718089055e-05 0.9999481592439586 2.910451372980356e-16 1.349418860045963e-06 1.16928994967657e-06 0.6204734281877577 0.3795249254326923 4.770896000356874e-07 0.5776478667322378 5.766005653910566e-145 0.3277315249603852 0.09462060830737692 2.932310298154374e-45 0.9945546299527673 5.234766466846915e-06 0.005440135280765853 0.9994753486974003 2.931028391523419e-06 0.000521720266463064 7.745148197178559e-12 0.01122802684534645 0.01106052963460386 0.0001139060497538471 0.9775975374702958 0.9725409441585486 3.339339460531998e-52 0.005746630628176807 0.02171242521327444 1.522103183875697e-06 0.01319023324112087 0.9772594633098632 0.009548781345832039 0.1341446732623682 7.08912508987159e-19 0.8658553267376294 2.230333291973905e-15 0.01530476836098944 2.892033989266429e-08 0.9553498041778796 0.02934539854079102 0.4184155613479042 0.02226024767152897 0.5593241909805667 6.800132998660418e-81 3.828802199046703e-103 0.06906036900096976 0.5050403256511953 0.425899305347835 0.002501949045348319 4.969557355205823e-05 0.07279102835161509 0.9246573270294844 6.707493811074288e-119 0.0002178889896896946 4.259214983340528e-78 0.9997821110103103 6.693028875144178e-15 0.4176384937556519 6.965602850958408e-09 0.5823614992787387 0.000758426428290656 1.79349046355069e-10 0.8053469530568261 0.1938946203355342 0.2906504054475449 0.5801531366820923 0.0001125314062779105 0.1290839264640849 0.612639095990501 4.397601908705516e-13 0.02831757274115732 0.3590433312679017 0.3246033380667782 2.198733464549207e-08 0.6753590014127978 3.763853308931644e-05 1.909669695429311e-06 0.6058392042927526 1.382243930526595e-05 0.3941450635982467 0.9927712148978959 4.567752527661064e-64 0.001296565217013913 0.00593221988509023 0.9614946132655268 2.805603620507054e-51 1.318883184770737e-269 0.03850538673447313 0.002853729897197067 8.722540487737265e-08 9.416743016147155e-07 0.9971452412030964 0.5943932181416488 0.01061788303148698 0.323534315902713 0.07145458292415129 0.9999737429940978 1.609554819108289e-11 5.493137328926532e-20 2.625698980666561e-05 2.564452550112365e-05 0.0002009954039283326 5.451862348947939e-42 0.9997733600705706 4.696247481515904e-06 0.7444042743342687 2.792845347967308e-23 0.2555910294182497 9.327612380715718e-09 3.491680441065862e-223 3.137668531947188e-13 0.9999999906720738 0.003405928622219387 0.0552004191133349 0.5318985439698132 0.4094951082946325 0.2921570182654581 0.151133627169195 0.5567093545653468 3.387581916421138e-25 0.2020691481398786 0.2209515167786595 4.554192571931409e-06 0.5769747808888901 0.5554598129200723 0.4264123271354932 4.208799645655575e-09 0.01812785573563495 0 0.9827340572314645 0.01726594276837657 1.591762180560732e-13 0.0001987201829992993 0.0001007628985175631 0.9995241361670913 0.0001763807513917658 1.018083706874673e-10 0.9998657779668033 7.800290532462312e-05 5.621902606375966e-05 0.4782661234471295 0.5217338765528458 2.280798277530306e-19 2.495465053547629e-14 7.280132975758581e-226 0.9985645457632885 0.001435454236711562 4.024880274333272e-33 0.0001661961693805897 9.891533793527026e-08 0.00033816835914437 0.9994955365561371 0.7283721604444255 0.1379907971933158 0.007254038297347467 0.1263830040649112 0.9861438943746703 0.01157743018323017 0.001000421476704807 0.001278253965394751 3.779299067556315e-06 2.999521118536293e-19 0.04996162070767308 0.9500345999932595 4.438353380885736e-29 0.9995315068755101 0.0004684931244899858 1.889961972131075e-22 1.354288824608137e-11 2.327263900227473e-05 0.9999766691371623 5.82102924186724e-08 4.049398828816909e-08 0.9999906395281331 9.319977878682212e-06 1.872944445256866e-19 4.654661488944343e-05 4.192850208479067e-23 0.1086627979985584 0.8912906553865521 1.923787719267473e-05 0.4036446012460323 5.088319049619304e-19 0.596336160876775 5.713663627114836e-07 0.2308452647420291 0.7645307573551667 0.004623406536441544 0.9940826060412616 0.004092570898672099 0.001824823053919737 6.14641153128245e-12 0.9924705562924863 1.570656164570428e-10 0.007529429280726604 1.426972139346201e-08 1.715362141423597e-11 0.9999999975654058 1.698240224158617e-09 7.192003444053247e-10 5.591775716700086e-24 0.1283187667088944 0.8157981936451529 0.05588303964595263 0.0001533625897857971 0.005054412202146414 0.05096380346043324 0.9438284217476347 0.00012933894022659 0.04238543745807255 1.89476897655172e-10 0.957485223412224 0.9802289040152221 4.48099623478411e-13 1.876187333644097e-09 0.01977109410814253 1.333282753932487e-05 0.3401906484652451 0.6596356868996411 0.0001603318075744373 0.0008915034090941537 0.9601869081758058 0.03709420406885938 0.001827384346240711 0.0002792854932636289 0.8956948686448327 0.003303653666827906 0.100722192195076 0.007216175287976428 9.730676583746587e-19 0.2206973718251295 0.772086452886894 0.3992671568466728 0.4616771943690476 0.09618631480043817 0.04286933398384155 0.4144355795735897 0.4182844251169032 0.1558231927453305 0.01145680256417648 2.004907405176747e-07 1.782586863333179e-05 0.861130764450239 0.1388512091903871 0.9994897278365895 0.0005102721634105526 4.211423817869237e-54 3.092648706170435e-46 1.866241785212227e-07 7.476485347123432e-117 0.9999998133758214 8.902614605701883e-20 0.9995257464136971 2.362842900522568e-07 0.0004740173006721651 1.340657856883919e-12 1.288734889453804e-12 7.143020183888769e-15 4.959243638490575e-14 0.9999999999986546 0.9923512448286653 0.00727708770443913 0 0.0003716674668954973 0.9982499056965625 0.001750091709700491 2.584187397860352e-09 9.549486557446627e-12 0.0001263712770255774 1.121388246435414e-32 0.9930043503910005 0.006869278331973814 0.0004510408473546296 3.541651545696323e-06 0.987948072175002 0.01159734532609774 7.412984027051613e-06 3.873640134274569e-75 0.04649208694256108 0.9535005000734118 2.189859120555814e-06 0.9823917532520129 0.007262252944552025 0.01034380394431456 0.9980331233489883 6.46713159818588e-08 2.312966603984875e-19 0.00196681197969564 7.912751709418272e-17 0.9995874373767574 5.622201366970194e-05 0.000356340609572879 1.569395013142656e-28 0.4552240599058147 0.544283453706238 0.0004924863879473687 2.213641135114997e-16 0.9964204133469114 6.088561989043482e-05 0.003518701033197985 0.8588892850754762 2.85405925246338e-06 0.07243340965858885 0.0686744512066825 0.0009506560667606261 0.9336289618588336 1.717186756747012e-36 0.06542038207440598 5.436207413581071e-109 0.01787386965393534 1.625469730036662e-117 0.9821261303460647 1.597769157858394e-06 0.8121929481631771 0.01412860254455323 0.1736768515231118 3.245155242761191e-05 1.780422930421986e-10 0.9822189063107643 0.01774864195876585 1.737261051398944e-07 0.9790369625481532 0.02062249804224576 0.0003403656834958825 0.0007427631828161511 0.0917781063429442 0.1684418939242166 0.7390372365500231 0.999999836049459 5.133003128386303e-57 5.217523261198403e-22 1.639505409769214e-07 5.615261162585867e-08 0.9999892310062114 5.197178210970654e-07 1.0193123355856e-05 0.9327656424425076 2.374412422010272e-07 0.06723411364436194 6.471888274287388e-09 7.485217506838998e-194 1.586657584376856e-19 0.9999999874406621 1.255933808091316e-08 0.1677183346050216 9.471257486600411e-07 4.467194907599428e-09 0.8322807138020348 6.149712955959719e-55 0.03038897928041702 0.9696110197126602 1.00692287028732e-09 5.845822342878925e-29 0.9925445705404121 0.001154586429567306 0.006300843030020593 3.059469505244514e-05 1.124066080592455e-07 0.0001659070120254827 0.9998033858863139 0.565336378769203 0.4346539218575754 8.724819439373195e-23 9.699373221552365e-06 1.031153529435837e-47 3.251095567610748e-161 0.9428264815186227 0.05717351848137743 7.888966865399842e-09 0.003104876349208936 0.2242237798796058 0.7726713358822184 0.9951902547331389 3.364753572801225e-07 0.004809408791503702 2.2450611220912e-29 3.641792363199894e-29 0.7100832194031851 0.2872831654682443 0.002633615128570647 0.04271929601286654 0.04178532768813148 0.91198712279806 0.003508253500942009 0.0005872034839169058 0.7096490265356183 0.289763769937508 4.295685087045409e-11 1.184272319890148e-07 7.556126409093348e-14 0.9999431525833317 5.672898936080716e-05 4.599487207710343e-13 0.001449908847093906 0.9985500911524461 2.742863251238503e-35 5.722992548369462e-08 1.41493662377579e-49 0.996193181940614 0.003806760829460478 5.459286201528912e-25 0.9809734078403869 1.236559014147339e-19 0.01902659215961311 0.1593772006021946 0.3322665008162631 0.5083562985815423 6.686891454522095e-35 4.392001672296225e-08 1.828346201176873e-06 8.950432589523028e-24 0.999998127733782 0.001179274524209954 0.995185598690016 4.51961241991018e-05 0.003589930661574905 0.1165996227468045 0.2470809298696514 0.1422752775492343 0.4940441698343099 0.8527110627141059 0.01105347561123002 0.001884533097675581 0.1343509285769884 0.7078196883622738 0.258140228429005 0.001211956800299504 0.03282812640842186 3.667713318441204e-39 0.6419048135575962 0.3536479015837354 0.004447284858668437 0.02976045104226574 0.9672216612280916 0.001610832612762891 0.001407055116879713 0.9999315685861819 6.809666523607453e-05 2.930130602280945e-11 3.347192807837247e-07 0.3175527920366916 8.21820083499979e-08 0.4801824572583174 0.2022646685229827 5.942214921916979e-12 0.3508241374268976 0.6478212631928174 0.001354599374342767 0.2837130458935911 3.50186871062306e-05 0.7162509899197111 9.454995915008338e-07 9.696242685425823e-12 0.9980804225094526 0.001886685890822182 3.28915900290201e-05 0.3424668921070311 1.155222509618295e-05 0.6575215556678726 4.835279931227907e-57 0.07919869604638234 0.584614272205957 0.2236261347062048 0.112560897041456 9.024348933306416e-06 0.8524931295587197 1.221335759308554e-18 0.147497846092347 0.02809198625787458 1.00291734762e-06 0.4598864515222961 0.5120205593024817 1.08771552568689e-18 0.001191972113859004 0.0001115791898341189 0.9986964486963068 0.998479011735298 1.37674719009321e-05 0.0001643318090278767 0.001342888983773186 6.495948004080832e-07 8.135641839392969e-26 0.9999993504051995 1.537690002132349e-106 0.359156738964239 0.5796316587398661 0.061211602295895 2.527071041196925e-71 1.712645339513896e-14 0.1152078456369484 0.8629967906550607 0.02179536370797362 0.9862256083974845 0.01376823932248729 6.152271439793156e-06 8.588417759073191e-12 0.1520091189766469 0.1531064678319789 7.83273860035527e-25 0.6948844131913743 0.1204468138863928 0.8006672993170398 0.07884139149613337 4.449530043386539e-05 0.906154349170321 0.09184873332837479 1.196232219375431e-05 0.001984955179110436 0.8193202171948382 1.412936873259154e-15 0.001660965322100661 0.1790188174830597 8.848028141304483e-22 7.497635278687732e-14 0.3102966625113565 0.6897033374885686 0.606552804682418 0.1105816555645903 0.2828655389180976 8.348942140942054e-10 0.008119978478275551 0.004782766319780918 0.004671246155812355 0.9824260090461312 2.732638962367072e-12 0.9999706462135174 2.9353550307467e-05 2.334425646967068e-10 0.000100571511667387 1.64933622359546e-18 3.24083837033904e-09 0.9998994252474943 0.9996167427774169 1.829983189370732e-27 1.35962940180412e-08 0.000383243626289126 5.11328941229593e-08 0.9999999488671059 1.113896685129853e-20 4.535138297905773e-18 0.04325992991105284 3.132537474476106e-05 0.9561817908196757 0.0005269538945265881 0.4893571573655001 0.5101092799786904 1.127733854250721e-09 0.0005335615280756796 0.000672715277833317 0.9520451031040784 0.0235753968208061 0.02370678479728207 0 0.5237764781785514 0.4762235218214486 0 6.610926856229579e-05 0.0001226887554810273 0.6642180919075925 0.3355931100683642 0.03643908392825342 2.370575841131807e-05 0.9467887040150887 0.01674850629824653 5.210835108569991e-08 2.438195795862483e-16 0.2024196165772179 0.7975803313144306 0.9983141872685984 3.257184082623133e-11 4.270545934810832e-06 0.001681542152894961 7.289310545412724e-06 0.00177054847133594 0 0.9982221622181187 0.8289094120860168 2.915376264647816e-06 4.869058369669082e-09 0.1710876676686601 0.9781417398765923 3.760867843817135e-15 0.02171937668694613 0.0001388834364578732 0.529063900876611 3.476603602892643e-32 0.4632005925718326 0.007735506551556488 0.5311077185008126 0.001305832508086912 9.945600229731661e-13 0.4675864489901058 0.2324649210318768 0.7672497782299444 0.0002853007381785837 1.540333179535783e-16 8.688823209638338e-05 0.1814486829810409 7.560071896218814e-06 0.8184568687149665 0.0417990764384709 0.2964027208694545 0.3113699369224745 0.3504282657696001 2.999831905746712e-10 3.3351230824168e-05 0.0005003322827555793 0.999466316186437 2.829131641452275e-15 4.97208083204251e-14 0.2235971761958493 0.7764028238040982 2.411438156912868e-12 0.9963949228522028 0.00360507714172979 3.65586721390195e-12 0.5242503016646785 0.4735447859699435 5.954278392675984e-23 0.002204912365378169 2.141705061642813e-09 1.251879511100835e-14 2.202044709496333e-13 0.9999999978580623 0.9999999503279896 4.875921908845872e-08 7.27176982095844e-11 8.400735377326094e-10 0.9999976352147832 3.707248038972666e-13 3.271279851947012e-10 2.364457718130201e-06 1.946120504309057e-06 0.9965798281492085 0 0.003418225730287275 0.4902977433258133 7.868781398254672e-08 2.704284429863552e-07 0.5097019075579298 0.002834306492039781 0.0878010516377485 0.9093637458988155 8.959713962897243e-07 0.938740832987679 1.383091778481256e-51 0.05651746695974703 0.004741700052573992 0.9997458492962925 4.65075014217394e-44 0.0002530002625776012 1.150441129937932e-06 0.000790230793642617 5.920796928134635e-64 0.9903908282655457 0.008818940940811664 5.711233802331348e-06 4.373746891913374e-16 0.9999942887661973 1.44539202974077e-33 0.00132951302868325 0.06651944718152374 0.9321122583740912 3.878141570181827e-05 1.958905003566614e-57 0.9999692725546965 3.071787406353577e-05 9.571240069897925e-09 3.566805480463534e-13 0.9999752455472086 1.064852155582932e-18 2.475445243476477e-05 4.298214028611785e-37 0.0002969253431910238 0.007795984821841525 0.9919070898349674 0.1181593175596965 1.015608619660856e-11 0.8818406824301384 9.124998221104158e-15 9.17083021936902e-14 6.668305636069337e-16 0.9342851549854984 0.06571484501440937 0.5723841192265314 1.085323422722998e-42 1.842834934649911e-08 0.4276158623451193 0.09688896786489441 3.134693971758202e-10 0.9029658724152906 0.0001451594063455687 0.003283440878979174 0.2012216044173053 0.004745062773867516 0.790749891929848 3.06330131023207e-07 0.00137155304717192 2.225505260355365e-14 0.9986281406226748 0.5776248036915386 0.2864915938223505 0.135883602486111 5.021100496416273e-56 0.5450184826919473 0.4548959669104668 1.477179132623383e-10 8.555024986799303e-05 0 1 1.093348277062216e-25 7.384899431655551e-29 1.23566627500743e-07 0.2869329521599864 0.001263462424015608 0.7118034618493704 0.1719148947386724 0.8280851052594811 1.846665250854705e-12 1.070130594887615e-58 1.922793701502967e-33 0.06896251231570728 0.9309318775467211 0.0001056101375715066 0.9997613716694004 2.403288001667797e-05 4.582021414008226e-41 0.000214595450582879 0.009100515991706054 0.9908761766767035 1.801508461505026e-05 5.292246975253593e-06 1.77840150131291e-05 0.9609089364942031 2.052677445669301e-09 0.03907327743810633 0.004854237869490657 2.007203131587734e-09 0.9932182199731249 0.001927540150181407 0.9859851741744781 1.077548584665965e-13 0.00045000387497602 0.01356482195043819 0.06284262882270165 0.7155358533984042 0.2216215177788942 5.430380836412683e-28 3.846580499035857e-05 0.5303949550758793 0.4695665791060765 1.305397290145834e-11 0.03160806905121836 0.01636688288849911 0.7524674333589262 0.1995576147013563 0.1857647601442895 0.0001135601144395241 0.8141216797324691 8.802005539456219e-12 0.0105657509212258 5.597184219214926e-25 0.9894342324633862 1.66153880374041e-08 0.007396670700950148 0.05716533875409439 5.548193234987524e-08 0.9354379350630232 3.493277840722719e-09 0.9999999965067153 1.103843141447304e-19 6.815765055299893e-15 0.1955579137412181 0.1969980040718799 0.5976482172967797 0.009795864890122177 0.9957941475591321 0.002139131113086793 1.420479293835118e-08 0.002066707122988032 2.301596517272857e-09 0.4986135197272314 0.4959731275248337 0.005413350446338306 0.2020160305318204 9.679486901153203e-05 0.5296637874364549 0.2682233871627132 0.5824911060851607 3.738226719419896e-09 0.06474754923853718 0.3527613409380753 0.0004769248115912008 1.70122606589483e-37 0.9995230422537887 3.293461987962721e-08 6.037501022577574e-05 5.805812829009824e-05 0.0105549215464794 0.9893266453150046 9.120135241501648e-05 0.6661092835031456 3.941565922617214e-08 0.3337994757287801 2.137553028669318e-09 2.048644445316071e-137 0.9232463605050837 0.07675363735736336 0.01065313955942051 9.970835978541212e-20 0.9792689442505482 0.01007791619003105 0.9737445940657952 0.02090849381744897 0.005343377194942177 3.53492181367539e-06 0.00557975990617072 0.0002531665354604189 2.239353451496709e-34 0.9941670735583688 0.07452182929972921 0.9254781707002708 4.800797387805004e-191 5.085005700242069e-258 8.634202460928808e-07 0.9999989652439818 8.986936540801541e-23 1.713357721221605e-07 0.01540871833706976 0.0003680286408285612 0.9842204241712358 2.828850865876047e-06 2.732300869388504e-07 8.793474536291857e-10 9.290638547859942e-18 0.9999997258905656 0.9822520474282531 7.669585917102596e-05 0.008627957057038668 0.009043299655537206 0.06111704307300405 1.520080378834075e-11 0.002826429980780933 0.9360565269310143 0.005260947873440921 0.0002186743646745763 5.73042865670835e-17 0.9945203777618844 0.0007938519004457502 0.9836908582466366 2.93741826275208e-13 0.01551528985262405 0.0314151402899787 0.308829844616916 2.249775772922942e-11 0.6597550150706076 1.185898159996423e-18 0.7298901055075551 0.2701090143348027 8.801576423204619e-07 0.03455607919097531 2.591516205724558e-05 0.9652625151237746 0.0001554905231928823 1.804842807122569e-14 3.872510111590819e-05 0.001102014602031243 0.9988592602968349 7.656433091162359e-11 2.263673034977855e-06 9.032859271881702e-06 0.9999887033911287 3.8002635527387e-98 3.050919509876975e-29 0.4942205201823343 0.5057794798176657 0.003053288214591124 2.826414726104855e-10 8.354237482598257e-13 0.996946711501932 0.04443342346887601 0.0002643495080780534 0.1622062845189644 0.7930959425040814 0.6194010403873995 0.3790771422213193 6.557966233566887e-21 0.001521817391281095 0 5.441151444309724e-06 0.03354863266088182 0.9664459261876739 0.4875109281873111 0.5124890619595217 4.703143637506699e-17 9.853167200785321e-09 0.9989069279835984 0.001093052530537504 1.948586417665726e-08 1.163770656591525e-19 0 0.04709691829793975 3.349541074784304e-36 0.9529030817020603 0.5231414652381935 0.4768585347611933 6.132204657129214e-13 0 2.447588490120325e-51 0.000193922455706165 0.9991784844567894 0.0006275930875044963 0.9999995666333665 6.812487693004643e-35 7.596241649784297e-11 4.332906712059701e-07 1.398002795473963e-23 0.4416671912504521 0.000206902833974331 0.5581259059155737 0.0006948005835656635 0.9629964246578345 0.00178984994902872 0.03451892480957114 0.0007971295224409727 0.6728975420926482 1.351281413824004e-05 0.3262918155707726 5.795737856452565e-29 1.420116801858839e-62 6.267698646793315e-06 0.9999937323013532 0.006568257907120796 0.9934317420928791 9.054689854016223e-76 4.901053119980056e-24 0.0004493569010707533 1.099073998327038e-08 0.9992725585696792 0.0002780735385101339 0.009055463729146764 6.721269581237653e-08 5.803699242096389e-18 0.9909444690581575 1.46318011755198e-15 2.327206742260781e-05 0.999976727932576 9.128074258030148e-121 5.936792734325421e-05 0.1401003185971726 0.8598403134754842 7.311649269824508e-17 0.002587291143149996 2.443061978434149e-09 0.9974126868872207 1.952656734830026e-08 4.526536868029842e-05 0.9999547306837043 3.947614169686203e-09 1.191331666717281e-15 0.003122351765010003 0.9892594297590896 0.007618218475900371 7.274160277054879e-32 5.925385748372441e-05 3.376330887973104e-07 3.203389341297117e-13 0.9999404085091071 0.008367828352685429 6.312121915379643e-10 9.516997201218132e-10 0.9916321700644026 0.0002374847091156799 1.211606331644394e-06 0.8646672783697285 0.1350940253148243 1.49380841141264e-20 0.02574881687331501 5.495041898584699e-16 0.9742511831266845 5.383356076653236e-05 1.079543778083643e-23 6.823573999436788e-05 0.9998779306992391 2.902277385705013e-10 0.9782279546521125 1.673934983167188e-06 0.02177037112267663 0.9999987007767136 9.976388283525571e-10 1.298225647711379e-06 1.476466704751176e-17 0.01368472210784902 0.4148192891945506 0.4791741241859535 0.09232186451164678 1.537544600724157e-05 0.999984546283753 7.991479086146882e-31 7.827023969845387e-08 0.0005145897764123185 6.216967354163656e-20 0.5245213900037771 0.4749640202198105 0.223968544542768 0.008901659368784313 0.5337957095603427 0.233334086528105 0.0002194675593110265 2.068893436017781e-06 1.011603632915385e-06 0.9997774519436201 0.5321422954198222 0.002887814928280752 0.000129407623371179 0.4648404820285259 0.7359218333155235 0.1672099935015812 1.523952027883461e-10 0.09686817303050013 2.573601526223005e-05 1.1397349531173e-07 0.1384011045477536 0.8615730454634889 0.2060453531542829 0.01936857622418071 0.0004711638289614521 0.774114906792575 0.22176071245023 0.004739281812008815 0.1648512993256656 0.6086487064120956 0.9805403260488099 0.002666956842024703 0.01679267418979819 4.291936728564021e-08 0.01798079254860867 0.982019144659694 2.70244515089511e-14 6.279167028044664e-08 5.104746123601521e-35 8.287841639242759e-05 0.001178344910570492 0.9987387766730371 0.06165322856144489 1.171205108712861e-08 0.9383345094977733 1.225022873068286e-05 0.01472358244190107 0.815580033803935 0.0002838365764105794 0.1694125471777534 6.423528361775683e-08 3.414893574146625e-07 4.787530820473966e-08 0.9999995464000507 0.9876824135236864 0.01125608229543892 0.001046921912560747 1.458226831393144e-05 0.9535329389307455 0.0001029546091488355 0.0003678441373708414 0.0459962623227348 1.459728112015073e-21 0.9553405977998144 0.01774968064822219 0.02690972155196337 7.164501147809961e-09 0.5249478741504301 0.3415479829576024 0.1335041357274663 0.02068410448142769 0.9763081794887569 0.002964864665685137 4.285136413020981e-05 4.958262236905979e-08 0.01190861451329467 0.9880908543499303 4.815541526454368e-07 0.1655717860520482 0.8344266740913304 9.949831318664011e-07 5.448734895657519e-07 0.9983190873504302 0.001513387236807616 3.366666694271577e-06 0.0001641587460680477 0.004281007594593273 0.9957189924053576 4.913908456425971e-14 1.1005587464835e-23 1.465994457096869e-06 0.9179929374211799 0.08200559658370936 6.535373616618377e-13 0.001795152627868216 1.941348436200919e-16 0.1933748335543978 0.8048300138177338 0.7076397893747604 2.096335089471863e-08 0.0002019821353067005 0.2921582075265821 0.0007104099673772592 0.8727785832721197 0.125907672233793 0.0006033345267099217 2.646992776055556e-26 4.313074136361658e-05 0.0158543340264675 0.9841025352321688 3.034283849982031e-14 0.2987218320379452 1.026986438097751e-07 0.7012780652633805 0.3723718116423238 0 0.0014465313685015 0.6261816569891747 1.741651721529249e-10 2.984260270648791e-08 0.9990902994394359 0.0009096705437960975 4.616633306067056e-92 8.369611470299379e-234 0.8947158653424433 0.1052841346575567 1.632441972545326e-18 3.918090555135482e-12 0.04965022966946204 0.9503497703266198 7.104096899315891e-06 0.1947407819025591 0.8052521140005416 9.905984862754019e-18 5.690619586043645e-07 0.9996619227637068 0.0003375013690330173 6.805301543593643e-09 5.637988021741134e-31 0.1315112968172787 0.8117521010403741 0.05673660214234734 0.00274052283408787 1.892214859115217e-07 0.9972592879444263 2.129903768130665e-59 0.0001308128680600608 0.02293586287056974 0.4556303539802286 0.5213029702811415 0.01248528436823533 0.04176040643092299 9.895339848876663e-17 0.9457543092008416 0.4852074422509456 0.05327439655672448 0.4570182957264381 0.0044998654658919 2.046154852750936e-19 0.9999999999991893 8.108037356614061e-13 8.444159171952223e-92 2.366297790956996e-06 0.9999929724375737 4.661264635410288e-06 4.198812222187328e-22 1.018473554736699e-05 2.130818562645103e-05 3.675590943230568e-06 0.9999648314878828 2.225806845777576e-52 0.1731695299661084 0.0001807081199098372 0.8266497619139818 2.652912902892349e-05 0.1308185975777537 0.02355237637282562 0.8456024969203918 0.9987249171081256 0.001275073531846996 7.677865556920261e-09 1.682161779882421e-09 5.206403609436949e-07 8.810635287924662e-18 0.9166397850447537 0.08335969431488521 0.1779047718398798 0.005855965130363645 0.8162392630297127 4.374275534574566e-14 0.2015813821402437 0.002330077212793938 0.001754235435331224 0.7943343052116312 0.1260373519868722 0.002338234497409535 5.931269315293048e-05 0.8715651008225653 0.9999684241861531 3.156446916509016e-05 1.409361773185903e-34 1.134468184844558e-08 0.1186205172077338 0.8813043721755149 7.375999339762544e-05 1.350623353545007e-06 1.737537504572376e-12 0.9999999999982624 4.447076915623052e-151 1.035868428363502e-88 0.354168348046606 0.6457193593652448 0.0001122925881493072 2.072627978167276e-17 2.681219594049484e-07 0.2101954654963726 0.7087564694152518 0.08104779696641617 0.00186160637214015 0.9981355102418342 2.150051118679495e-08 2.861885514247766e-06 1.207342713367122e-108 3.479940230379388e-49 0.9523056077982753 0.04769439220172467 0.7354701665841217 1.851643723021906e-10 0.2645185481893118 1.128504140213655e-05 0.01162495381241481 0.01143381928955905 0.0001133706842992767 0.9768278562137268 0.9998439893932947 1.326150505186166e-28 1.941123850863096e-09 0.0001560086655814263 0.9498623646807691 0.05013745136285766 1.839563732773941e-07 1.81601803540052e-36 0.7167889745198691 0.1282000966570337 1.59608101071952e-18 0.1550109288230972 2.177177301525378e-41 5.155410963611578e-14 0.001426623138541109 0.9985733768614072 0.0001973265051598961 1.327293024142103e-06 0.9998013462018159 7.15249587815889e-32 3.665926080648616e-68 0.9969618276094749 1.88781825907107e-14 0.00303817239050629 4.208787961738032e-37 0.7937072778383307 0.2062884192947168 4.302866952473457e-06 0.9170381958478537 1.390772433913302e-11 0.006906160602882083 0.07605564353535645 0.6025971149778288 8.089762939073756e-39 0.3974028631706402 2.185153101404349e-08 0.9965061581570431 0.0004187879417333515 0.00307505390122354 8.82351899103036e-21 0.06957273009517201 0.01746983762453041 4.378559567688522e-35 0.9129574322802977 0.4470363292073197 0 0.552963660185854 1.060682647259198e-08 0.9999978150077362 2.184992263844026e-06 4.138652017721497e-27 1.864506076545728e-24 1.319748408838709e-21 1.921040240859076e-06 0.9999980729593981 6.000360797388936e-09 0.0001781976843613535 0.02889605367093833 0.9709257486447003 6.95309014886925e-313 1.783985791765755e-43 8.454947065864644e-05 0.3364187572770529 0.6634966932522882 4.463883161067783e-12 2.907680613776638e-06 0.806288705801989 0.1937083865129333 0.001493435987534863 5.851290768516027e-07 4.734559226969083e-05 0.9984586332911185 0.8283369566078553 0.1716629751329564 6.67763994859137e-08 1.482788917898676e-09 0.8386659874363479 0.1613340125636498 6.34253609804493e-247 2.227120248186998e-15 0.007340752888150104 0.8505033869428529 0.1421558601689971 2.650281478278383e-29 0.1238228101452184 0.3013524054290695 5.089558753111745e-23 0.5748247844257121 1.059139333511626e-12 0.9979873373227683 3.072986126491427e-05 0.001981932814907632 0.999953051664492 1.626458267218173e-10 3.624687416291259e-14 4.694817282578957e-05 3.962503430134829e-11 0.9997266325207141 3.411119348505153e-28 0.0002733674396608505 2.593675877591614e-08 0.9998883739918015 1.343236408289528e-40 0.0001116000714397768 0.2347266618229173 0.1339415974222359 1.074427819822823e-09 0.631331739680419 0.0221356333501284 0.5300736453401611 0.0005227717958506153 0.4472679495138597 0.001323809732391414 0.6793937566190741 3.259862625548702e-214 0.3192824336485346 6.888262745509496e-14 1.27089390644306e-193 8.690098612588545e-50 0.9999999999999312 5.688431950708098e-07 6.950123068573466e-36 2.508019322676335e-20 0.999999431156805 4.08325550352557e-12 0.9999999736085714 2.474858779286579e-08 1.638757319411307e-09 3.83653848823453e-48 0.9832519227354933 0.0167480771386528 1.258537079353171e-10 2.25471047452027e-06 0.0009973906931348257 0.999000354596159 2.314430891533013e-13 0.8727551168699543 2.512912241029808e-16 0.1272448831300454 8.424055218937454e-35 0.06642776657192657 6.267134647354397e-20 0.9316629568605826 0.001909276567490907 0.07691755432015374 0.8229805823246797 3.078745533638727e-13 0.1001018633548585 0.0001569052835691737 0.01011262179346821 0.9897304729229626 1.411443084624004e-97 1.083687557813991e-10 1.133149952214936e-07 0.006067207503955199 0.9939326790726809 2.405997807721539e-91 0.9999936405386517 6.359461348207347e-06 0 0.08693447517958647 0.9128252733889717 0.0002402376847422781 1.374669948791052e-08 3.716346076429541e-06 0.9996407759937022 0.0003067248740135327 4.878278620792383e-05 3.721727823477909e-08 0.1905247630370515 0.8094751997434334 2.236798592580156e-12 0.9983049923773994 0.0007222106181708736 0.0009723391440919742 4.578603378133228e-07 0.08373870617450183 0.9107667982549984 0.004920993758709496 0.0005735018117903964 0.9869723260889746 0.01089025049349821 1.403046428783608e-10 0.002137423277222536 0.2313565145662754 0.766213526028776 7.658476768770629e-06 0.002422300928179931 5.764305154764767e-18 1.210261753931687e-10 0.7990717262088042 0.2009282736701697 5.382741592399848e-11 0.09554525875608019 0.0005912449171283312 0.903863496272964 0.001368591524039292 0.0005732247178267809 0.230613221706607 0.767444962051527 0.004012593572798897 0.9959874064272013 8.461129624041336e-53 4.832721412780345e-20 3.146321842352168e-06 4.852164459068071e-25 0.9999968536781577 3.594717350295193e-30 2.064514064760494e-06 1.824256884513733e-13 1.851853591042907e-10 0.9999979353005674 0.03272724009291782 2.622713577097495e-10 0.1891577889661216 0.7781149706786892 2.291815393782841e-28 0.8835034972018093 0.1164965027981907 1.636152440807851e-238 1.838768700655369e-05 0.0001314386124629661 0.9998501737005304 1.546341690561434e-89 0.003175474170786284 0.5344706776160751 0.4623174729170774 3.637529606130248e-05 1.379064162401886e-26 0.000249005882014084 0.9997509941179861 3.14129640823165e-43 0.843911611826082 8.674454589693612e-05 0.00337039868351073 0.1526312449445104 0.0001723107080050965 0.009631398986421224 0.9749867886914598 0.01520950161411379 1.000796787821283e-05 9.536317039129579e-12 0.2657008286528942 0.7342891633696913 3.007947574224746e-05 0.7172297998084475 0.2827401207158102 5.320793162117737e-56 0.009181283997699739 0.9338149161071471 0.04319258380641636 0.01381121608873684 0.5661425391649971 6.452842822317747e-06 0.4316542849673277 0.002196723024852676 0.001473009406182861 0.009968749952851427 0.7644660519473011 0.2240921886936645 0.01043681522896382 4.578796490292005e-13 0.1819339952689736 0.8076291895016047 0.05361270103650496 3.454299447214419e-13 0.9463872989631497 2.307696336059521e-27 1.408832447762379e-11 3.849303252825872e-13 0.9832214294848428 0.01677857050068403 0.5814005176883965 0.3487255067041902 2.845566895814842e-36 0.06987397560741344 0.0001265499048316386 4.473098359869876e-19 0.04011170566371782 0.9597617444314505 0.04089714650744295 0.9573860946157734 5.505136757687247e-05 0.001661707509206899 0.3942859170346315 0.07102185750255589 0.02800719663540364 0.506685028827409 0.001192577084186687 0.9984654441836969 0.0003419787321165265 8.386918968612539e-54 9.45712719018166e-07 6.717701794201948e-05 9.631110450082378e-13 0.9999318772683758 0.05187505385638951 4.248847419914775e-10 0.01200107365290089 0.9361238720658249 3.829149448934901e-125 1.370638251126694e-20 3.273556040095531e-13 0.9999999999996726 0.004459720523433657 0.9955148058604848 2.547361608159229e-05 7.810657547295333e-30 0.0007990531196435607 0.05630964959183547 0.6746002307187613 0.2682910665697595 0.03025825240009804 0.4778834642967197 0.004394025227196779 0.4874642580759854 5.554967630271752e-07 0.0008728157661510723 0.9991266287370859 4.580414768889857e-35 0.9342127535224972 0.05915996676975387 0.00544616212020539 0.001181117587543637 0.988859017615088 0.01114098238491153 3.793580624224725e-16 2.964714547870379e-47 0.534105496141028 0.08831963774814502 0.3116321768225335 0.06594268928829357 0.0331878955506678 1.48581146436905e-17 0.9668121044493322 3.246448368612601e-81 0.9999999994807243 3.785354582242837e-11 4.814223028052758e-10 8.658242626975231e-100 0.0005652338359308286 1.113799846628238e-10 3.820267337032656e-06 0.9994309457853521 0.001128212541489095 0.9988574481792366 1.433927927425572e-05 1.335135668629829e-16 2.447213990876994e-18 0.6522407714122919 3.655938789335926e-11 0.3477592285511488 0.7680875858251823 0.06423659589100736 0.02981867955407332 0.137857138729737 0.007721377054095254 1.983297351551877e-06 0.9922766396485531 1.530004003073739e-30 0.6669063366326959 5.405447792304259e-16 0.0002985410522127414 0.3327951223150907 0.03322697836443406 0.1062291220376031 7.85059974279881e-19 0.8605438995979627 0.9999983099757569 1.690024242619123e-06 8.506450492659808e-20 5.496058996051344e-16 0.003072617012160344 0.1053302058204817 0.8915971771672926 6.533277510254251e-14 0.8221075648864787 0.1778796972243382 1.273786723956744e-05 2.194362636130356e-11 0.0001503322904823822 0.06930143364147548 0.9305460530639752 2.18100406685709e-06 0.2057084355121325 0.0002212380664401347 0.3954475061211763 0.3986228203002509 0.9988880819944504 0 5.389226436000697e-14 0.001111918005495676 8.794676428145545e-12 0.001572916085534895 0.9984270839056706 4.877020881382662e-130 0.3475643393014803 0.3862381062291706 0.03648251849585975 0.2297150359734894 0.9995461315164594 3.345040542276989e-05 0.000420418078117881 5.391770697740887e-23 0.0002481419678415854 0.6752511378591559 0.2090468206584973 0.1154538995145052 1.300251797801226e-120 1.21842855526956e-07 2.246544859857401e-48 0.9999998781571445 0.000169513604956682 2.869135326091872e-25 0.02613347408321801 0.9736970123118251 3.511091186877523e-12 0.999996691600774 3.308395715131117e-06 6.676585556987694e-53 1.174738401248668e-09 0.9473192789948482 0.05267608581483896 4.634015574337757e-06 0.0211138583391597 0.8682502096421791 0.1106326573981867 3.274620474447616e-06 0.0550630798546774 1.015949726182941e-19 0.3929544423372521 0.5519824778080704 1.652980211713914e-06 0.001263123395612843 0.9985567342639912 0.0001784893601844363 0.04067132352757347 0.08921668124561234 0.8701111051190004 8.901078137462084e-07 0.3575590845914873 3.597731552697601e-39 0.6424409154085126 2.22661054215496e-54 0.1620061484360145 0.003028392660258417 0.8348687753768663 9.668352686093172e-05 0.1888058056892466 8.965424816812102e-10 0.6973739376433981 0.1138202557708129 0.9999519019337032 4.788309390880807e-05 2.148401851998187e-07 1.322029577098573e-10 1.777476175431493e-08 0.0004922573061352758 0.999507724919103 2.028331446961106e-82 2.379892186452753e-245 0.546031333435684 1.324223669701345e-10 0.4539686664318936 0.4700120510148711 0.09015300452498035 0.3780817837552462 0.06175316070490246 0.2307393061435172 1.720432580962234e-08 7.304635306016098e-12 0.7692606766448524 0.03469810118666273 0.001530079989738592 0.00476433447727481 0.9590074843463238 0.06052167535649149 0.9394781395717097 1.850717988221693e-07 7.336515607170635e-22 1.617755832397134e-18 0.9999584768576367 1.715741770338487e-67 4.152314236326292e-05 0.8712669512048988 0.0989326277421715 0.02976128727474027 3.91337781893316e-05 0.9999384069371052 6.109988295591424e-24 6.159306288908953e-05 5.766631111708562e-15 0.00523643366656242 0.007195984910984202 0.003543228044270502 0.9840243533781829 0.999758002712513 1.87857443960822e-05 8.407237854393675e-05 0.0001391391645467603 0.8759674416280698 5.256373436272581e-05 9.700920283869923e-20 0.1239799946375672 0.0006864645975013012 5.574775353855995e-08 0.9992629440229235 5.05356318217787e-05 8.36752783336687e-84 0.3482370194940707 1.914043500579551e-07 0.6517627891015793 0.9970447487308559 0.002690667911881781 4.711472905729223e-09 0.0002645786457893994 0.116314376214736 0.167209798202974 0.1144182108489826 0.6020576147333073 0.8984525347790451 0.1008155140784275 8.256614287056033e-10 0.0007319503168660764 0.05259667627081403 0.001086823250704361 4.484189644665879e-08 0.9463164556365852 7.274654465041114e-11 0.03431578220460734 0.05739412666687813 0.908290091055768 0.9999989367521585 4.503555465453775e-07 5.853213215848493e-07 2.75709735571724e-08 0.4736409004082386 1.592774358365441e-07 0.483635839922264 0.04272310039206138 0.08831094774494475 0.01699597947141923 1.449860331312624e-06 0.8946916229233048 0.9700681439762047 0.01025331849631378 0.01967853752748155 8.723631707903117e-40 0.003888711344074845 0.02905104220309011 1.924029714381766e-46 0.9670602464528352 0.9998358742212582 1.630742669882105e-16 0.0001341056634791662 3.002011526250012e-05 0.0001824570169010969 1.687322048276467e-05 0.05285623938447134 0.9469444303781449 3.781930489303154e-06 0.8984626784429186 0.06296511977579808 0.03856841985079396 0.0003274032428676116 0.9996725967571324 7.89484736581589e-20 5.69129191921253e-167 2.930227918982597e-08 0.1365561102545595 0.7229879884238237 0.1404558720193375 6.281207298421666e-39 0.8121970161637595 1.902092848748616e-08 0.1878029648153121 0.2434171960210217 2.230420240929166e-34 0.756484512367736 9.829161124232495e-05 1.317820280301426e-05 3.44843086097714e-58 5.126146265140428e-25 0.9999868217971969 0.03059849787255031 0.07980258232237769 9.636259016557126e-20 0.889598919805072 0.4587373484762446 1.111557084023767e-32 1.84573003138383e-08 0.5412626330664551 0.0002871552722394873 0.231958706147402 0.09473018904252505 0.6730239495378334 0.981587059403202 0.01345302287378992 6.247638051122049e-06 0.004953670084957154 0.9302125975505424 1.426874751099488e-07 0.06978725455218956 5.209793003402294e-09 0.02836337460846386 1.797796556853191e-07 0.369615352551759 0.6020210930601213 0.003224606084820542 0.0005138585370680664 0.9962615353781109 5.042448991556668e-16 0.9992690657487413 5.714341875474004e-07 0.0001331896680626771 0.0005971731490083853 5.837779311081388e-10 1.413124024945264e-07 0.001496481814836051 0.9985033762889836 1 3.077290832851574e-43 6.243851118786068e-20 9.790258923604137e-164 0.09524485385732391 0.9047551461420105 4.078825193284377e-16 6.652171176378892e-13 2.12033308288187e-09 0.9869777323987117 0.01092787224785424 0.002094393233100947 0.985364029859607 0.01195968712047821 0.00267627804212211 4.977792462700386e-09 0.01473689136070747 0.9852338814882329 2.922702368402992e-05 1.273755387126087e-10 0.02916706620793335 0.2029504050200035 0.7678825267280756 2.043987497165589e-09 9.749763673625894e-110 0.7903864907744509 2.609765621952166e-06 0.2096108994599273 0.9999769483386793 2.117459196636094e-05 3.49176013407055e-14 1.877069319315062e-06 1.112777553911512e-08 0.9999999888722244 7.471100878670103e-27 7.07493618330164e-36 0.9426677840928513 1.909752632035395e-11 0.0523940297141102 0.004938186173941044 0.7131351115258243 0.0005586512395394771 0.0008293059103944768 0.2854769313242417 0.9593298033357839 0.0312579694458556 2.023312205455009e-08 0.009412206985238583 2.0330647101653e-12 4.86641893889306e-14 0.003027334237877397 0.996972665760041 0.00253916716236219 0.003653410511265351 0.9938074208196603 1.506712067770028e-09 2.546797473517973e-110 0.9966243281536699 0.001556252694858726 0.001819419151471325 4.251908098892093e-15 2.068317382314163e-15 2.808159253971115e-05 0.999971918407454 0.002921564976041834 0.8467463523849648 0.1503316072303474 4.754086459821274e-07 2.144814207840207e-13 5.574404231512942e-09 0.2757930240931719 0.7242069703322094 6.980140160822136e-24 5.935052262910111e-09 4.364315556344965e-34 0.9999999940649478 1.765327955300325e-08 0.9993193573670459 0.0006806246213136372 3.583609524826341e-10 0.9817865307214174 7.761641979352235e-10 0.01317708229376689 0.005036386208651412 0.8604791137505912 0.003542261634856972 0.13597862460973 4.821964044249903e-12 2.302222850909332e-09 1.293106199305412e-06 0.00116289729772672 0.9988358072938512 1.238402045076603e-08 0.0001723507793511764 0.9998276303354074 6.501220741395235e-09 6.102195947861845e-19 1.181949180719483e-05 2.847873489705347e-05 0.9999597017732957 4.608158142424047e-08 1.956039869087515e-05 0.9998723462861121 0.0001080472336156515 0.7796749144402116 3.801282644791119e-09 0.2203250817531598 5.345866043433205e-12 0.7307211121003842 0.2689253478488978 6.91930708746986e-25 0.0003535400507179613 0.2151908254647926 0.7838377467673425 0.0009546564834903866 1.677128437441361e-05 0.02282327318711505 0.9771761805383083 3.595692559145118e-45 5.462745766734634e-07 5.544053364718704e-05 0.07268171895445004 0.9272585065044533 4.334007449361365e-06 0.9991248379276525 7.917162479269751e-05 0.0007731410160503552 2.284943150445884e-05 0.9991302421777623 2.527017687687205e-06 0.0008671644719549412 6.633259522116424e-08 0.9076170172239036 1.584729636221703e-06 0.08519740458027933 0.007183993466180716 0.007778155551380513 1.413222733391259e-11 0.9922218444344872 5.100979934744408e-32 0.02115866039322249 1.43516728579409e-06 0.9788399044394916 3.517740617358206e-23 0.1517974994440578 2.604364838429058e-09 0.8482024979510846 4.928003175081632e-13 0.8624131944920149 6.165228335393449e-11 0.1271707215352346 0.01041608391109805 0.001982694901092089 1.999424551194829e-05 0.01004758155809627 0.9879497292952997 0.0005199842303713417 0.0001493516531613853 5.717102993264304e-10 0.9993306635447569 3.163083518802714e-45 0.1859072817004352 0.114116705248732 0.6999760130508329 1.567195777492495e-10 0.9864693682420973 0.01353063160102324 1.599124827886558e-13 1.248432445419717e-16 8.378941504680059e-18 1.354061268875615e-07 0.999999864593873 0.02042868372179069 0.7963951068493876 0.1772155882352288 0.005960621193592749 0.9999976712665297 8.976661521393912e-11 1.116960543394514e-07 2.216947649255268e-06 0.9999999814387244 1.85612581789541e-08 1.730521509590463e-14 3.083559441301752e-73 1.121976387060975e-10 3.046438917247706e-05 2.215588104342787e-08 0.9999695133427489 0.03037830790610642 0.9690278353908088 9.971886433915404e-11 0.0005938566033657489 0.923072972900046 0.07692702709995317 8.768189503724041e-16 2.687309557920737e-33 1.111827300681949e-14 6.32305890016994e-10 0.6058365660632589 0.394163433304424 1.404858001867458e-06 4.155293941615296e-09 6.297284514661205e-09 0.9999985846894197 0.06362079743410369 0.9112978423241808 0.02505300553563657 2.835470607893661e-05 0.5306666162133081 2.430113156656331e-07 0.4693331407753762 3.049573518136754e-195 0.3042668010572576 0.6662839775795585 0.02944922136318397 6.187598093586029e-21 0.4001192502561621 3.236833798661212e-48 6.685164766941694e-08 0.5998806828921902 7.491339559501725e-05 0.2428506601062922 0.6073070629082524 0.1497673635898603 6.901420584286993e-07 4.476606312639072e-06 0.1335510631836697 0.8664437700679593 0.9779088072424191 0.003508704304934777 0.01289055109353323 0.005691937359112889 0.1628853531578739 9.020527062285065e-08 3.487309892553222e-07 0.8371142079058662 0.9597858674825701 0.0221503686911616 0.01806376373954162 8.672677865930477e-11 0.0007400499640917424 0.0003630523443182437 0.9963831030382497 0.002513794653340341 1.552909264985739e-15 0.002755356106831007 0.9972446438830935 1.007396038601297e-11 0.9935134388970881 0.006471728599310151 1.483250360173406e-05 1.502553050995159e-91 1.525057948514869e-05 0 0.04103592996747686 0.958948819453038 2.92762480745792e-29 0.002055582442743374 0.997944390044493 2.751276360012004e-08 0.01444559165667554 0.4966997213156632 8.869512078396438e-06 0.4888458175155829 0.01011168687478004 0.1301225508251684 0.4168977843963182 0.4428679779037335 1.003660860540282e-40 5.41420264409551e-27 0.9339550722052941 0.066044927794706 0.2283964327471376 0.5648032845860078 2.026428368642074e-08 0.2068002624025708 0.4422701719187005 3.141749112351755e-05 0.5576971012110226 1.309379153217943e-06 2.784045154926527e-11 0.01113387886980317 0.9888661211023546 1.822051447585674e-15 0.9999243799220278 6.990476403311224e-05 5.715313939018523e-06 2.806990855375999e-47 0.8914822802452201 1.223479178842073e-11 3.879079649023267e-10 0.1085177193546372 0.02094284689023598 1.737474888177154e-08 0.9765499596039436 0.002507176131071406 4.236386892306771e-43 0.9999999999976021 5.507898203343492e-13 1.846873569208859e-12 0.0003130714734860253 0.9996507605307539 3.616799576022182e-05 2.770644665711538e-25 0.8269732462014964 4.087735431031181e-07 0.1730263365108304 8.51413024857537e-09 0.4349459600033542 4.494743020062123e-17 0.0008589165962530472 0.5641951234003927 6.255947116294383e-15 0.01444852385270723 0.9855514761472864 4.565186123220843e-78 0.9999710158879863 2.846488521000612e-05 1.24659795610629e-11 5.192143376336383e-07 0.9925223367359577 1.674872664930181e-75 0.007477663263124706 9.177003611345502e-13 0.06267317584724404 0.1487748434462982 0.0008349244388630364 0.7877170562675947 0.6965520001427161 2.708820846180584e-12 0.3034444317936683 3.568060906681173e-06 3.377830068812475e-06 2.09595849785205e-10 0.06900983447423183 0.9309867874861035 0.9750010871672052 0.002486228610146443 0.004787331186892513 0.01772535303575584 0.9718361719535709 3.235292408158336e-12 0.01340822393780704 0.01475560410538677 0.3180604888009316 1.857165695702115e-20 0.6819386554240784 8.55774990033754e-07 0.003351470303567119 0.002017335380699192 0.009989378763567341 0.9846418155521663 2.698964277056902e-05 0.7262870339148245 0.2376278835451953 0.03605809289720958 4.049144023437516e-20 0.08521575770493203 9.069138058884509e-16 0.9147842422950671 3.003233834042452e-05 0.9417348510476293 0.02670526286915349 0.0315298537448768 0.9932850944663734 1.150009911758376e-22 0.003947180369584298 0.002767725164042428 0.2057245229535386 0.7941732649720458 0.0001022083392470748 3.73516845396939e-09 0.7233771184507602 0.2749323275072871 0.001690554041952593 5.69022909095168e-41 1.13612828683721e-33 0.0007247910599930367 0.05313817190710945 0.9461370370328974 0.9996308252935555 0 0.0001529926947072986 0.0002161820117373066 0.3723160945586829 1.813514684873988e-05 0.5779005966656681 0.04976517362880031 0.02158533456508405 8.665673237562038e-09 0.9648219121555199 0.01359274461372288 9.177805641060613e-10 0.0391206541272595 0.9608221225532347 5.722240172535177e-05 0.1617421082339071 0.8380895774923208 0.0001682968755700373 1.739820195400643e-08 0.005519248674938256 0.374737285525212 6.080328531813409e-06 0.6197373854713178 5.245368170299595e-07 0.558038888790639 4.436505019045411e-07 0.441960143022042 0.9974654395243947 1.39883842737513e-16 0.002534560473181788 2.423197789893995e-12 0.3496526216158831 0.3058758326456003 0.008551387201785814 0.3359201585367307 0.03415352934327735 0.8051068628866194 0.1538787680615002 0.006860839708603191 0.1121661113000336 6.979458797739667e-150 3.37526110642183e-07 0.8878335511738558 1.174670378613816e-22 0.9999997847257123 2.15274287685146e-07 2.904307383328723e-34 0.9999968579365024 3.134877098486706e-06 6.168124638249326e-09 1.018274559224298e-09 0.02999462213467163 0.9281040613625103 0.004036491637653648 0.03786482486516431 1.586642633138127e-06 0.4224065177477621 0.004578621333472335 0.5730132742761324 4.312272871543844e-06 2.723006747805044e-14 0.01952583705489692 0.9804698506722042 2.925790668010566e-15 1.038410299910495e-06 0.7819503208150578 0.2180486407746396 7.717249288010705e-81 0.01095078040242343 0.9813711597026061 0.007678059894970452 0.9721353726971691 8.652066742718907e-09 0.002087748215156207 0.02577687043560801 0.8149400560790362 1.690958963717836e-10 0.1850599437518679 3.6300985553024e-63 0.005460903766122689 0.4110147240751325 0.363168592528162 0.2203557796305829 3.012151877540321e-08 2.596344983964261e-07 1.483334160957715e-16 0.9999997102439826 8.953626841567457e-06 0.04077801741533391 0.9592130289578245 1.649321645834976e-63 0.1701282314206558 0.8296422907423298 0.0002294374015331739 4.043548115141586e-08 0.2617707184203651 0.7378311950703268 0.0001650200805568563 0.0002330664287511561 1.16800653670983e-92 1.441359728349483e-12 0.0006189077049076142 0.9993810922936511 5.335537995048217e-05 1.843854611971568e-16 0.9900200325858806 0.00992661203416882 0.02566440346695984 2.021578339177359e-06 0.9703789452966796 0.003954629658021387 0.03680492447724328 7.542969601023381e-12 0.1251908859667285 0.8380041895484852 2.528919459280773e-05 0.1548747777569698 0.8450999330484374 1.380912367064695e-104 0.4316267953166095 0.04430262720174447 0.01350492129198392 0.510565656189662 0.003232062746583997 1.459330153021241e-15 0.9967679372534145 1.124279708062247e-71 0.009064132433877804 0.9901841592534079 8.277763702509616e-18 0.0007517083127143472 0.7631111450894299 6.045603182013667e-07 3.080318946905337e-25 0.236888250350252 0.03158348737658612 1.711797103298718e-05 3.281211698100368e-32 0.9683993946523809 5.66360744840021e-07 0.4832213974497218 0.5167780361895333 6.288187612250677e-18 0.4912557452823058 1.56678402992758e-06 0.5087119364473904 3.075148627378951e-05 0.02038119896160492 0.9796188010383928 5.673056922728747e-47 2.122378190828071e-15 0.003683668007963941 0.0055720436398818 0.9887634655982395 0.001980822753914817 0.007704223137278982 0.002508739695415596 1.474952832192873e-05 0.9897722876389834 0.9739278826977229 0.02607211730227667 4.060262962788239e-16 2.934838971062234e-45 0.01677134206163554 3.82894404427358e-15 0.4185639425513784 0.5646647153869823 4.503353578386814e-95 0.5671009912821967 0.006628710249272677 0.4262702984685305 0.6844211704016844 3.939708304016718e-24 0.01473030384334169 0.3008485257549738 0.01103969344580759 6.203516545063235e-64 0.9883565864997902 0.0006037200544022757 1.56019818083346e-05 0.004720929290964548 1.267893317549203e-08 0.9952634560482939 0.4733871285337032 0.003771955269993239 1.621555929434775e-10 0.5228409160341481 0.7006114639860176 0.2894014339725828 0.009985797475118175 1.304566281310091e-06 0.01726566341108243 0.9827249932950743 7.126826654938613e-06 2.216467188238851e-06 5.097816118679053e-08 0.2234278762255373 0.7765696827367088 2.390059592913893e-06 0.8223577855534401 1.516630479507741e-08 0.004510888268227846 0.1731313110120271 0.004349970897221683 0.9956500283926616 7.101167174878736e-10 9.71976686257175e-46 3.140853143518016e-21 0.6182258405851037 0.3817741594148963 6.13321957720187e-19 0.9865923893814599 3.508093135680635e-07 2.159038656118912e-05 0.01338566942266521 0.05628309428175694 0.9433255763692707 0.000211677508288132 0.0001796518406841481 3.37958159428207e-10 1.050432735740546e-18 0.9999998625889736 1.370730682731693e-07 0.8562345050375182 1.11802993402099e-17 0.08641236660691287 0.05735312835556895 0.9958047742509381 9.093696070454291e-08 0.004003044909025221 0.0001920899030758824 0.1245848785198218 0.04126642872370258 0.8341390537149388 9.639041536758591e-06 0.001957787127537518 0.9121992538732072 0.08584295899925533 1.996561182587669e-18 1.37003467919184e-29 0.001651705207000101 0.9983445565014114 3.738291588430143e-06 5.389943879958734e-05 0.9999461005611344 2.790415838849179e-19 6.592236459522885e-14 0.9957951781906466 0.004180614007568116 2.158328292360045e-05 2.624518861637058e-06 0.0007112873628916076 0.02430146504929506 0.9704878226191945 0.004499424968618809 0.1849000131179593 0.2504716263493483 8.781814893048689e-05 0.5645405423837617 0.578006538803844 0.3987334026088919 0.008085684779928532 0.01517437380733561 4.197982770116576e-12 9.256878782667448e-08 0.5769993863700901 0.4230005210569241 2.225745219771197e-05 0.0004399218987984537 0.9995378206490039 7.562353079937137e-37 9.551540757361306e-51 0.4462264638527669 5.629814796491785e-07 0.5537729731657535 0.1225549046819031 0.3051866273764064 0.04082394089975958 0.5314345270419309 0.9852154712272988 1.022878311197057e-12 0.0002099231847433393 0.01457460558693514 0.04254279436002924 0 0.9574572056394811 4.896021090031302e-13 1.75093089083699e-54 5.962705592634787e-17 0.832202312976142 0.1677976870238579 6.459996288192071e-69 4.085617267958463e-52 0.2423267893173958 0.7576732106826042 4.554510156782298e-05 1.446952570086957e-31 0.999954454898432 8.55100185081728e-27 0.8233819165165936 0.1737757881911927 0.002842295233264444 5.894913973696862e-11 1.150444545146156e-05 0.9999884940842544 1.053762843893524e-09 4.165313133180644e-10 1.765618539484317e-09 1.026189336494125e-06 4.790484209553843e-11 0.9999989719971402 0.9962738394208853 0.003726160549187888 2.992662792790683e-11 2.229546332666791e-46 0.02713940910656139 0.9728605908934387 1.913616326533615e-27 6.699069971682965e-20 0.0022504288539432 0.7875021571507475 9.049887821951685e-44 0.2102474139953094 0.1673338632800908 2.652145336687222e-10 0.8326624693821069 3.667072587943358e-06 1.622969397848241e-292 0.7311681171458319 5.464955549660347e-07 0.2688313363586131 0.1619716694170539 4.190231073531062e-05 0.835881266924199 0.002105161348011611 0.0004588285970739175 0.8512895688026542 1.835752055407443e-130 0.1482516026002718 2.65616255650614e-05 0.007417636165403441 7.58336326986114e-07 0.9925550438727047 1.037791029357624e-09 8.764317983692246e-10 0.9999999895378995 8.547877565171999e-09 0.002644212527222126 1.434089929773709e-39 0.9973557874727778 2.517100220564287e-16 9.395566164854636e-07 0.002513839757972235 0.9405575790899233 0.05692764159548816 0.9995490276604404 0.0004509718625105118 4.770467412448165e-10 2.278371158792401e-15 5.764537103963405e-11 1.978580601069705e-18 0.9999999990744624 8.678922237740396e-10 0.0819253078467031 0.0188247778754864 0.8809855587121641 0.01826435556564623 0.1392989580664578 0.8601120634190007 0.0005889777798150903 7.347263542431295e-10 0.983083391689301 4.521487531838883e-06 0.0169120868177014 5.465602805315446e-12 0.8781655141617989 0.1218003779882271 3.410784997410162e-05 3.568526758608244e-117 0.0897018230610193 0.008886151699152174 0.08462771336758848 0.8167843118722401 0.07533024383091033 0.001688126648298607 7.823495901626598e-06 0.9229738060248895 0.4749156198685782 0.002313879924065468 0.005821982933581402 0.5169485172737748 0.9996076561465371 1.084722982120808e-12 0.0003382492332688085 5.409461910916155e-05 0.0008076200441668959 7.534780892425857e-12 3.174582322065193e-11 0.9991923799165525 5.64755436290064e-11 3.263921862839139e-36 0.3992714850795087 0.6007285148640158 0.01104002197147135 8.715146318535551e-19 1.954628420810968e-77 0.9889599780285285 6.110728117873251e-09 0.9541338613997111 0.001763422174132789 0.04410271031542811 0.0001808406640655958 1.463147650540961e-11 0.6987380894318282 0.3010810698894746 0.003648115236384866 0.0001663816145990721 3.777942972000716e-26 0.9961855031490162 0.5499203423227849 3.929519677697294e-05 0.4361956164241472 0.0138447460562909 7.552002442277133e-17 0.9999989634502342 1.031982408292601e-06 4.567357559439976e-09 0.009409282521554981 0.0001567709614813476 0.9904337682078351 1.783091286088775e-07 0.3205473046985674 0.0005792325507704906 0.5340304339231691 0.144843028827493 4.506821410679442e-20 1.047422615412358e-06 0.9991840986101266 0.000814853967257945 0.1443317879608115 0.8460621009439827 0.007152640398207031 0.002453470696998685 0.03739165815895894 0.4310207462388551 0.0137833670891081 0.5178042285130778 1.144379929684565e-51 0.8616832942340902 0.1357445263860507 0.00257217937985919 0.003816123692786186 0.439851907801152 0.5563319685060618 2.164464175596045e-51 0.8823333344677602 0.1153621320993032 0.002304533431719167 1.217415580182568e-12 0.9845541922135843 2.592461812846617e-07 0.0154455485154625 2.477196177505357e-11 0.9952064059011605 6.130560394753016e-09 5.462928155520649e-206 0.004793587968279178 0.1885442592146091 0.1277159159953291 0.02142705385554773 0.6623127709345141 0.00052716677837093 0.3589842667803061 0.6227393009231995 0.01774926551812341 0.0005999887281113923 0 0.9982616075907963 0.001138403681092164 0.0004740403061328347 2.394464373388814e-73 0.0002862620608786786 0.9992396976329885 0.9999954769574908 3.030891303546666e-07 4.21995337885522e-06 9.810938815144085e-136 6.088672878121456e-59 0.9950375500266518 1.41883285877058e-71 0.004962449973348104 1.350276088273113e-07 0.04891813584276605 0.9451562661524433 0.005925462977181713 0.0001366088683814752 0.9997718639345156 7.357018224311591e-08 9.145362692075673e-05 0.9976749009246143 9.507807679127655e-13 2.922753474789307e-45 0.00232509907443473 0.02242015224419575 3.245952044574645e-05 