<?xml version="1.0" encoding="UTF-8"?>
<!-- This file was created by ACADEMIC version of SMILE -->
<smile version="1.0" id="Unnamed" numsamples="10000" discsamples="10000">
	<nodes>
		<cpt id="U1">
			<state id="State0" />
			<state id="State1" />
			<state id="State2" />
			<state id="State3" />
			<state id="State4" />
			<state id="State5" />
			<state id="State6" />
			<state id="State7" />
			<state id="State8" />
			<state id="State9" />
			<probabilities>0.0002190434011622125 0.01096771075657201 0.122617058726639 0.6867861992112627 0.004123080617471298 0.0004764156324170703 1.901566062551483e-35 0.005360741277887661 0.01230662724053211 0.157143123136056</probabilities>
		</cpt>
		<cpt id="U3">
			<state id="State0" />
			<state id="State1" />
			<state id="State2" />
			<state id="State3" />
			<state id="State4" />
			<state id="State5" />
			<state id="State6" />
			<state id="State7" />
			<state id="State8" />
			<state id="State9" />
			<probabilities>0.03795518792748783 0.002052495032798095 0.001034389307435399 0.04685459488485713 0.002986994074903366 9.397401160954563e-06 2.942647872768208e-06 0.9068249219337114 0.002238328850523816 4.074793924903425e-05</probabilities>
		</cpt>
		<cpt id="U5">
			<state id="State0" />
			<state id="State1" />
			<state id="State2" />
			<state id="State3" />
			<state id="State4" />
			<state id="State5" />
			<state id="State6" />
			<state id="State7" />
			<state id="State8" />
			<state id="State9" />
			<probabilities>4.096315135386601e-05 3.739908756091271e-15 1.49003474114931e-28 0.002063072633966449 1.917732354418624e-16 1.068557999119462e-10 0.959606813682328 4.955274316950161e-11 0.03811730157041097 0.0001718488055281728</probabilities>
		</cpt>
		<cpt id="U7">
			<state id="State0" />
			<state id="State1" />
			<state id="State2" />
			<state id="State3" />
			<state id="State4" />
			<state id="State5" />
			<state id="State6" />
			<state id="State7" />
			<state id="State8" />
			<state id="State9" />
			<probabilities>1.408088555277921e-09 0.02544338552857916 0.5668489485188148 0.2330912082070966 0.03283578504554181 0.00147125491510956 8.130600742209453e-14 0.1403094159432731 4.213347132798732e-10 1.208027586369882e-11</probabilities>
		</cpt>
		<cpt id="X">
			<state id="State0" />
			<state id="State1" />
			<state id="State2" />
			<state id="State3" />
			<parents>U1 U3 U5 U7</parents>
			<probabilities>3.781725298685528e-25 9.440149873837411e-12 6.149968365084127e-06 0.9999938500221949 0.9995484820606346 1.8891096728357e-06 5.060536215689578e-14 0.0004496288296420813 0.07583711687863455 4.542637286672873e-07 0.6699337842855247 0.2542286445721122 1.95131239322225e-36 0.01004547657391162 8.070440761025594e-08 0.9899544427216809 0.01403976199032133 0.9712033509626089 0.0147342470144209 2.264003264861659e-05 8.582886079046236e-08 6.901049930567065e-15 0.9999999141711323 6.233908166713771e-17 0.0003716508004250085 4.909927632446109e-07 0.9996278564620213 1.744790282376846e-09 1.568619300809752e-06 1.786335008096752e-78 0.8881194904039642 0.1118789409767349 0.000730639073333675 9.408484888010129e-05 0.9991748003633176 4.757144685336066e-07 0.443707724968623 0.4927261311322288 0.06356614389914822 1.600728811520868e-18 2.283662090427003e-09 0.2977395236264843 1.012738027289303e-11 0.7022604740797261 0.9999999999485101 5.148986742357815e-11 4.235458381651385e-28 2.433196165388832e-28 0.9999968768775762 3.123120215518723e-06 2.208371041293347e-12 4.595834363229615e-21 0.99999999067967 2.208859703299813e-26 9.320329909389148e-09 0 5.476457856373266e-12 0.992433206516052 0.007566792775796824 7.026745709862419e-10 0 5.795000044462485e-66 4.548432218535972e-21 1 3.550574103551609e-14 0.07459151317579385 0.925408486823045 1.125507174806397e-12 0.02859168161464262 5.698876343038991e-07 0.9714077484977232 2.881740003686216e-178 0.07554486078775295 0.001311525419014417 0.921361061911779 0.001782551881453503 0.2408153555070834 0.003849473770053873 0.7553351707064198 1.644283088528848e-11 0.8032923349982658 1.317863795027298e-06 0.1425171386100308 0.05418920852790832 0.981250177849718 4.067967796651223e-20 4.731619970300374e-05 0.01870250595057902 2.146985477205212e-10 0.001822357725775742 5.293639125176103e-05 0.9981247056682739 9.345075740960317e-19 2.180698194425313e-10 3.26627453003446e-07 0.9999996731544771 0.002353303746959356 0.03227245169104871 0.9521213868331511 0.01325285772884077 0.09917727861033362 0.0001986991920851058 0.900624020110938 2.086643205441506e-09 0.986654035202418 0.01296993042278506 1.340955258947689e-06 0.000374693419538171 0.9966692001399522 0.001675192184093472 9.000903424315394e-15 0.001655607675945302 0.8030670755202215 0.004616356859922116 0.1923165407571001 2.686275641207926e-08 0.9999988493258638 9.041128859206876e-08 1.060262847643728e-06 3.633920785695244e-32 0.6540596891222777 0.1021425781511159 0.2437812871303835 1.644559622276906e-05 0.9698107824771848 8.168916187770429e-09 0.0008270896204576157 0.02936211973344157 1.224834413496737e-182 0.9701859508002064 0.02722458788096986 0.002589461318823849 0.3344745954891385 0.6650608589780399 0.0004645455328216071 1.821145649065692e-53 0.001982852240840171 3.079570547782899e-12 0.99801714775608 3.52010237552282e-16 1.022075444604227e-11 2.519747875158111e-09 0.004792019659645547 0.9952079778103858 1.283057371040139e-05 0.9999862559613788 4.410528099758557e-09 9.090543827432997e-07 0.8631531618919226 1.02275180559082e-12 0.1368468381070546 1.460580183032516e-100 8.62008341384695e-07 1.174356680008228e-05 0.9498783963361884 0.05010899808867006 2.565224035937008e-53 0.002712051906923782 2.005225803251073e-12 0.9972879480910711 0.08082036536614867 0.000524321199711713 0.918655313429836 4.303591126653288e-12 0.1236619556868824 0.8710389812304665 0.005299063082651049 0 1.832448011788548e-06 0.99986393834795 0.0001342270580977866 2.145940561964253e-09 9.796139056782424e-11 0.9907930636514747 4.722347494778715e-18 0.009206936250563848 0.04547384789047221 0.03291788920338305 0.2658372363456047 0.6557710265605401 0.9684507127867281 1.307835006537022e-06 0.03154797937826533 1.116182001557699e-52 1.905472546629934e-12 0.9999490253420572 9.615457458909903e-09 5.096504057986805e-05 2.948519296090323e-38 0.9904446542192216 1.252522671869587e-06 0.009554093258106451 0.9096310826108946 0.01169803895513541 0.0786685352273386 2.34320663122819e-06 0.9999999958655819 4.053787604194402e-76 2.679114808793567e-09 1.455303301714024e-09 8.467469101602516e-15 0.03132854822338966 4.321593383342218e-07 0.9686710196172635 0.7123394410708221 7.000047279603707e-05 0.2822438944024325 0.005346664053949449 8.007196646379242e-06 0.4369976987265294 6.787882474822179e-07 0.5629936152885767 0.8678019986217957 0.1321541949378153 4.256940748908281e-05 1.237032899885314e-06 3.808182753176736e-13 4.572666285492414e-176 0.99999962209436 3.779052590671968e-07 0.4661972491483491 3.031748128824663e-08 0.5338027205341697 1.190878066100006e-50 0.07288187923401507 0 0.9271153329397712 2.787826213738962e-06 1.046013623885531e-05 4.678080439412188e-06 0.9993508315191298 0.0006340302641917545 0.9998894125881516 8.133189999713806e-06 0.0001024542218487156 2.32061685851841e-55 0.00366646636771856 6.236573002039666e-06 0.3964503484765048 0.5998769485827746 0.4954555218155144 0.5042910050549133 0.0001372505712346485 0.0001162225583376688 0.01832456442338696 0.1965321392430232 0.1238138024265883 0.6613294939070015 0.03691106317712806 0.870962444423442 0.09204545107242541 8.104132700469593e-05 0.001941002531828313 0.6074476344652175 1.428083333393229e-06 0.3906099349196207 0.004078162243083358 0.8528571837430131 0.1430646540139034 5.855704491149742e-21 0.9997197781986501 6.125643685739799e-05 0.0002189653644923931 4.103625056908194e-21 0.2632767705311421 7.780394726201511e-06 0.4143448205502888 0.3223706285238429 0.2014952369953869 0.1753633845777851 7.964225490002251e-10 0.6231413776304056 4.970975393060764e-09 1.689558941841576e-09 2.36917389399278e-10 0.9999999931025483 1.937030270273046e-34 0.9776391665203141 0.02235335899434957 7.474485336261495e-06 0.001672840601498503 9.958926701575417e-309 0.8795673144568177 0.1187598449416838 1.422314538594444e-06 0.008107844384793797 0.0004618744812559952 0.9914288588194116 0.1662812342115622 0.01551989006092042 0.04644420676490246 0.7717546689626149 1.393244218552839e-05 5.399401950104634e-12 0.0001954028193720486 0.999790664733043 0.01386252034759965 0.9861374796523141 0 8.632024766246394e-14 0.8334512803217582 0.1557561097920383 6.581545059921613e-30 0.0107926098862036 0.006807609461548013 0.7701292885109213 0.1911276600137289 0.0319354420138017 2.682144997094519e-13 5.832003518111155e-13 0.9999999999991487 1.011835019965347e-35 0.00164655154815191 0.02983165941535328 0.002185488288259477 0.9663363007482354 0.7232890292038143 3.001299018080662e-25 1.968008904819665e-13 0.2767109707959888 9.492745817070783e-06 0.9999905072541829 1.119368183882428e-19 8.998018088719676e-39 0.1509180192829023 0.7968051413427409 0.05227683937435684 8.250781833233205e-23 0.9996722918722097 0.0002283172870870354 1.905341790980488e-07 9.92003065241196e-05 1.873684270173681e-10 0.9884063555282215 1.623206347630445e-07 0.01159348196377532 8.943937202146266e-05 0.9719633243720456 7.840890933355166e-184 0.02794723625593297 0.0560200045280228 0.6359262651030683 1.354675776600164e-07 0.3080535949013313 8.802741961844884e-16 1.898898010082857e-08 6.478307344959304e-29 0.9999999810110191 0.9564003946249923 1.428139171719858e-180 0.003607807673589081 0.03999179770141879 1.261054332679903e-06 1.474627247256128e-05 0.03399605705909882 0.9659879356140961 2.620359503618979e-08 7.296564323487401e-11 0.9999999737234393 6.306442223283926e-17 3.349121708166784e-05 5.168480660135978e-143 0.9999665087829184 3.832628850859813e-24 0.1487505170419605 0.8500734757592622 2.140079771768849e-06 0.001173867119005492 1.081340742481293e-07 0.0002648009914458463 0.99973509087448 1.061623488476331e-54 0.001807336719476848 7.729616658400285e-09 0.1012578929531848 0.8969347625977218 4.30752028651672e-06 6.136094558223906e-06 0.3919620801635516 0.6080274762216036 0.1017686872744938 0.0001187993789582345 3.32980149101595e-23 0.8981125133465478 0.06891053097750358 0.9260854129272196 0.0050040545497419 1.545534853681808e-09 5.061851300501236e-06 0.9995539647067961 2.245431301267587e-06 0.0004387280106022938 0.9902301815328699 1.023965555849669e-27 0.00405512939059654 0.005714689076533406 0.9635961933034622 1.743747903311879e-42 0.03441767238400451 0.001986134312533368 7.060075170326538e-16 0.9999027331513135 9.726684868569934e-05 1.707733813100612e-29 1.156020646337616e-51 0.5921989926324396 5.959497564695647e-18 0.4078010073675605 0.4801182725554494 5.98396977560397e-08 4.683267014508605e-05 0.5198348349347077 1.994781373209054e-22 7.59784194932635e-08 9.639808649649286e-05 0.999903525935084 1.942067234947541e-05 0.9998885377302238 8.571517346099019e-08 9.19558822533446e-05 0.006654010025412488 8.28917563918616e-06 0.08573771377803051 0.9075999870209179 3.138268957332135e-15 0.8571056272737556 0.142620094262394 0.0002742784638473419 0.07472899942610581 7.424455817867759e-09 0.9252668183591797 4.174790258784089e-06 8.746981323635627e-115 0 2.652281501719135e-14 0.9999999999999735 0.1128824767569288 5.577350687323146e-07 0.334794856324086 0.5523221091839166 1.436162722959441e-12 0.0001378182263475531 0.9996086903230327 0.0002534914491833905 2.339244585456324e-10 1.248200173726808e-17 0.0065653788715453 0.9934346208945303 3.833911273936865e-11 4.826324913038295e-16 4.116922532602876e-07 0.9999995882694072 0.0001990777459935509 0.4449167883850547 0.554884128734323 5.134628660078178e-09 0.9010179954868672 5.300327408737058e-08 0.09898189616708108 5.534277768752193e-08 0.003320997984223745 3.442106503949109e-24 3.958688210883671e-09 0.996678998057088 4.515549065907269e-06 8.253146510184763e-05 0.9999129529858322 3.489876489826478e-27 0.8724460713782191 5.952160631971798e-74 0.0002076494346492826 0.1273462791871317 0.5124651497440402 4.667892543622132e-07 0.4875343834667054 1.742950707643852e-25 0.0005033639536301619 6.239175287832979e-07 0.9994956863722768 3.257565643327847e-07 0.00795536524783814 0 0.0578444492266956 0.9342001855254662 6.395274277795008e-06 0.07750060613438023 0.9224929980342458 5.570962087151526e-10 8.347484968364703e-18 0.0001545274237332592 3.149296669189401e-07 0.9998451576465999 0.3470080253210953 0.2486171297891506 0.4043748448897055 4.859826141100044e-14 4.542875863955545e-12 3.081813658766413e-11 0.9999801785715554 1.982139308364985e-05 3.004434829406475e-05 2.28844829283422e-16 0.004574663234051281 0.9953952924176545 0.0203365439972175 0.3518319910442108 9.137670707546799e-18 0.6278314649585716 0.00977883280568081 0.7882306032954056 1.577901410677361e-06 0.2019889859975028 9.736103430483286e-05 0.162626852301085 0.8130213343539625 0.02425445231064777 5.573643171454373e-18 0.9999419805925149 1.202876548364956e-66 5.801940748511392e-05 0.001372523266423612 0.03604607756997528 2.211328098393042e-07 0.9625811780307914 5.876328616235565e-05 2.734042240449301e-10 0.9916327940434827 0.008308442396950952 0.9628291839100735 2.609211019925663e-15 0.03717081608178504 8.138782718793547e-12 0.006135978261180069 0.5052741150938412 1.831036827864537e-11 0.4885899066266683 0.9999994379879644 9.008710165541096e-40 5.620120356142624e-07 1.468805136054552e-20 1.163083237915832e-28 1.455722594998332e-05 4.863395697673302e-149 0.99998544277405 0.7818775256050445 6.809838025415707e-05 0.1632906685919794 0.05476370742272201 3.912571774633061e-07 1.509638898896682e-19 0.004410470013335815 0.9955891387294867 0.9999993828143979 1.048604361135363e-36 6.171856022128788e-07 1.470217594865706e-284 0.002126871583522964 0.002644129477485203 0.9952289983920236 5.469681784349958e-10 7.994407175936912e-14 1.459129481188499e-38 0.04295495992572312 0.957045040074197 0.08709503088708888 0.003224126739528328 0.005244754741417642 0.9044360876319651 1.472209064839428e-07 0.9999998460913212 9.560656818430423e-21 6.687772303605486e-09 3.36234812258436e-13 0.1997912916045201 0.7946355630916866 0.005573145303457101 0.03385450631943036 0.8206885266755456 0.05153740308453611 0.09391956392048798 0.6377647600311133 0.3484311839752113 0.01380405596432395 2.93516059618978e-11 4.896540196638591e-05 0.9086982011682444 1.75848318454974e-25 0.09125283342978922 0.002255150824804884 4.243703170869265e-25 0.9977426836194541 2.165555740972109e-06 5.941881193939421e-08 0.005473190882257977 0.8099681168152476 0.1845586328836825 0.873282860899366 1.184363678756854e-39 0.1267114394081763 5.699692457768581e-06 0.505215699806207 0.4947641783868576 1.364536904392282e-05 6.476437891501606e-06 0.9999996395214623 0 3.604785376469512e-07 6.690102012262629e-23 1.351686758893706e-05 0.4022742108725552 0.5977122722598549 9.566481834733816e-16 6.286430992550866e-22 4.760333687068689e-08 0.006965681472359789 0.9930342709243034 3.276305617738755e-80 0.372533276041187 0.6274667104521588 1.350665419907384e-08 0.0007579811845477188 1.238021455515764e-09 0.02607243921056555 0.9731695783668652 2.99076863046715e-19 1.113455165311013e-08 0.697930637420804 0.3020693514446445 0.007900164715506862 1.511063160263446e-185 0.440406999033974 0.551692836250519 1.111709535805122e-106 1.831189412555286e-100 0.008376223443139208 0.9916237765568607 3.63549129475124e-09 0.0005044843369565278 0.02024904677769531 0.9792464652498568 0.6168135170410206 0.008488607624940976 0.3746978725528725 2.781165744158613e-09 0.2217703155040433 0.7497108554717271 0.001058850533592795 0.02745997849063669 0.9981921252363039 4.640498382256298e-13 8.374702054010787e-11 0.001807874679485128 6.508576779889455e-06 0.3384720109384846 0.6615214804847355 8.46762050256157e-32 0.3019048940394237 0.6965682752328597 3.353162835203244e-11 0.001526830694185044 6.271735839918222e-28 0.9999900925913064 6.808461035764186e-40 9.907408693617406e-06 0.1055052564803446 3.115006829260583e-09 0.01954102900962596 0.8749537113950226 1.368302185114768e-26 0.08610283100492236 0.9138826312361295 1.453775894814729e-05 0.01125723148619252 3.119785387689018e-07 0.9532925807005981 0.03544987583467069 0.1625008698668079 0.1727383302062999 0.03394543121659097 0.6308153687103013 3.334486490438382e-12 9.856219146508251e-05 0.9994482218104845 0.0004532159947158824 3.689001705650468e-72 0.01431847213350387 4.632338404110016e-07 0.9856810646326558 0.569208007531519 0.001951025527089719 0.4283247662079026 0.0005162007334887317 8.178746180663126e-05 0.0005571668808919638 0.9965356136092545 0.002825432048046891 8.568194308495403e-25 4.327627958258758e-78 1 2.171556696681219e-43 9.060584953561639e-26 4.501322001987055e-07 0.9780340321811505 0.02196551768664934 0.1488484048732771 0.002666065271679729 0.8074243536657932 0.04106117618924986 0.5077138642963667 0.09787321271935893 0.3902349499041854 0.00417797308008893 0.7450636415697756 0.0001127969052940797 0.03671090805504037 0.2181126534698901 0.2177778303690048 1.415172070814367e-13 0.001629371872401877 0.7805927977584519 0.954913973684445 0.002664717328135149 0.009670416144290428 0.03275089284312956 1.521808066729172e-09 2.879308173881365e-11 0.9875016986793884 0.01249829977001026 8.823027872954634e-22 0.9999999969572545 2.867086083787368e-09 1.756594504840767e-10 9.393850370183017e-14 0.008428001081125231 0.9752892288341357 0.01628277008464515 6.333309546755992e-05 0.8156676349182238 0.1842690319863088 3.045668466552978e-18 0.001159639654978847 7.293197227827388e-05 2.182510590557154e-26 0.9987674283727429 0.6860421437944872 3.095669817343822e-11 0.3139517426607468 6.113513809249969e-06 0.1512146558257679 7.913253606822141e-06 1.470189598619439e-48 0.8487774309206254 0.3629263261580234 0.1374486860738237 0.2348773963594376 0.2647475914087155 1.92763745546616e-17 0.9997968718282836 0.0002031278740832329 2.976331980826306e-10 0.02662000391134588 0.01414503683973808 0.9499288464211045 0.009306112827811344 0.02591900766767527 0.005712402067953468 0.9683685902643713 5.692940416983167e-76 0.9906635419188361 8.360744584977045e-05 4.032455795945717e-212 0.009252850635314166 1.316099033212274e-55 0.05172156522089923 0.0417193949332803 0.9065590398458204 0.2465093127429284 0.01559747977845965 0.7344170686854617 0.003476138793150172 0.001750526380465752 0.9982494736195342 2.13174722161101e-96 3.071280807873282e-44 0.0001342943592703107 0.003912853628603869 0.02289114776644422 0.9730617042456817 5.785395932294603e-05 2.187133128615435e-14 0.9051252946830006 0.09481685135765459 0.9803584545476195 2.585617295031112e-07 3.705591480101569e-17 0.01964128689065086 1.760167766472186e-05 5.090615803728447e-14 0.9999821427337422 2.555885420512827e-07 0.1600461868489484 0.02747369513577936 5.540974737084567e-11 0.8124801179598625 0.8413060728928548 0.009987752349806896 1.024214246010454e-05 0.1486959326148783 0.01629389865267526 0.9744925994234644 0.009213501923860209 4.715348628771412e-22 0.7731564591440779 0.09612887758971546 0.1307146606276265 2.638579909284868e-09 1.708722131017766e-13 0.00113714625384174 0.998862853327613 4.183743482697108e-10 3.120595032929093e-25 0.999979550380934 1.890517310644732e-05 1.544445959529197e-06 0.7417419345016349 0.03402752518311508 1.885746925537644e-12 0.2242305403133643 7.823947456618758e-05 0.9999217605006084 7.439586801076381e-13 2.408166015466583e-11 1.019733689209785e-05 0.2565436686901171 9.772961492871991e-05 0.743348404358062 1.853000796821009e-72 0.0002598696600742263 0.001164961653241409 0.9985751686866844 9.931220989669296e-09 0.6747742864827554 3.185769838049298e-30 0.3252257035860237 0.8841668604196329 8.165411490485945e-07 0.006455404783810017 0.1093769182554081 0.338386029477681 0.6498689762248643 2.853318300017716e-27 0.01174499429745472 0.8211561189442118 0.02564417012137081 0.03370586492528189 0.1194938460091354 1.493962368622023e-12 3.562721437354778e-06 6.754578243552661e-08 0.9999963697312862 0.01941166519797975 0.0006261283180255138 0.8598298147604863 0.1201323917235084 8.805900601177858e-129 6.565115987105929e-63 0.6805733476435253 0.3194266523564747 0.001711199933404805 0.3379680676293224 2.307305924769963e-22 0.6603207324372727 4.218584998637307e-18 0.9479595763141682 0.05204042367852412 7.307960008899782e-12 0.9999999675879315 2.662170603724112e-08 3.113626230350427e-11 5.759226160880277e-09 0.9676092062097642 0.0323880837749562 3.903692436336185e-09 2.706111587206954e-06 0.6329185096439337 5.47052512645756e-31 0.08823334789514585 0.2788481424609206 0.1158063212662818 0.4747950455258125 0.4093944327472626 4.200460643001774e-06 6.335489985195335e-07 0.0006289087827305147 0.0002398665709546472 0.9991305910973165 7.850691609689115e-08 0.06414681290374123 0.4605161666515813 0.4753369419377614 0.916029650779164 0.06925590012686701 0.01471444909396908 2.376952041962253e-20 3.636372341702837e-07 1.459509572218658e-07 1.481623001197566e-15 0.9999994904118071 2.612924052180126e-24 5.335216310001049e-07 0.001226937876584883 0.9987725286017841 3.894710413508833e-37 8.986368723211988e-142 0.9030761985339102 0.09692380146608985 0.9999376377561777 1.829636427144888e-08 1.38846919087817e-07 6.220510053881588e-05 0.9771499256624304 1.211892524414159e-12 0.003916379544002798 0.01893369479235476 0.8045891152920127 1.082123183373488e-15 0.1954108847079863 1.161622794150783e-17 0.4650437645414846 1.123069965858308e-69 0.5349503232155736 5.912242942001647e-06 0.9999662374233202 2.103758718405105e-40 1.459937147170449e-05 1.916320520802302e-05 4.707864655411763e-07 3.185030789497487e-23 0.9999263591844667 7.317002906779252e-05 0.00146552586216854 0.9985344741378288 3.145652233550009e-98 2.643274841041855e-15 0.0002812460982153226 0.007680177185842589 0.9920385767159422 5.012771985192488e-40 5.472943298198302e-09 0.3955692567704225 0.6044301882278298 5.495288045516854e-07 7.545605437080758e-06 6.823778360026038e-38 0.9794697595258947 0.02052269486866834 0.0001826459648073336 0.9997416268087116 6.61238945092747e-23 7.572722648105208e-05 3.447290525858635e-11 0.825806559775438 1.443296471756788e-07 0.1741932958604417 6.799422716830514e-12 0.03138975061581892 0.02580135067745976 0.9428088986999219 0.3021663744010649 0.1208475108896046 0.5285478702323071 0.04843824447702336 5.316263434855192e-05 0.9998996927601926 1.954709415046676e-11 4.714458591164995e-05 2.605372557711688e-13 0.003164657772136737 2.308504232670521e-06 0.99683303372337 0.2562744897435297 0.6548040478567686 4.931937355879215e-38 0.08892146239970175 0.3881962622195753 0.6118009620194275 2.77576099712146e-06 2.803235266538899e-55 2.094319011636519e-60 0.683583064311766 3.90913310491074e-11 0.3164169356491429 0.0003290302671998244 0.001312127881429448 1.540121553762993e-06 0.9983573017298171 0.05164627928683126 0.8126099208785222 0.03468763421102423 0.1010561656236224 0.999999952651043 2.05966242269493e-09 3.306871323396657e-08 1.22205813002006e-08 0.9899038756693668 1.996921433074534e-05 1.270866627422007e-06 0.01007488424967514 0.2237608560773291 1.254720026688442e-05 0.7761869835149248 3.96132074791704e-05 0.0007173217807043013 0.9975481300500156 0.001706633379471268 2.79147898088843e-05 0.7753090957436813 2.563047302381094e-06 0.2238898131422104 0.0007985280668060433 0.002229272371999919 2.796248179997898e-09 3.353551454260436e-18 0.997770724831752 2.686400406309516e-102 0 0.7569807015396032 0.2430192984603968 8.822713514298262e-07 0.9999991177106363 1.801223883688436e-11 9.826665081728921e-42 0.02132249683333013 1.288442293644249e-12 0.9784522159390524 0.0002252872263289565 0.04412877712856696 2.743098147550455e-07 0.955870607093499 3.414681192408532e-07 0.9999951291998149 9.470765976031142e-20 4.869576811446871e-06 1.223373674471058e-09 0.9227693293088222 0.003417798743416348 1.611854169869636e-08 0.07381285582921977 8.226759542727941e-10 0.02972171978073993 3.200815651093382e-94 0.9702782793965842 0.01849133601993547 1.019727294810462e-05 0.9814563261580316 4.214054908483859e-05 0.9851766814526111 0.003269873991597963 0.01154486881418615 8.575741604796417e-06 0.001672457805419953 1.204532606377801e-09 3.563608947427995e-07 0.9983271846291527 0.8844752830256037 0.0008442017783295901 0.1146805151959817 8.490929867663039e-14 3.26147542832749e-23 0.1412086746279065 0.0061855658441485 0.852605759527945 4.399309544808803e-95 2.846179925592412e-07 1.807152153315367e-06 0.9999979082298541 0.6638927033450788 0.06556176864281381 0.2705455279510765 6.103098512384826e-11 2.47148852060628e-23 0.5889419199949198 0.41105808000508 4.592551281334999e-51 4.505940588950944e-07 0.9999995490377935 3.681462551895046e-10 1.274750699223326e-15 1.94809841124204e-08 0.1234334046540237 0.5647596061919109 0.3118069696730815 1.589064635578407e-54 1 6.019959603392035e-35 0 1.027232191858031e-11 0.9999980687150649 9.9549682092239e-18 1.931274662636502e-06 2.452865269328617e-06 0.4349692493354183 2.530542193613222e-15 0.5650282977993099 0.3641869268234882 6.108158330854433e-12 0.6358043247713033 8.748399100349477e-06 0.05687973147276092 0.3770350442102016 0.5660852046181667 1.969887086103872e-08 0.4942808065316758 0.04752791900928376 0.4514908932188773 0.006700381240163008 0.3718059273392872 0 1.110860400956185e-06 0.6281929618003118 0.9999881286348588 1.187136514125322e-05 9.437961847137343e-24 5.923311823998823e-35 4.114908651648731e-06 0.003769502566695068 0.9957501417878102 0.0004762407368431195 0.02318289067676797 1.834903174274917e-11 0.9768165966507908 5.126540921847981e-07 0.0006064829879846354 0.002076721783804305 0.0001313633422762748 0.9971854318859348 0.009897826620766924 1.861905106879099e-67 2.516964619087585e-07 0.9901019216827712 1.016520024327582e-103 0.9999999999999307 1.767652513598261e-24 6.934673161375413e-14 1.503308125261653e-34 1.901253338303595e-49 1.249725993988397e-06 0.9999987502740061 4.16810624826992e-56 1.720684747442419e-08 0.9999587136988566 4.126909429600574e-05 0.07082426817235905 0.0004405601060124136 5.954540519006806e-202 0.9287351717216287 1.750463561760597e-25 3.096705114065945e-06 0.002103285613866412 0.9978936176810195 0.03338188570710992 0 0.9593171071258298 0.007301007167060309 1.868118098804858e-23 1.272277564624223e-09 0.008565191748805786 0.9914348069789166 5.599075672669748e-06 0.9999509871732944 4.192356153209788e-21 4.34137510328956e-05 1.751447578013202e-15 2.487436453642279e-05 0.9999742233299851 9.023054768071983e-07 1.207212570783858e-08 0.1950450537760451 0.8027418752836659 0.0022130588681631 2.832556857267673e-06 0.9999745714353915 1.559397528467427e-10 2.259585181149181e-05 5.609151277657699e-05 0.001813910361395119 0.5974738319812843 0.400656166144544 0.0002316721611522154 0.01263356665448736 5.780522675966796e-14 0.9871347611843027 0.003476922142285358 0.6105451411723476 5.774481714000718e-06 0.385972162203653 0.004109021083920195 0.003853870144123837 0.9908448282378675 0.001192280534088529 0.0007543882782525246 0.9924347365957742 1.858782069877918e-07 0.006810689247766358 5.445033483415316e-05 0.9999444410049502 5.437078103180579e-33 1.108660215627726e-06 1.064956549020129e-06 0.1724315241216079 0.0002015368824495134 0.8273658740393934 0.02335865834350312 1.633044702690883e-05 0.8861010458284997 0.09052396538097018 0.5729213659198543 2.218559068947234e-99 2.108933446030752e-06 0.4270765251466996 0.9667749864020441 0.03322499454638649 1.905156937856662e-08 0 0.1067592974841754 9.342880515980131e-05 0.004073241479541798 0.8890740322311229 7.452522602885979e-22 2.076326293276053e-19 0.9923415551816984 0.007658444818301509 0.9896627181034255 0.009114616958888617 0.001222651546696746 1.339098911420489e-08 8.175649669016055e-13 0.0004675735262328822 1.270918211914495e-07 0.9995322993811284 0.001956843798060979 0.0002513352474394295 9.779387824705564e-23 0.9977918209544997 0.9972706170784484 6.731334852747872e-31 0.00272938292155157 1.130127717092247e-35 0.03894581474391521 0.005947865246965366 0.5455809140134366 0.4095254059956829 5.278829683959006e-09 0.03734211600209465 0.0003259479404123517 0.9623319307786632 0.001974307058617302 0.9977966884069059 1.422749370548468e-88 0.0002290045344768671 3.734706467931837e-08 1.056399349481702e-36 0.3504026545545002 0.6495973080984352 0.995782201213901 0.0005036544210177261 0.0009966770880262628 0.002717467277055002 0.05875808311099835 0.06911749528421968 2.053301018386575e-08 0.8721244010717717 0.945810637124825 0.0006328371858209011 2.292933645846361e-09 0.05355652339642038 0.02644537903885576 0.9680748079938007 3.916496582050363e-05 0.005440648001522926 1.584700030973758e-05 0.0100699817287689 0.9678756119355839 0.02203855933533765 1.01253409991204e-10 1.097039834386948e-11 0.0001271785746531622 0.9998728213131231 1.719515063082468e-19 0.02574396159441252 0.1442454818845123 0.8300105565210751 3.849409509418184e-36 0.8214240006138633 0.1033154343842482 0.07526056500188834 0.01168795667900669 3.05918672321826e-05 0.9770301095723697 0.01125134188139122 0.9948926346554798 0.005107365344520198 3.689565856110467e-53 2.323519210220334e-41 2.200711114952094e-11 0.4823784121133237 0.5176215877202703 1.443988653342795e-10 1.005630657247862e-06 0.002005171825868016 0.03334246884535731 0.9646513536981174 0.6517107321950723 0.3443940979605962 2.764795747269645e-13 0.003895169844055126 2.709580961029892e-29 2.268939367486865e-13 7.034510936113928e-37 0.9999999999997733 0.1827434504626475 0.8171723857590993 2.340731384032462e-05 6.075646441282798e-05 0.8978126170889439 3.315862971055127e-17 0.1020081115595151 0.0001792713515410069 2.483965625041153e-12 6.617143818129073e-05 2.04824612293322e-07 0.9999336237347224 0.143119372969793 1.302548038800589e-06 0.8568785939011497 7.305810185449191e-07 0.0005979420918884558 0.8670322582258218 0.09934223924878717 0.03302756043350259 0.01254137759693512 0.963812963763174 9.534232234302751e-06 0.02363612440765643 0.2384607489493253 0.02621514236975547 0.08494289791271029 0.6503812107682089 0.9408710332477779 8.129306192193871e-18 0.05912896675222212 1.365540421541121e-44 3.095883016188115e-11 0.1489667576401211 0.8510332423289195 6.220977204009832e-16 3.739941433275794e-08 2.138444587819167e-06 0.999621170284251 0.000376653871746882 0.001976183505807495 0.002361483165101104 1.124153689937995e-07 0.9956622209137224 0.6261489937252213 0.008792255930314737 0.002145388501712885 0.3629133618427512 0.627668643795219 0.0003313467026741253 2.307336337928075e-05 0.3719769361387277 2.949776035145419e-05 2.830084541180068e-69 0.2505542360708389 0.7494162661688096 3.931654501543571e-17 0.00848464204024482 0.9595055023004884 0.03200985565926671 9.936933599432938e-127 0.5494749835723041 0.4504860092959651 3.900713173074703e-05 0.9848901690347754 0.01510964557301839 1.853922061596741e-07 1.744968331308364e-51 0.01070817178241951 1.558448012374096e-06 1.16237414854881e-05 0.9892786460280827 6.672356626817439e-11 0.999999898214302 2.384775601825067e-11 1.016951265903648e-07 9.298106499181779e-05 0.6728852784176949 0.3269042749761947 0.0001174655411187217 0.001973807678685037 0.9947564065062157 0.003269785810760984 4.338361920102718e-12 4.014073132837417e-05 0.01745713383099936 3.410865391776208e-05 0.9824686167837544 6.648304220644498e-51 9.273564196624017e-12 0.9999999999907265 5.546008564072754e-47 1.229651971492627e-24 1.805945051230082e-223 0.9999999904783983 9.52160172777373e-09 6.246283558307406e-44 4.170364481479238e-06 0.99735068643737 0.002645143198148639 1.312094422555411e-24 0.9999924964566842 7.503542671405413e-06 6.443064097886583e-13 0.2105202184858786 0.019336823212975 0.008551659052802505 0.7615912992483439 0.7955640242775951 0.0002320693141530534 0.0001482732731054847 0.2040556331351464 0.759560414143664 0.0455408719245917 0.1325346839852648 0.06236402994647954 4.659593770894019e-08 0.9999998425653125 1.108387485448643e-07 1.226629283102016e-15 1.689406097733431e-09 1.874319944018217e-10 0.9983321995234723 0.001667798599689651 2.022261798485827e-12 8.378102339638811e-09 1.065588139805331e-07 0.9999998850610613 8.810953632019966e-05 3.555175357096404e-05 0.7333887565820704 0.2664875821280384 0.9999931140698397 1.34482998078536e-08 1.12868805251072e-07 6.759613055183035e-06 0.9637878428097874 1.157622420991695e-17 0.03621215719021266 9.634419885187891e-39 8.02836388554976e-05 0.9482559686780436 1.027139203058708e-266 0.05166374768310091 0.7369737136309286 0.05457925829033169 6.395716826458881e-16 0.2084470280787392 0.9870511202787619 2.385628164388014e-11 1.765853115061308e-10 0.01294887952079643 8.978928332136974e-14 0.2610591693424232 0.1866492660949839 0.5522915645625032 0.005851300884413897 0.9600764477631084 9.920420865250714e-06 0.03406233093161241 0.0111974955038667 0.9886592067348927 0.0001432977612404099 7.808706930233567e-17 0.9999646282960418 3.536761465784937e-05 3.432670325287204e-45 4.089300394354188e-09 2.050988245369335e-14 0.758793454955368 0.2412065394522278 5.592383619562295e-09 0.003495328433608644 0.06111365515120724 0.88801675793056 0.04737425848462402 0.09405429404506452 0.1317013685405478 0.001737118449133201 0.7725072189652546 0.7769216350926386 0.1354916298877149 0.0002196167209023763 0.08736711829874423 0.7694534254842502 3.923911623875904e-10 1.392430862291308e-20 0.2305465741233587 0.9502343440918911 1.216358631392423e-17 0.02727624154114851 0.02248941436696034 0.04631979400130626 0.9536802027725456 3.22614811411594e-09 7.107583790364798e-23 0.001120252776841381 0.9936888981875444 0.005190848851819283 1.83794866529527e-10 0.0006285648736525967 0.9991543802261182 0.0002170548877906386 1.243863246885128e-11 2.376123409900775e-13 0.0008922208363807225 0.9194717528761768 0.07963602628720484 0.9975042542214041 0.002334776881707143 8.007356364938206e-06 0.0001529615405238555 0.001397249377319737 0.6140828005257857 0.3813376880857718 0.003182262011122712 0.440686240348848 0.5592299241506163 5.34635184768212e-06 7.84891486879337e-05 9.593148407122188e-21 0.03758961859803955 6.669182667340336e-20 0.9624103814019603 8.891467323403833e-20 7.015283375925758e-17 0.09165892719175384 0.9083410728082462 1.478891326577291e-11 0.4484799990710372 0.5474527748976846 0.004067226016489229 0.004516877668665869 3.959290632524184e-18 0.9954825229147353 5.994165988233067e-07 2.326830406648795e-10 8.508190629506193e-29 0.001494856715411148 0.9985051430519057 0.0139076546091593 5.364438365727776e-10 5.84205542882746e-16 0.9860923448543961 0.4513174067286365 0.5484337644024768 0.0002488288688868145 4.915476299658341e-43 0.1642844254298763 0.06234535021319296 0.773370224144731 2.121997191812784e-10 1.451721742559661e-08 0.9999999393955323 1.597475581298351e-10 4.592750257011131e-08 0.999442895739411 0.0005486233094265365 2.57360521550356e-09 8.478377557140787e-06 0.5786317910361761 0.4213335838438025 2.164889853466323e-103 3.462512002150811e-05 0.004651168247565395 6.697416344269554e-07 0.02002725082451575 0.9753209111862844 2.027651777976655e-28 0.8682518060933604 0.1316000936406196 0.0001481002660199161 0.01330142814033836 0.9866985718596616 6.538291253722194e-19 1.834714297951256e-43 4.725991196469105e-07 4.586751083308763e-06 4.628289574426828e-06 0.9999903123602225 0.8344432217139989 0.08693644642929818 0.07862033184858223 8.120724752378837e-12 7.984093805118204e-42 0.9906411264734127 2.725675711773799e-42 0.009358873526587218 5.315492099732691e-11 0.01940441625414201 0.9805955836927031 4.310287845211313e-26 0.4784226122201513 8.765748004457593e-10 0.001152581195943818 0.5204248057073302 0.006028972270689795 0.9939710277293101 7.509429390064267e-22 6.081082475783806e-77 8.815512528192811e-05 0.7807402533346494 0.02768551816029734 0.1914860733797714 6.166689195559824e-05 0.9998411808995515 1.322510189019103e-05 8.39271066028075e-05 1.076297494641446e-164 6.005638723356034e-143 6.756519072502905e-07 0.9999993243480928 6.317826027853252e-11 0.1041237053886241 0.02150053703515756 0.87437575751304 0.04151038789833871 1.188882202305224e-40 2.39771867643809e-15 0.9584896121016588 0.29194054293786 0.0009525954796727917 3.146072390434547e-13 0.7071068615821527 0.03137242512901083 5.520859064004637e-10 0.5580371872161829 0.4105903871027205 0.8094282318590164 0.01157266876539195 0.0007186283264561998 0.1782804710491354 5.321707365245311e-205 0.007726805806495977 0.9237303204837781 0.06854287370972598 1.385249148252268e-09 0.09607079986839857 2.344101325733622e-06 0.9039268546450264 0.9900281686798461 0.0009524737655877258 0.003514435930073767 0.00550492162449243 0.01430496140739873 4.377499541057671e-16 0.9771031656759005 0.008591872916700511 0.6120565207443386 0.01217875822247461 0.0003724666330481604 0.3753922544001387 0.8574511654561588 0.08193508656935333 0.0606137479537502 2.073781115752794e-11 1.279163837155533e-08 0.01580067830377784 0.981398254257854 0.002801054646729944 1.288497338051075e-05 5.764145387771016e-08 0.6437914582195267 0.356195599165639 0 0.9596369014049932 0.02779584228537896 0.01256725630962788 0.9981486392559846 6.813301424793691e-23 3.037957515096351e-06 0.001848322786500304 2.346631975271801e-05 0.7436557690067014 0.1123626068547275 0.1439581578188183 7.849929683236177e-05 0.999915605710972 5.894978488369456e-06 1.370699165028257e-11 0.3295797276997849 5.307987814604088e-05 0.0002582794809829181 0.6701089129410862 4.430709200292763e-25 0.04631789527057664 0.9536821047294234 1.082985114790568e-21 0.9945800693256642 2.752575376690553e-12 0.00541993067158309 7.49368480035453e-17 0.01151696159515206 1.032069836310037e-21 2.150739536318556e-49 0.9884830384048479 9.163492454333723e-07 2.191781453193869e-08 1.028038769900349e-18 0.9999990617329401 3.89757156947169e-23 0.9986006730795816 3.439240420417575e-68 0.001399326920418401 0.0006915977245423781 1.924407343207469e-21 0.9486438221238928 0.05066458015156478 1.780496623640785e-22 0.6815867393059361 0.1805099514855921 0.1379033092084717 0.003346923816135729 0.9963936110858441 4.416496768271116e-08 0.0002594209330523941 0.9964732818850739 2.166561951822084e-20 0.0001931260476948166 0.00333359206723125 0.4249477336202756 0.3931591645327724 0.0006234858195815187 0.1812696160273704 1.019827084600166e-09 0.5767893933738709 0.4231748616907379 3.574391556404541e-05 0.6976721088193576 0.3023220452284764 4.200590171570754e-142 5.845952165963722e-06 0.740349456117102 0.04000885511435315 0.04508706161116995 0.1745546271573748 0.7433982153895621 0.1827738288339116 0.07382794549017579 1.02863504939473e-08 0.001797418926315851 4.875838458310662e-05 0.9981538220023974 6.867034904393846e-10 0.09657858076988983 9.271445657924431e-05 0.9033287047735311 3.378789778540374e-22 0.0723633096220503 0.921177663598811 0.003355872847554257 0.003103153931584549 0.999999999999941 0 5.89085001966192e-14 6.154035406330068e-20 5.635081736508567e-16 0.4627355783160339 0.5372644197516619 1.932303664726505e-09 0.2712400521052007 0.6411829640579775 0.08533797469879377 0.00223900913802802 1.956638749906975e-07 1.223468818537539e-21 0.1189159018804259 0.8810839024556991 0.178581546036429 0.02821383139869526 0.7146479098279577 0.07855671273691807 3.727528666926777e-09 2.618837123133469e-25 0.9578034962521098 0.04219650002036161 0.01517016308318929 0.1450002120823615 0.0006531081961945154 0.8391765166382548 0.9955863386781242 0.004413442065875843 1.094550253365461e-14 2.19255988954743e-07 0.06784908820703345 0.9109863684661583 0.02116454332680812 6.58332349637367e-31 0.9999998723376569 3.149142973399714e-08 4.125957118454721e-30 9.61709134041225e-08 1.632319347512288e-05 0.05539456628102771 0.9445891051016528 5.423844545810772e-09 0.09774835490811054 0.9022516440862302 8.189459040252339e-18 1.005659160987362e-09 0.0001409325213509326 0.9998195939826044 1.112791341379245e-06 3.836070470331295e-05 2.816268766074906e-28 0.9245521893161438 0.03507903069527892 0.04036877998857728 2.737728392185543e-15 0.0005119032225842208 0.1967319778062753 0.8027561189711377 5.527633729355138e-15 0.3707649795421468 8.25542900685446e-07 0.6292341949149471 7.531833357660131e-09 1.283474718104865e-13 0.9999999669317011 2.553633717351778e-08 0.01753124795769079 0.0004111473456826094 0.02203096240113197 0.9600266422954946 0.06858848775830258 0.5801406378276056 0.07188844066971803 0.2793824337443738 3.65193311073064e-05 0.219105188070511 0.03731455674392111 0.7435437358544608 1.091613518360082e-21 0.9262639536974607 0.07296723365617251 0.0007688126463666422 3.727552528514527e-05 2.364810015448376e-06 6.051387658779812e-24 0.9999603596646994 0.9444138478734803 0.01333694084762264 2.509419565831031e-07 0.04224896033694046 0.00155196936187384 0.0001070402869912646 0.3163914217640381 0.6819495685870968 4.950195302000074e-88 8.572903655864396e-05 0.9999142709634414 4.763754808066999e-39 0.1555227883815975 0.4287936556490497 0.001490499530922053 0.4141930564384308 0.1988153569969854 9.142558023499998e-16 0.08843351437947988 0.7127511286235338 1.512820222082919e-05 0.3909332109353574 0.08564256823442461 0.5234090926279971 0.01637000010946829 0.9836299535607292 1.076745388950021e-38 4.632980240989183e-08 1.221226694080399e-05 1.267067223499607e-19 0.9999805691664584 7.21856660061113e-06 4.205852195550379e-07 0 8.763913294711029e-09 0.9999995706508671 0.001154286490184303 1.97783779941529e-07 3.832062078134088e-08 0.998845477405415 1.411992232315446e-21 0.9999999999982475 1.752394137228587e-12 3.350301174845556e-18 0.1866125269129845 1.268944915535985e-05 0.0002407131914872102 0.813134070446373 0.894502308657568 0.09674014203772227 0.004616672738753223 0.004140876565956537 0.0003775219906945757 2.216418687286928e-22 5.130721791345296e-07 0.9996219649371263 0.2076883903288369 0.6398264868766308 3.474273740925092e-05 0.1524503800571231 3.71307557701488e-06 0.03261084970175768 0.01729444026872987 0.9500909969539355 0.2729527401491853 2.111449576910585e-08 0.7270021809218032 4.505781451568379e-05 0.9999977685828706 1.915840244968445e-06 9.905805763179933e-13 3.155758938231466e-07 1.072367713765549e-06 0.9957851749438942 0.003536096874126584 0.0006776558142654504 6.980945340365803e-06 0.008628718462587327 0.9913639831337424 3.174583299923272e-07 0.9968813694667564 4.76957193592043e-06 2.536020127759961e-06 0.003111324941179952 1.074407416277399e-06 1.040759409296491e-13 0.9994357992860717 0.000563126306407954 0.7414457054538477 4.004843823600261e-177 0.001778284378457201 0.2567760101676952 0.7018612588351784 0.06091493831366832 0.2372238028511535 3.210585403773518e-17 1.808078419545227e-11 0.6058561932705537 0.004417312715832198 0.3897264939955334 0.9174292297541872 0.0825691206972444 1.566546895596766e-06 8.300167270695387e-08 0.005520853552114108 2.415355821433385e-07 0.9901518831469469 0.004327021765356835 4.348552836463869e-05 0.2426427661621203 0.7573137352819626 1.3027552430948e-08 0.9999566491085142 8.343914119898115e-11 9.350183545978159e-31 4.3350808046676e-05 1.081524221884345e-88 1.429864751197767e-24 0.9936758802683429 0.006324119731657244 0.4712040974831786 0.3206891500794181 0.2081067524342416 3.161469294963152e-12 0.04114522212977556 1.274348573959933e-12 0.9588388665430856 1.591132586446295e-05 0.00561423810763562 9.529430716966805e-50 0.9466141927542063 0.04777156913815796 0.9892846069157778 0.001021070074870794 3.232860984655708e-36 0.009694323009351304 5.139858458847513e-07 3.100419011451386e-08 0.999852635342847 0.000146819667116869 0.1902325327393949 0.00299501050752122 0.01391213282406958 0.7928603239290142 0.09944256605263251 0.9002879852064433 2.826336171740792e-05 0.0002411853792068949 0.4848428463904266 0 0.5151571536095734 1.879051748901028e-25 1.4014446673356e-20 0.9718088962731023 0.02819110372689763 5.137004275535111e-31 8.672589515519206e-06 0.9996794980370542 4.186443065685571e-14 0.0003118293733882314 0.9551846758455443 1.204971240551878e-07 0.04481520365733159 1.170011191704052e-80 0.8375066632753053 0.1624933294532243 5.264335469805702e-09 2.007134816773242e-09 0.4307751568656052 0.1276377177169792 0.4171805394633217 0.02440658595409389 1.916803965851059e-09 0.001395837588759792 4.336011661755143e-09 0.9986041561584246 0.473110015096776 0.001110668990141895 9.635679322664764e-05 0.5256829591198555 0.1324349439999481 0.7392205909821588 0.0004672722553175221 0.1278771927625757 0.01989248067877141 3.007868510162003e-13 0.8704997679969998 0.1096077513239279 0.1975010410236243 0.0002450010980712081 0.802253938853234 1.902507059177614e-08 0.9376171272350041 0.05971370883932928 1.09612688770056e-11 0.00266916391470515 2.103132607517117e-05 1.449890665909335e-08 0.5256641396848509 0.4743148144901673 0.9967439579071347 4.527132419638827e-06 0.003251514960445821 0 0.1274613053984711 6.179820909954673e-19 0.8725386946012202 3.086970358480577e-13 6.501175059170362e-07 2.466579718854814e-09 7.964500757628232e-12 0.9999993474079497 0.003900218735070344 0.994412430083464 0.001687351181465539 1.893655127228821e-26 1.778259033816892e-45 0.08244492856892276 0.5341721047592174 0.3833829666718598 0.009401721516733186 0.07916713704404522 7.618129210897019e-06 0.9114235233100106 0.03939091198366702 2.606646534661573e-08 0.3405715522700146 0.620037509679853 0.03649966313766653 0.9632231270308289 1.084149917257936e-15 0.0002772098315033855 0.02679192209829962 6.097306710401399e-16 1.527646937832374e-07 0.9732079251370059 0.9986196577069069 1.430352920527475e-07 1.047021937534654e-08 0.001380188787581858 0.150250819089534 0.2690777737708513 7.83538784881205e-16 0.5806714071396138 0.1070083186836129 0.0008694252137581541 0.8917038165192539 0.0004184395833751146 0.0004772716355002003 0.08243054287144951 0.001225963250069775 0.9158662222429804 0.0005196614472096396 0.9987589350439178 1.308443238832382e-10 0.0007214033780282828 0.004604326711860321 0.0756161053406742 0.0142351255382324 0.905544442409233 0.9541691270947273 0.02649745708940275 1.799112906623004e-08 0.01933339782474089 0.0292147286540841 3.136290999782481e-31 0.9707851616064227 1.097394932996832e-07 0.9767145492404467 9.504852177870015e-07 0.02328449512957369 5.144761936196336e-09 0.9780303967059052 8.253167108203417e-35 0.02196960328862225 5.472430310761824e-12 0.9999999849844254 1.501484889381942e-08 3.833633270348619e-24 7.257192795370874e-13 0.8869774093253479 0.02441057733623063 0.08861201333842157 1.682820687992421e-75 0.9754036321425786 6.137171329987452e-08 0.0003053052876135705 0.02429100119809448 5.709497367096782e-54 1.118359354969417e-09 0.003982195262750751 0.9960178036188898 0.7359815622147944 3.037883711221779e-05 0.2639880402232239 1.872486961009225e-08 0.8267496058060482 0.1437533292828226 9.960876738549012e-07 0.02949606882345543 0.9920614122973768 0.0003755882093482682 0.007554254871905905 8.744621369268897e-06 0.9928234952344608 1.07096560956117e-09 1.593032664483666e-05 0.007160573367928954 7.020111319438633e-06 0.002041068979691626 0.9979519109089845 4.549337688007177e-15 0.04858034656724151 3.257767356434334e-12 0.005519832261627796 0.9458998211678729 4.406797839819015e-13 3.112880602190648e-12 1.312229986231591e-40 0.9999999999964465 0.7014663286564865 0.1328375335216042 0.1656961310804609 6.741448164828607e-09 0.001093414183478298 0.996487115978083 3.7805538566257e-09 0.002419466057884764 0.03170119069458527 0.9682987950868915 1.421852320505135e-08 1.277434121536079e-26 3.408973487321466e-05 0.7800265768209483 0.2197293550212794 0.0002099784228990167 0.3721016488933238 3.271142899868801e-05 0.6278656396776775 1.242157902950578e-24 0.6492995022712078 0.07732510920736196 0.02339446656796239 0.2499809219534678 4.810217444404111e-12 0.0004067629147784307 0.001166976824079811 0.9984262602563314 0.5249322627457441 0.4657509493203345 0.008668591562621451 0.0006481963712999793 0.1379348509028887 0.6180876948620389 0.2403110002450916 0.003666453989980859 5.939568696437556e-16 0.08138276199561006 0.03054248455225946 0.8880747534521299 0.0002501407391491127 0.2411079785819883 5.15351689567264e-05 0.7585903455099058 0.899188828674505 0.02252049619427991 3.997828690130079e-07 0.078290275348346 2.972663539667139e-06 0.9999764816132423 2.992154530694109e-36 2.054572321802102e-05 3.937924163362238e-14 7.004241347710157e-09 0.4081657776250418 0.5918342153706776 0.999999888574489 1.06774025215682e-09 6.762863176881958e-10 1.096814843705509e-07 0.1962041825417427 2.305708625592289e-11 0.5304494456507322 0.273346371784468 0.9458938644142409 9.839848519767969e-30 1.072645285647758e-29 0.05410613558575917 0.871606050786999 0.03149118594805971 0.09670557612940642 0.0001971871355348598 0.9571856048471463 0.04280145395383236 1.118494243926218e-05 1.756256581945891e-06 0.9395859472703142 1.385335523703046e-13 0.05642440545282592 0.003989647276721363 4.384893043265539e-06 0.9844001721420971 0.01558967318318101 5.769781678618096e-06 2.912372868504957e-14 0.001881645144797103 0.9981183548551738 1.148306672382098e-66 0.0007071197314307623 0.9981686909314483 4.396767102496543e-05 0.001080221666096061 3.160298786579865e-39 0.9999999999936171 1.138063866109696e-34 6.382965424376849e-12 0.011733495776407 0.01026201588896793 7.557446584615245e-07 0.9780037325899665 7.143192895576393e-37 0.8182270788453528 1.799228446940598e-09 0.1817729193554188 8.899620246081947e-141 0.3971704095660328 0.5924961412741855 0.01033344915978171 1.974423267490104e-07 4.111538884206898e-07 0.9997076510742637 0.0002917403295211284 0.001952394793959699 0.001068400485540745 0.9890977090257856 0.007881495694713869 4.020075348565496e-16 0.9996645467815134 4.45215909113453e-19 0.0003354532184861434 0.0005516649598308593 0.1655827925506133 0.8338655424895558 7.528916812655127e-37 4.511283533316727e-05 0.9534228581032211 0.007960618491766045 0.03857141056967954 4.869081773123028e-05 4.07667901199044e-82 8.173873119747878e-151 0.9999513091822688 6.74079576695998e-15 0.9991180945466016 0.0006801263009033965 0.0002017791524881039 2.052821412987152e-11 5.709111835247381e-10 0.9999999994085607 1.233251378243894e-44 3.184539079890063e-09 0.9689625011655376 0.01127121345409669 0.01976628219582656 0.004534281495337929 0.0007969647228025931 0.006342261418524376 0.9883264923633351 1.366441897480697e-11 0.8437737742111305 0.1038895211734684 0.0523367046017366 2.329759345783544e-13 0.481336495941249 7.405439767413925e-20 0.5186635040585181 8.390677216928791e-05 7.805594720959119e-06 0.7116349878988255 0.2882732997342842 8.547539775135698e-16 0.2118329974609731 1.126674206855578e-90 0.7881670025390259 3.291110013831912e-10 0.999787793496813 0.0002122061668193722 7.256664394591456e-12 0.4395457869303316 0.5604542130696684 8.605369900749229e-215 9.840198594413317e-67 0.7949062040216659 0.0001222689744738934 0.1009151929918899 0.1040563340119703 4.60601300168064e-11 0.9918447058128566 0.00657358809849039 0.001581706042593021 0.0002300660374929483 0.2157941858498374 0.7827778708208186 0.001197877291850909 0.0009180722317086431 0.9987683084922182 0.0003136181739436265 1.102129463812118e-09 0.1863761900488795 0.2157799087061969 2.391111139337727e-08 0.5978438773338122 2.264599640197662e-28 0.3508093233115962 2.702860132499355e-08 0.6491906496598024 0.6002563020430632 1.05752059188417e-12 1.129589514972954e-13 0.3997436979557664 0.9675286625992261 6.089352215231954e-10 5.197148160854343e-08 0.03247128482035705 0.9975805779389842 0.001353764177621946 0.001065657883393855 0 8.281168956969903e-09 1.863776679533469e-07 0.1482945994920918 0.8517052058490713 0.08734957866121608 0.9118443663538677 0.0008060094792339511 4.550568215314672e-08 8.853418784264097e-06 0.8147005307259338 0.1852746564239766 1.595943130536373e-05 3.871461082609128e-09 0.9991122844468668 0.0008877113952166514 2.864552049284616e-10 0.7060358844174638 9.351199243689412e-15 0.002408539628997892 0.2915555759535289 0.9999988425625 4.079699383209178e-09 2.771690908219914e-17 1.153357800623847e-06 0.9817284244676621 0.01827156255834881 3.51905371983829e-09 9.454935477349572e-09 7.240259600054863e-08 0.03329222137846533 1.074567267401543e-06 0.9667066316516714 2.848753658356634e-09 0.1985740565375834 2.74819920728445e-280 0.8014259406136628 2.413344299226665e-40 0.9999841836992011 1.356205895401387e-05 2.254241844963125e-06 0.0006083720589104009 6.030356315633576e-06 0.2022080511261032 0.7971775464586708 0.008383347841670019 0.9916163970372072 2.551180598185569e-07 3.06318402014592e-12 0.006196316512851031 0.9938036769623003 6.337077612438316e-09 1.877710596221599e-10 1.285746547250134e-05 0.9961273538240586 1.008554029284488e-84 0.003859788710468908 0.05496299773240339 0.2405474712793645 0.65995423041419 0.0445353005740421 0.001452369479070247 0.01655026842664333 1.162572569855878e-05 0.9819857363685878 1.064476608043415e-13 3.985964388427221e-18 0.0009144637557904667 0.9990855362441031 0.08695151024039507 0.01152492173830416 0.9015235554648855 1.255641521281099e-08 0.1452394766945274 1.540474501276827e-204 0.7791817158645237 0.07557880744094909 0.0003700297202697514 0.9989886400363577 4.93329991060222e-05 0.0005919972442666045 0.132084208130144 0.03067578204581542 0.8372400009249498 8.8990908340601e-09 0.5819552329950609 0.02290092489096878 5.489780208026945e-07 0.3951432931359494 0.0005572921603407114 0.9994427078396579 1.415764821262534e-15 1.076354171868116e-53 0.03612768329914475 0.9633424969205134 1.314473597187004e-05 0.0005166750443701035 4.16614655337549e-09 0.2897111931926306 0.07108987264971568 0.6391989299915072 5.395394322307888e-05 0.3746477577119854 0.003881918445206597 0.621416369899585 0.01062047847820986 5.00715737434187e-50 0.6458867456675731 0.3434927758542172 1.335746002341207e-09 0.004946525050034993 0.9950521774776698 1.296136549251929e-06 0.499433249587281 0.0007572453998065527 6.487593868210233e-31 0.4998095050129125 5.853810544505625e-07 0.6756579070145575 1.70578061977757e-05 0.3243244497981902 5.773153986182978e-89 0.2465681628699604 0.0002155435265822515 0.7532162936034573 3.061816253759001e-07 0.755053614382442 1.732776616818104e-11 0.2449460794186049 5.956261090724097e-16 1.354761891042984e-07 0.03370828529901234 0.9662915792247978 0.925203779498053 0.07479622050194706 1.581670898262705e-48 1.769446314649536e-63 0.9014807664765377 0.001708812827051493 0.07361658306207247 0.02319383763433831 0.005885569916170474 0.902789450027885 0.09132498005550604 4.383771586567866e-13 4.225919034240523e-05 0.3924624566688601 0.008440473876212443 0.599054810264585 0.8771460170119407 0.000867538666748653 0.0009556394462180909 0.1210308048750925 0.130257438336879 0.8697422563503133 1.825636607406416e-25 3.053128077455053e-07 0.004729685789702609 4.292152220906357e-08 1.156347489732552e-14 0.9952702712887636 0.004082073051693066 0.0001961926028396542 0.6034824596940801 0.3922392746513872 0.001017764162599239 0.004123936933431576 0.8121036933154134 0.1827546055885557 5.311641780412113e-21 0.9890529418827652 8.749071094872394e-07 0.01094618321012548 0.1572021052922785 0.004542016385243883 0.415288849801874 0.4229670285206035 0.9994565548200524 7.941810319783747e-09 7.751299782761558e-14 0.000543437238059657 4.820628075595773e-05 0.003202619021651793 0.9967320232328799 1.715146471246566e-05 9.590665896821297e-06 0.2104099149171615 0.5842989573600051 0.2052815370569365 0.9205213006003956 0.03271661501595038 0.04676208438365414 3.986280205832492e-143 0.003468535037531751 0 0.9965314649624682 1.026203471651303e-20 6.624867518424752e-10 2.069980498663168e-66 0.9999999992895506 4.7962626234143e-11 0.08038240067088792 0.9195985063765358 1.028584802183526e-08 1.908266672823192e-05 7.725223124354535e-107 5.254513293969288e-19 0.6820355543013612 0.3179644456986388 3.539737899121901e-20 0 0.5082631449518084 0.4917368550481917 0.006292461690241187 0.9271332744060843 0.06476469177002139 0.001809572133653041 7.125257926527154e-15 2.366946316533984e-06 0.995551543461652 0.004446089592024294 0.01690215021447065 0.003207656819664225 2.332974652086201e-16 0.979890192965865 4.705711650467019e-06 3.345570941000718e-08 0.9936988827419002 0.006296378090739952 0.2697952240359806 0.509772819021219 0.2204240221553876 7.934787412680911e-06 0.000177717967466597 0.02648164123683623 0.9733404822982715 1.584974255912623e-07 2.065284838210515e-65 0.3605678938596074 4.408050441321177e-14 0.6394321061403485 0.1383988525492947 0.8616011474473186 3.386750495709148e-12 4.08494069119376e-38 0.006202992500737595 1.038795752280026e-08 0.541481796785573 0.452315200325732 0.4623855352006108 0.0002011208420297989 0.01950278608011203 0.5179105578772474 0.03898025429099652 1.36619035639281e-07 0.9536647936514027 0.007354815438565216 0.0007272728233150325 1.309469272028379e-09 5.493989253018396e-09 0.9992727203732265 7.149647567666765e-09 0.363815477738146 0.01621657893443773 0.6199679361777687 4.800468060048248e-07 0.0003126786020609633 0.9994023851090369 0.0002844562420960979 0.001762376033883123 0.1564782008920499 0.8417594222672918 8.067751011451228e-10 1.182244400761448e-07 1.182262489143954e-20 1.345799583445185e-08 0.9999998683175642 7.04860645062856e-05 1.494033398576972e-06 0.9662952965904501 0.03363272331164503 4.639585792885786e-05 1.30605734082754e-31 0.9999536041417304 3.406900102599537e-13 1.747409633845673e-10 0.01919877716015297 0.1836937740994549 0.7971074485656512 4.288452735564879e-09 1.174865689300817e-08 1.885982275876695e-08 0.9999999651030675 0.8716242538433786 0.002269759176926619 0.1261059819782568 5.001437996780426e-09 3.687825357128361e-15 0.05077138200228534 0.002960127430494021 0.946268490567217 7.639199097255621e-15 5.257837157135352e-11 4.4197323447846e-25 0.999999999947414 0.2035196234766638 0 0.4703877880838125 0.3260925884395238 0.9999999447764516 5.522351664131168e-08 3.18043832243021e-14 5.205855657898709e-26 0.9108341031319342 3.293659139726529e-06 0.08916260320892604 2.277238213276366e-67 1.850697359449246e-47 1.756656075461666e-36 1.92338321810647e-06 0.999998076616782 4.965293605130692e-12 3.180272865825991e-07 3.541951878261522e-18 0.9999996819677482 3.022355818617992e-45 0.217728954615361 0.7822710450375948 3.470441248233088e-10 1.567838004077917e-06 0.9998502334827477 9.197284257694369e-05 5.62258366712093e-05 2.167487969305411e-28 0.8350294206448301 0.02597570991898862 0.1389948694361812 4.709367988810657e-07 0.9999629401545925 6.606185765860615e-38 3.658890860849119e-05 7.803799312836559e-12 0.2428174588580735 0.008347136694082066 0.7488354044400407 0.9997931224430343 0.0002068775555268216 7.295034414835154e-16 1.438142600200364e-12 2.436946406319047e-05 0.1042399888916101 0.8293787043455264 0.06635693729880049 0.980851395804595 0.01197898138444295 0.003714357233326233 0.003455265577635824 3.291712778149897e-22 0.4486271728081628 4.528633763241283e-38 0.5513728271918372 0.999793380435683 5.79651835203792e-05 0.000148654158062722 2.22733883053622e-10 0.3307549885807907 6.012067914811944e-10 3.318516107085754e-13 0.6692450108176707 0.0001578668409991845 0.9553084189551888 0.0445335317334386 1.824703733734721e-07 0.0005862667353275094 0.0002298704336876377 0.09585373932227259 0.9033301235087123 0.2107970064148406 3.295307856713629e-11 0.7892029935522062 1.211148686205418e-59 6.03553891099604e-10 0.1280609632764212 0.8719225096079559 1.652651206890465e-05 0.8542254295055349 2.843617537231464e-06 0.1411066361598704 0.004665090717057415 0.2137235039309371 0.6630716543254663 0.1229287815853881 0.0002760601582085262 0.0003315235311032006 0.9992424268170657 0.000426049651831117 1.072376633947095e-63 0.0002319265061947862 0.04300302677665035 0.001888984072778418 0.9548760626443764 0.0008237250953857766 0.9991762748410487 6.356563644477545e-11 2.05644249855527e-85 6.82922516957049e-08 0.004090645303369225 0.9959092860706867 3.336922451589798e-10 0.4161067328267176 0.5837964947631421 1.727156176408798e-116 9.677241014029507e-05 6.238682911373368e-07 0.9992510113311609 0.0007482913200542461 7.348049358436595e-08 0.9999998623475783 1.376419360717631e-07 6.626533334220557e-50 1.048557660414489e-11 0.520704898567134 0.4788382391082261 1.010834493451498e-19 0.0004568623246398561 0.1327525055430658 0.000487966964144445 0.8652508661656242 0.001508661327165587 0.2062806567055101 2.172761972153979e-07 0.1732639766444671 0.6204551493738257 0.0006052701558815401 0.9993947298441185 1.764469608552924e-31 1.250008997890343e-18 0.9970292001806834 0.002866557961270974 0.0001042418580456577 2.857041097981349e-42 0.9997805979859573 1.759492566389476e-26 0.0002194020140425968 8.045185098975827e-20 8.565747517919247e-07 6.417270010943355e-10 0.9695432745824448 0.03045586820107635 0.4547712898573112 0.1456199396295674 0.3546229381031754 0.04498583240994619 0.3380557017818777 9.420790810803782e-06 0.6526876686207513 0.009247208806560294 7.195754626275e-19 1.584331771618214e-24 0.9999999975967654 2.403234496352644e-09 0.9555677883354305 0.04240100410414702 0.002031204929850539 2.630571785015086e-09 0.02027003780895234 2.500249877824309e-42 0.001536337420566199 0.9781936247704814 0.01438693268964169 0.7576748875376208 0.006875191638021113 0.2210629881347166 0.7462636129491026 0.2509863991658137 0.002749987799721718 8.536206834686164e-11 0.02259026380937259 0.7483387566628664 0.03948336200319333 0.1895876175245677 0.03208688443243794 0.9678113643941195 9.094392776543014e-05 1.080724567707804e-05 0.01031641413761429 4.51028892951124e-07 1.854344902422171e-06 0.9896812804885904 0.6751424927119329 0.1623572801670727 3.145852350794735e-12 0.1625002271178485 0.01375728791369215 0.008068364624518648 4.387209024899297e-50 0.9781743474617891 7.022968536317173e-20 0.9644375173921352 0.03556248260786472 5.869435620211946e-18 8.102138628062684e-22 0.9151416320695425 0.08485836793045745 0 8.798711116636609e-07 1.563762396032403e-07 0.9948878854899672 0.005111078262681592 7.273769209614559e-11 0.9999950752043858 8.829762757755895e-09 4.915893113769859e-06 6.875836151386425e-08 1.005546259638719e-09 6.950877393883671e-10 0.9999999295410046 0.01138380824855523 0.0005076184425059731 0.8497768085689918 0.1383317647399469 1.233251422954917e-32 2.522399392983467e-06 0.005241736545010511 0.9947557410555965 4.552645309538111e-23 3.496479164781981e-18 0.002197108888404965 0.997802891111595 0.0540322168449932 1.260436160844205e-05 0.9459551787933984 2.795426399691469e-17 4.548193271212048e-11 0.9755746105317129 2.97423083243508e-12 0.02442538941983106 0.9782958805119377 0.02053150795198847 0.001162108709881513 1.050282619218266e-05 0.9999825428800097 1.74571190404759e-05 3.957172936723021e-15 9.458342303047984e-13 0.9999934593044092 8.119376995222499e-08 5.076494538693934e-07 5.951852366833648e-06 0.001075168845678205 0.804692049709066 0.1942316026289324 1.17881632327744e-06 7.925106332598097e-07 3.168073643546548e-59 0.9999992057578999 1.731466786765569e-09 4.200962893372988e-08 0.9994457159967315 0.0004904226061588948 6.381938748077542e-05 0.08003004327444767 0.04598349812196457 4.951086551635414e-08 0.8739864090927222 0.9967492413520664 0.003248668830747131 1.876261182507013e-06 2.135560039868695e-07 7.040517508874274e-45 0.9999978421552481 1.619095043144857e-06 5.387497086157554e-07 0.853793209238314 3.204109368089815e-09 0.132301554363852 0.01390523319372469 0.004401193636940101 0.8691048770021914 5.268646550232867e-30 0.1264939293608686 0.107995499994129 0.8092913127223021 0.0001253483952386161 0.08258783888833023 4.461946782840181e-08 2.391675645914798e-08 0.7657058561085002 0.2342940753552755 0.1369371881970689 1.693034096673767e-10 1.440289473289205e-30 0.8630628116336275 0.03447214293204252 9.105075941871437e-05 0.9654368063085386 1.525095504386311e-16 7.398237954424359e-06 0.6409718020265549 0.1561291313983328 0.2028916683371579 0.1236558450767977 0.1576830902398035 5.175118255253074e-34 0.7186610646833987 0.001573880985188157 0.6706381389008684 9.845534852599671e-07 0.3277869955604581 0.9999999999932028 1.399425826654328e-19 4.298534470878315e-12 2.498653825517232e-12 0.01520588532593001 3.422486073107238e-36 1.219981227178969e-09 0.9847941134540888 0.01611197995927298 0.9838872770921239 7.824262271466732e-27 7.429486032520662e-07 0.01273328614440834 0.05569527967466403 0.931570323809277 1.110371650527158e-06 1.232462740339851e-08 4.442906731003446e-15 9.761128079444294e-08 0.9999998900640872 0.0004036568430635344 0.005242570938950457 0.001386527904065916 0.9929672443139201 0.3726868118902629 0.6224727017262635 4.850937544770455e-06 0.004835635445928636 0.00680547782275615 0.9931020490150321 8.359507799523427e-05 8.878084216388006e-06 0.5133585490422656 0.3252059593208654 2.09545892813697e-05 0.1614145370475876 0.004078097013935749 0.9959219027882505 1.978136338041801e-10 5.368917956717218e-21 0.02693542024014421 7.740629329855612e-21 1.283941879638074e-06 0.9730632958179762 0.002069550965906837 0.7061171676539169 0.2918121701206792 1.111259497151049e-06 0.999975977201388 2.368248781049284e-05 6.002889297403166e-10 3.397105125912647e-07 0.05597093784631865 0.9440290335545101 1.786301018794357e-10 2.842054122413613e-08 1.621276709151476e-16 1.141560635271077e-34 0.5842473981795795 0.4157526018204203 0.04085725334715489 5.971889809875304e-07 2.27502167507774e-12 0.959142149461589 1.501247129575373e-39 0.0001063576239279605 0.9212064088771169 0.07868723349895501 0.9999547227956517 4.527694617021889e-05 2.581780486745474e-10 1.429824050830572e-48 0.69710662401912 0.001803636907441933 0.3010553821305333 3.435694290457934e-05 0.2603861249999082 1.899006608138737e-06 0.7396119759934837 5.637549843004372e-119 0.8799049990159797 0.01132536700250118 1.074200347337256e-05 0.1087588919780458 5.558407205622632e-10 0.009200073647190991 0.9907999257969684 1.968286639430977e-18 1.701431780335962e-05 0.0002141741491345995 0.07183466061530551 0.9279341509177564 0.08241563933555276 0.02379036173089437 0.8937939040669713 9.486658169476472e-08 0.048755757841622 2.889446702701556e-11 0.9505222901091132 0.0007219520203704268 5.671267473029171e-241 0.6066136310145522 0.3498340803729053 0.0435522886125426 0.002679574909020428 0.9970570343231832 9.496839398296483e-26 0.0002633907677963495 1.006101023379773e-06 0.1695683880499564 0.8302122152561671 0.0002183905928530413 0.9259294275932978 3.014107041511586e-14 0.07406340612614612 7.166280525867966e-06 6.652860766074595e-08 0.007841149553480817 0.9921332124618391 2.557145607250503e-05 0.02030880975179571 0.01336726349800712 0.06728365988350238 0.8990402668666949 5.016573723297405e-157 1.031399338136312e-20 0.9999999999838565 1.614348364293214e-11 0.001055662063147905 6.181442306955102e-09 0.9595194457645316 0.03942488599087837 0.2557230286491779 0.7307519617846661 0.01135398951103882 0.002171020055117156 0.1089976030934085 5.12574637865588e-05 0.8894616591849809 0.001489480257824085 4.96384878936363e-09 0.1662065041545767 0.8337916793485739 1.811533000572868e-06 0.4656627049538258 0.07092876129968978 0.07428785857008298 0.3891206751764014 6.184918564454702e-113 0.7920114272219027 4.81935095506024e-10 0.2079885722961622 1.007732041509287e-07 2.027196483039686e-09 4.329790159266494e-05 0.9999565992980067 2.198426694417887e-06 0.06694179803920387 2.021206003503508e-07 0.9330558014135013 1.352340636644534e-27 2.563495826883479e-207 0.00626085246074585 0.9937391475392542 0.9999999996118552 3.881448062303844e-10 2.658119690691091e-30 1.917754914296745e-27 0.007900467480716466 2.588423453474124e-10 0.9920995322604411 1.820154213480238e-34 0.9307671821581087 0.003824479595536249 0.04296146339177668 0.02244687485457844 0.8956955518714164 2.729252857604149e-06 1.361762049251739e-21 0.1043017188757261 0.1229824932841152 4.355288492495594e-24 0.8770175067158847 6.860479553095823e-232 0.0519555597622962 0.9316167354064074 0.01630384090628745 0.0001238639250090205 0.9999994496060433 4.987748509741922e-07 1.212415955462444e-13 5.161898456495093e-08 9.709966372055089e-08 6.948158766338967e-07 0.01981089948312047 0.9801883086013391 2.252010836394959e-18 0.999966293284454 1.880602893222247e-22 3.370671554602458e-05 0.5987271953832841 0.00852227909960989 1.821843252904423e-16 0.3927505255171059 6.701164308850196e-11 0.9990182327998159 0.0007979376805711101 0.0001838294526013312 1.211644362869382e-12 0.286535763415072 7.15087379231824e-09 0.7134642294328426 0.02570224553053196 4.858668891989631e-06 5.470459387583258e-20 0.9742928958005761 2.246541744806815e-05 0.07238742891577961 7.711061479827453e-08 0.9275900285561575 0.002454506504345525 0.113264059229583 9.23446982739045e-10 0.8842814333426245 0.0009575654206629319 0.9990424134886827 1.867462057954214e-08 2.416033749510706e-09 1.083106575445179e-22 3.921599604399318e-22 0.999999995058649 4.941350976989855e-09 5.334339481408569e-06 5.269800399911781e-13 8.207758815272028e-08 0.9999945835824035 0.006420833499153782 4.364457941958195e-06 0.06599634343431954 0.9275784586085848 0.1406587884857963 0.8590343603175846 2.831686674089729e-08 0.0003068228797524504 0.0005057872773840101 0.9516493577316983 7.452895695117967e-22 0.04784485499091767 0.5164066177447403 0.4748069581645007 1.964916731911002e-06 0.008784459174026933 0.9912678858261049 1.889400680350195e-06 0.0002765497744066965 0.008453674998808142 0.03555360113381622 1.412791948634688e-06 1.795118193508268e-34 0.9644449860742351 4.048626685266455e-64 0.0004597130896661117 0.9995402551168763 3.179345760939369e-08 0.1200966917940938 0.1713048019935258 0.6758945495987133 0.032703956613667 0.0198129094306475 0.9188013804670317 0.06138460684378597 1.103258534861162e-06 8.877856298709615e-05 0.01064073996985869 0.9856177797546621 0.003652701712492262 7.175077485284038e-08 0.0004340202733221064 0.9995659068162961 1.159606885393572e-09 0.8423333639919655 0.1320641502522419 0.02560248575579278 4.619575863090907e-23 0.9665210473491186 4.643156910154563e-06 3.926115324203218e-12 0.03347430949004508 0.8886845393083892 0.02540104049488228 0.06670245824417494 0.01921196195255367 2.1372517129214e-07 0.3357442587770225 1.112350722489541e-26 0.6642555274978063 3.426468473596843e-68 0.9996904656237299 0.0003095343762701603 8.334485110468061e-78 0.926140543614548 1.861913268001037e-05 0.003607051111846317 0.0702337861409256 1.113570413904357e-05 0.6430170133791215 0.3569631747012659 8.676215473686607e-06 0.003080513121553235 2.917057463414355e-23 0.9746378934262997 0.02228159345214706 0.295130756299571 0.1334677939542069 0.5714014497462221 8.394755178269018e-89 1.641612451095183e-12 0.09187428370333775 2.358985746011215e-05 0.9081021264375605 0.3361858240940671 0.007735285328203612 0.6560788905777293 2.244387405134663e-20 0.04843041153235746 0.9408058350270339 2.149212676056136e-11 0.01076375341911657 0.6237664758579335 4.107761680544179e-25 2.700422831287268e-27 0.3762335241420664 0.8832738674759283 0.1167261324799677 4.398416539212461e-11 1.199795354912379e-13 0.0005725901811579811 1.190753008469404e-05 0.9994082971628905 7.205125866921151e-06 0.004177569042666091 0.9454208421847617 1.053626713489029e-06 0.05040053514585861 0.9999999464122062 3.420345936451376e-08 1.917000767450031e-08 2.143267369256911e-10 1.33679664701615e-11 0.6657918263915696 0.04057558267398843 0.293632590921074 0.07565657883344398 0.9243433634896077 5.767694834637416e-08 1.225910445236705e-45 5.675873055056538e-09 0.5861187869340141 0.1285342998395227 0.2853469075505901 6.406577523912673e-10 0.9999913656827104 6.278976036671128e-06 2.354700595270758e-06 3.391483454708924e-09 1.058835189802022e-30 0.9999901879759101 9.808632606456624e-06 1.723409523911102e-06 0.6297947461132769 0.3701451280221852 5.840245501377974e-05 0.02194405869375073 0.0001561071008518187 0.0004362237605522642 0.9774636104448451 5.20913034463725e-11 1.031600447559597e-08 0.1385178181393832 0.861482171492521 0.1728442418435743 0.1022488289521156 0.6833999788993643 0.04150695030494573 0.1832039328789999 5.818267054620016e-06 0.0001687468746509466 0.8166215019792946 0.04995221542803296 0.759775323407189 9.866651677732394e-15 0.1902724611647681 0.9884170129945713 2.109725303617353e-08 0.01158296590817571 2.338925137762328e-27 0.9999995932443209 1.312040860752489e-07 7.923640590697859e-17 2.755515929921379e-07 0.6104288335571214 6.848913184513121e-37 0.3853766948739081 0.004194471568970399 1.923773256855217e-11 0.9297532358178006 0.07024243675524564 4.327407716027501e-06 0.9999999998816563 1.564997820408326e-14 2.96301744569899e-11 8.869784381323717e-11 0.003834328080417774 1.142385255567141e-31 0.7274851568009173 0.268680515118665 7.770185377702008e-06 0.987585893730761 1.601589834549544e-07 0.01240617592487776 0.1073507565296167 1.31255716451941e-60 0.8924281612379747 0.0002210822324084427 0.9193355049102889 6.22995351124557e-79 0.08066449508971117 1.592414115604666e-18 0.9218446109020765 2.384234135021958e-33 7.133574268014542e-17 0.07815538909792334 1.611293632376752e-11 0.99831337877348 0.001686570541346133 5.066906104401278e-08 0.3793184887697926 0.6206815076697574 1.823033244815615e-17 3.560449913586993e-09 0.04197559002013206 4.688395986089991e-24 0.9579937764323736 3.063354749437218e-05 1.739157582779773e-62 8.574247454672528e-23 0.9980610678203371 0.001938932179662937 0.02032259778965018 0.9439757087221328 0.02000252828815543 0.01569916520006168 0.02291740492434767 4.649008997706056e-07 8.249243023329187e-05 0.9769996377445194 3.97047523159857e-41 6.234327684628067e-06 0.9999937656723155 3.310222779413383e-262 0.06593736760390906 1.010903523136417e-05 3.877680084329816e-11 0.9340525233220828 4.373843175385426e-88 0.9603894973155278 0.03920334563442006 0.0004071570500520732 0.0006098764422902283 0.0005495285732838695 9.722574014658193e-08 0.9988404977586857 4.785327705287669e-21 0.863431780647316 3.633601697592048e-06 0.1365645857509863 0.04982812391331327 0.00667046201866977 0.9423267068032188 0.001174707264798293 0.4136806104676962 0.5863193894989815 3.332231186441596e-11 6.411459514746231e-124 0.03888760795438654 0.9611077142659614 1.166668656172193e-13 4.677779535280303e-06 5.239202380591654e-07 0.8792302381363987 0.1087843730068735 0.01198486493648961 0.009713030885075037 0.9899841816756828 1.298695504054407e-08 0.0003027744522871617 2.847152291362008e-18 0.0003836086395455057 4.21160025916066e-35 0.9996163913604544 0.1626964020090849 3.941478245705829e-06 1.406061173281087e-08 0.8372996424520577 0.02264934502314406 0.8410942408431605 0.1362564141336955 8.216538990674234e-36 9.06365186833568e-17 0.6839326745253204 0.3160673225360938 2.938585722155668e-09 0.01736022759433008 0.2953996584167134 9.939755396178082e-12 0.6872401139790169 1.32405346273292e-05 0.0003398703015877987 1.295539644535381e-42 0.999646889163785 0.4958743230216781 0.000345574456765853 0.1172618541294533 0.3865182483921026 5.359989425440628e-08 6.194912455834731e-05 4.153659390379772e-07 0.9999375819096084 0.000318714244447869 0.7845768915043515 0.2151043940961917 1.550087607507156e-10 1.77586117677733e-06 0.9997692623530079 6.828932161234124e-11 0.0002289617175259425 1.891596025437156e-17 0.6858970067697179 2.033029383746659e-07 0.3141027899273438 0.001028571516660361 8.464178819727917e-29 1.540890253470238e-17 0.9989714284833396 0.002232770557059324 0.6008599532695102 0.3969072761734305 6.329899780296516e-27 0.2561511604995042 5.285339418881767e-24 0.6266549392231903 0.1171939002773053 2.336983320725197e-25 0.07661166457200938 0.8299882198426285 0.09340011558536207 1.171325819584198e-212 0.9999999986829327 3.365949532489788e-13 1.316730873101039e-09 1.962733612588262e-305 0.7794686164945777 0.2205313835054149 7.529914849335737e-15 3.08878292150561e-12 7.030502842030398e-23 1.581447285086631e-20 0.9999999999969112 0.6807305372812872 4.642074083140542e-05 6.925934914578333e-200 0.3192230419778813 5.368949347775362e-07 1.318107960957025e-06 0.9999961183936972 2.026603406989535e-06 4.03037572651709e-18 1.908019896050573e-13 0.4678292705407638 0.5321707294590453 0.9706667664180643 4.493878027658679e-12 0.0293332335774419 1.033035835216472e-58 1.136106226159421e-08 1.499120107514779e-11 0.9902327922978422 0.009767196326104248 0.8555903742745771 3.267605556465434e-05 0.144376913796196 3.587366206675757e-08 3.177060275353196e-07 0.02384953982866327 0.1298849544827513 0.846265187982558 0.2521955952414203 0.7475064628551639 4.806463202126567e-20 0.0002979419034158868 3.570840404269264e-19 0.00208492269345441 0.9954221035957144 0.0024929737108311 1.259863679663009e-06 1.10108266825185e-05 9.695198672982579e-09 0.9999877196144392 0.9999999997890521 1.410279967371371e-19 2.109478184838702e-10 1.112586248225065e-17 0.8587362010855052 3.196857998762656e-43 1.13095934222868e-20 0.1412637989144949 0.5081070400199488 3.590403605557882e-21 0.4587201395272061 0.03317282045284525 0.002335850233421981 0.03563951552248432 0.000455081634246084 0.9615695526098477 2.584104335761839e-09 0.4812789191741217 0.5187210760178333 2.223940581167772e-09 0.5301518072429242 0.09530359089056677 0.3192330106193241 0.05531159124718484 2.621788976104638e-10 1.049070130172012e-15 0.9999999947527028 4.985117402524248e-09 0.2417409938424789 0.7582590061575212 1.735999002384259e-20 2.337640242203402e-21 8.660713126118358e-07 1.814227114730181e-09 0.9999991321144603 1.49399489694023e-17 2.122094171585142e-13 5.799704116072252e-06 0.9983739006791206 0.001620299616551093 0.001633993111296718 2.897322945064388e-12 0.9982529849918739 0.0001130218939320834 0.7444802321598386 9.445774969021127e-06 0.2237536914040655 0.03175663066112692 0.04851784570083551 0.2882052505473678 0.5487413972126092 0.1145355065391875 0.9970629460169206 3.072407232866668e-31 0.002937053983079434 6.963345121898505e-18 1.764780713546375e-10 0.99978943160831 0.0002105682152099931 1.779599679465239e-15 0.0001256874823243881 0.4466867586977272 0.03926049970719909 0.5139270541127492 3.246113022520836e-08 6.198796466392192e-38 4.988767060248434e-22 0.9999999675388698 0.3881756395852737 2.947868972477899e-17 2.239210698070891e-13 0.6118243604145024 0.999759699631432 3.665128073475024e-08 0.0001448108857651854 9.54528315219962e-05 1.14053273672066e-05 3.31492615722765e-17 0.002897182269249344 0.9970914124033835 0.06623523264774878 0.9262320680213344 1.614291744674915e-05 0.007516556413470097 6.362548855681667e-14 0.9861251685120246 5.653797335917281e-05 0.01381829351455256 0.9968418212745889 1.596236749377312e-09 0.003158125032302557 5.209687175301084e-08 0.04937314388080773 2.952451683359221e-05 2.005367074111579e-44 0.9505973316023586 0.01492700486597297 0.0001388690693366972 0.984934126056093 8.597480495580386e-12 0.9989741849902813 3.361843576089571e-20 0.001025404904680989 4.101050377409489e-07 9.51116950250349e-11 0.9999992994062994 7.004985888044592e-07 2.034021401671394e-16 0.8446711163029136 0.004261836521215943 1.678078496344032e-34 0.1510670471758705 0.0002806675178900778 3.859534868581471e-10 0.5633154655462926 0.4364038665498638 0.9882978136448618 5.599247268651002e-06 1.987810940714471e-10 0.01169658690908839 2.663127076859454e-12 0.8882817114793777 1.355649464714798e-08 0.1117182749614646 2.504763516405542e-06 0.0009422087261292557 0.8521009241124394 0.1469543623979148 0.4957973449063901 0.503560914797261 1.627799263399361e-17 0.0006417402963489328 0.0006137072682532808 0.9984794316932828 0.0009068610322141903 6.249795457076385e-12 0.8751234695790953 7.803912850358763e-07 6.760714768331384e-10 0.1248757493535483 9.872773438362304e-05 0.9196552179665388 0.0802460536400314 6.590461032326635e-10 0.2517017318771687 7.200006012271856e-10 0.0001455299244752709 0.7481527374783554 0.6861886626099802 0.005536949110492448 0.3082743882385743 4.095302452007988e-11 0.06916386065413829 0.5606385186136251 0.006413005528835565 0.3637846152034009 0.009632209852451007 0.3095246791346485 0.6766974734819806 0.004145637530919843 0.002670609584575418 0.2756091038645157 0.006114943349488386 0.7156053432014206 5.318941518283306e-12 0.6175170399718322 1.497571040590966e-12 0.3824829600213513 0.4066217129925692 0.00825253529579242 0.5703460983929146 0.01477965331872372 0.563814506138089 0.0002547737697124469 2.182842260283209e-06 0.4359285372499383 6.10140523426707e-05 0.9888173388311037 0.01112092055007759 7.265664760966307e-07 0.9786849852097358 0.001042038813064854 2.161187069200553e-06 0.02027081479013016 0.01115885722517396 8.789864092422247e-50 0.4786356597672888 0.5102054830075372 0.0007317879437858744 9.741502127519681e-06 4.579590587246924e-10 0.9992584700961274 1.046854314462647e-48 0.0007544196726141822 5.576597711349706e-07 0.9992450226676147 0.9999999992666205 1.384389003497412e-13 7.33227174804247e-10 1.390306770532729e-14 0.008528376007442497 2.391715175250759e-05 0.1741903103124174 0.8172573965283876 1.062757983268696e-166 0.5764604155333536 0.3508548911684102 0.07268469329823625 7.336265705862623e-13 0.9995367468080566 0.000432006127638916 3.12470635707993e-05 0.004428949275743725 1.150976807369299e-10 0.7093530660941917 0.2862179845149669 0.9760689090111713 0.02191169066863502 0.002019400310581883 9.61201194554158e-12 0.9067851949277437 1.187670404837782e-08 4.810792795262953e-19 0.09321479319555231 1.321978028468468e-17 1.24113291913582e-09 0.999999998758867 1.488697417191418e-47 0.5018591447381373 0.391701789302821 0.106439053315552 1.264348991186207e-08 0.4128740077718544 0.513931121042752 0.02912621121005975 0.04406865997533386 1.454093859351693e-54 0.8880176427818203 0.03915536186567007 0.07282699535250965 0.976023962090136 7.810644968622324e-05 0.009558048612176752 0.01433988284800113 0.201874243423678 0.1548709697102386 0.029953438235391 0.6133013486306924 0.9576065597243617 0.007884728349325854 0.03286007848478761 0.001648633441524877 0.9999999999997501 2.498426199668063e-13 0 2.742351614416822e-72 2.780934762769198e-06 0.4629552770314398 0.005313914447155257 0.5317280275866423 0.008343118977326362 0.9879519571342473 0.00366428159544138 4.064229298490313e-05 0.5655719514590999 0.03929471378954515 0.07900604095441659 0.3161272937969384 9.079865410822434e-28 0.0003606078949571639 0.398486939962 0.6011524521430427 4.9123286763321e-52 5.27268915617265e-13 0.9697227693195991 0.03027723067987364 0.00627710679286927 4.55162702485405e-05 0.02373419543984972 0.9699431814970324 0.00860593063117353 1.2271863281039e-08 5.573604281947325e-06 0.9913884834926813 0.8847704161774346 0.1144233261968931 0.0002516503769436102 0.000554607248728688 0.0002646949348677538 4.20715099103473e-63 0.04840166508864144 0.9513336399764908 1.628480995517336e-63 0.7345711403258645 4.562783870517278e-08 0.2654288140462968 4.568504712813551e-49 0.877207066384554 0.02227496620979333 0.1005179674056526 2.347574432531956e-05 7.087885400117129e-05 0.9999056454016736 4.499009059821177e-18 4.964315796510803e-17 0 7.931977637485913e-13 0.9999999999992067 0.2336951224751559 0.567080222106085 0.1992246554073094 1.144978744295734e-11 0 0.660678278298874 0.3015685689639319 0.03775315273719407 0.02119044593028745 0.2238851251879611 0.005977632607528797 0.7489467962742227 0.736090279546002 2.177291924287958e-09 0.263909718276706 9.560475158845747e-264 0.001532752239917336 0.7800725330758548 2.221081889658489e-17 0.2183947146842279 0.4977818040129179 0.502211152999648 0 7.042987434055505e-06 3.447592396473209e-05 0.2056418910473385 5.430108505588885e-05 0.7942693319436409 0.004782760120977036 3.543942051492461e-17 4.513001978184594e-09 0.9952172353660209 8.259201240792956e-227 0.9993348737777944 8.122238690030245e-10 0.0006651254099817138 0.00207433742191574 0.01119986498296928 1.238171476702166e-05 0.9867134158803479 0.004816336602210659 0.9078891623170523 0.08703556220492153 0.0002589388758153886 1.267394021074594e-11 0.2035792336246852 0.04028986138057934 0.7561309049820615 0.04203484602145283 0.2126459128705618 0.7453192220709877 1.903699771546144e-08 5.423501918292662e-08 3.648943425722485e-09 0.6629693011207016 0.3370306409953357 3.115576319710071e-75 3.550432123575203e-08 0.03782004445318841 0.9621799200424904 0.6634678980324586 3.533619819892244e-10 0.3354864688371753 0.001045632777004247 0.9887491647918923 4.270212159651446e-16 0.01125083500070514 2.074022876217471e-10 0.04239006907696187 0.9576083672951308 1.175824497192861e-26 1.56362790733913e-06 1.509593948554888e-10 0.00348008697902273 0.00552459501052885 0.990995317859489 0.9964302198510718 0.003551754517637875 1.433573163253328e-08 1.801129555857554e-05 0.04271993692493938 0.438958102110437 0.1515288931125276 0.3667930678520959 0.02655567369014393 0.9734442927434375 2.720611225767049e-14 3.356639145150645e-08 0.2892164146872861 2.093213723827346e-98 0.02529207930932708 0.6854915060033868 1.212233384257525e-09 2.553081010846151e-09 0.3009203311897446 0.6990796650449409 0.06192458476356286 0.07760919737310812 0.860466217863329 2.933701472593367e-105 0.03967836955547683 0.9562353230255066 0.004086307270517037 1.48499445494356e-10 8.156723887533377e-07 5.966235523312986e-05 3.702439095007338e-34 0.9999395219723782 0.8999126210580032 0 0 0.1000873789419967 1.62974405510166e-10 0.9999146671415904 3.878670609126532e-17 8.533269543526473e-05 0.932149940198463 2.958796061013885e-24 0.0678434465780795 6.613223457527001e-06 0.1462850533495642 0.8537149414550907 1.068673927455952e-12 5.194276345436084e-09 2.736911578470193e-13 6.759148146941944e-09 7.411971453066327e-11 0.9999999931664584 4.7167653407186e-06 0.001086420606123093 0.8340245187842986 0.1648843438442374 0.04801914450832245 0.0001154805198611418 0.08907800898493974 0.8627873659868766 0.0001518945348568077 0.9998475994514657 5.060136773701215e-07 1.294086545367038e-16 0.0009882759061512101 0.9058622515937663 0.08490294463083344 0.008246527869249079 0.9151335082797221 0.001295117090172433 4.259592425872072e-37 0.08357137463010549 2.533415960692097e-06 5.861088948570502e-10 0.9999843328648991 1.31331330313888e-05 1.422096558408331e-08 7.722794122837422e-05 0.9858717525236379 0.01405100531416821 1.934164531790791e-14 0.9999999999999791 1.406184473856301e-15 1.145776738783611e-21 0.9354472866791455 0.001468338453352217 0.06307858800385857 5.786863643691572e-06 0.7007990849977612 0.2730382939552792 0.02381226990638545 0.002350351140573772 2.95758604764686e-16 0.1325908330057534 0 0.8674091669942464 1.246365780718796e-06 3.562025566182415e-18 0.4944951794695456 0.5055035741646736 8.39324554878356e-10 0.999481318039752 1.613295050908605e-06 0.0005170678258723802 9.88108734968183e-05 0.1748390416293369 0.8250046274829698 5.752001419645736e-05 2.438693505560619e-06 1.022381554393223e-27 0.4218162322094559 0.5781813290970386 0.9998343297841753 1.674284070136397e-05 2.590699621813102e-08 0.0001489014681271346 4.75555436118804e-07 0.9975078098544091 0.002491588224366694 1.263657880618553e-07 6.241226309053716e-32 0.01836332248292346 0.2816523546755011 0.6999843228415754 3.353077745925768e-17 0.8789465778641083 1.458187201043931e-12 0.1210534221344336 5.531643892286098e-138 1.061374073449257e-13 0.03114171785622265 0.9688582821436712 0.9999090850804039 8.97136640721341e-05 1.201255524054391e-06 2.57294400113592e-36 0.6633120167400604 3.261276575408467e-10 3.598966987414285e-20 0.3366879829338121 0.985489508688035 0.003571491016064543 0.01093899931841318 9.774874004210317e-10 0.2710359695277657 3.051341208365856e-05 0.7283037913520473 0.0006297257081033173 0.1916306807317703 0.5531471162415357 0.2549201776607619 0.0003020253659322196 1.046701805556328e-06 0.9497686822033943 0.05023025688576108 1.420903906696235e-08 0.1295262599706357 0.8704608783906082 6.799547754965807e-47 1.286163875611912e-05 0.0004470499126656991 2.514560161204077e-07 0.999552645546436 5.308488225158462e-08 0.05780815080919396 0.9295978031834683 2.470223124647096e-07 0.01259379898502535 0.4947076133400897 1.684548657993251e-11 6.508981015071883e-09 0.5052923801340838 0.2066852315106464 0.3781086353664015 0.3614357902190193 0.05377034290393266 0.01057978062309044 1.441667855565054e-15 0.9894031609632226 1.705841368554304e-05 0.001056078772627688 0.9850638658796025 0.01068434684509277 0.003195708502677027 0.999932462508083 7.688666411259295e-06 8.152521250920336e-08 5.976730029323152e-05 0.6975274849689913 0.0002433738653360168 0.3022291411584868 7.185944058720728e-12 0 0.1446669248744473 0.04690265503192843 0.8084304200936243 9.620821787786733e-08 0.05477307019728633 0.9452268335944957 3.050783912761671e-44 0.5960054881623644 0.4039768968833098 1.761495431232792e-05 1.347419195155399e-14 1.332168944866864e-09 0.1521957750924428 0.8478042235753717 1.670585630539914e-14 0.9997861516120465 1.743665851546569e-78 8.344070939518284e-08 0.000213764947244042 0.1768973392782185 0.8231026607217314 5.002800063960791e-14 3.140375997252278e-31 4.08596431338522e-27 0.9939691745734782 3.793378441658369e-06 0.006027032048080267 0.09945480197880578 1.150784389804074e-08 7.104770594043682e-05 0.9004741388074099 2.485728492281185e-16 0 0.1573105405667642 0.8426894594332354 2.290099171859126e-25 0.03643853083950023 0.9614262479076292 0.002135221252870657 0.5028322756724308 0.4916591971447608 0.005375558778773739 0.0001329684040346124 0.9999999999952787 6.397783486126168e-20 4.720846210690849e-12 4.310569927860781e-16 2.329388537678491e-09 0.02286479911961456 0.5484455201963608 0.4286896783546361 4.48649276980397e-46 0.9866840515042331 9.02408443512573e-64 0.01331594849576687 0.8073457919114426 0.1926541854075735 2.268098387665413e-08 9.859096036769142e-32 0.9999318757469166 6.461282591290757e-05 4.118917921050962e-13 3.511426758538054e-06 9.020958948934405e-10 0.3756119716350302 0.01208224465271463 0.6123057828101593 0.02636517716548279 0.9736133975153095 5.501924203781994e-06 1.592339500397092e-05 0.001178255615149067 0.2482496610340528 0.008561786477545213 0.7420102968732529 0.9922872199006961 0.005516731262800392 1.556768360450801e-08 0.002196033268819804 2.125665675396762e-07 0.9986741887305894 2.869553204926505e-16 0.001325598702842505 0.9999445325388217 2.165464778970696e-171 5.546703760131529e-05 4.235771165247103e-10 0.3083470361717442 0.6916509227890405 2.03935743550343e-06 1.681779841058885e-09 0.9999999585201623 3.90912987365959e-08 2.919132508460065e-21 2.388539009175583e-09 0.9183650976620108 0.06710916294346955 0.01452573939451948 1.673537411351956e-20 0.0001413546336929583 1.55880904205516e-14 0.001274505336058807 0.9985841400302328 0.9998135556632417 2.138043928392967e-33 2.693505138509067e-11 0.0001864443098231946 3.97714035405178e-07 0.01782113465690721 0.9821784676290574 5.131516411876718e-28 0.008429388767238337 6.004101757633132e-21 0.9915706112127994 1.996228661404007e-11 0.0002702595808524719 2.599255145448679e-12 0.01353814072690233 0.9861915996896459 7.877322001223508e-17 0.5612283976396409 1.47065219989929e-15 0.4387716023603577 1.670923754887197e-24 0.02137302063095849 0.5739397183816793 0.4046872609873622 0.3383439173676931 0.01372066502140386 4.485325301157929e-08 0.64793537275765 5.800461260433442e-08 5.654083465921022e-06 0.9999942876770745 2.348469535725371e-10 0.001265173486683841 5.175496919093003e-13 0.9959455524179687 0.002789274094829944 1.928598026270507e-17 0.1025734326226626 0.8971103134108934 0.0003162539664437762 0.0001427817758899759 0.9998551951392981 2.023083987845635e-06 8.241242661671291e-13 0.0131496782048372 1.602342640514613e-07 5.836662446920051e-05 0.9867917949364295 0.4533697482798021 0.08805860213392223 4.669000015717288e-08 0.4585716028962754 0.6221271224604548 0.005621476558715925 0.01570014949016677 0.3565512514906626 0.382985580999166 0.1206988135116057 0.4963156054892284 1.809058511145717e-71 0.0009801809861612731 0.9989706095766887 5.784419873783766e-18 4.920943714997348e-05 0.5463082320261042 0.373605420782864 0.08008634718644535 4.586494746732013e-12 0.9998947846956893 5.236641570607218e-25 0.0001021500478371594 3.065256473463366e-06 0.009086183776009017 0.0004531845637442657 1.483647093626533e-90 0.9904606316602467 0.4756409999067842 4.744548007583338e-07 2.164491826289502e-11 0.5243585256167701 0.9953391107652023 0.004622419679636785 3.84695551608073e-05 6.019212612317925e-63 0.1070276345146891 1.606921205686572e-09 0.8929722120146103 1.51863779343025e-07 0.00574256058515718 0.2753787660739888 0.7188780069742454 6.663666085587921e-07 6.190306156512784e-06 0.7071795391203024 0.05861873422695855 0.2341955363465826 0.9999224410267039 6.20939332829297e-12 6.808606774431871e-06 7.075036031213787e-05 2.270878642292023e-07 0.01830562542066631 0.9816941474914501 1.932251380725416e-14 0.6170124821957541 1.936420313199966e-11 0.3829875008272756 1.695760594966324e-08 0.9999167157809762 8.309691328829606e-05 1.712128258866811e-17 1.873057354209986e-07 2.727776844639183e-26 5.039818656458471e-39 0.4713783531648512 0.5286216468351489 0.3649945001557149 0.02286834917527519 4.454365304998578e-15 0.6121371506690054 0.0320452452575296 9.128749154650028e-37 0.967801549377353 0.0001532053651175328 0.0004994966609674583 4.04011335955514e-05 0.999447997487022 1.210471841506035e-05 1.31837954824723e-35 2.374445379326803e-05 0.6787404697801941 0.3212357857660127 0.03516736109090729 0.2571200829650128 0.4963900685475106 0.2113224873965695 0.01389936615977224 0.9832876529838681 4.270186733698483e-10 0.002812980429341164 2.62114831853381e-06 0.9999845063017693 1.285333939091573e-05 1.921052129021448e-08 0.001314838289896386 2.37706749750848e-08 0.9955327368408378 0.003152401098590755 0.03016336959586724 0.9698328332377961 3.797166336789082e-06 7.110652874133047e-42 0.9303738512675184 3.780979738440284e-07 5.204088197562055e-05 0.06957372975253212 0.000514743385083237 4.01436005957453e-07 0.01894394393600309 0.9805409112429078 0.9998851697477505 0.0001108155171036019 2.767239487511906e-06 1.247495658239869e-06 0.2649213958312502 0.7189432150204361 0.01613538914831368 4.001030372882989e-32 0.2876809103235666 1.465886798228317e-114 0.7123190705504431 1.912599028795895e-08 0.3616159561910794 0.2130171298275729 1.990225044534601e-05 0.4253470117309024 0.7193929341232377 1.47300163539675e-13 0.2806070654736248 4.029902690911534e-10 0.2759740598748157 0.1464407372768902 3.466133910336143e-27 0.5775852028482941 0.01822682493992734 0.0004755920494949218 0.9393990258356417 0.04189855717493605 0.05299485563386638 0.80356811397229 0.1131908491891088 0.03024618120473478 0.06615434404147227 0.0008421205438306323 9.821533354298272e-07 0.9330025532613616 0.5323383652143193 0.4645776673133026 8.26857250149698e-07 0.003083140615127624 6.551049550359602e-06 0.0002074329437877633 0.6613813631087669 0.3384046528978951 5.965682166540619e-16 5.709103200840543e-07 0.9999994290896794 3.621515824608647e-29 0.999610965377048 2.941584496889245e-05 1.255521837503818e-06 0.0003583632561456154 0.9145154873219558 0.08548381082734613 7.01850698256648e-07 1.281446520464095e-41 0.9363982340145039 0.009444203578198919 0.05375792696902738 0.0003996354382697701 0.2477061256191633 0.7509714513693803 0.001322423011456318 2.955247695106973e-29 1.266714084655704e-80 0.0001019586377789297 0.3647661201721389 0.6351319211900821 0.738578871335575 8.231842566500285e-12 0.2614201222386495 1.006417543743683e-06 4.654999541960562e-22 1.740245881273108e-75 0.5970241856664668 0.4029758143335332 0.9681817462013338 0.00459861458438457 0.0001011759294880919 0.02711846328479349 0.9831963412469789 5.728186914263351e-15 0.01680365872083161 3.218385928032242e-11 4.100043131263256e-05 0.9977047704219014 0.002254123613736662 1.055330493206948e-07 2.961778783085757e-06 1.697580330589346e-07 2.551174476326522e-96 0.9999968684631839 0.9411513642070891 0.007145999940469638 0.05170092982139184 1.706031049324231e-06 0.2294875539416911 3.230311340515284e-24 0.5406114675737386 0.2299009784845703 7.532897933766251e-05 2.089748578262957e-20 0.9999246710206623 1.205567445956723e-36 0.9959541804353403 0.003713985971807811 0.0003318323042192762 1.288632432545553e-09 1.560068855278863e-21 9.021822504603553e-14 4.074830430717844e-79 0.9999999999999097 3.105872281147797e-10 5.256330131446724e-13 0.928192657196558 0.07180734249232913 0.01953387071728273 1.796733002087152e-14 1.577519395731599e-06 0.9804645517633035 3.299069518611251e-07 0.9403154089900311 0.05534479681424157 0.004339464288775462 3.39037913337076e-06 4.862681640831613e-21 0.01503094999070029 0.9849656596301664 0.06151739889683315 7.018745102092838e-11 0.9042920330140251 0.03419056801895433 0.01927724677490232 2.659175382850944e-06 0.8855479012581867 0.09517219279152797 1 3.147556194913139e-20 2.43772456421277e-24 2.296957824179349e-34 0.989836008897381 2.220560024611593e-07 0.0003419196824472093 0.009821849364169456 0.142438436477714 0.00441745359222328 0.1635248502456746 0.6896192596843882 0.9547295602672405 6.650817503615956e-40 0.02097957754915896 0.02429086218360051 0.007037338313372571 0.9929626616866266 3.236609921414099e-18 9.246119968326178e-16 6.939143938636711e-11 0.9912384339193422 1.842560634324955e-05 0.008743140404923095 0.1247897066015126 0.01659207579051951 0.8585902574474106 2.796016055737785e-05 2.004200965470056e-11 5.412001549320697e-05 0.1207255336305995 0.8792203463338654 9.73015733886372e-11 0.4835621184771489 0.5164343411264047 3.540299144730972e-06 0.1130354244287815 0.0001106199602936057 0.8800873941523912 0.006766561458533551 0.0007960701819871189 0.01282217659541538 2.744898262616936e-06 0.9863790083243348 0.001142870929016393 0.247707105175538 1.871169744269757e-10 0.7511500237083286 1.928826378733355e-78 3.086382360272291e-05 0.9999691361763974 5.143401090363945e-21 0.3771557968251691 0.0007328942892553337 9.814790697186373e-15 0.6221113088855658 0.5398843096034383 0.1761396421611638 5.624449332930423e-25 0.283976048235398 3.611586969213183e-05 0.002257737969916327 9.537287402453419e-06 0.9976966088729892 0.866882024567724 0 0.133117975432276 1.749636488149804e-32 0.02820798221397853 1.257272757145189e-198 0.9717920177860214 1.225182681573794e-18 1.698502405698945e-14 0.7829710477682924 0.217026218758792 2.733472898501561e-06 0.3387717796395063 2.314268280124653e-15 0.4351218512665067 0.2261063690939848 0.01093977018010973 6.431000498149893e-07 0.9890595861016495 6.181910389831838e-10 2.269472393892033e-06 0.9433546487900487 0.05664308173755744 5.256367848088196e-19 2.569390805654978e-14 0.7411717851919311 0.2586990154915387 0.0001291993165043427 0.9999684531557862 5.230275606499091e-06 2.62590691412376e-05 5.749946604997727e-08 0.9368232410517489 4.481118212255574e-26 0.04453128929011964 0.01864546965813151 0.01080438294122173 0.9859490880320738 0.003246529026704515 3.571594609700283e-44 0.006361681219491295 0.1674519516776195 0.8261863588772821 8.22560692666795e-09 3.09530941428668e-07 0.03022393666588506 0.9697757538028317 3.418707508263171e-13 0.0003619407701045575 0.1149432670304309 0.8846947772027585 1.499670600531404e-08 8.082399412051202e-16 1.116640373233447e-81 0.03218499928520802 0.9678150007147911 1.5021584881343e-19 7.664883478781693e-19 0.1124205500462801 0.8875794499537198 0.08714607067108202 0.1642763365373471 0.0001036227898995408 0.7484739700016713 5.658459278375868e-37 0.9998509135331151 1.053214186924062e-05 0.0001385543250157016 3.074948651601242e-11 7.001093159578794e-06 1.132322134698834e-14 0.9999929988760795 5.038800700281247e-30 0.3107268529862262 1.210357734565396e-15 0.6892731470137726 2.058197278727481e-09 0.9999999979418026 3.567763823739565e-70 6.231640206008306e-35 0.05436037472685204 9.517661812771121e-28 0.8860327114829483 0.05960691379019973 0.3411769278365254 0.1799476801609278 0.007440945875861901 0.4714344461266849 7.303706428433652e-05 1.765482986375473e-16 0.9999269629357154 2.189599896970036e-28 0.0003649444727404975 0.001011620012193573 0.0001427594125902974 0.9984806761024756 0.03231791603358316 6.63147008005622e-10 0.7988893965685868 0.1687926867346831 0.826374815905274 0.1404920685829278 2.116845271440768e-16 0.03313311551179803 7.131559137217158e-07 0.9999942359936781 2.337587262330669e-16 5.050850407888244e-06 0.5694940711448083 0.1368514003444788 0.2936353269223853 1.920158832735474e-05 2.195114573336454e-19 0.1881502648573743 4.070268966541651e-06 0.8118456648736591 0.002341058124226823 1.404030933230599e-12 0.5558281009839208 0.4418308408904484 0.06505470148474062 1.857366830240169e-05 0.7409394335623367 0.1939872912846203 3.402558127042486e-38 2.355090269229159e-14 0.9999999999999765 1.53722767644424e-17 0.009280916883876777 4.82294599381588e-29 1.898773836451549e-05 0.9907000953777586 0.1071848335444624 0.003879142638522628 0.8646743808616043 0.02426164295541067 1.799568424651221e-07 0.9998933039735204 0.0001065160665655615 3.071576906356437e-12 3.538276699721981e-18 0.2720400617624861 0.7077548086935896 0.02020512954392428 6.377921002064617e-14 0.0986658385113736 0.9013341614885626 1.211193637665302e-34 0.297146141343495 